tree
version=v4
num_class=1
num_tree_per_iteration=1
label_index=0
max_feature_idx=55
objective=binary sigmoid:1
feature_names=ret logret vol20 buy_ratio sell_ratio ofi_norm interarrival_mean_s hod_sin hod_cos open high low close volume trades dollar buy_volume sell_volume signed_volume ma_9 ma_20 ma_50 price_ma9_ratio price_ma20_ratio price_ma50_ratio ma9_ma20_cross ma20_ma50_cross ma9_ma50_cross bb20_middle bb20_upper_1std bb20_upper_2std bb20_upper_3std bb20_lower_1std bb20_lower_2std bb20_lower_3std bb20_position bb20_touch_upper_1std bb20_touch_upper_2std bb20_touch_upper_3std bb20_touch_lower_1std bb20_touch_lower_2std bb20_touch_lower_3std bb50_middle bb50_upper_1std bb50_upper_2std bb50_upper_3std bb50_lower_1std bb50_lower_2std bb50_lower_3std bb50_position bb50_touch_upper_1std bb50_touch_upper_2std bb50_touch_upper_3std bb50_touch_lower_1std bb50_touch_lower_2std bb50_touch_lower_3std
feature_infos=[-26.830547332763672:425.85861206054688] [-27.156822204589844:265.19140625] [-1.1363615989685059:122.9798583984375] [-3.0454864501953125:2.2804329395294189] [-2.2804329395294189:3.0363030433654785] [-3.0363030433654785:2.2804329395294189] [0.0032416789326816797:4043.741455078125] [-1.1674762964248657:12.092979431152344] [-2.832852840423584:2.0129866600036621] [11.949999809265137:57.639999389648438] [11.989999771118164:57.639999389648438] [11.899999618530273:57.560001373291016] [11.949999809265137:57.639999389648438] [30300:11332400] [166:300] [377839:351943106] [0:928700] [0:1029000] [-469600:569100] [12.047778129577637:57.5433349609375] [12.161499977111816:57.532001495361328] [12.234999656677246:56.598201751708984] [-18.618068695068359:213.62034606933594] [-16.010965347290039:172.70848083496094] [-17.427576065063477:167.45405578613281] [-1.644294261932373:4.898979663848877] [-5.6862406730651855:5.6568541526794434] [-2.7741038799285889:5.0990195274353027] [12.161499977111816:57.532001495361328] [0:61.021289825439453] [0:70.938674926757812] [0:82.10333251953125] [0:57.494358062744141] [0:57.456718444824219] [-8.3661575317382812:57.419078826904297] [-2.9547686576843262:3.2868990898132324] [-0.94590532779693604:2.0678157806396484] [-0.5:7] [-0.5:14.106736183166504] [-1.5275251865386963:3.391165018081665] [-0.57735025882720947:14.106736183166504] [-0.5:5.4619898796081543] [12.234999656677246:56.598201751708984] [0:60.5985107421875] [0:70.278945922851562] [0:81.159011840820312] [0:55.614482879638672] [0:55.287799835205078] [-7.9658761024475098:55.161396026611328] [-4.8462224006652832:5.7285208702087402] [-0.94440031051635742:2.3804762363433838] [-0.5:4.898979663848877] [-0.5:14.106736183166504] [-1.5275251865386963:14.106736183166504] [-0.57735025882720947:14.106736183166504] [-0.5:14.106736183166504]
tree_sizes=2783 2759 2868 2659 3199 3401 3297

Tree=0
num_leaves=26
num_cat=0
split_feature=38 12 7 48 10 46 33 9 33 53 35 43 6 26 2 2 8 6 9 52 0 0 0 2 0
split_gain=107.449 88.6677 61.7742 64.5954 52.1067 51.1819 27.3595 19.2313 17.5595 54.0141 10.84 8.22153 7.31228 3.36632 1.63321 4.21457 1.48002 1.19256 1.08257 0.416349 1.42109e-14 1.42109e-14 1.42109e-14 1.42109e-14 7.10543e-15
threshold=-0.15149264782667157 12.47499990463257 -0.83063122630119313 30.525959968566898 32.565000534057624 12.417111396789553 30.958269119262699 12.315000057220461 31.03040981292725 -0.48038041591644282 0.1124483495950699 12.542772293090822 0.49139131605625158 -0.84935563802719105 -0.34382620453834528 -0.43597020208835596 -0.20592086017131803 1.3142100572586062 31.005000114440922 -0.20455208420753476 -0.085278376936912523 -0.069087553769350038 1.0000000180025095e-35 -0.13238166272640225 -0.090609908103942857
decision_type=2 2 2 2 2 2 2 2 2 2 2 2 2 2 2 2 2 2 2 2 2 2 2 2 2
left_child=1 11 4 5 -2 7 18 -4 9 10 -3 17 -8 -12 15 16 -5 -1 -7 -16 -6 -10 -21 -15 -18
right_child=2 8 3 14 20 6 12 -9 21 -11 13 -13 -14 23 19 -17 24 -19 -20 22 -22 -23 -24 -25 -26
leaf_value=0.51064833231756568 0.51192521253690892 0.49123717342754997 0.49362326272632262 0.51064833231756568 0.47447005943617426 0.48085446053289038 0.49149512902741727 0.5170327334142818 0.47447005943617426 0.50993895441793058 0.48298259423179579 0.49962073042323779 0.5089255574184518 0.47447005943617426 0.51445317741560859 0.50639206491975486 0.5170327334142818 0.5170327334142818 0.47447005943617426 0.5170327334142818 0.47447005943617426 0.47447005943617426 0.5170327334142818 0.47447005943617426 0.5170327334142818
leaf_weight=4.6989530324935931 5.8736912906169882 7.7532725036144248 4.698953032493594 4.6989530324935975 5.4037959873676291 4.6989530324935931 4.6989530324935895 13.861911445856093 8.223167806863783 8.4581154584884661 7.0484295487403896 5.1688483357429496 4.9339006841182709 8.4581154584884626 7.7532725036144248 6.5785342454910269 8.2231678068637866 7.7532725036144257 6.1086389422416687 25.844241678714752 4.6989530324935904 5.4037959873676291 6.5785342454910269 5.1688483357429496 7.7532725036144212
leaf_count=20 25 33 20 20 23 20 20 59 35 36 30 22 21 36 33 28 35 33 26 110 20 23 28 22 33
internal_value=0.500973 0.490908 0.506576 0.509328 0.48824 0.499085 0.488168 0.511106 0.48417 0.487754 0.481153 0.510223 0.500423 0.477372 0.515253 0.513364 0.515582 0.514624 0.477246 0.516535 0.47447 0.47447 0.517033 0.47447 0.517033
internal_weight=0 68.1348 122.408 106.431 15.9764 39.0013 20.4404 18.5609 50.5137 36.8868 28.4287 17.6211 9.63285 20.6754 67.43 27.2539 20.6754 12.4522 10.8076 40.176 10.1027 13.627 32.4228 13.627 15.9764
internal_count=811 290 521 453 68 166 87 79 215 157 121 75 41 88 287 116 88 53 46 171 43 58 138 58 68
is_linear=0
shrinkage=1


Tree=1
num_leaves=25
num_cat=0
split_feature=38 12 7 48 10 46 33 9 33 53 35 43 6 26 2 2 1 33 2 52 8 0 1 7
split_gain=105.202 86.5353 60.5658 63.6356 50.7238 50.11 26.5761 18.9377 16.9776 52.6322 10.4895 8.10146 7.16323 3.24617 1.61777 4.16446 1.47962 1.20123 1.08439 0.412738 1.46066e-05 1.42109e-14 7.10543e-15 7.10543e-15
threshold=-0.15149264782667157 12.47499990463257 -0.83063122630119313 30.525959968566898 32.565000534057624 12.417111396789553 30.958269119262699 12.315000057220461 31.03040981292725 -0.48038041591644282 0.1124483495950699 12.542772293090822 0.49139131605625158 -0.84935563802719105 -0.34382620453834528 -0.43597020208835596 0.18402025103569034 12.245925903320314 -0.34331087768077845 -0.20455208420753476 0.64244845509529125 -0.071161165833473192 -0.053570058196783059 -0.42301948368549341
decision_type=2 2 2 2 2 2 2 2 2 2 2 2 2 2 2 2 2 2 2 2 2 2 2 2
left_child=1 11 4 5 -2 7 18 -4 9 10 -3 17 -8 -12 15 16 20 -1 -7 -16 -5 -21 -23 -9
right_child=2 8 3 14 -6 6 12 23 -10 -11 13 -13 -14 -15 19 -17 -18 -19 -20 21 -22 22 -24 -25
leaf_value=0.0095625820850941436 0.010871997655604895 -0.0096158909721879102 -0.007263478112614412 0.015983892553503739 -0.026071621308126635 -0.019755557479168812 -0.0093617073944875836 0.015962872139841097 -0.026071621308126635 0.0088957863117105664 -0.017733333476470541 -0.0013386244133103643 0.0078882793310256268 -0.026071621308126635 0.013390061583265316 0.0053717605049304227 0.0095747068437309693 0.015981404469914581 -0.026127010290359319 0.0159628721398411 0.0159628721398411 0.0159628721398411 0.015962872139841093 0.015962872139841103
leaf_weight=4.6816931366920489 5.8577626943588283 7.7716438472270957 4.7073754668235805 4.6843245178461137 10.166982278227804 4.7267076075077057 4.7097945213317853 6.5522652864456186 13.713604003190992 8.4393689632415789 7.0790742337703731 5.1705618798732749 4.9242094159126282 13.713604003190992 7.727340191602706 6.5697477459907523 4.6835726946592322 7.7283272445201874 6.1425278186798113 14.742596894502638 11.232454776763914 7.7223126590251914 9.8283979296684283 7.2542937099933598
leaf_count=20 25 33 20 20 43 20 20 28 58 36 30 22 21 58 33 28 20 33 26 63 48 33 42 31
internal_value=0 -0.00994038 0.0055548 0.00828904 -0.0125671 -0.00186873 -0.0126377 0.0100573 -0.0165676 -0.0130454 -0.019528 0.00917815 -0.000544756 -0.0232328 0.0141876 0.0123044 0.0145153 0.0135599 -0.0233563 0.0154661 0.0159691 0.0159629 0.0159629 0.0159629
internal_weight=0 68.2979 122.233 106.208 16.0247 39.0172 20.5032 18.5139 50.7173 37.0037 28.5643 17.5806 9.634 20.7927 67.1907 27.1701 20.6004 12.41 10.8692 40.0206 15.9168 32.2933 17.5507 13.8066
internal_count=811 290 521 453 68 166 87 79 215 157 121 75 41 88 287 116 88 53 46 171 68 138 75 59
is_linear=0
shrinkage=0.01


Tree=2
num_leaves=26
num_cat=0
split_feature=38 12 7 48 10 46 33 9 33 53 35 43 6 26 2 2 44 8 24 52 0 31 0 0 0
split_gain=103.019 84.4782 59.3909 62.6935 49.4004 49.0685 25.8286 18.6506 16.4297 51.3024 10.1598 7.98389 7.01759 3.13485 1.603 4.11581 1.47946 1.19829 1.08044 0.40934 3.12167e-05 1.54507e-06 1.42109e-14 1.42109e-14 1.42109e-14
threshold=-0.15149264782667157 12.47499990463257 -0.83063122630119313 30.525959968566898 32.565000534057624 12.417111396789553 30.958269119262699 12.315000057220461 31.03040981292725 -0.48038041591644282 0.1124483495950699 12.542772293090822 0.49139131605625158 -0.84935563802719105 -0.34382620453834528 -0.43597020208835596 32.608299255371101 1.5660029053688052 0.45943245291709905 -0.20455208420753476 0.055846011266112335 32.592206954956062 -0.068565107882022844 0.058625653386116035 0.21070569753646853
decision_type=2 2 2 2 2 2 2 2 2 2 2 2 2 2 2 2 2 2 2 2 2 2 2 2 2
left_child=1 11 4 5 -2 7 18 -4 9 10 -3 17 -8 -12 15 16 20 -1 -7 -16 21 -5 -10 -15 -21
right_child=2 8 3 14 -6 6 12 -9 22 -11 13 -13 -14 23 19 -17 -18 -19 -20 24 -22 -23 -24 -25 -26
leaf_value=0.015894629713680858 0.010793079418485037 -0.0094978117637299474 -0.0071782449174658926 0.015875946049182008 -0.025658024556773917 -0.02575733594161235 -0.0092472961973643995 0.015868443463250774 -0.025658024556773917 0.0088266662283647598 -0.017483331788367418 -0.0013248028813121746 0.0078249498061062264 -0.025658024556773917 0.013301698247583213 0.0053252026652170804 0.0094755729112881125 0.0094731298593912182 -0.019414472409158227 0.015868443463250774 0.015902335428145613 0.01586840847369541 -0.025658024556773917 -0.02565802455677391 0.015868443463250774
leaf_weight=7.6995919197797793 5.8416686952114132 7.7894900143146506 4.7155958414077785 4.6625924110412651 10.227253139019011 6.175245940685274 4.7203314304351789 13.750113740563391 8.8001945614814741 8.4204964041709918 7.1083483099937466 5.1722537875175467 4.9144708961248398 7.8488221764564496 7.7010179311037055 6.5609595775604239 4.6679653227329245 4.6675915718078613 4.7521836757659912 27.034121930599213 4.6679835617542258 6.5254674553871155 4.9947050213813773 5.9460774064064026 5.1271610558032981
leaf_count=33 25 33 20 20 43 26 20 59 37 36 30 22 21 33 33 28 20 20 20 116 20 28 21 25 22
internal_value=0 -0.00981903 0.00550807 0.00822446 -0.0124067 -0.0018492 -0.012475 0.009983 -0.0163399 -0.0128764 -0.0192457 0.00910785 -0.000539172 -0.0228781 0.0140971 0.0122198 0.0144239 0.013471 -0.0229989 0.0153726 0.0158806 0.0158715 -0.025658 -0.025658 0.0158684
internal_weight=0 68.4476 122.044 105.975 16.0689 39.0279 20.5622 18.4657 50.9081 37.1132 28.6927 17.5394 9.6348 20.9032 66.9473 27.085 20.524 12.3672 10.9274 39.8623 15.856 11.1881 13.7949 13.7949 32.1613
internal_count=811 290 521 453 68 166 87 79 215 157 121 75 41 88 287 116 88 53 46 171 68 48 58 58 138
is_linear=0
shrinkage=0.01


Tree=3
num_leaves=24
num_cat=0
split_feature=38 12 7 48 10 46 33 9 33 53 35 43 6 26 2 2 16 7 16 52 8 48 0
split_gain=100.899 82.4928 58.2479 61.7687 48.1329 48.0562 25.1147 18.3699 15.9131 50.0219 9.84928 7.86878 6.87524 3.03156 1.58888 4.06857 1.4795 1.19812 1.0656 0.406147 3.05376e-05 5.28848e-06 1.42109e-14
threshold=-0.15149264782667157 12.47499990463257 -0.83063122630119313 30.525959968566898 32.565000534057624 12.417111396789553 30.958269119262699 12.315000057220461 31.03040981292725 -0.48038041591644282 0.1124483495950699 12.542772293090822 0.49139131605625158 -0.84935563802719105 -0.34382620453834528 -0.43597020208835596 115000.00000000001 -0.37350986897945399 81050.000000000015 -0.20455208420753476 0.78438648581504833 32.472986221313484 -0.085278376936912523
decision_type=2 2 2 2 2 2 2 2 2 2 2 2 2 2 2 2 2 2 2 2 2 2 2
left_child=1 11 4 5 -2 7 18 -4 9 10 -3 17 -8 -12 15 16 20 -1 -7 -16 -5 -22 -6
right_child=2 8 3 14 22 6 12 -9 -10 -11 13 -13 -14 -15 19 -17 -18 -19 -20 -21 21 -23 -24
leaf_value=0.0093798963192420013 0.010715109003468839 -0.0093818516763117948 -0.0070943323503787027 0.015811656326380458 -0.025261380359560492 -0.019103080584479227 -0.0091349079115369668 0.015776055875915199 -0.025261380359560503 0.0087582527276959567 -0.017240391831318282 -0.0013111292816657381 0.0077622292541535045 -0.025261380359560503 0.013214721415857403 0.0052790567251952804 0.0093776312561366475 0.015811894678104642 -0.025386674538496107 0.015776055875915199 0.015790769103388686 0.015776023248091665 -0.02526138035956051
leaf_weight=4.6525431275367746 5.8254167437553432 7.8068228065967551 4.7236183285713222 6.0438532233238282 5.5005672723054895 4.7749228179454821 4.7305706143379194 13.692618757486342 13.870995730161665 8.4015042185783404 7.1362870931625393 5.1739247143268576 4.9046885669231415 13.870995730161665 7.6743219494819632 6.552171826362609 4.6521458327770224 7.671160265803338 6.207336351275444 32.026803195476532 4.6447034478187543 5.1057145595550537 4.7831019759178135
leaf_count=20 25 33 20 26 23 20 20 59 58 36 30 22 21 58 33 28 20 33 26 138 20 22 20
internal_value=0 -0.00970108 0.00546233 0.00816112 -0.0122515 -0.00183013 -0.0123168 0.00990998 -0.0161196 -0.0127122 -0.0189725 0.0090385 -0.000533666 -0.0225366 0.0140082 0.0121366 0.0143341 0.0133836 -0.0226547 0.0152809 0.015794 0.015783 -0.0252614
internal_weight=0 68.5842 121.843 105.733 16.1091 39.0338 20.6175 18.4162 51.0866 37.2156 28.8141 17.4976 9.63526 21.0073 66.6997 26.9986 20.4464 12.3237 10.9823 39.7011 15.7943 9.75042 10.2837
internal_count=811 290 521 453 68 166 87 79 215 157 121 75 41 88 287 116 88 53 46 171 68 42 43
is_linear=0
shrinkage=0.01


Tree=4
num_leaves=29
num_cat=0
split_feature=38 12 7 48 46 10 33 9 33 53 35 16 43 26 0 49 15 7 19 16 52 36 2 0 2 0 0 0
split_gain=98.8394 80.5753 57.1356 60.8609 47.0719 46.9177 24.5085 18.0954 15.4254 48.788 9.55654 8.56934 7.75605 2.93561 1.58787 4.61625 1.31549 2.14155 1.19934 0.189679 0.000461455 0.000192198 0.000108378 1.42109e-14 1.42109e-14 7.10543e-15 7.10543e-15 7.10543e-15
threshold=-0.15149264782667157 12.47499990463257 -0.83063122630119313 30.525959968566898 12.417111396789553 32.565000534057624 30.937005043029789 12.315000057220461 31.03040981292725 -0.48038041591644282 0.1124483495950699 69400.000000000015 12.542772293090822 -0.84935563802719105 0.18761678785085681 0.31629537045955664 3335974.5000000005 -0.52342650294303883 12.293928623199465 144750.00000000003 -0.20455208420753476 -0.66921657323837269 -0.34382620453834528 -0.068565107882022844 -0.12134688347578047 -0.085278376936912523 -0.30765081942081446 -0.061822058632969849
decision_type=2 2 2 2 2 2 2 2 2 2 2 2 2 2 2 2 2 2 2 2 2 2 2 2 2 2 2 2
left_child=1 12 5 4 7 -2 -6 -4 9 10 -3 -8 18 -12 16 -16 17 -5 -1 20 21 -18 -22 -10 -15 -7 -24 -28
right_child=2 8 3 14 6 25 11 -9 23 -11 13 -13 -14 24 15 -17 19 -19 -20 -21 22 -23 26 -25 -26 -27 27 -29
leaf_value=0.0092853914203209226 0.010638060170881933 -0.0092679518675978685 -0.0070117081628911027 0.015704175254799412 -0.025013448041154841 -0.024880685927134678 0.0075979812195176846 0.015685646521475506 -0.024880685927134688 0.0086905305948675304 -0.017004190612944614 -0.0096976781661915409 -0.0012976022683135638 -0.024880685927134688 0.0028329099158754022 0.015716896835867172 0.015726077257123799 0.0074932894145569931 0.015731915516618705 0.013573546430833795 0.015737969904949078 0.015808759248821878 0.015685646521475506 -0.024880685927134688 -0.024880685927134688 -0.024880685927134695 0.015685646521475506 0.01568564652147544
leaf_weight=4.636944845318796 5.8090150356292751 7.8236535340547553 4.7314473986625698 6.7073274850845337 8.638436436653139 5.5287390649318704 4.703621953725813 13.634118005633352 8.8940584957599622 8.3824004530906695 7.1629254519939449 7.3271224796772003 5.1755746603012076 9.1344384551048261 4.639082655310629 6.9428579658269882 5.0935878157615662 6.0341884195804578 7.6426704227924347 4.6319142132997504 4.8644437789916948 6.2748727202415377 4.621734917163848 5.0479791462421408 4.8075991868972769 4.8075991868972752 12.016510784626007 4.6217349171638675
leaf_count=20 25 33 20 29 36 23 20 59 37 36 30 31 22 38 20 30 22 26 33 20 21 27 20 21 20 20 52 20
internal_value=0 -0.00958637 0.00541754 0.00809898 -0.00181148 -0.0121012 -0.0121628 0.00983822 -0.0159061 -0.0125526 -0.018708 -0.00293565 0.00897005 -0.0222074 0.0139208 0.0105563 0.0146311 0.0118156 0.0132976 0.0154827 0.0157185 0.0157717 0.0156954 -0.0248807 -0.0248807 -0.0248807 0.0156856 0.0156856
internal_weight=0 68.7082 121.628 105.483 39.0347 16.1454 20.6692 18.3656 51.2531 37.311 28.9286 12.0307 17.4552 21.105 66.4483 11.5819 54.8663 12.7415 12.2796 42.1248 37.4929 11.3685 26.1244 13.942 13.942 10.3363 21.26 16.6382
internal_count=811 290 521 453 166 68 87 79 215 157 121 51 75 88 287 50 237 55 53 182 162 49 113 58 58 43 92 72
is_linear=0
shrinkage=0.01


Tree=5
num_leaves=31
num_cat=0
split_feature=38 12 7 48 46 10 33 9 33 53 35 43 6 26 2 2 48 50 22 52 0 44 26 24 19 16 15 0 2 0
split_gain=96.8362 78.7223 56.052 59.9696 46.1123 45.7518 23.8857 17.8268 14.9645 47.5984 9.28025 7.64561 6.70068 2.84637 1.576 4.02726 1.4783 1.19949 1.02679 0.401671 6.01907e-05 2.14295e-05 5.42553e-06 1.71344e-06 3.94976e-07 1.01179e-07 2.38359e-10 1.42109e-14 1.42109e-14 7.10543e-15
threshold=-0.15149264782667157 12.47499990463257 -0.83063122630119313 30.525959968566898 12.417111396789553 32.565000534057624 30.958269119262699 12.315000057220461 31.03040981292725 -0.48038041591644282 0.1124483495950699 12.542772293090822 0.49139131605625158 -0.84935563802719105 -0.34382620453834528 -0.43597020208835596 30.988467216491703 -0.55723169445991505 -0.1614999324083328 -0.20455208420753476 0.0469468291848898 31.113933563232425 -1.5666104555130003 -0.46915528178215021 31.02611064910889 117150.00000000001 4466698.5000000009 -0.071345966309308992 -0.12134688347578047 -0.022361827082931992
decision_type=2 2 2 2 2 2 2 2 2 2 2 2 2 2 2 2 2 2 2 2 2 2 2 2 2 2 2 2 2 2
left_child=1 11 5 4 7 -2 18 -4 9 10 -3 17 -8 -12 15 16 -5 -1 -6 -16 22 -21 -18 -23 -25 26 -26 -10 -15 -9
right_child=2 8 3 14 6 -7 12 29 27 -11 13 -13 -14 28 19 -17 20 -19 -20 21 -22 23 -24 24 25 -27 -28 -29 -30 -31
leaf_value=0.01565247166204391 0.010561910527378296 -0.0091560502470853754 -0.0069303438404028483 0.0091919785638258488 -0.018555014471417591 -0.024515011473250223 -0.008970243323243924 0.015597159879170966 -0.024515011473250223 0.0086234849192853135 -0.016774430413234561 -0.0012842196708325298 0.0077054205794404767 -0.024515011473250223 0.013046326241335844 0.0051298930322184032 0.015607185875891619 0.0091941902997280407 -0.024696889329720011 0.015622779965063711 0.015657471768071085 0.015605015306585346 0.015621427461635456 0.015600710272065001 0.015597070546357244 0.01559885729156445 0.015597159879170968 -0.024515011473250223 -0.024515011473250223 0.015597159879170975
leaf_weight=7.6133967041969308 5.7924713939428356 7.8399944901466361 4.7390872240066555 4.6210741996765199 4.8131956607103348 10.385362029075621 4.7453049719333631 8.5129167586565018 8.2116816043853742 8.3631926178932208 7.1882964670658138 5.1772039532661429 4.8956044912338257 9.1777617931365949 7.620336487889289 6.5232053101062766 4.834061652421954 4.621553748846055 6.264836251735689 4.6074319779872921 4.8460023552179328 4.603368595242503 5.989292666316028 5.2927532047033337 4.8316336423158663 4.6019693464040747 7.82268026471138 5.7964811325073233 4.8304009437561026 5.0617342889308903
leaf_count=33 25 33 20 20 20 43 20 37 34 36 30 22 21 38 33 28 21 20 26 20 21 20 26 23 21 20 34 24 20 22
internal_value=0 -0.00947476 0.00537357 0.00803783 -0.00179317 -0.0119557 -0.0120119 0.00976767 -0.0156992 -0.0123973 -0.0184517 0.00890247 -0.000502427 -0.02189 0.0138349 0.0119649 0.0141624 0.013213 -0.0220284 0.0151081 0.0156282 0.0156028 0.0156151 0.0155995 0.0155983 0.0155976 0.0155971 -0.024515 -0.024515 0.0155972
internal_weight=0 68.82 121.404 105.226 39.0327 16.1778 20.7189 18.3137 51.4078 37.3996 29.0365 17.4122 9.64091 21.1965 66.1938 26.8136 20.2904 12.235 11.078 39.3802 15.6694 31.7598 10.8234 27.1524 22.549 17.2563 12.6543 14.0082 14.0082 13.5747
internal_count=811 290 521 453 166 68 87 79 215 157 121 75 41 88 287 116 88 53 46 171 68 138 47 118 98 75 55 58 58 59
is_linear=0
shrinkage=0.01


Tree=6
num_leaves=30
num_cat=0
split_feature=38 12 7 48 46 10 33 9 33 53 35 16 43 26 0 9 15 7 2 16 2 2 52 21 24 48 0 0 0
split_gain=94.8886 76.9308 54.9974 59.0944 45.1803 44.6322 23.2983 17.564 14.5285 46.4507 9.01921 8.32947 7.5374 2.76328 1.5785 4.58265 1.30767 2.11543 1.19851 0.189188 0.000663134 0.00121862 0.000188326 8.73257e-11 3.85398e-11 1.19726e-12 1.42109e-14 1.42109e-14 7.10543e-15
threshold=-0.15149264782667157 12.47499990463257 -0.83063122630119313 30.525959968566898 12.417111396789553 32.565000534057624 30.937005043029789 12.315000057220461 31.03040981292725 -0.48038041591644282 0.1124483495950699 69400.000000000015 12.542772293090822 -0.84935563802719105 0.18761678785085681 32.395000457763679 3335974.5000000005 -0.52342650294303883 0.45771698653697973 144750.00000000003 -0.34382620453834528 -0.45290096104145044 -0.20455208420753476 31.017899513244632 -0.4646437913179397 30.880606651306156 -0.068565107882022844 0.058625653386116035 -0.073968335986137376
decision_type=2 2 2 2 2 2 2 2 2 2 2 2 2 2 2 2 2 2 2 2 2 2 2 2 2 2 2 2 2
left_child=1 12 5 4 7 -2 -6 -4 9 10 -3 -8 18 -12 16 -16 17 -5 -1 20 21 -18 -22 -24 -25 -26 -10 -15 -9
right_child=2 8 3 14 6 -7 11 28 26 -11 13 -13 -14 27 15 -17 19 -19 -20 -21 22 -23 23 24 25 -27 -28 -29 -30
leaf_value=0.015573485629040113 0.010486637570177409 -0.0090460939052993249 -0.00685021075547674 0.015530454470155065 -0.024319555040648234 -0.024163502745695942 0.0075488711182280857 0.015510538304375885 -0.024163502745695942 0.0085571030257426094 -0.016550827352101997 -0.0095005697438365205 -0.0012709806519832761 -0.024163502745695942 0.015553140751383086 0.002677365398463531 0.015530071647228388 0.0073417345298862546 0.009106438405563605 0.013400918287670472 0.015581151651377677 0.015739880544422231 0.015510475668040398 0.01551050036866995 0.015510530488616158 0.015510537009934225 -0.024163502745695942 -0.024163502745695942 0.015510538304375893
leaf_weight=7.5832813084125537 5.7757928967475918 7.8558569848537436 4.7465416789054897 6.6492596715688705 8.7160506993532199 10.43084181845188 4.6953599005937559 4.5811051130294809 8.9753755182027799 8.343886613845827 7.2124336659908321 7.3526354730129242 5.1788129210472098 8.0050646513700467 6.8866705596446973 4.6176604926586151 6.8785963356494904 6.0028014779090864 4.6064493954181671 4.5964573770761481 4.5978491306304887 4.6328634321689517 4.5810901224613358 4.5810961425304422 4.5811034440994263 7.3297677934169769 5.0941320508718482 6.0644429177045813 8.9331549704074824
leaf_count=33 25 33 20 29 36 43 20 20 37 36 30 31 22 33 30 20 30 26 20 20 20 20 20 20 20 32 21 25 39
internal_value=0 -0.00936611 0.00533057 0.00797793 -0.00177531 -0.0118147 -0.0118657 0.00969829 -0.0154987 -0.0122461 -0.0182033 -0.00285604 0.00883576 -0.0215836 0.0137506 0.010385 0.0144619 0.0116453 0.0131296 0.0153148 0.0155514 0.0156145 0.0155232 0.0155105 0.0155105 0.0155105 -0.0241635 -0.0241635 0.0155105
internal_weight=0 68.9197 121.167 104.96 39.0248 16.2066 20.764 18.2608 51.5512 37.4817 29.1378 12.048 17.3685 21.2819 65.9352 11.5043 54.4309 12.6521 12.1897 41.7788 37.1824 11.5115 25.6709 21.0731 16.492 11.9109 14.0695 14.0695 13.5143
internal_count=811 290 521 453 166 68 87 79 215 157 121 51 75 88 287 50 237 55 53 182 162 50 112 92 72 52 58 58 59
is_linear=0
shrinkage=0.01


end of trees

feature_importances:
ret=22
vol20=18
bb20_lower_2std=15
hod_sin=11
bb50_lower_3std=10
open=9
ma20_ma50_cross=8
high=7
close=7
buy_volume=7
bb20_position=7
bb20_touch_upper_3std=7
bb50_upper_1std=7
bb50_lower_1std=7
bb50_touch_upper_3std=7
bb50_touch_lower_1std=7
interarrival_mean_s=6
hod_cos=4
dollar=3
price_ma50_ratio=3
logret=2
ma_9=2
bb50_upper_2std=2
ma_50=1
price_ma9_ratio=1
bb20_upper_3std=1
bb20_touch_upper_1std=1
bb50_position=1
bb50_touch_upper_1std=1

parameters:
[boosting: gbdt]
[objective: binary]
[metric: binary_logloss,auc]
[tree_learner: serial]
[device_type: cpu]
[data_sample_strategy: bagging]
[data: ]
[valid: ]
[num_iterations: 1000]
[learning_rate: 0.01]
[num_leaves: 31]
[num_threads: 0]
[seed: 0]
[deterministic: 0]
[force_col_wise: 1]
[force_row_wise: 0]
[histogram_pool_size: -1]
[max_depth: -1]
[min_data_in_leaf: 20]
[min_sum_hessian_in_leaf: 0.001]
[bagging_fraction: 1]
[pos_bagging_fraction: 1]
[neg_bagging_fraction: 1]
[bagging_freq: 0]
[bagging_seed: 3]
[feature_fraction: 1]
[feature_fraction_bynode: 1]
[feature_fraction_seed: 2]
[extra_trees: 0]
[extra_seed: 6]
[early_stopping_round: 0]
[early_stopping_min_delta: 0]
[first_metric_only: 0]
[max_delta_step: 0]
[lambda_l1: 0]
[lambda_l2: 0]
[linear_lambda: 0]
[min_gain_to_split: 0]
[drop_rate: 0.1]
[max_drop: 50]
[skip_drop: 0.5]
[xgboost_dart_mode: 0]
[uniform_drop: 0]
[drop_seed: 4]
[top_rate: 0.2]
[other_rate: 0.1]
[min_data_per_group: 100]
[max_cat_threshold: 32]
[cat_l2: 10]
[cat_smooth: 10]
[max_cat_to_onehot: 4]
[top_k: 20]
[monotone_constraints: ]
[monotone_constraints_method: basic]
[monotone_penalty: 0]
[feature_contri: ]
[forcedsplits_filename: ]
[refit_decay_rate: 0.9]
[cegb_tradeoff: 1]
[cegb_penalty_split: 0]
[cegb_penalty_feature_lazy: ]
[cegb_penalty_feature_coupled: ]
[path_smooth: 0]
[interaction_constraints: ]
[verbosity: -1]
[saved_feature_importance_type: 0]
[use_quantized_grad: 0]
[num_grad_quant_bins: 4]
[quant_train_renew_leaf: 0]
[stochastic_rounding: 1]
[linear_tree: 0]
[max_bin: 255]
[max_bin_by_feature: ]
[min_data_in_bin: 3]
[bin_construct_sample_cnt: 200000]
[data_random_seed: 1]
[is_enable_sparse: 1]
[enable_bundle: 1]
[use_missing: 1]
[zero_as_missing: 0]
[feature_pre_filter: 0]
[pre_partition: 0]
[two_round: 0]
[header: 0]
[label_column: ]
[weight_column: ]
[group_column: ]
[ignore_column: ]
[categorical_feature: ]
[forcedbins_filename: ]
[precise_float_parser: 0]
[parser_config_file: ]
[objective_seed: 5]
[num_class: 1]
[is_unbalance: 0]
[scale_pos_weight: 1]
[sigmoid: 1]
[boost_from_average: 1]
[reg_sqrt: 0]
[alpha: 0.9]
[fair_c: 1]
[poisson_max_delta_step: 0.7]
[tweedie_variance_power: 1.5]
[lambdarank_truncation_level: 30]
[lambdarank_norm: 1]
[label_gain: ]
[lambdarank_position_bias_regularization: 0]
[eval_at: ]
[multi_error_top_k: 1]
[auc_mu_weights: ]
[num_machines: 1]
[local_listen_port: 12400]
[time_out: 120]
[machine_list_filename: ]
[machines: ]
[gpu_platform_id: -1]
[gpu_device_id: -1]
[gpu_use_dp: 0]
[num_gpu: 1]

end of parameters

pandas_categorical:[]
