tree
version=v4
num_class=1
num_tree_per_iteration=1
label_index=0
max_feature_idx=18
objective=binary sigmoid:1
feature_names=ret logret vol20 buy_ratio sell_ratio ofi_norm interarrival_mean_s hod_sin hod_cos open high low close volume trades dollar buy_volume sell_volume signed_volume
feature_infos=[-24.620981216430664:444.83590698242188] [-24.906713485717773:336.23092651367188] [-1.5737930536270142:214.3826904296875] [-3.1093764305114746:2.3548243045806885] [-2.6820108890533447:3.1093764305114746] [-3.1093764305114746:2.3884158134460449] [0.0025274974759668112:6075.62451171875] [-1.5905284881591797:12.133391380310059] [-3.0216870307922363:1.9397680759429932] [11.960000038146973:22.309999465942383] [11.989999771118164:22.329999923706055] [11.899999618530273:22.280000686645508] [11.960000038146973:22.309999465942383] [20200:9954500] [99:200] [252698:215221013] [0:834800] [0:728900] [-714800:603300]
tree_sizes=2909

Tree=0
num_leaves=27
num_cat=0
split_feature=11 8 7 2 9 2 2 10 12 2 2 7 10 10 2 7 11 2 7 0 8 2 15 18 6 4
split_gain=37.6828 26.667 23.8349 37.8512 21.152 18.2323 14.9614 26.6138 15.823 11.6441 10.8468 15.6038 10.9035 15.6465 19.0547 12.3885 9.85948 9.13707 8.4459 6.73308 5.54848 8.16406 3.25863 1.01496 0.995617 0.162652
threshold=12.47499990463257 0.80334174633026134 -0.69145107269287098 0.87076640129089367 12.339999675750734 0.87076640129089367 0.097317531704902663 22.144999504089359 22.054999351501468 -0.27737261354923243 -0.48282217979431147 -0.8015751540660857 21.615000724792484 21.154999732971195 -0.1854862496256828 0.1714362055063248 12.444999694824221 3.3352833986282353 -0.74633169174194325 0.029121875762939457 1.2082283496856692 -0.3429246842861175 1188141.0000000002 -69049.999999999985 1.4553411006927492 -0.85407796502113331
decision_type=2 2 2 2 2 2 2 2 2 2 2 2 2 2 2 2 2 2 2 2 2 2 2 2 2 2
left_child=2 5 -1 4 24 6 7 8 10 20 18 -12 13 14 -13 19 -6 -7 -2 -14 22 -22 -3 -24 -4 -25
right_child=1 9 3 -5 16 17 -8 -9 -10 -11 11 12 15 -15 -16 -17 -18 -19 -20 -21 21 -23 23 25 -26 -27
leaf_value=-0.4387011385710835 -0.45826457362200529 -0.58268802054586766 -0.6366831012864117 -0.42070277832423553 -0.48615136104004647 -0.63668310128641181 -0.46569867894135553 -0.63114514428738155 -0.46947252867053335 -0.52869293980532361 -0.62923550394288852 -0.49269621931162755 -0.4412723328920618 -0.62971599409408352 -0.60184756532477024 -0.58268802054586766 -0.57368884042244372 -0.55029097210154121 -0.5483275146200669 -0.52038600430677839 -0.55029097210154121 -0.62804388836792469 -0.60968556091613968 -0.62588408513830285 -0.60428605284208536 -0.63668310128641181
leaf_weight=8.3340927958488447 5.324559286236763 4.6300515532493618 4.8615541309118324 5.787564441561698 7.6395850628614408 9.0286005288362485 5.5560618638992301 9.0286005288362485 7.1765799075365058 5.0930567085742942 6.7135747522115627 9.028600528836245 4.8615541309118253 7.1765799075365058 7.1765799075365306 4.6300515532493582 5.556061863899231 4.6300515532493582 5.0930567085742862 6.0190670192241669 8.1025902181863767 5.787564441561698 5.5560618638992336 4.6300515532493653 4.6300515532493591 14.12165723741054
leaf_count=36 23 20 21 25 33 39 24 39 31 22 29 39 21 31 31 20 24 20 22 26 35 25 24 20 20 61
internal_value=-0.558067 -0.569952 -0.513072 -0.534839 -0.563955 -0.554118 -0.544763 -0.550845 -0.539373 -0.600165 -0.548328 -0.558842 -0.546691 -0.568254 -0.541035 -0.514187 -0.523009 -0.607398 -0.502295 -0.485037 -0.608664 -0.582688 -0.621133 -0.628455 -0.62088 -0.634017
internal_weight=0 139.365 36.8089 28.4748 22.6873 91.4435 77.7849 72.2288 63.2002 47.921 56.0236 45.606 38.8924 23.3818 16.2052 15.5107 13.1956 13.6587 10.4176 10.8806 42.828 13.8902 28.9378 24.3078 9.49161 18.7517
internal_count=761 602 159 123 98 395 336 312 273 207 242 197 168 101 70 67 57 59 45 47 185 60 125 105 41 81
is_linear=0
shrinkage=1


end of trees

feature_importances:
vol20=8
hod_sin=4
high=3
hod_cos=2
low=2
ret=1
sell_ratio=1
interarrival_mean_s=1
open=1
close=1
dollar=1
signed_volume=1

parameters:
[boosting: gbdt]
[objective: binary]
[metric: binary_logloss,auc]
[tree_learner: serial]
[device_type: cpu]
[data_sample_strategy: bagging]
[data: ]
[valid: ]
[num_iterations: 500]
[learning_rate: 0.05]
[num_leaves: 63]
[num_threads: 0]
[seed: 0]
[deterministic: 0]
[force_col_wise: 0]
[force_row_wise: 0]
[histogram_pool_size: -1]
[max_depth: -1]
[min_data_in_leaf: 20]
[min_sum_hessian_in_leaf: 0.001]
[bagging_fraction: 1]
[pos_bagging_fraction: 1]
[neg_bagging_fraction: 1]
[bagging_freq: 0]
[bagging_seed: 3]
[feature_fraction: 1]
[feature_fraction_bynode: 1]
[feature_fraction_seed: 2]
[extra_trees: 0]
[extra_seed: 6]
[early_stopping_round: 0]
[early_stopping_min_delta: 0]
[first_metric_only: 0]
[max_delta_step: 0]
[lambda_l1: 0]
[lambda_l2: 0]
[linear_lambda: 0]
[min_gain_to_split: 0]
[drop_rate: 0.1]
[max_drop: 50]
[skip_drop: 0.5]
[xgboost_dart_mode: 0]
[uniform_drop: 0]
[drop_seed: 4]
[top_rate: 0.2]
[other_rate: 0.1]
[min_data_per_group: 100]
[max_cat_threshold: 32]
[cat_l2: 10]
[cat_smooth: 10]
[max_cat_to_onehot: 4]
[top_k: 20]
[monotone_constraints: ]
[monotone_constraints_method: basic]
[monotone_penalty: 0]
[feature_contri: ]
[forcedsplits_filename: ]
[refit_decay_rate: 0.9]
[cegb_tradeoff: 1]
[cegb_penalty_split: 0]
[cegb_penalty_feature_lazy: ]
[cegb_penalty_feature_coupled: ]
[path_smooth: 0]
[interaction_constraints: ]
[verbosity: -1]
[saved_feature_importance_type: 0]
[use_quantized_grad: 0]
[num_grad_quant_bins: 4]
[quant_train_renew_leaf: 0]
[stochastic_rounding: 1]
[linear_tree: 0]
[max_bin: 255]
[max_bin_by_feature: ]
[min_data_in_bin: 3]
[bin_construct_sample_cnt: 200000]
[data_random_seed: 1]
[is_enable_sparse: 1]
[enable_bundle: 1]
[use_missing: 1]
[zero_as_missing: 0]
[feature_pre_filter: 0]
[pre_partition: 0]
[two_round: 0]
[header: 0]
[label_column: ]
[weight_column: ]
[group_column: ]
[ignore_column: ]
[categorical_feature: ]
[forcedbins_filename: ]
[precise_float_parser: 0]
[parser_config_file: ]
[objective_seed: 5]
[num_class: 1]
[is_unbalance: 0]
[scale_pos_weight: 1]
[sigmoid: 1]
[boost_from_average: 1]
[reg_sqrt: 0]
[alpha: 0.9]
[fair_c: 1]
[poisson_max_delta_step: 0.7]
[tweedie_variance_power: 1.5]
[lambdarank_truncation_level: 30]
[lambdarank_norm: 1]
[label_gain: ]
[lambdarank_position_bias_regularization: 0]
[eval_at: ]
[multi_error_top_k: 1]
[auc_mu_weights: ]
[num_machines: 1]
[local_listen_port: 12400]
[time_out: 120]
[machine_list_filename: ]
[machines: ]
[gpu_platform_id: -1]
[gpu_device_id: -1]
[gpu_use_dp: 0]
[num_gpu: 1]

end of parameters

pandas_categorical:[]
