tree
version=v4
num_class=1
num_tree_per_iteration=1
label_index=0
max_feature_idx=18
objective=binary sigmoid:1
feature_names=ret logret vol20 buy_ratio sell_ratio ofi_norm interarrival_mean_s hod_sin hod_cos open high low close volume trades dollar buy_volume sell_volume signed_volume
feature_infos=[-49.752925872802734:71.051200866699219] [-50.496623992919922:69.657485961914062] [-5.061042308807373:67.879081726074219] [-5.2307744026184082:2.457754373550415] [-2.4432892799377441:5.2307744026184082] [-5.2307744026184082:2.4432892799377441] [0.00086333333333333336:134295.89513488888] [-2.7293462753295898:34.030010223388672] [-37.371109008789062:13.247756004333496] [11.899999618530273:12.609999656677246] [11.899999618530273:12.609999656677246] [11.899999618530273:12.609999656677246] [11.899999618530273:12.609999656677246] [1000:1521100] [10:10] [11900:19028957] [0:233900] [0:400000] [-400000:233800]
tree_sizes=6577 6708 6692 6705 6692 6713 6707 6717 6725 6714 6707 6720 6708 6735 6724 6720 6721 6700 6723 6711 6734 6739 6756

Tree=0
num_leaves=63
num_cat=0
split_feature=0 12 0 2 12 11 9 18 8 2 18 4 12 7 12 4 1 8 7 4 13 3 0 16 11 1 12 18 18 2 13 0 0 0 8 9 12 0 2 6 2 7 2 7 12 8 7 6 9 6 8 9 16 2 1 7 0 6 2 2 13 8
split_gain=231.121 160.733 51.2429 43.3226 39.8485 38.605 27.4697 27.0038 24.9098 21.7113 19.2388 16.9875 15.1524 19.8483 19.6387 17.5837 14.3493 13.6524 18.6617 13.5911 13.9131 15.7107 13.3853 12.176 11.3748 11.0024 15.2275 10.7172 10.2878 10.093 10.0863 10.0427 10.0409 12.2455 14.3413 11.2921 9.74207 13.157 9.60706 9.47971 8.83409 18.8461 13.6038 8.82589 8.62968 23.3341 13.8326 11.0141 12.18 8.88691 8.00499 11.1048 7.9304 7.75015 7.64669 9.07994 17.8101 7.40115 7.32025 7.26642 7.01505 6.80593
threshold=-0.095511730760335908 12.055000305175783 1.3314223289489748 -1.4517565965652464 12.494999885559084 12.265000343322756 12.34999990463257 31050.000000000004 2.2348337173461919 -0.3205199241638183 -2949.9999999999995 -1.1783302426338194 12.305000305175783 1.7105132937431338 12.265000343322756 -1.3797905445098875 0.4283264428377152 1.6558832526206972 -0.14893712103366849 -1.0558778643608091 1450.0000000000002 0.50265341997146618 0.016938659362494949 1450.0000000000002 12.494999885559084 0.056710168719291694 12.465000152587892 650.00000000000011 -5249.9999999999991 -0.85272473096847523 1150.0000000000002 -0.00027336218045093114 -1.6431699395179746 -1.5183009505271909 1.7534981369972231 12.454999923706056 12.50500011444092 -0.054906414821743958 1.4408832788467409 0.011449944444444445 0.021840143948793415 1.8196707367897036 1.218612849712372 1.5717353224754336 12.47499990463257 1.3402256369590761 2.0361927747726445 1.146906666666667 12.484999656677248 2.4124178333333339 1.5510789752006533 12.47499990463257 2550.0000000000005 0.57544177770614635 -1.0000000180025095e-35 -1.0573720932006834 -0.026905360631644722 1.7764580000000001 -1.0332037210464475 0.17414065450429919 34850.000000000007 1.3043514490127566
decision_type=2 2 2 2 2 2 2 2 2 2 2 2 2 2 2 2 2 2 2 2 2 2 2 2 2 2 2 2 2 2 2 2 2 2 2 2 2 2 2 2 2 2 2 2 2 2 2 2 2 2 2 2 2 2 2 2 2 2 2 2 2 2
left_child=5 16 3 11 6 9 12 61 30 23 38 -3 13 14 17 -15 -2 18 -5 25 21 -21 -19 -1 32 26 -8 53 -17 50 58 -30 52 -34 35 -35 -10 -38 60 -16 41 -28 -42 -13 45 -31 47 -46 -49 -47 -22 -52 -12 -26 55 -41 -57 -36 -6 -39 -7 -4
right_child=1 2 7 4 8 10 19 -9 36 -11 24 43 -14 15 39 28 -18 22 -20 20 29 -23 -24 -25 27 -27 40 -29 31 44 -32 -33 33 34 57 -37 37 59 -40 54 42 -43 -44 -45 46 49 -48 48 -50 -51 51 -53 -54 -55 -56 56 -58 -59 -60 -61 -62 -63
leaf_value=-0.99017147701126684 -0.8532015626720425 -0.98176980786247492 -1.0103354829683675 -1.07254078239158 -1.0045743384091959 -1.0083750935003162 -0.89066292728801399 -0.94543983161218148 -0.9315998406596887 -0.8601045557024013 -0.86592279268513228 -1.0660438477747718 -1.0499865258576302 -1.053224003575534 -0.97186163252148583 -0.99241192211761142 -0.95539587253452796 -0.98804592652576051 -0.97538453930939306 -0.8837889628238047 -1.0136961506278843 -1.0060338283641861 -0.904528656010678 -0.88295017549335064 -0.98345014169223333 -1.0392372248402117 -0.99241192211761142 -0.95118773216087227 -0.94984346509706552 -0.89876131667241044 -1.0315012264009011 -0.8464629266185969 -0.99017147701126684 -1.0170568182874011 -0.87438120037882516 -0.92247802844100035 -0.94132977369295645 -0.98913742542372318 -0.93281608228884716 -1.0497867989713905 -1.0189299773107383 -0.84767916824775547 -0.91153185377857426 -1.0171790243841108 -1.0480115394505691 -0.99184053343277179 -0.93823388590964396 -1.0520077619463757 -0.93565397942355022 -1.04689954710391 -0.98871031715930302 -0.87766216841005296 -0.94001997501540113 -1.0579018559953743 -1.0506634948825688 -1.0363535551710781 -0.90340514834737906 -0.93518875038507432 -1.0775488361587031 -1.0695672504673508 -0.94473525025460003 -1.0595621641781907
leaf_weight=7.438998222351076 14.486470222473146 7.8305244445800772 7.4389982223510733 9.9839186668396014 4.1110253334045437 37.586517333984375 8.0262875556945783 5.6771302223205558 6.851708889007571 14.486470222473143 6.8517088890075666 65.18911600112915 27.211072444915771 4.1110253334045437 5.6771302223205558 5.2856040000915536 4.502551555633544 22.904284000396732 9.7881555557250959 5.6771302223205549 4.698314666748046 4.8940777778625488 6.0686564445495597 4.111025333404541 11.158497333526613 3.9152622222900382 5.2856040000915545 18.597495555877686 5.4813671112060547 5.8728933334350577 162.87490844726562 4.1110253334045375 14.877996444702147 7.4389982223510724 8.6135768890380877 5.4813671112060547 5.872893333435063 5.0898408889770472 5.8728933334350577 9.0051031112670916 11.941549777984617 3.9152622222900391 3.9152622222900382 10.766971111297606 28.777177333831787 29.168703556060791 4.3067884445190421 3.9152622222900373 5.2856040000915527 9.7881555557250959 4.5025515556335431 4.5025515556335449 7.6347613334655762 5.0898408889770499 44.633989334106445 6.0686564445495605 4.3067884445190412 11.941549777984617 20.946652889251709 6.2644195556640625 4.8940777778625479 125.09262800216675
leaf_count=38 74 40 38 51 21 192 41 29 35 74 35 333 139 21 29 27 23 117 50 29 24 25 31 21 57 20 27 95 28 30 832 21 76 38 44 28 30 26 30 46 61 20 20 55 147 149 22 20 27 50 23 23 39 26 228 31 22 61 107 32 25 639
internal_value=-1.00933 -1.02109 -1.02474 -1.0185 -1.01317 -0.956962 -1.00184 -1.05222 -1.02991 -0.900874 -0.966962 -1.05189 -1.0159 -1.00915 -1.01676 -0.961692 -0.877433 -0.992412 -1.02444 -0.986234 -0.994956 -0.940384 -0.970552 -0.952008 -0.954194 -0.959979 -0.950599 -0.977106 -0.936401 -1.00068 -1.03604 -0.905538 -0.941489 -0.952429 -0.935654 -0.976932 -0.982029 -1.00209 -0.992757 -1.03378 -0.969797 -0.930824 -0.992412 -1.05912 -1.00695 -0.991668 -1.02316 -1.03279 -0.985166 -1.00567 -0.96079 -0.933186 -0.904974 -1.00677 -1.03928 -1.01305 -0.981167 -0.909707 -1.06558 -1.03351 -1.00104 -1.0568
internal_weight=0 766.021 747.032 608.823 525.037 172.076 313.025 138.209 212.011 26.0365 146.039 83.7866 164.637 137.426 118.437 18.989 18.989 48.745 19.7721 148.388 111.389 10.5712 28.9729 11.55 97.6858 36.9992 33.084 34.8458 14.878 100.818 187.933 9.59239 62.84 48.3535 33.4755 12.9204 24.0789 17.2272 48.3535 69.6917 25.0577 9.20087 15.8568 75.9561 87.1146 44.8298 42.2848 37.978 9.20087 38.9569 13.7034 9.0051 14.4865 16.2483 64.0145 19.3805 10.3754 20.5551 25.0577 11.3543 42.4806 132.532
internal_count=4792 3913 3816 3110 2682 879 1599 706 1083 133 746 428 841 702 605 97 97 249 101 758 569 54 148 59 499 189 169 178 76 515 960 49 321 247 171 66 123 88 247 356 128 47 81 388 445 229 216 194 47 199 70 46 74 83 327 99 53 105 128 58 217 677
is_linear=0
shrinkage=1


Tree=1
num_leaves=63
num_cat=0
split_feature=0 12 0 2 12 11 18 9 8 2 18 4 12 7 12 6 8 7 13 17 1 0 7 7 0 1 2 9 7 13 0 2 16 0 6 7 2 12 0 6 8 7 2 8 0 0 13 16 2 17 17 1 7 0 2 6 2 8 13 1 3 3
split_gain=204.647 138.259 47.7415 40.1429 36.1883 31.7198 24.6929 24.5009 22.6694 17.0006 16.4678 15.8244 13.9715 17.5585 17.8493 15.6812 12.0966 17.2221 11.9911 11.8917 17.1276 16.8194 15.2696 11.7782 11.368 11.1087 10.4554 10.047 11.1436 9.59461 9.17904 9.00643 8.71563 8.65981 8.6304 8.42473 8.40469 8.34787 11.6889 8.28865 8.16449 8.03728 7.89771 7.72892 7.52778 11.34 10.058 7.30283 7.2846 7.28117 7.27264 7.14066 8.25079 15.2999 7.00706 6.49826 6.45162 6.44561 6.24819 6.17868 6.12301 5.99238
threshold=-0.095511730760335908 12.055000305175783 1.3314223289489748 -1.4517565965652464 12.494999885559084 12.265000343322756 31050.000000000004 12.34999990463257 2.2348337173461919 -0.3205199241638183 -3049.9999999999995 -1.1783302426338194 12.305000305175783 1.7105132937431338 12.265000343322756 0.019617500000000006 1.6558832526206972 -0.14893712103366849 1850.0000000000002 4050.0000000000005 0.056710168719291694 0.031803414225578315 -0.83243057131767262 -1.7975496053695676 0.016938659362494949 0.4283264428377152 -0.43857800960540766 12.59500026702881 2.4497255086898808 1150.0000000000002 -0.051626460626721375 -0.036866659298539155 20000.000000000004 0.040556091815233238 0.011449944444444445 1.5717353224754336 1.4408832788467409 12.50500011444092 -0.046736361458897584 1.2938884444444445 1.7915253639221194 1.6013841032981875 0.17414065450429919 1.1994217038154604 -1.8064852356910703 -1.5061482787132261 7850.0000000000009 1050.0000000000002 0.66968411207199108 3850.0000000000005 1050.0000000000002 -1.0000000180025095e-35 -1.0573720932006834 -0.026905360631644722 -1.0332037210464475 1.8453048333333335 0.82945317029953014 1.3043514490127566 35550.000000000007 -0.042966395616531365 -0.52031365036964405 -0.36144007742404932
decision_type=2 2 2 2 2 2 2 2 2 2 2 2 2 2 2 2 2 2 2 2 2 2 2 2 2 2 2 2 2 2 2 2 2 2 2 2 2 2 2 2 2 2 2 2 2 2 2 2 2 2 2 2 2 2 2 2 2 2 2 2 2 2
left_child=5 25 3 11 7 9 57 12 29 26 36 59 13 14 16 -15 17 -5 -18 20 23 41 -23 -9 -20 -2 -1 28 44 54 -25 -17 33 43 -16 -13 55 -10 -39 -30 -34 -21 -40 -32 -12 46 47 -46 -43 -33 56 52 -36 -54 -6 58 -47 -4 -7 -3 -45 -52
right_child=1 2 6 4 8 10 -8 19 37 -11 27 35 -14 15 34 31 18 -19 24 21 -22 22 -24 30 -26 -27 -28 -29 39 -31 32 49 40 -35 51 -37 -38 38 42 -41 -42 48 -44 60 45 50 -48 -49 -50 -51 61 -53 53 -55 -56 -57 -58 -59 -60 -61 -62 -63
leaf_value=0.10033461455271889 0.13833126744420357 0.069972775217909858 -0.0009598494385761006 -0.061945201083604046 0.0045034780890518223 -0.0088503359066256556 0.058913890924240313 -0.031994807618626567 0.07123213997358685 0.13259485806065352 0.092227304388571574 -0.055398061021300682 -0.039398804185920719 -0.043162248804972096 0.034968777800022645 0.12901691984834304 -0.031487978698954491 0.031732320604831298 0.032006605285719851 -0.026591708169888206 -0.029202055662516758 0.0079028197347129833 0.13255050764934959 -0.030761232000197876 0.11259460743608019 0.04995820543755896 0.0064061883192137771 -0.02322810516649855 0.1558074342314818 -0.021293412215395713 0.091857334083321321 0.087560553746623415 0.043225887516094186 0.094191939449373346 -0.039201410279284928 -0.0074889061135185262 0.070155647426678694 0.058960536735638371 0.018996101114336531 0.060174997054400436 0.14142964791418741 0.049548833607389459 -0.06715784751873724 0.079315669794199017 -0.017899906816215307 0.024962996770990339 -0.029367601832143569 0.050113351606263568 -0.032121571191624017 0.0061692214283796164 0.055048139509702471 -0.040068161732341151 -0.026014191065276207 0.095871769199060416 -0.067021442507084708 0.054978589654387483 0.091157988392350814 -0.048908842902021875 0.05458374551784001 -0.018294136626873327 0.024913785126377184 0.10474434343716342
leaf_weight=5.8790851831436157 15.503232657909395 3.96524578332901 7.4354982674121848 9.6867305338382739 4.1201148480176952 31.145838022232056 5.8438828289508811 5.4966093599796286 7.0958071202039745 15.460065811872481 8.9439453333616239 63.449879810214043 26.691989481449127 4.0596175789833095 5.7754682898521414 4.2717723101377514 5.3600133955478695 9.9418714642524701 18.385680913925174 28.778966829180717 10.31108698248863 5.8974605351686478 4.2115655094385129 3.9544453322887412 5.7430011034011832 4.6144346892833701 5.9724375605583209 4.3774435222148886 4.4381243586540204 161.18578720092773 5.5911112129688254 5.0808493047952599 4.0029766112565976 7.0315624773502341 8.8341695368289965 10.727528780698774 6.0789030790328971 6.6269656419754073 5.1375161111354792 4.6289167255163193 4.49095419049263 8.0527635961770994 5.5161656141281128 5.7406860291957775 4.9337183237075761 17.491631269454967 7.5735137909650794 19.730225026607513 4.1309634298086158 5.9840712547302246 12.861476749181746 43.768267750740051 5.9918836057186127 4.514505594968794 20.273217514157295 6.0827945321798316 4.6620092242956153 122.13967627286911 4.4346659779548636 3.9652457833290091 52.231990948319442 11.480366274714472
leaf_count=29 74 20 38 51 21 159 29 28 35 74 44 333 139 21 29 21 27 50 93 147 53 30 21 20 28 23 30 22 22 832 28 25 20 35 46 55 30 33 26 23 22 41 29 29 25 87 38 99 21 30 64 228 31 22 107 31 23 639 22 20 263 57
internal_value=0 -0.0112738 -0.0147828 -0.00878569 -0.00369179 0.0485241 -0.0416231 0.00705283 -0.0197616 0.0980559 0.0394367 -0.0412922 -0.00629716 0.000133429 -0.00711325 0.0442201 0.015916 -0.0144976 0.0361602 0.0216643 0.0317861 0.0020732 0.0598328 0.0388885 0.0511878 0.118061 0.0530005 0.0508634 0.0542159 -0.0257162 0.0435803 0.0673502 0.0472973 0.0415399 -0.023534 -0.0484694 0.015234 0.0255705 0.00682083 0.106985 0.0951487 -0.0121811 -0.0256119 0.0357154 0.0487588 0.0438209 0.021032 0.0365081 0.021858 0.0435429 0.0596214 -0.028888 -0.00358688 0.0263592 -0.0549406 0.00722058 0.0388931 -0.0461574 -0.000944069 0.0258393 0.0303009 0.0784864
internal_weight=0 761.613 741.496 606.077 523.969 176.175 135.419 314.013 209.956 27.3116 148.864 82.1079 164.09 137.398 118.002 19.3963 49.1173 19.6286 29.4887 149.923 98.8514 51.0717 10.109 88.5403 24.1287 20.1177 11.8515 101.121 96.7439 185.579 83.0437 15.3367 79.0893 70.5954 68.8843 74.1774 47.7422 24.3765 17.2806 9.06704 8.49393 40.9627 10.6537 63.5638 87.6769 78.7329 32.2375 24.6639 12.1837 11.0649 46.4955 63.1088 19.3406 10.5064 24.3933 41.6633 22.1536 129.575 35.5805 7.93049 57.9727 24.3418
internal_count=4792 3913 3816 3110 2682 879 706 1599 1083 133 746 428 841 702 605 97 249 101 148 758 498 260 51 445 121 97 59 504 482 960 417 76 397 355 356 388 242 123 88 45 42 209 55 320 437 393 162 124 62 55 231 327 99 53 128 212 110 677 181 40 292 121
is_linear=0
shrinkage=0.05


Tree=2
num_leaves=63
num_cat=0
split_feature=0 12 0 2 12 11 15 11 8 4 18 17 2 0 7 16 4 12 13 10 8 12 3 8 0 1 7 10 18 1 9 7 7 8 0 0 2 7 11 6 6 7 12 7 17 2 12 0 8 15 13 17 2 9 2 13 17 2 9 3 2 2
split_gain=181.798 120.345 44.4903 37.2206 32.8924 26.5995 23.1455 22.0044 20.6476 14.743 14.1821 13.9725 13.7869 13.6497 13.869 13.1302 11.7373 11.6819 10.7607 10.6129 12.5532 10.9264 9.75385 9.74668 11.5984 9.6789 9.25879 9.00705 10.0089 8.95297 8.79068 8.29891 8.05085 7.79281 7.79129 7.72995 7.58245 7.30817 7.17581 7.79803 7.67086 7.17579 9.70621 18.3452 9.47533 8.91422 8.65578 8.48917 7.17487 6.93835 12.1433 11.0414 11.0395 7.87947 9.86728 7.00916 6.65778 10.2098 6.64659 6.6113 6.4576 6.45476
threshold=-0.095511730760335908 12.055000305175783 1.3314223289489748 -1.4517565965652464 12.494999885559084 12.265000343322756 440443.00000000006 12.414999961853029 1.8869253396987917 -1.1783302426338194 -2949.9999999999995 4050.0000000000005 -0.3205199241638183 0.031803414225578315 -0.83243057131767262 25550.000000000004 1.0000000180025095e-35 12.605000019073488 4450.0000000000009 12.50500011444092 2.2250316143035893 12.50500011444092 -0.066545564681291566 1.972604036331177 -0.046736361458897584 0.050544405356049545 1.9878098368644717 12.09500026702881 1750.0000000000002 0.4283264428377152 12.59500026702881 2.4497255086898808 1.5717353224754336 1.3043514490127566 1.0000000180025095e-35 -0.051626460626721375 1.014662563800812 1.6013841032981875 12.465000152587892 0.13459961111111116 0.66098672222222243 -1.4533417820930479 12.305000305175783 1.7105132937431338 5750.0000000000009 -0.48779374361038202 12.09500026702881 0.014020178932696583 1.5915268659591677 12475.000000000002 1450.0000000000002 150.00000000000003 -0.54241332411766041 12.494999885559084 1.3448383212089541 2850.0000000000005 1350.0000000000002 -1.0721610784530637 12.47499990463257 1.4384112358093264 0.66968411207199108 -1.1805339455604551
decision_type=2 2 2 2 2 2 2 2 2 2 2 2 2 2 2 2 2 2 2 2 2 2 2 2 2 2 2 2 2 2 2 2 2 2 2 2 2 2 2 2 2 2 2 2 2 2 2 2 2 2 2 2 2 2 2 2 2 2 2 2 2 2
left_child=5 29 3 9 7 12 33 15 18 -3 38 25 22 37 -15 16 27 19 56 20 -10 -21 -1 -23 -25 35 59 28 -5 -2 31 -12 -11 -4 -26 -9 -29 -13 39 -7 -40 46 43 45 -45 -43 -18 -48 -28 -37 -51 58 55 54 -54 -53 57 -6 -52 61 -39 -20
right_child=1 2 6 4 8 10 -8 11 17 32 30 13 -14 14 -16 -17 41 -19 26 21 -22 23 -24 24 34 -27 48 36 -30 -31 -32 -33 -34 -35 -36 49 -38 60 40 -41 -42 42 -44 44 -46 -47 47 -49 -50 50 51 52 53 -55 -56 -57 -58 -59 -60 -61 -62 -63
leaf_value=0.010096530969262281 0.1246294604865055 0.024239397727266396 0.0037477457483917928 -0.028843270916697174 0.021015027844914037 0.093855832070343509 0.050449529411107086 -0.029652593125240337 -0.06105936134933268 -0.054139386932411972 0.045777753054131703 -0.025588097124634737 0.1196558823565276 -0.0081585402744714271 0.11897543988691982 0.072920413105351689 0.087405673974772211 -0.068713207931216089 0.019462102618558935 0.084079568580514921 0.04405002176448581 0.071065008966234119 0.10066404963322786 0.048228326308423025 -0.055787413444875061 -0.018360549890642331 0.081540786946589297 -0.018417872032395401 0.06559854495020305 0.04641472686489917 -0.022307737396924786 0.095499812269142378 -0.0071402242130219288 -0.048357975300813684 0.018777655693426081 -0.012808212741662734 -0.062962527547801322 0.046001232226957671 -0.016642071920225779 0.020609714453668562 0.047394362620583053 0.031998455849636197 -0.054271854968693162 0.10707777346575498 0.014115233008469742 -0.031720058723552984 -0.027871904677559928 0.038354849147352321 -0.010767517575960181 0.11327636643902171 0.11932167503456088 0.032399123783438642 -0.0013175636017791767 0.079276938766711463 0.06818940578195537 0.11881355809322316 -0.013270294572584333 -0.057761476741133216 0.048950837898131781 0.024159949000139611 -0.030989492680317171 -0.031431233181898367
leaf_weight=6.8866878151893616 16.324091911315922 8.021606504917143 7.6388351321220389 5.0730652064084989 4.4880702197551718 4.5995074361562756 6.6591998636722556 3.8986229449510565 8.177260607481001 61.722830504179001 88.726516336202621 28.421611964702606 16.252912431955338 4.1411016583442688 4.4507524967193586 5.253509283065795 5.084220543503764 4.5472640842199317 6.9036809206008902 7.1777385473251334 4.352590635418891 6.1366052627563503 5.2309107333421725 8.0636993050575256 8.8939967006444913 8.1021953970193845 4.0271472036838514 76.931628257036209 6.2761993557214737 4.7156477123498908 4.3313425481319419 9.2685942202806455 10.689812451601027 118.34857945144176 5.7800427079200754 5.2670840620994559 10.907972887158392 8.2351723462343198 21.143538907170299 17.306174725294113 6.0047421157360068 7.456378534436225 7.9256703555583945 5.5642533600330335 5.402373418211937 20.803147688508037 7.5230941772460964 13.56144706904888 4.4106850326061249 6.2395211160182944 6.0380323231220228 4.4212722480297 30.276612177491195 4.6873430311679831 6.1417772173881522 5.0006357282400131 14.76620641350746 49.224435955286026 7.5526434481143951 7.0954498350620261 4.0693709701299658 63.859048515558243
leaf_count=34 74 40 39 26 23 23 33 20 43 333 433 147 74 21 21 26 25 23 36 36 21 32 25 40 47 42 21 399 31 23 22 44 55 634 30 26 57 41 107 87 30 38 42 26 27 108 39 69 23 30 29 22 152 23 30 24 77 261 37 37 21 333
internal_value=0 -0.010808 -0.01418 -0.00841329 -0.00354005 0.04513 -0.0403969 0.00665542 -0.0189731 -0.0400765 0.0368034 0.0217188 0.0895596 0.000430071 0.0576994 -0.00494897 -0.00732037 0.00792101 -0.0282049 0.015094 -0.0245467 0.028871 0.0491926 0.015147 5.54717e-05 0.0337006 -0.0164608 -0.0185336 0.0233835 0.107099 0.0473995 0.0504806 -0.0472012 -0.0451987 -0.0264165 0.0390048 -0.0239495 -0.0116518 0.0146998 0.0359891 -0.00247829 0.00784899 -0.00380392 0.00639316 0.0612826 -0.0149077 0.0288456 0.0147247 0.0332887 0.0425442 0.046688 0.0402081 0.0294472 0.0182581 0.0104044 0.0782632 -0.0430048 -0.0511791 0.080215 -0.0218523 0.0205388 -0.026466
internal_weight=0 756.731 735.691 603.045 522.611 179.751 132.647 314.707 207.904 80.4342 151.38 136.944 28.3705 49.318 8.59185 177.763 172.509 53.1292 154.775 48.5819 12.5299 36.0521 12.1176 28.8743 22.7377 87.6257 86.296 99.1889 11.3493 21.0397 102.326 97.9951 72.4126 125.987 14.674 79.5235 87.8396 40.7262 49.054 21.9057 27.1483 73.3206 47.1518 39.2262 10.9666 28.2595 26.1688 21.0845 8.43783 75.6249 70.3578 64.1183 50.5276 41.1057 36.4184 9.42191 68.4787 53.7125 13.5907 77.8582 12.3045 70.7627
internal_count=4792 3913 3816 3110 2682 879 706 1599 1083 428 746 686 133 251 42 913 887 272 811 249 64 185 59 149 117 435 450 513 57 97 499 477 388 673 77 393 456 209 247 110 137 374 241 199 53 146 133 108 44 373 347 317 251 205 182 46 361 284 66 406 62 369
is_linear=0
shrinkage=0.05


Tree=3
num_leaves=63
num_cat=0
split_feature=0 12 0 2 12 11 15 9 8 4 18 12 7 12 4 2 8 7 13 4 13 1 0 13 2 3 2 12 8 7 6 6 11 18 1 7 1 12 1 8 2 8 2 8 9 4 2 2 18 16 2 2 12 0 2 2 10 6 13 5 2 7
split_gain=161.973 105.703 41.4546 34.508 29.9413 22.6814 21.2881 19.6803 19.1698 13.7538 12.3142 12.0824 14.5269 15.668 12.7627 11.4923 10.1314 15.6372 9.83927 9.64377 10.0927 12.767 8.97818 8.80245 8.43861 8.38109 10.4427 8.70949 20.0359 11.2202 10.2312 10.0498 8.31584 8.90246 7.76234 7.75738 7.67073 10.9193 7.44507 7.37197 7.21177 13.7317 10.9449 7.18602 8.97752 12.3851 7.09073 7.08241 6.97586 6.91352 6.75216 6.49471 6.17879 9.64905 6.55086 6.17249 5.82341 6.25642 5.55488 5.45041 8.51488 5.46711
threshold=-0.095511730760335908 12.055000305175783 1.3314223289489748 -1.4517565965652464 12.494999885559084 12.265000343322756 440443.00000000006 12.34999990463257 2.2348337173461919 -1.1783302426338194 -3049.9999999999995 12.305000305175783 1.7105132937431338 12.265000343322756 -1.3797905445098875 -0.3205199241638183 1.6558832526206972 -0.14893712103366849 1850.0000000000002 -1.0558778643608091 1450.0000000000002 8.8554986470655848e-15 0.016938659362494949 1150.0000000000002 -0.43857800960540766 -1.6783720850944517 -0.85272473096847523 12.47499990463257 1.3402256369590761 2.0361927747726445 2.2726020555555562 1.146906666666667 12.494999885559084 650.00000000000011 -1.0000000180025095e-35 1.4067185521125796 0.056710168719291694 12.465000152587892 0.4283264428377152 1.3043514490127566 0.021840143948793415 1.7915253639221194 1.218612849712372 1.7337623834609988 12.454999923706056 0.046308906748890884 -0.036866659298539155 1.4408832788467409 -3849.9999999999995 6950.0000000000009 0.57544177770614635 -1.0332037210464475 12.50500011444092 -0.054906414821743958 0.20562908053398135 0.65463021397590648 12.465000152587892 1.0420413333333334 34850.000000000007 1.4090884923934939 0.84110617637634288 -1.0000000180025095e-35
decision_type=2 2 2 2 2 2 2 2 2 2 2 2 2 2 2 2 2 2 2 2 2 2 2 2 2 2 2 2 2 2 2 2 2 2 2 2 2 2 2 2 2 2 2 2 2 2 2 2 2 2 2 2 2 2 2 2 2 2 2 2 2 2
left_child=5 38 3 9 7 15 39 11 23 -3 47 12 13 16 -14 24 17 -5 -18 36 21 -21 -20 51 -1 -22 56 28 -28 31 -30 -29 43 50 -15 -11 37 -9 -2 -4 41 -39 -42 44 -12 -46 -16 58 -48 -45 -34 -6 -10 -54 -55 -33 -27 -58 -7 -25 61 -61
right_child=1 2 6 4 8 10 -8 19 52 35 32 -13 14 34 46 -17 18 -19 22 20 25 -23 -24 59 -26 26 27 29 30 -31 -32 55 33 -35 -36 -37 -38 40 -40 -41 42 -43 -44 49 45 -47 48 -49 -50 -51 -52 -53 53 54 -56 -57 57 -59 -60 60 -62 -63
leaf_value=0.086586969127903979 0.11371604490151128 0.022777137576852752 0.0035540038869922731 -0.060307191622923084 0.004139185881653849 -0.00070482171678835025 0.046881846081818272 0.095934483647003507 0.060955979588830901 -0.055225399646161223 0.0037215479177562997 -0.037209522055782679 -0.041208068065817061 0.0029822428682114437 0.11206906523538387 0.10926277753032648 -0.029461708097267184 0.029658788941209758 0.028929593123729017 -0.0018147353663947139 -0.046148824256113184 0.10495334381828039 0.098782341035205376 -0.022570554966876807 0.0039242837284520901 0.0034226533579774956 0.10890006599173097 -0.037486207228929279 0.026198511180604806 0.061521633758318622 -0.029244979161240969 -0.016110178555259761 0.019058141475068541 0.047986084850369808 -0.033604879479540169 -0.016295380088202742 -0.027106845932546388 0.0127541072784193 0.043231461227342248 -0.047122399596421782 -0.012373859348288234 0.13166169569263628 0.080712834242769857 0.073044692357089866 0.022865348969672888 0.12980232495053826 -0.0073044714783841976 0.062884002291099805 0.071820534235379374 0.0071354776191879235 -0.049192394172949676 -0.065020941710739064 0.056007413521623389 0.012019753893363122 -0.065916741877007884 0.066264528663843955 0.03278355354899281 0.11667126265522268 0.054574699980052856 0.018801200422141368 0.067271794729674525 -0.056187278608615124
leaf_weight=6.2578682750463486 16.977863371372226 8.1074634194374067 7.6521429270505896 9.2698751688003558 4.1326224803924587 36.856660336256027 6.8037565648555747 8.8595709800720197 7.4920470118522671 53.886833846569061 12.780675709247591 25.771234229207039 3.9235612004995373 21.033226072788239 4.5690366625785854 16.891105145215988 5.2210177332162884 10.0841728746891 18.780867189168934 5.1123707741498929 6.947911173105239 6.1901218891143799 6.0922177731990805 143.76732182502747 6.0938870906829852 4.1548514366149893 5.513691470026969 26.534997463226318 23.573964461684227 4.5410704314708701 12.85998524725437 4.7442597746849042 12.310683861374857 19.745853409171104 46.649883523583412 16.781358852982521 3.7722989916801444 5.4551949203014392 4.8072616457939139 115.45330844819546 12.26631434261799 4.3753567039966583 4.2524470537900916 39.56699837744236 6.9024359583854658 4.455211266875267 4.8265462666749954 6.3191179037094107 6.5872505009174294 4.4235737770795813 5.1356031298637381 19.008343726396561 6.2825693190097853 6.2353677600622142 4.7502973228693008 4.3677545785903931 4.4034469127655012 4.4879214614629745 5.1836575567722312 5.2045950889587393 4.4434424191713324 4.560225546360015
leaf_count=29 74 40 39 51 21 187 33 41 35 299 62 139 21 108 21 74 27 50 93 25 36 29 28 758 30 21 26 138 118 22 66 24 60 95 248 89 20 27 23 634 61 20 20 186 33 21 24 30 31 21 26 107 30 32 26 21 22 21 25 27 23 24
internal_value=0 -0.0103667 -0.0136064 -0.00806084 -0.00339817 0.0420971 -0.0392141 0.00628775 -0.0182285 -0.0389044 0.034417 -0.00580013 0.000106706 -0.00660445 0.0395958 0.0824589 0.0147902 -0.0134316 0.0329402 0.0192001 0.0118271 0.0566597 0.0460388 -0.0238697 0.0458043 0.0068656 0.0107354 0.00413496 0.0200715 -0.0124994 0.00662878 -0.0219289 0.0440076 0.0249922 -0.0222351 -0.0459808 0.0406548 0.0479148 0.0981624 -0.0439724 0.0317689 0.0656772 0.0115896 0.0543882 0.0324665 0.064813 0.059432 0.0135297 0.038361 0.066417 -0.00103253 -0.05267 0.023036 0.00658399 -0.0216807 0.0233753 0.0522905 0.0751259 0.00611126 -0.0196509 0.00989173 -0.0162188
internal_weight=0 751.569 729.784 599.875 521.099 182.923 129.909 315.222 205.877 78.7757 153.68 162.809 137.038 117.131 19.9064 29.2429 49.4482 19.354 30.0941 152.414 113.432 11.3025 24.8731 181.117 12.3518 102.13 95.1819 82.1357 41.9476 40.1881 36.4339 35.647 105.321 37.1921 67.6831 70.6682 38.9812 35.2089 21.7851 123.105 26.3493 9.83055 16.5188 68.1289 24.1383 11.3576 15.9828 48.3594 11.4138 43.9906 17.4463 23.141 24.7603 17.2682 10.9857 9.11201 13.0462 8.89137 42.0403 157.976 14.2083 9.76482
internal_count=4792 3913 3816 3110 2682 879 706 1599 1083 428 746 841 702 605 97 133 249 101 148 758 569 54 121 960 59 515 479 415 210 205 184 183 504 181 356 388 189 169 97 673 128 47 81 323 116 54 76 242 55 207 86 128 123 88 58 45 64 43 212 832 74 51
is_linear=0
shrinkage=0.05


Tree=4
num_leaves=63
num_cat=0
split_feature=0 12 0 2 12 18 12 8 11 4 11 2 18 4 16 17 0 12 7 4 13 18 0 10 8 12 8 0 7 0 3 18 8 7 1 10 18 7 13 0 2 10 7 6 6 6 16 9 7 7 7 7 17 2 7 2 3 0 0 8 5 7
split_gain=144.66 93.5025 38.6195 31.9938 27.2327 19.7896 19.7024 18.0448 17.749 12.8371 12.6273 12.2847 13.4315 11.9954 11.2154 11.0792 11.4538 10.9013 10.8011 10.167 9.95039 9.83932 10.0634 9.60277 10.7787 8.72367 8.69649 9.60453 8.43853 8.19141 8.55513 9.67745 10.6822 8.1882 7.9411 7.7674 8.15563 7.50184 7.36896 7.24211 7.2233 6.75607 6.60123 10.1943 9.52601 7.65929 6.5533 7.29225 6.44857 8.58772 7.50633 6.44052 6.34892 9.44466 6.34372 8.45983 9.50849 6.41052 7.91303 15.0827 6.64462 6.27745
threshold=-0.095511730760335908 12.055000305175783 1.3314223289489748 -1.4517565965652464 12.494999885559084 31050.000000000004 12.47499990463257 1.8869253396987917 12.414999961853029 -1.1783302426338194 12.045000076293947 1.502799451351166 -3049.9999999999995 -1.2122253179550169 25550.000000000004 4050.0000000000005 0.031803414225578315 12.605000019073488 -0.83243057131767262 1.0000000180025095e-35 4450.0000000000009 450.00000000000006 -1.1054033637046812 12.50500011444092 2.2250316143035893 12.50500011444092 1.972604036331177 -0.046736361458897584 1.9878098368644717 -1.5989677309989927 -0.9619385004043578 -549.99999999999989 1.6831942796707156 -1.856316030025482 0.050544405356049545 12.09500026702881 1750.0000000000002 1.5717353224754336 2050.0000000000005 1.0000000180025095e-35 1.014662563800812 12.515000343322756 2.4497255086898808 1.4591517222222226 0.1415690555555556 4.1125028888888897 450.00000000000006 12.00500011444092 1.5328125953674319 1.8092047572135928 0.65057402849197399 1.6013841032981875 1350.0000000000002 -1.0721610784530637 1.7757129073143008 -1.1805339455604551 1.4384112358093264 -0.044931996613740914 0.042503610253334052 1.5430074334144595 0.16244374960660937 -1.4533417820930479
decision_type=2 2 2 2 2 2 2 2 2 2 2 2 2 2 2 2 2 2 2 2 2 2 2 2 2 2 2 2 2 2 2 2 2 2 2 2 2 2 2 2 2 2 2 2 2 2 2 2 2 2 2 2 2 2 2 2 2 2 2 2 2 2
left_child=6 46 3 9 8 -4 10 20 14 -3 -1 12 48 -14 19 34 51 23 -18 35 52 22 33 24 -9 -25 -27 -28 54 -15 -31 -32 -33 -8 -10 36 -5 -11 -34 -29 -37 -35 43 44 -23 -45 -2 -48 50 -50 -12 -17 53 -6 55 -22 57 60 -59 -60 -57 -21
right_child=1 2 5 4 7 -7 21 17 15 37 11 -13 13 29 -16 16 18 -19 -20 61 28 42 -24 25 -26 26 27 39 -30 30 31 32 38 41 -36 40 -38 -39 -40 -41 -42 -43 -44 45 -46 -47 47 -49 49 -51 -52 -53 -54 -55 -56 56 -58 58 59 -61 -62 -63
leaf_value=0.1332293284182002 0.13153592646640389 0.021421979447861436 -0.04252550515025378 -0.027175107272542728 0.019783761944508493 0.049262889200456711 0.063953746626305555 -0.059318131458945822 0.034451508306941936 -0.051817097420948449 0.012645292306333223 0.098195218416328722 -0.015527868432294445 0.095482778094883813 0.066132065536233728 -0.024353942827829579 -0.0074683574404218874 -0.067672971542584906 0.1033344855104758 0.026676937134646458 0.044515694212684385 0.061237845327683275 0.07001453057374725 0.075376665362804296 0.037722019538563689 0.066845319950885038 0.043093619920795911 -0.0538693548954014 0.032253850305380798 0.11786671637104718 -0.002548708340909746 0.0069662408230979234 0.035320941689857423 0.0048532149270073171 -0.017662515875608849 -0.017164101243373971 0.057888437109254669 -0.0060420040515042194 0.096966750907738708 0.018671509108516293 -0.06150491698054155 -0.040682485691103727 0.093766256455628721 0.088669399472237773 -0.023531483835470768 0.0085373695955076653 0.046231930634986859 0.11694573221989152 -0.069796471677093741 0.02753176769107344 0.085412011559915957 0.018895497334321922 -0.011697219462315009 -0.05581213776552893 -0.067026866596385945 0.060975593365176488 0.038664316392791213 -0.044551867676108067 -0.03975447496961626 0.07952198109079997 -0.0300176214136639 -0.003761821060078812
leaf_weight=4.7450075447559348 6.8298054337501553 8.1872019171714765 121.03536656498909 4.95264685153961 4.5310563445091239 6.1716224253177634 4.0976770073175421 7.8097380846738798 81.610961094498634 58.383659034967422 13.750759214162832 11.596531733870505 5.297200694680213 14.557686656713484 5.4352009892463675 27.936832249164581 4.1114071160554886 4.4150768220424643 4.7293997555971128 26.519458457827568 5.3614703416824332 4.8758177459239986 5.3349485844373694 7.4929667115211478 4.5164255350828171 6.2865368425846126 8.3105404525995255 8.5017778575420362 8.4979216605424863 4.4099552780389706 8.5390378385782153 7.5915666520595719 7.3588400930166271 23.993608191609383 8.0290595740079862 75.691028460860252 6.5370568484067917 10.571151897311209 14.206400677561758 5.7796541452407846 10.453221097588537 12.332596674561499 5.044830009341239 9.3292631357908231 10.347501292824743 4.3830944150686255 9.7116308808326703 5.8370743989944449 4.4347042590379697 4.6354164779186249 4.7746709734201422 12.441445529460905 14.509428694844244 46.878985404968262 6.6250408738851538 3.921371251344679 6.0763700604438773 38.661248117685318 7.4692785739898664 4.1081032156944275 4.1081032156944275 46.882937207818031
leaf_count=21 29 40 677 26 23 29 20 43 393 333 67 53 25 65 26 147 21 23 21 133 28 23 26 36 21 32 40 47 44 20 40 36 34 118 42 399 31 55 64 30 57 62 23 44 49 21 43 25 22 23 23 62 77 261 35 21 31 207 40 22 22 241
internal_value=0 -0.00994796 -0.0130613 -0.00772603 -0.00326187 -0.0380723 0.0393774 -0.0175037 0.0059455 -0.0377713 0.0535122 0.0497727 0.0435025 0.056425 -0.0045771 0.0193183 0.000258435 0.00755769 0.0518058 -0.0068241 -0.0263336 0.0206056 0.00547023 0.0143783 -0.0237617 0.0273038 0.0148306 0.000356801 -0.0150096 0.0631515 0.0519733 0.0442646 0.0579746 -0.00304802 0.0297837 -0.0173942 0.0212217 -0.0447995 0.075931 -0.0245123 -0.0225447 -0.010606 0.0409873 0.0317854 0.00361896 0.0630556 0.0907108 0.0727783 0.0144875 -0.0200555 0.0313999 -0.0110278 -0.0409059 -0.0491494 -0.0202714 -0.0158277 -0.0208558 -0.0270627 -0.0336929 0.00256943 0.0144209 0.00723536
internal_weight=0 745.919 723.541 596.334 519.192 127.207 185.637 203.861 315.331 77.142 105.898 101.153 89.5562 61.9607 176.472 138.859 49.2191 53.1127 8.84081 171.036 150.748 79.7393 45.7588 48.6976 12.3262 36.3715 28.8785 22.592 84.8289 56.6635 42.1058 37.6958 29.1568 40.4239 89.64 97.634 11.4897 68.9548 21.5652 14.2814 86.1442 36.3262 33.9805 28.9357 15.2233 13.7124 22.3785 15.5487 27.5956 9.07012 18.5254 40.3783 65.9195 51.41 76.331 69.7059 64.3445 58.2681 50.2386 11.5774 8.02947 73.4024
internal_count=4792 3913 3816 3110 2682 706 879 1083 1599 428 493 472 419 284 913 686 251 272 42 887 811 386 226 249 64 185 149 117 450 259 194 174 134 200 435 513 57 388 98 77 456 180 160 137 72 65 97 68 135 45 90 209 361 284 406 371 343 312 269 62 43 374
is_linear=0
shrinkage=0.05


Tree=5
num_leaves=63
num_cat=0
split_feature=0 12 0 2 12 15 11 8 9 4 12 7 7 6 7 11 17 13 8 7 8 9 7 12 2 2 0 0 2 8 8 11 12 7 4 13 4 16 2 10 9 13 7 6 7 2 7 8 2 18 12 8 8 9 6 17 6 6 18 2 12 16
split_gain=129.366 83.1205 35.98 29.6783 24.8428 18.4167 17.5476 16.5812 15.9032 11.9881 10.878 13.2828 14.5306 11.1843 11.0077 10.0802 9.66757 9.38807 9.36999 9.82125 9.36011 11.0774 11.9783 11.7465 10.4578 16.6032 11.9153 9.15634 8.61563 8.61915 8.44293 8.78484 8.41037 14.0031 8.05443 8.40145 10.8808 8.05177 8.25242 7.95824 7.83747 7.75266 7.63818 7.55334 7.58636 7.45776 7.32182 7.13078 6.96576 8.18031 6.52776 15.6384 10.1524 14.9021 7.26883 6.72485 6.48873 6.29982 6.36585 6.24043 6.21134 10.5841
threshold=-0.095511730760335908 12.055000305175783 1.3314223289489748 -1.4517565965652464 12.494999885559084 440443.00000000006 12.265000343322756 1.8869253396987917 12.34999990463257 -1.1783302426338194 12.305000305175783 1.7105132937431338 1.445386588573456 0.019617500000000006 0.19740223139524463 12.59500026702881 3850.0000000000005 4450.0000000000009 -0.55884587764739979 2.4497255086898808 1.4417881369590761 12.085000038146974 -1.0573720932006834 12.275000095367433 0.12110726535320283 -0.12198827043175696 0.0085418787784874457 -0.054906414821743958 1.4008888006210329 1.1721634864807131 1.7337623834609988 12.47499990463257 12.515000343322756 -1.7242998480796812 -1.0558778643608091 1450.0000000000002 -0.50340515375137318 11150.000000000002 0.6121654510498048 12.50500011444092 12.284999847412111 4250.0000000000009 1.9878098368644717 1.4591517222222226 -1.3571804165840147 -0.85272473096847523 1.4067185521125796 1.3043514490127566 -0.13688073307275769 750.00000000000011 12.47499990463257 1.3402256369590761 1.6894907355308535 12.484999656677248 2.4124178333333339 2050.0000000000005 1.0089029444444446 1.1838393888888892 -5749.9999999999991 -0.28731435537338251 12.50500011444092 150.00000000000003
decision_type=2 2 2 2 2 2 2 2 2 2 2 2 2 2 2 2 2 2 2 2 2 2 2 2 2 2 2 2 2 2 2 2 2 2 2 2 2 2 2 2 2 2 2 2 2 2 2 2 2 2 2 2 2 2 2 2 2 2 2 2 2 2
left_child=6 -2 3 9 8 47 16 17 10 -3 11 12 14 -13 20 27 -1 -6 -8 28 56 41 23 24 25 26 -23 -9 29 -20 37 -32 33 48 -10 36 -36 38 43 -35 -25 -22 60 -31 -45 -37 -11 -4 -29 -50 51 -47 -52 -54 -53 -55 -5 58 -30 -18 61 -19
right_child=1 2 5 4 7 -7 18 15 34 46 -12 13 -14 -15 -16 -17 59 42 19 -21 21 22 -24 40 -26 -27 -28 32 57 30 31 -33 -34 39 35 45 -38 -39 -40 -41 -42 -43 -44 44 -46 50 -48 -49 49 -51 52 54 53 55 -56 -57 -58 -59 -60 -61 -62 -63
leaf_value=0.092011992233528309 0.084336428514432238 0.020163507244241617 0.0054540763503973079 -0.061949463233730996 -0.039754730090293934 0.041828360962792133 -0.029834974484962064 0.060964361480575692 0.036466510019605776 -0.053043133781475897 -0.035597922469499325 -0.039510232541672255 -0.066735785756259283 0.05584033227434481 0.055503814637639814 -0.058129769621374887 -0.0025288996738942185 -0.033459869182214483 0.089302496219644145 0.078167947559064435 0.0068814843504688243 -0.035631759172343534 0.058816539418430416 -0.062768762361164257 -0.027261488498129635 0.084823762091637875 0.049209028986562188 0.095216112924290303 0.076044861370305028 -0.0029553920058297805 0.05509329988601043 0.016880561221104599 -0.041416126921554858 -0.053978019936431032 -0.0076655869278190875 0.039081056497586857 0.090635047629807924 0.0694514551115053 -0.035151072303398451 0.017253141579149086 -0.0049232438280238967 0.094203206111989887 0.030168378906197918 -0.00043089861670160529 0.071619360903290824 0.084855109812605314 -0.014661507068080915 -0.044868565875988746 0.066407233301149324 -0.024455395800220617 -0.042074761133131924 0.013612428499037583 -0.036067005229214924 0.07619854031153675 -0.036371940599148507 0.0044406479322443917 0.0036536745448225126 0.096527643360909937 -0.0072761343496727934 0.074964989094589735 -0.028822845483969562 0.035246384677776445
leaf_weight=20.001278132200245 22.851404666900635 8.2613116502761823 7.5207156836986533 11.085408896207811 64.486714079976082 7.0004506111145011 6.244990572333335 8.649103641510008 39.867262974381447 50.820973798632622 25.081616312265396 3.7925707250833538 9.1479502469301206 16.263684317469597 7.9555032551288596 5.3232688307762137 5.7110143899917603 10.697802394628527 4.9315244257450095 10.995010375976561 5.1272008866071683 10.707727804780005 6.5685053318738928 14.580960437655451 16.110509425401688 7.8213998377323213 6.7454556077718726 5.4465406686067572 4.6416622698307046 26.973804384469986 28.531875938177109 31.807243123650551 8.0543081611394864 7.6237957328557977 4.7502913028001785 14.463732808828352 6.909902483224867 4.9225183576345435 11.377485498785971 8.0738436132669449 9.7854948788881284 5.0408449172973633 8.6276212930679304 6.3059087842702857 8.6856035292148572 6.5572007596492758 16.4465551674366 110.0504265576601 5.425032898783682 4.5584847927093506 18.165310114622116 29.989967718720436 10.782477602362635 7.107713043689726 9.6021625995635969 6.0391495078802109 5.7110600024461737 7.5673550814390174 4.5292590707540521 4.7658009827136976 53.05957855284214 11.775168076157568
leaf_count=86 97 40 39 60 361 33 31 41 189 299 139 21 49 76 39 28 27 58 23 49 25 55 32 79 85 40 34 27 21 134 130 153 44 41 23 70 31 23 56 41 53 23 44 30 41 30 89 634 26 24 97 149 55 34 50 30 31 34 21 20 285 63
internal_value=0 -0.009541 -0.0125302 -0.00739934 -0.00312663 -0.0369584 0.0369037 -0.0168293 0.0056307 -0.0366781 -0.00533418 0.000228993 -0.00624703 0.0378099 -0.00108713 0.00713827 0.0716312 -0.0253999 0.0301841 0.0326619 -0.00562166 0.00130594 -0.00556446 -0.0119961 0.00422003 0.024287 -0.00284177 0.0144022 0.029095 0.0245338 0.0218407 0.0349498 0.00412393 0.0159074 0.0171139 0.0103678 0.050588 0.00826508 0.00261874 -0.0173413 -0.0395382 0.0501715 -0.0144007 0.0128588 0.0413127 0.0058017 -0.043659 -0.0416496 0.0497328 0.0249193 0.000347008 0.0133349 -0.013892 0.00750223 0.00148987 0.0432358 -0.0396434 0.062759 0.034895 0.0327223 -0.0194915 0.00254016
internal_weight=0 740.514 717.663 593.091 517.562 124.572 187.992 201.801 315.761 75.5288 161.526 136.444 116.388 20.0563 107.24 53.1544 30.4781 148.647 157.514 151.269 99.2846 82.4881 72.3201 65.7515 41.3851 25.2746 17.4532 47.8311 140.274 123.536 118.604 60.3391 39.182 31.1277 154.235 114.368 11.6602 58.2653 53.3428 15.6976 24.3665 10.168 84.1602 41.9653 14.9915 102.708 67.2675 117.571 15.4301 9.98352 88.244 46.1493 42.0947 23.9293 39.5921 13.1469 16.7965 16.7383 9.17092 10.4768 75.5325 22.473
internal_count=4792 3913 3816 3110 2682 706 879 1083 1599 428 841 702 605 97 556 272 133 811 746 715 517 426 378 346 214 129 89 244 666 590 567 283 203 159 758 569 54 284 261 82 132 48 450 205 71 515 388 673 77 50 445 229 216 119 199 64 91 76 42 47 406 121
is_linear=0
shrinkage=0.05


Tree=6
num_leaves=63
num_cat=0
split_feature=0 10 1 2 12 9 15 11 8 12 4 12 13 18 16 7 10 8 2 7 2 2 8 1 6 2 12 6 12 12 7 7 4 8 7 0 12 2 2 0 9 17 8 0 7 8 13 7 9 8 0 3 12 18 2 7 2 3 7 2 0 0
split_gain=115.954 74.5306 30.2172 27.2127 19.1368 20.4519 17.0085 15.4257 15.2157 13.903 11.7174 9.42121 8.85501 8.61661 8.42162 7.8051 7.75807 9.56716 7.64001 7.30861 26.5187 9.96282 15.8694 8.3542 8.07611 7.93733 9.22106 15.9238 7.17827 7.12224 16.0504 10.5784 10.0378 7.69075 16.5864 11.7613 9.92922 8.75214 12.1479 12.1707 7.29274 7.05872 7.02464 8.15227 6.96033 6.95888 12.342 8.83629 6.84514 6.75552 6.6207 6.49863 6.27846 6.12222 7.51006 6.06894 7.74652 8.62268 5.99553 7.64035 5.98745 7.91657
threshold=-0.095511730760335908 12.09500026702881 1.330085337162018 -1.4517565965652464 12.494999885559084 12.34999990463257 440443.00000000006 12.265000343322756 1.8869253396987917 12.055000305175783 -1.1783302426338194 12.605000019073488 4350.0000000000009 -2949.9999999999995 1350.0000000000002 1.4067185521125796 12.50500011444092 2.2250316143035893 -0.28731435537338251 2.0940080881118779 0.61919322609901439 1.0321201086044314 1.7896141409873965 0.028582450002431873 1.2251956111111113 0.021840143948793415 12.434999942779543 1.9170015555555555 12.50500011444092 12.305000305175783 1.7105132937431338 1.445386588573456 -1.3797905445098875 1.313369154930115 -1.0573720932006834 -0.025882963091135022 12.275000095367433 0.12110726535320283 -0.12198827043175696 0.0085418787784874457 12.284999847412111 12450.000000000002 1.972604036331177 -0.046736361458897584 1.9878098368644717 1.7955476045608523 3750.0000000000005 -0.14893712103366849 12.59500026702881 1.3043514490127566 1.0000000180025095e-35 -1.6783720850944517 12.265000343322756 -5249.9999999999991 0.45948542654514318 1.7757129073143008 -1.1805339455604551 1.4384112358093264 0.098662447184324278 0.65463021397590648 -0.044931996613740914 0.042503610253334052
decision_type=2 2 2 2 2 2 2 2 2 2 2 2 2 2 2 2 2 2 2 2 2 2 2 2 2 2 2 2 2 2 2 2 2 2 2 2 2 2 2 2 2 2 2 2 2 2 2 2 2 2 2 2 2 2 2 2 2 2 2 2 2 2
left_child=7 9 3 10 5 29 49 14 12 -2 -3 16 -6 -9 18 -12 17 -10 -1 21 -21 25 23 -23 -24 26 27 -7 -18 30 31 33 -32 -5 36 -36 37 38 39 -35 -38 58 -30 -44 55 47 -47 -11 -15 -4 -45 -28 -39 -34 -55 56 -14 60 59 -27 -58 -62
right_child=1 2 6 4 8 19 -8 13 11 45 15 -13 44 48 -16 -17 28 -19 -20 20 -22 22 24 -25 -26 41 51 -29 42 -31 32 -33 53 34 35 -37 40 52 -40 -41 -42 -43 43 50 -46 46 -48 -49 -50 -51 -52 -53 -54 54 -56 -57 57 -59 -60 -61 61 -63
leaf_value=0.0092663609088881136 0.078711930989596737 0.018992653275968548 0.0051675668562622991 -0.053747296292696672 -0.038859958968095229 0.11780150899557905 0.039104942851113288 0.011244041471865461 -0.057383104399502886 -0.043392118840467953 -0.053958965079379639 -0.065614695104364323 0.042808049410676147 0.038863775323890772 0.093574117894022812 -0.014035873528458767 0.066724249797684584 0.034506642469866719 0.079006514234473468 0.13048618099883985 -0.0051799783735083857 0.12201831897987676 -0.056414744528660105 0.030344420760479718 0.039344658184188371 -0.0058515104710498284 -0.053323765155999597 -0.0056677872483114483 0.058173150575620128 -0.034483172621064255 -0.038648465236672397 -0.065660278759404778 0.0095278842631163433 -0.043664681426401564 0.0064171300792313923 0.1063749625408891 -0.06166989460008148 0.0038452893291183194 0.073341149405183201 0.045733014297710303 -0.0057515818184912283 -0.059367010236720634 0.038081846888495835 -0.052682620585540164 0.028256843093982648 0.0050208098575596355 0.10434930793655782 0.040663520246960266 -0.024559530099316232 -0.043791733114600113 0.016846812311802968 0.014679452879324123 -0.059055962371217831 0.1107025950727457 0.027484782454282194 -0.065654026702361326 0.014795072270071053 0.036882341342068775 -0.021343757314148205 0.054890927181229947 -0.043067600568254552 0.0032057676435508446
leaf_weight=8.5202875137329084 23.249109715223312 8.330238461494444 7.5402948707342139 8.3183618634939176 61.853079825639725 5.6965617537498456 7.1106271594762793 50.231505930423737 7.381555572152136 6.2540754824876785 48.965348169207573 4.1478843390941611 5.4232898056507102 104.40293630957603 15.158171504735945 16.323864683508873 7.8182419240474692 4.5965035855770111 7.2845892906188991 6.0450945645570746 8.9128911942243558 6.586370915174486 3.9556434750556928 3.9910488575696945 4.9660077393054962 13.966800034046175 3.7415424585342398 4.8216936886310577 6.6021482348442104 24.609978958964348 3.730492606759074 8.8406924307346326 5.5890896469354674 8.5068777650594658 6.5909349173307419 5.3166206330060941 14.110678225755693 8.2904430925846082 7.6764550507068696 6.8913086652755728 9.9367200732231122 5.9400557875633231 8.5499650239944458 8.2419394850730878 8.7474984228610975 6.7104985266923887 5.8569264709949493 6.2524370551109332 4.434987559914588 107.4296597391367 5.8567308038473138 57.56622488796711 7.6073701679706565 6.1148402094840968 4.8706087321043015 6.3452651947736731 7.9996744394302359 6.1499223560094824 19.488173022866249 8.2258582115173322 37.909540578722954 12.223304703831671
leaf_count=40 97 40 39 46 354 26 33 247 43 34 297 23 28 477 63 89 36 21 30 27 42 30 20 20 24 69 20 25 32 139 21 49 27 45 33 25 79 43 38 34 54 31 40 47 44 34 27 30 22 634 30 282 42 27 22 35 43 31 97 39 210 66
internal_value=0 -0.00915892 -0.013384 -0.00850495 -0.0042525 0.00393112 -0.0359394 0.0346587 -0.0161649 0.05086 -0.036852 0.00674244 -0.0244741 0.0283736 0.0669474 -0.0439772 0.0128616 -0.022121 0.0414101 0.0164394 0.0496479 0.0128644 0.0460018 0.0874281 -0.00311274 0.00745492 0.0179498 0.0612017 0.0241655 -0.0101204 -0.00478575 -0.0136583 0.0354528 -0.00813574 -0.003072 0.0510474 -0.0132978 0.0022921 0.0219596 -0.00365561 -0.0385637 -0.00837439 0.0127903 -0.000438934 -0.013981 0.025035 0.0513119 -0.00136981 0.0362794 -0.0405807 -0.0237994 0.0105293 -0.026254 0.0521311 0.0738064 -0.0188392 -0.0145777 -0.0194191 -0.00110729 0.0166631 -0.0253753 -0.0317853
internal_weight=0 734.775 686.452 564.371 490.752 290.905 122.081 190.032 199.847 48.323 73.6195 53.195 146.652 159.069 30.963 65.2892 49.0471 11.9781 15.8049 153.904 14.958 138.946 19.4991 10.5774 8.92165 119.447 71.826 10.5183 37.069 137.001 112.391 92.0865 20.305 83.2458 74.9274 11.9076 63.0199 38.9725 23.0746 15.3982 24.0474 47.6209 29.2508 22.6486 84.7985 25.0739 12.5674 12.5065 108.838 114.97 14.0987 61.3078 15.8978 16.5745 10.9854 76.051 69.7057 64.2824 41.6808 22.1927 58.1325 50.1328
internal_count=4792 3913 3691 2985 2559 1476 706 879 1083 222 426 272 811 746 133 386 249 64 70 752 69 683 94 50 44 589 353 51 185 724 585 488 97 439 393 58 335 202 117 79 133 236 149 117 457 125 61 64 499 673 77 302 85 76 49 413 378 350 205 108 319 276
is_linear=0
shrinkage=0.05


Tree=7
num_leaves=63
num_cat=0
split_feature=0 10 1 2 12 11 12 8 12 17 16 4 12 0 11 2 18 4 16 3 7 0 7 0 18 0 2 0 8 2 3 18 8 6 1 13 8 6 2 12 2 12 12 7 7 6 5 2 7 0 7 6 0 1 0 2 7 7 7 10 7 9
split_gain=104.09 67.0524 28.1876 26.9201 17.1512 19.8922 16.9103 15.0885 14.1756 13.0905 12.784 12.3513 12.2832 10.1758 9.54471 9.65482 9.57823 10.0034 9.21477 8.94874 16.9469 10.0956 7.90595 7.77941 7.69619 8.35611 7.59853 7.06194 6.94328 6.89594 6.89474 8.12067 8.44957 6.61734 6.48646 8.86571 6.42181 6.41991 6.53784 6.46924 8.25559 6.75696 10.5192 9.67242 7.89096 6.30116 6.06397 7.25313 6.03514 6.03102 7.98647 8.63887 7.49533 6.0182 5.94325 5.71796 5.60831 7.53329 6.41315 5.58696 9.0087 7.89692
threshold=-0.095511730760335908 12.09500026702881 0.058445652946829803 -1.4517565965652464 12.494999885559084 12.414999961853029 12.434999942779543 1.8869253396987917 12.47499990463257 4050.0000000000005 37400.000000000007 -1.1783302426338194 12.055000305175783 0.032691605389118202 12.045000076293947 1.532513499259949 -3049.9999999999995 -1.1916580796241758 25550.000000000004 -1.2569688558578489 -1.3945057392120359 0.042503610253334052 1.4067185521125796 -0.00026704110496211792 450.00000000000006 -1.1054033637046812 -0.51385962963104237 -1.5989677309989927 1.8869253396987917 1.0321201086044314 -0.9619385004043578 -549.99999999999989 1.6831942796707156 0.31221438888888897 -0.028641424141824242 2550.0000000000005 1.7955476045608523 0.27686838888888893 -1.004224359989166 12.265000343322756 -0.077198881655931459 12.284999847412111 12.305000305175783 1.7105132937431338 -1.7727522850036619 1.9488220000000005 1.4090884923934939 -1.0721610784530637 2.8430212736129765 -1.8064852356910703 2.4497255086898808 1.4591517222222226 -1.4927726387977598 0.4283264428377152 0.0085418787784874457 0.33331410586833959 1.5328125953674319 1.8092047572135928 0.65057402849197399 12.50500011444092 -1.7528084516525266 12.59500026702881
decision_type=2 2 2 2 2 2 2 2 2 2 2 2 2 2 2 2 2 2 2 2 2 2 2 2 2 2 2 2 2 2 2 2 2 2 2 2 2 2 2 2 2 2 2 2 2 2 2 2 2 2 2 2 2 2 2 2 2 2 2 2 2 2
left_child=8 12 3 11 5 18 -7 19 14 -8 -4 -3 53 26 -1 16 56 -18 29 20 -6 46 -13 -22 25 28 -11 -19 -10 37 -29 -32 -33 -28 -14 -36 -37 -5 -39 40 54 -41 43 -43 -44 -34 47 -21 -45 -26 51 52 -51 -2 -40 -30 58 -58 -16 60 -9 -61
right_child=1 2 10 4 7 6 9 59 24 13 -12 22 34 -15 15 -17 17 27 -20 21 23 -23 -24 -25 49 -27 33 30 55 -31 31 32 45 -35 35 36 -38 38 39 41 -42 42 44 48 -46 -47 -48 -49 -50 50 -52 -53 -54 -55 -56 -57 57 -59 -60 61 -62 -63
leaf_value=0.11146816921618373 0.08734948252949673 0.022466836993087293 -0.035293260072864208 -0.024723879779316529 -0.057288876662922907 0.11486685135877482 0.027015178280871768 0.039293501401521803 -0.016761762961196174 0.017750700593182973 0.038128258076553095 -0.053937998423165337 0.066991129650210993 0.067963529695143729 0.0094861181332033494 0.084076380071074153 -0.015762342302803167 0.081827182111929977 0.060107677217589667 0.0044548169335634352 0.078856733659401601 0.021978576116226708 -0.013433547490320046 -0.0037984719981242728 0.088197559638535941 0.060773575534122971 -0.050711568393188161 0.099588225400784394 0.069804939264809809 -0.041521420558491492 -0.0054271164055134987 0.0030710321910363035 0.0912064505952173 -0.001156820221481355 -0.055007568256868637 0.0048766685731234912 0.076380275571422421 0.052343926504579065 -0.045620772699074975 -0.033746710422059172 0.064479380129170774 -0.0068895546813493016 0.029575255698262394 0.078758334942060179 -0.045307032740021756 0.038426750622382461 0.0071264951219806227 -0.04100084189282082 0.0080129285785437328 -0.038815342058219675 0.085409945380195432 0.045230657736930538 0.041203914339153387 0.026709004872765174 0.03661394082776679 -0.0033350036900183185 -0.06886332322460062 0.022138064396674286 0.075508585952096988 0.027090396861658889 -0.052846363784627995 -0.03988949175602903
leaf_weight=5.0435120463371268 18.283753365278248 7.9820857346057883 141.241280823946 34.61460967361927 6.2537003010511425 4.4231042712926856 84.027427241206169 4.0290613621473312 30.069260105490685 12.636072620749472 6.1884702295064917 46.945979565382004 6.4187488108873394 4.1459586918354026 14.03481942415238 11.604305744171141 5.9240019321441642 15.163378268480299 4.7941047549247733 9.7374451756477338 6.8730814903974542 9.0587657839059812 16.206071138381958 4.8594343364238712 4.5416444987058631 5.587086245417594 15.459978654980661 4.6984906047582546 4.9127589613199216 15.782441034913061 9.2742011547088534 7.7871521562338044 10.747753113508226 11.939518019556997 4.2242314666509655 10.041986942291258 4.568698287010192 5.7211534678935996 4.6985679566860217 20.396820262074471 7.3853255212306967 15.00904266536236 4.6121650934219387 8.0309191048145276 14.831509575247763 11.933966189622877 8.6599504649639112 88.868263646960258 4.8262756615877143 8.9501644521951693 4.8381122499704352 12.510881796479223 4.3481917083263424 5.2710298746824256 4.126929983496666 5.8592770993709564 4.3146161437034589 4.8089692145586014 4.9844098240137091 32.620450466871262 7.7663098126649839 5.0867852270603171
leaf_count=21 74 38 826 188 35 20 394 20 149 64 28 294 30 19 67 50 27 64 22 51 37 49 89 27 20 26 83 20 23 87 42 36 46 62 23 51 21 29 25 114 36 81 24 36 83 52 45 511 22 42 21 57 20 23 20 28 22 23 23 162 44 26
internal_value=0 -0.00879969 -0.0128638 -0.00750623 -0.00309109 0.00475629 0.0187462 -0.0149365 0.0325877 0.0154301 -0.0322113 -0.0361366 0.0478078 -0.00660318 0.0442753 0.0410562 0.0357268 0.0462047 -0.00805536 -0.0236334 0.00918831 -0.0287083 -0.0435438 0.0446222 0.0167899 0.00342307 -0.0143251 0.0523635 -0.00442248 -0.0103889 0.0423105 0.035539 0.0480084 -0.0291177 0.0235833 0.00879033 0.0272355 -0.00643452 0.000628046 -0.00289773 0.0254738 -0.00969065 0.000680683 0.0203748 -0.0275445 0.0634365 -0.0329889 -0.036512 0.0522022 0.0344261 0.0264577 0.0154067 -0.0126513 0.0737795 -0.00716664 0.0300216 0.0113295 -0.0208972 0.0267888 0.00865987 -0.0213732 0.0180547
internal_weight=0 728.648 679.839 532.409 461.275 277.462 132.632 183.813 191.937 128.209 147.43 71.1341 48.8084 44.1815 110.32 105.276 93.6718 65.5289 144.83 134.311 17.9862 116.324 63.1521 11.7325 81.6174 46.4284 40.0356 59.6049 40.8413 140.036 44.4416 39.7431 30.4689 27.3995 25.2537 18.8349 14.6107 124.253 89.6387 83.9176 16.2108 67.7067 47.3099 27.8662 19.4437 22.6817 107.266 98.6057 12.8572 35.189 30.6474 25.8092 13.2984 23.5548 8.8255 10.772 28.1428 9.12359 19.0192 49.5026 11.7954 37.7072
internal_count=4792 3913 3691 2837 2416 1409 642 1007 879 622 854 421 222 228 493 472 422 287 767 755 99 656 383 64 386 226 209 260 200 745 196 176 134 145 125 95 72 658 470 441 81 360 246 139 107 98 607 562 58 160 140 119 62 97 45 51 135 45 90 252 64 188
is_linear=0
shrinkage=0.05


Tree=8
num_leaves=63
num_cat=0
split_feature=0 10 0 2 12 9 18 8 11 0 12 7 8 13 7 17 7 0 18 7 6 0 0 0 17 1 0 9 0 2 12 7 7 13 16 8 7 0 12 2 2 0 9 7 12 4 13 2 2 11 8 17 1 13 16 15 8 2 8 13 11 0
split_gain=93.5668 60.4381 26.5455 23.4805 15.7729 16.5722 15.1338 13.1461 12.6024 11.4862 10.9929 8.50463 7.82411 7.56485 7.51685 7.42287 6.80543 6.69848 10.2516 9.35294 9.05409 8.89743 7.09493 6.55086 6.67939 12.3241 10.9168 6.54692 13.5623 6.3117 6.13919 13.3285 9.9764 9.03129 7.39904 7.20196 14.3611 9.97987 8.94868 8.16833 10.3062 10.5779 6.96647 6.113 8.10627 11.0173 11.2097 5.74828 5.67159 8.29543 6.05621 5.64637 5.63814 8.1046 5.84988 5.63053 8.21377 8.22257 10.4973 6.44141 11.5448 10.4921
threshold=-0.095511730760335908 12.09500026702881 1.3314223289489748 -1.4517565965652464 12.494999885559084 12.34999990463257 31050.000000000004 2.2348337173461919 12.265000343322756 -0.044931996613740914 12.055000305175783 1.4067185521125796 -0.55884587764739979 1150.0000000000002 2.4497255086898808 3850.0000000000005 -1.8050078153610227 -1.4003302454948423 3250.0000000000005 -1.4633123874664304 0.76472738888888903 -1.6431699395179746 -1.9175176620483396 -0.051626460626721375 4050.0000000000005 0.056710168719291694 0.031803414225578315 12.47499990463257 -0.00026948355662170792 -1.0332037210464475 12.305000305175783 1.7105132937431338 1.445386588573456 4950.0000000000009 1.0000000180025095e-35 1.313369154930115 -1.0573720932006834 -0.025882963091135022 12.275000095367433 0.12110726535320283 -0.12198827043175696 0.0085418787784874457 12.284999847412111 -2.37892735004425 12.50500011444092 -1.3700816035270689 4450.0000000000009 0.16594580560922625 -0.51385962963104237 12.47499990463257 1.5510789752006533 1850.0000000000002 -0.028641424141824242 2550.0000000000005 150.00000000000003 12475.000000000002 1.3636240959167483 -0.36244171857833857 1.8614047169685366 1950.0000000000002 12.47499990463257 0.040556091815233238
decision_type=2 2 2 2 2 2 2 2 2 2 2 2 2 2 2 2 2 2 2 2 2 2 2 2 2 2 2 2 2 2 2 2 2 2 2 2 2 2 2 2 2 2 2 2 2 2 2 2 2 2 2 2 2 2 2 2 2 2 2 2 2 2
left_child=8 10 3 9 5 30 -4 13 15 -3 -2 -11 -10 29 17 -1 -7 20 19 -19 22 51 -14 -18 25 55 48 -13 -29 -6 31 32 35 -33 -35 -5 38 -38 39 40 41 -37 -40 -9 -45 -46 -47 -36 50 -50 -26 -22 -12 -54 -55 -25 -57 58 -58 60 -59 -61
right_child=1 2 6 4 7 16 -8 43 12 11 52 27 14 -15 -16 -17 23 18 -20 -21 21 -23 -24 24 26 -27 -28 28 -30 -31 -32 33 -34 34 47 36 37 -39 42 -41 -42 -43 -44 44 45 46 -48 -49 49 -51 -52 -53 53 54 -56 56 57 59 -60 61 -62 -63
leaf_value=0.077047548594732687 0.069556499399878721 0.026439757235858393 -0.038467415951929172 -0.05234773031546474 0.0082541339937601682 -0.040950177015716203 0.04026643315671008 -0.036864586372062996 -0.029864009243519337 -0.053311760103799261 0.062108144004423806 -0.047161907626928769 0.051787021456672633 -0.015968425368498164 0.066184425852072917 0.025832253922934392 -0.039250585171818883 0.038190702954903559 -0.025047977798113276 0.10265530047159287 0.088707574229610398 0.018917860696989173 -0.0067258532294428896 -0.016980455637158404 -0.0087326752783762965 -0.026639780610597786 0.04898204071103264 -0.029851674948216833 0.087356359432662511 -0.061870323371195739 -0.032453169570186451 0.090839293329545448 -0.064455338448268285 -0.042773364252452234 0.075706708144730142 -0.041390306269646827 0.0057872350010905451 0.096757351973301278 -0.060180077413506575 -0.025434438579039299 0.067696257354917841 0.042257498286321943 -0.0047895544632914075 0.080706039430108012 -0.057637327346407155 -0.013882298116352797 0.086425923766407439 0.0038311317594066823 0.010658108281246997 -0.046004817792774592 0.063029453373790595 0.029244156772384192 -0.053785967504806333 -0.028178573587018113 0.044077120281305296 0.08190312970875567 0.030451942806760279 0.0050709582501107945 0.1047483046889479 0.0017163784466975767 0.11302327134572027 0.080075827150197815
leaf_weight=20.809526279568676 23.730617105960846 6.9063481837511054 109.7416954189539 8.0335443764924985 3.9785115122795132 5.3351354002952567 6.462739869952201 4.1225186884403255 6.2296927869319907 44.744274139404297 6.5730256140232113 8.0954247564077395 5.9599088579416266 150.11245177686214 11.498886093497275 10.718981832265852 5.0895632952451697 25.340134665369987 4.9026775211095801 7.2325284034013739 8.9528831392526644 44.843294262886047 39.623063653707504 5.4679773300886145 7.5534350425004941 9.9425295740365964 10.383619025349615 6.8418643921613693 3.8607849478721601 16.586739748716354 23.739097893238068 4.9354481548070934 8.4424381703138334 4.2794989794492713 4.8336431384086591 8.1734678447246498 6.6257878243923187 5.5320538878440839 13.428300470113756 15.640661552548407 7.8974832743406358 7.0303390622138968 9.8333520591258985 5.6893913596868542 4.2497730106115368 5.4926110208034462 5.6505167484283447 6.5528760999441147 11.265298679471018 15.140292823314665 4.8136231154203415 7.2049038410186759 4.1071528494358089 3.7610100805759421 10.976371318101881 8.5140136629343015 13.567734256386752 5.3021102696657234 7.3188831061124793 37.080855816602707 4.6475071460008621 4.8281065821647635
leaf_count=86 97 38 671 46 21 27 29 20 31 286 30 45 28 832 49 47 26 114 22 32 39 205 193 26 39 53 48 37 20 107 139 21 49 24 21 45 33 25 79 85 38 34 54 25 22 29 27 31 57 84 23 33 23 20 52 38 61 26 32 176 20 22
internal_value=0 -0.00844464 -0.0123493 -0.00781846 -0.00391635 0.00346258 -0.0340886 -0.014887 0.0307165 -0.0347993 0.0450836 -0.0414553 0.0250809 -0.0198646 0.0272813 0.0596355 0.0145483 0.0241761 0.0423589 0.0525046 0.0177829 0.0303803 0.000924622 0.0165103 0.0184564 0.0260871 0.00345001 -0.0132339 0.012429 -0.0483042 -0.00937027 -0.00444422 -0.0126956 0.0318583 0.0132769 -0.00737927 -0.00250805 0.0471804 -0.0122511 0.00246763 0.0213586 -0.00271102 -0.036765 0.0188198 0.0297085 0.0108593 0.0369825 0.0343427 -0.00874383 -0.021831 0.0191993 0.0621923 0.0222349 0.00832707 0.0256373 0.0321318 0.0354366 0.0299982 0.0564861 0.0193299 0.0554959 0.0107437
internal_weight=0 722.913 673.764 557.56 487.111 291.229 116.204 195.883 193.316 70.4487 49.1482 63.5423 161.788 170.678 155.558 31.5285 156.251 144.059 37.4753 32.5727 106.584 61.0011 45.583 150.916 145.826 96.6697 49.1563 18.7981 10.7026 20.5653 134.978 111.239 90.6374 20.6015 15.666 82.195 74.1614 12.1578 62.0036 38.742 23.1013 15.2038 23.2617 25.2048 21.0823 15.3929 11.1431 11.3865 38.7726 26.4056 12.3671 16.1578 25.4176 18.8445 14.7374 86.7272 81.2592 72.7452 20.8866 51.8586 9.94962 41.909
internal_count=4792 3913 3691 2991 2565 1482 700 1083 879 426 222 388 746 960 715 133 758 666 168 146 498 277 221 731 705 454 251 102 57 128 724 585 488 97 76 439 393 58 335 202 117 79 133 123 103 78 56 52 203 141 62 72 125 95 72 401 375 337 93 244 46 198
is_linear=0
shrinkage=0.05


Tree=9
num_leaves=63
num_cat=0
split_feature=0 10 0 2 12 9 15 8 12 0 6 5 9 0 7 13 11 0 2 2 8 8 11 2 12 7 8 13 17 18 8 0 10 8 8 4 7 9 0 0 17 1 0 7 12 7 7 7 13 16 8 7 12 2 2 0 9 12 2 18 7 10
split_gain=84.1782 54.5366 24.7141 21.8168 14.3507 14.9748 14.0512 12.1356 11.8962 10.6971 10.0828 8.56927 8.36587 10.032 8.20722 8.20683 8.11292 8.44848 7.89381 7.09345 7.3162 12.9102 7.29863 7.03936 6.98112 11.175 6.74497 6.67621 6.57266 6.4669 6.81981 6.5195 6.32264 6.19399 9.57783 8.31947 6.18568 6.05959 11.8469 5.94166 5.94402 11.0256 9.71893 5.89559 5.66956 12.041 9.44329 8.34934 7.9019 6.70129 6.51998 8.7873 8.38277 7.75248 8.53955 9.15194 6.86926 5.59783 5.56565 6.38417 5.42722 5.4082
threshold=-0.095511730760335908 12.09500026702881 1.3314223289489748 -1.4517565965652464 12.494999885559084 12.34999990463257 440443.00000000006 1.8869253396987917 12.47499990463257 -0.044931996613740914 0.033363611111111122 0.51259091496467601 12.59500026702881 -0.054906414821743958 1.4067185521125796 14250.000000000002 12.045000076293947 -1.1054033637046812 3.5349140167236333 1.502799451351166 1.3521168231964114 1.668640732765198 12.284999847412111 -1.0721610784530637 12.515000343322756 -1.7242998480796812 1.3043514490127566 1250.0000000000002 11550.000000000002 450.00000000000006 2.3046830892562871 -1.1054033637046812 12.50500011444092 1.7221454977989199 1.5272816419601443 0.9553421437740327 -1.8050078153610227 12.47499990463257 -0.00026948355662170792 -0.051626460626721375 4050.0000000000005 0.056710168719291694 0.031803414225578315 1.4582383632659914 12.305000305175783 1.7105132937431338 1.445386588573456 0.19740223139524463 4950.0000000000009 1.0000000180025095e-35 1.4417881369590761 -1.0573720932006834 12.275000095367433 0.12110726535320283 -0.12198827043175696 0.0085418787784874457 12.284999847412111 12.265000343322756 -0.13688073307275769 750.00000000000011 -0.83243057131767262 12.515000343322756
decision_type=2 2 2 2 2 2 2 2 2 2 2 2 2 2 2 2 2 2 2 2 2 2 2 2 2 2 2 2 2 2 2 2 2 2 2 2 2 2 2 2 2 2 2 2 2 2 2 2 2 2 2 2 2 2 2 2 2 2 2 2 2 2
left_child=8 10 3 9 5 44 26 15 16 -3 -2 -12 13 -9 -11 18 -1 19 23 20 -18 22 43 -6 25 58 -4 -25 -23 30 31 61 -27 34 35 -17 -7 -16 -39 -38 41 -41 -42 -22 45 46 47 50 -47 -50 -5 52 53 54 55 -52 -54 -55 -15 -60 -44 -10
right_child=1 2 6 4 7 36 -8 12 29 14 11 -13 -14 24 37 33 17 -19 -20 -21 21 28 -24 27 -26 32 -28 -29 -30 -31 -32 -33 -34 -35 -36 -37 39 38 -40 40 42 -43 60 -45 -46 48 -48 -49 49 -51 51 -53 56 57 -56 -57 -58 -59 59 -61 -62 -63
leaf_value=0.10090094330196936 0.078186638461026525 0.024790724756302344 0.0087110546732070727 -0.049132910390393691 0.006531875512987069 -0.039659609034738558 0.034093665697950144 0.067357490226646818 0.0026324906475185695 -0.052381845993370868 0.050146545906721331 0.00051494472808774432 -0.045488906849187515 0.082707342129684197 -0.045972945643943532 -0.04801337776591251 0.081739668192633452 -0.030153102300724571 0.046505260782660755 0.074640724855483828 0.060589586715835288 0.04796302329342534 -0.025835348355371913 -0.061551968650634885 -0.039294506813633008 -0.051191081629074854 -0.041092373521897513 -0.02785842059822068 -0.012444734891086901 0.030541908016006356 0.061504045303634007 0.048791706556451153 0.01326380151072034 -0.038652931753001232 0.07115599662938614 0.042267288735682293 -0.037993222714469338 -0.02880787353363979 0.079674612649651214 0.030241859287549522 -0.0083713825797069232 -0.025657012035445011 0.011469586321000737 -0.015520927334187133 -0.03141836937189342 0.084611698525171905 -0.06355855576668458 0.063050790819400543 -0.041582713840322756 0.032323716295940177 -0.039191320081284807 0.048024150352476196 -0.059237608726802699 0.0034487661244277305 0.062606436964507531 0.039464441238742209 -0.0035085287439111674 -0.056929080937773595 0.056264353630647405 -0.023574447359336607 0.083275968469291001 -0.037528940295239378
leaf_weight=5.1439118087291709 14.166811078786848 6.9950892925262442 7.2983315140008918 9.6754419654607755 12.181479856371878 5.2358650714159003 7.2853339761495581 7.3404129743576041 24.372460931539536 43.298493310809135 19.71105007827282 15.564260885119436 6.842767894268035 5.7559475749731055 7.8946936726570156 5.7267084568738991 7.5513294637203208 4.5367893874645224 3.5286435931920996 12.641300812363623 6.3327328264713305 53.709944814443588 13.079588443040846 17.759136721491814 7.6179258823394767 7.0492787361145028 99.230257362127304 85.40527081489563 4.9149973839521399 35.804073706269264 4.4054324626922599 5.1612375080585471 8.2664930522441864 5.7638654112815848 6.1183723658323279 4.6027694195508957 4.9974722415208808 6.737967625260354 4.017058610916135 87.485700234770775 38.547420784831047 9.8106212019920331 5.5043696314096451 4.2531992793083191 23.306103318929672 5.0311256051063564 8.1411157846450788 4.0335387289524069 4.1843770593404761 11.487379342317579 7.662361457943911 6.9457006901502671 12.971449613571169 8.2985236197710019 8.1068569719791395 7.1483358293771744 9.638037756085394 7.1433932334184638 5.6970845460891706 4.4672988057136536 5.041634261608122 12.776946008205412
leaf_count=21 61 38 39 56 64 27 33 33 118 286 89 72 37 27 45 32 34 21 19 53 28 230 63 117 43 41 628 489 23 160 20 23 41 33 32 25 26 37 20 401 203 53 27 20 139 21 49 19 24 52 43 32 79 43 38 34 53 42 26 24 21 65
internal_value=0 -0.00811213 -0.0118665 -0.0075029 -0.00375826 0.00327723 -0.033086 -0.0142829 0.0289632 -0.0338196 0.0425571 0.028248 0.00610688 0.0137497 -0.0404377 -0.0219479 0.0395646 0.0366165 -0.0271605 0.0395723 0.034638 0.0303157 -0.0008549 -0.0294141 0.00362202 0.0140886 -0.0376803 -0.0336586 0.0428986 0.0145535 0.00229969 -0.00386473 -0.0164024 0.00594986 0.0215801 -0.00778471 0.0137705 -0.0127075 0.0117109 0.0156184 0.0174487 0.0246054 0.00326489 0.03001 -0.00900837 -0.00428038 -0.0122081 -0.00708637 0.0300929 0.0125906 -0.0107325 -0.00526176 -0.0113322 0.00290153 0.0213526 -0.00122837 -0.0354813 -0.0244819 0.0434217 0.0211748 0.0457974 -0.0111804
internal_weight=0 716.72 667.278 553.464 484.52 290.397 113.814 194.123 194.684 68.9433 49.4421 35.2753 53.0372 46.1944 61.9482 141.086 112.164 107.02 118.875 102.483 89.8418 82.2905 23.6655 115.346 38.854 31.2361 106.529 103.164 58.6249 82.5202 46.7161 42.3106 15.3158 22.2117 16.4479 10.3295 156.623 18.6497 10.755 151.387 146.39 97.2963 49.0934 10.5859 133.774 110.468 89.7648 81.6236 20.7029 15.6718 77.5901 67.9147 60.969 38.3595 22.9176 14.8107 22.6095 15.4419 15.9203 10.1644 10.546 37.1494
internal_count=4792 3913 3691 2991 2565 1482 700 1083 879 426 222 161 272 235 388 811 493 472 689 451 398 364 111 670 202 159 667 606 253 386 226 206 82 122 89 57 758 102 57 731 705 454 251 48 724 585 488 439 97 76 420 364 332 200 115 77 132 85 77 50 48 183
is_linear=0
shrinkage=0.05


Tree=10
num_leaves=63
num_cat=0
split_feature=0 12 0 13 12 3 4 16 18 0 12 7 9 11 6 2 9 6 16 2 9 2 10 2 2 18 7 6 2 3 2 18 0 7 9 16 7 12 0 0 8 2 7 8 13 12 7 7 2 1 4 4 7 16 4 18 2 9 3 2 7 7
split_gain=75.8203 49.7998 25.3999 22.5241 17.9082 18.652 13.7135 16.6907 13.0088 12.4384 11.7274 10.7868 12.6556 10.6914 8.06347 7.89781 7.22705 7.29659 7.46124 6.74635 6.57566 6.55469 12.2885 11.3869 6.98314 6.58159 6.36776 6.36051 6.30071 5.99768 5.98269 6.44124 6.13268 5.97255 7.02937 5.9308 5.77075 19.4809 8.4859 10.1354 12.4456 9.51211 6.3249 12.9927 5.70015 5.69618 5.69 5.6081 5.4637 5.42924 5.29242 5.49727 8.42854 5.61182 6.39711 6.27999 5.96763 6.14532 5.26833 6.67913 5.259 13.1762
threshold=-0.095511730760335908 12.055000305175783 1.3314223289489748 1150.0000000000002 12.50500011444092 1.051720976829529 -0.51304489374160755 1.0000000180025095e-35 31050.000000000004 -0.060554455965757363 12.565000057220461 -1.2540299296379087 12.59500026702881 12.265000343322756 1.5074418333333335 -1.6493021845817564 12.59500026702881 0.74544816666666669 12150.000000000002 -0.3205199241638183 12.484999656677248 -0.85272473096847523 12.484999656677248 -1.6493021845817564 -1.0721610784530637 -249.99999999999997 -1.4329272508621214 2.1248978333333337 1.4008888006210329 -1.5065857172012327 0.29102134704589849 3350.0000000000005 -1.68059366941452 -1.6278378963470457 12.454999923706056 3250.0000000000005 -1.7187434434890745 12.515000343322756 0.024284778162837032 0.025363544002175335 1.5272816419601443 -0.036866659298539155 1.9878098368644717 1.6479471325874331 2550.0000000000005 12.275000095367433 -1.2255674004554746 -1.6044152379035947 -0.43857800960540766 0.4283264428377152 -0.44513329863548273 0.99122455716133129 -1.611808657646179 650.00000000000011 1.0541777014732363 -9949.9999999999982 -0.48779374361038202 12.404999732971193 -0.67491185665130604 -0.27802307903766627 -1.3571804165840147 -1.7187434434890745
decision_type=2 2 2 2 2 2 2 2 2 2 2 2 2 2 2 2 2 2 2 2 2 2 2 2 2 2 2 2 2 2 2 2 2 2 2 2 2 2 2 2 2 2 2 2 2 2 2 2 2 2 2 2 2 2 2 2 2 2 2 2 2 2
left_child=13 49 3 -3 5 6 20 26 -4 10 -6 12 -12 19 33 -11 17 18 -15 48 -5 22 23 -9 -24 46 29 -16 30 47 31 60 -32 -7 45 -22 37 44 42 -40 -41 -42 -38 -44 -17 -35 -25 -8 -1 -2 -23 52 58 54 -53 -56 -57 -58 -52 -60 61 -19
right_child=1 2 8 4 9 14 7 21 -10 15 11 -13 -14 16 27 36 -18 28 -20 -21 35 50 24 25 -26 -27 -28 -29 -30 -31 32 -33 -34 34 -36 -37 38 -39 39 40 41 -43 43 -45 -46 -47 -48 -49 -50 -51 51 53 -54 -55 55 56 57 -59 59 -61 -62 -63
leaf_value=0.057787172019085613 0.076034587093899361 -0.041854228876037167 -0.036226740300954595 -0.028708724441349615 0.080014250985864038 0.067344800582802788 -0.048436762606485634 -0.038677648112333228 0.036184406702414178 -0.062444382824846358 0.059321394463498392 -0.064521050826207002 -0.039810819349190354 0.0049078919626579093 -0.053799708171996065 0.1021892098753447 -0.034582480146187394 0.068331500170106627 0.063857880303137229 0.073528689193278263 0.036059739175856753 0.048797210512357497 0.09375196911140779 0.089085293552413528 0.015305469255304405 -0.021171837206868865 -0.03278965286274451 0.025496374371114468 0.064846138861708078 0.056843348433686686 0.047066258822153026 -0.0084757023383582649 0.0022468469840087398 0.046502722983556781 0.034925830222927105 -0.032318895652254563 -0.048067831384551341 -0.047153388365043195 0.066343012044300084 -0.044035239385121605 -0.038321792617345064 0.061576771864106518 0.063408582862128304 -0.05558757559071123 0.019825529427238708 -0.014404602857761488 0.016086185496960132 0.024958624649509001 -0.0059994502515259892 0.019262154008809221 -0.024683498119864904 0.079012173883963102 -0.012614679913795057 -0.014120309820078308 -0.018794803810541178 0.087935743850558995 -0.0058871775132676831 0.060945813625358218 -0.0084400885821901261 0.0500193937428587 0.069906337400168564 -0.0087930108102151419
leaf_weight=6.9403936564922333 18.483957290649418 40.713475495576859 105.92902405560017 63.082424625754356 5.2147423923015621 8.8110133707523328 5.5843534916639319 8.6079903542995435 6.5882646739482871 13.125402837991713 7.975198239088062 5.3825571388006184 5.3991231471300125 55.33200541138649 5.7002552449703199 4.0521721988916415 5.4186354279518119 11.821917146444315 5.9442855119705191 18.402343153953552 8.2705798298120481 6.5543562024831763 8.6095876991748792 5.5815557390451405 4.2310483753681174 3.9755665212869671 38.82903416454792 4.5454385578632355 13.146063357591627 4.144606724381446 10.24545796215534 5.8487056493759146 29.924722388386726 5.0208022892475155 43.90522812306881 5.1430890411138526 40.523613780736923 8.7202669531106931 4.1610393822193172 16.796054869890217 3.71992027759552 6.6294957846403104 4.1541813015937787 5.1224378794431686 4.3618477433919907 16.304354086518288 5.1163630783557901 4.8744841814041129 6.5023725032806414 5.45369629561901 5.3214484751224544 5.2096885144710567 71.677466973662376 10.297905072569845 7.948808595538142 4.0552496612072053 9.0953291058540291 5.5313296616077414 7.2915241271257463 14.809848412871355 15.833124548196794 10.418262749910356
leaf_count=29 74 257 677 354 25 39 31 56 29 85 39 31 29 265 29 20 26 51 26 74 41 32 46 28 23 20 222 22 55 19 45 26 135 24 207 26 238 51 23 96 21 36 21 29 21 87 26 27 30 23 26 25 376 55 42 20 47 27 37 74 70 47
internal_value=0 -0.00779266 -0.0102639 -0.00600707 -0.00327127 0.00206992 -0.00353854 0.00239502 -0.0319868 -0.0189837 0.0136879 -0.00475196 0.0193024 0.0273488 0.0229531 -0.0260163 0.022199 0.02414 0.0106265 0.0538593 -0.0219488 0.00954178 0.0286349 0.00697681 0.0679035 0.0337593 -0.0222042 -0.0186205 0.0326558 0.00594146 0.0276235 0.0403776 0.0136781 0.0287059 0.0234868 0.0098419 -0.0211494 0.0052161 -0.0267192 -0.00632116 -0.0174596 0.0256699 -0.0395423 -0.00229967 0.0594917 -6.45607e-05 0.0541729 -0.0142298 0.0269331 0.0631002 0.00487522 0.00283696 -0.00359537 0.0179644 0.0283413 0.0184287 0.0342667 0.0193869 0.0199792 0.0307329 0.0478823 0.032203
internal_weight=0 710.637 686.7 574.182 533.469 398.131 313.844 237.348 112.517 135.338 23.9716 18.7569 13.3743 195.778 84.2871 111.366 163.933 158.515 61.2763 31.8451 76.4961 183.915 36.1221 23.2815 12.8406 14.6735 53.4325 10.2457 97.2383 14.6034 84.0922 43.922 40.1702 74.0414 65.2304 13.4137 98.241 17.1343 81.1067 31.3065 27.1455 10.3494 49.8002 9.27662 8.41402 21.3252 10.6979 10.4588 13.4428 23.9377 147.793 141.239 99.1003 42.1383 31.8404 26.6307 18.6819 14.6267 27.4228 22.1014 38.0733 22.2402
internal_count=4792 3913 3816 3110 2853 2088 1680 1259 706 765 124 99 68 879 408 641 746 720 291 133 421 960 199 130 69 74 299 51 429 77 374 194 180 357 318 67 556 92 464 176 153 57 288 50 41 111 54 58 59 97 761 729 513 216 161 136 94 74 137 111 168 98
is_linear=0
shrinkage=0.05


Tree=11
num_leaves=63
num_cat=0
split_feature=0 10 0 2 12 9 15 8 12 0 12 7 11 0 8 13 2 2 11 7 2 2 8 6 2 12 6 8 8 7 6 0 16 6 17 8 2 0 1 17 8 3 10 8 8 7 5 13 8 17 1 0 16 2 0 8 6 0 9 0 8 13
split_gain=68.3419 45.1343 21.3921 19.5047 12.3839 12.4596 12.2049 10.6044 9.80876 9.5359 8.56061 7.79949 7.22277 7.17971 6.49734 6.47278 6.16564 5.91418 6.35875 5.75202 21.5115 8.48019 12.9781 7.06005 6.86229 6.96765 11.6486 6.04777 5.64229 9.37689 6.8641 8.98655 7.73969 6.40071 5.62936 5.6497 5.72172 5.58326 11.9747 9.29551 7.91563 7.39055 5.55789 5.54248 10.7026 5.52688 6.85332 12.574 5.47765 5.63942 8.05026 10.0324 10.4299 6.34579 8.14892 6.69861 5.71008 5.38609 5.37989 13.1045 5.3244 8.22843
threshold=-0.095511730760335908 12.09500026702881 1.3314223289489748 -1.4517565965652464 12.494999885559084 12.34999990463257 440443.00000000006 2.2348337173461919 12.47499990463257 -0.044931996613740914 12.055000305175783 1.4067185521125796 12.045000076293947 -1.1054033637046812 1.3043514490127566 1150.0000000000002 -1.0332037210464475 1.532513499259949 12.265000343322756 2.0940080881118779 0.61919322609901439 1.0321201086044314 1.7896141409873965 1.2251956111111113 0.021840143948793415 12.434999942779543 1.9170015555555555 1.1386705636978152 -0.29552176594734186 2.4497255086898808 1.4591517222222226 -1.5061482787132261 1050.0000000000002 0.31955805555555561 12450.000000000002 1.3285976052284243 0.6121654510498048 0.042503610253334052 0.029154481366276744 1750.0000000000002 1.8567129373550417 -1.1539919376373289 12.315000057220461 1.3636240959167483 1.5769535899162295 -2.37892735004425 0.24403113871812823 8450.0000000000018 1.246870279312134 950.00000000000011 6.1578672696171411e-15 -0.017651258036494252 7050.0000000000009 0.053184062242507942 -0.030350264161825177 1.8509024381637575 0.46008538888888895 0.03756507299840451 12.47499990463257 -0.00024327643768629056 1.7955476045608523 3750.0000000000005
decision_type=2 2 2 2 2 2 2 2 2 2 2 2 2 2 2 2 2 2 2 2 2 2 2 2 2 2 2 2 2 2 2 2 2 2 2 2 2 2 2 2 2 2 2 2 2 2 2 2 2 2 2 2 2 2 2 2 2 2 2 2 2 2
left_child=8 10 3 9 5 42 14 15 12 -3 -2 57 -1 17 -4 16 -6 18 -14 21 -21 24 -23 -24 25 26 -7 -27 -10 30 31 -30 -32 -33 35 -26 -37 38 39 40 -29 -41 48 -20 -45 -9 -47 -48 -5 50 51 -50 -53 54 -51 56 -56 -11 -13 -60 -12 -62
right_child=1 2 6 4 7 19 -8 45 28 11 60 58 13 -15 -16 -17 -18 -19 43 20 -22 22 23 -25 34 27 -28 37 29 -31 32 33 -34 -35 -36 36 -38 -39 -40 41 -42 -43 -44 44 -46 46 47 -49 49 53 -52 52 -54 -55 55 -57 -58 -59 59 -61 61 -63
leaf_value=0.093226450008572936 0.059943850553566824 0.022437934755938846 0.010102917348037381 -0.049127048849014532 0.010549780965706149 0.097082659258466972 0.030862505409480163 -0.036480025829208902 -0.032151210360871506 -0.056559866129341586 -0.0045723461607838547 -0.044086176666692581 0.055131986935714042 -0.029255829489165049 -0.039158030023085613 -0.014365162163881499 -0.060095852825874332 0.068074783200289174 0.066180439631514584 0.11178768796500818 -0.007941736582247819 0.07602279064429919 -0.055856128759047087 0.033637536132934201 0.040836727652611732 0.057020176748690643 -0.0068027983501610326 0.0084910771263890152 -0.014657449174120141 0.080429617923394217 -0.0085621551537747205 0.064452287658748914 0.049367381609505059 -0.0076081331109735311 -0.057324796084485576 -0.027461900129041747 0.012992386396639841 -0.03972638598239496 0.087154958201540553 0.0077514639922804246 0.081374621616788559 -0.050283353732765872 -0.06318465385022802 -0.0318740079474511 0.027403175678402687 0.070124087073801633 0.043555865549076922 -0.052343961831843658 -0.034821873195964741 -0.043330411914658182 -0.030910832643273108 0.0045587541477600801 0.10392898628487079 -0.0087640773289951474 0.013624372347011797 -0.004152326590688849 0.070139393375589332 0.0078683211722335392 -0.029763736939459742 0.085587075136529495 0.0025292236193470603 0.081641906325136876
leaf_weight=5.1560094505548468 23.938422024250031 7.1037252247333518 7.2033666819334021 7.0566297918558112 3.8928324878215816 6.0740172863006574 7.3927949517965308 4.0681012123823193 6.4384595602750769 37.469404980540276 12.740979328751566 7.567991808056834 21.01426987349987 4.4887233823537818 94.617484986782074 146.51910687983036 14.947850763797758 12.174562200903891 6.9568249583244315 6.3959266841411582 9.0737101286649686 11.010114237666132 3.8748990446329099 5.1098625659942627 6.0341099500656119 5.6511590778827658 4.8554347455501556 19.367324218153957 31.537786617875096 5.3492839783430091 8.315263584256174 7.5579059720039385 18.80616383254528 5.2030180096626282 5.596589893102645 22.001156002283096 14.501704797148703 6.8003476709127417 4.4189881384372702 10.522957295179362 4.6125846207141867 11.460188269615179 4.4459461420774451 8.8415100425481779 54.880955293774605 6.4505188316106823 9.2993734776973707 5.4045300185680381 7.6768080890178707 4.1584824770689037 33.412775650620461 7.6785341650247556 4.0247456282377243 35.524332746863365 7.2384868115186753 8.8636933267116529 11.683509200811384 3.5513080805540076 6.9835065603256234 3.8030009716749165 6.7992723733186704 6.3621864914894104
leaf_count=21 97 38 39 43 21 26 33 20 32 263 64 45 86 21 628 832 107 50 31 27 42 50 20 24 29 26 25 90 152 22 38 35 83 24 31 109 69 35 19 55 20 61 27 43 241 30 45 28 43 22 194 43 21 190 38 45 58 23 39 18 34 27
internal_value=0 -0.00747991 -0.0109681 -0.00692871 -0.0034113 0.00311112 -0.0311692 -0.0133062 0.0258484 -0.0323101 0.0383886 -0.0388602 0.0354074 0.0326562 -0.035673 -0.0179125 -0.0454992 0.0353318 0.0309843 0.012609 0.0415604 0.00945263 0.0396335 -0.0049588 0.00450202 0.0140853 0.0509313 0.00767619 0.012808 0.0165786 0.0117963 -0.00033239 0.0316065 0.0350711 -0.010184 -0.00398168 -0.0113904 0.00279967 0.00853965 0.000981406 0.0225104 -0.0225031 -0.00823192 0.0238048 0.0191784 0.0168928 0.0271567 0.00830716 -0.00631297 -0.00380075 -0.0160409 0.00959601 0.0387321 0.00577695 0.0219477 0.0317174 0.0485199 -0.0509821 -0.0117688 0.0109055 0.0184678 0.0407719
internal_weight=0 705.241 655.4 546.186 479.707 289.125 109.214 190.582 196.721 66.4789 49.8409 59.3752 113.513 108.357 101.821 165.36 18.8407 103.868 91.6936 157.361 15.4696 141.891 19.9949 8.98476 121.897 73.763 10.9295 62.8335 83.2079 76.7694 71.4201 44.2987 27.1214 12.7609 48.1336 42.537 36.5029 57.1824 50.382 45.9631 23.9799 21.9831 131.764 70.6793 63.7225 25.2225 21.1544 14.7039 127.318 120.261 52.7929 19.3801 11.7033 67.4685 31.9442 27.7857 18.922 41.0207 18.3545 10.7865 25.9024 13.1615
internal_count=4792 3913 3691 2991 2565 1482 700 1083 879 426 222 388 493 472 667 960 128 451 401 758 69 689 94 44 595 357 51 306 386 354 332 211 121 59 238 207 178 280 245 226 110 116 724 315 284 123 103 73 697 654 301 107 64 353 163 141 96 286 102 57 125 61
is_linear=0
shrinkage=0.05


Tree=12
num_leaves=63
num_cat=0
split_feature=0 10 1 2 12 11 12 8 4 11 16 6 17 3 7 0 4 0 5 7 16 7 2 9 0 8 2 1 17 16 2 2 11 6 2 8 6 2 2 6 0 6 12 11 6 9 12 7 7 7 9 2 0 13 3 6 18 7 18 7 6 18
split_gain=61.6638 40.8492 19.98 19.4206 11.2826 12.6496 12.3492 10.5303 9.39008 8.83904 8.60286 8.18228 8.10499 7.72256 14.9804 9.01424 8.45335 7.60337 7.35485 7.22087 7.0542 6.97942 6.45868 6.45581 6.75569 6.63741 10.098 6.4352 6.07493 5.9299 6.22316 5.58055 5.39895 6.4053 5.34599 9.33539 5.2972 5.22483 6.14411 5.0972 8.8064 4.97817 5.3253 6.59299 5.44974 5.0693 6.36336 7.68428 5.88414 5.29392 4.92606 8.2815 4.90445 4.76089 4.70586 4.6205 5.49643 5.21596 11.2507 6.03231 4.61914 6.07092
threshold=-0.095511730760335908 12.09500026702881 0.058445652946829803 -1.4517565965652464 12.494999885559084 12.414999961853029 12.434999942779543 1.8869253396987917 -1.1783302426338194 12.265000343322756 37400.000000000007 0.033363611111111122 4050.0000000000005 -1.2569688558578489 -1.3945057392120359 0.042503610253334052 -1.606718063354492 0.032691605389118202 0.51259091496467601 1.4067185521125796 25550.000000000004 1.6013841032981875 1.0321201086044314 12.59500026702881 -1.1054033637046812 1.7337623834609988 1.4008888006210329 1.4129860154236128e-14 3850.0000000000005 11150.000000000002 0.6121654510498048 0.66968411207199108 12.494999885559084 0.74544816666666669 1.0321201086044314 1.3346687555313113 0.30352561111111115 1.4008888006210329 -1.0721610784530637 0.2599900555555556 -1.4739258885383604 0.27686838888888893 12.265000343322756 12.25500011444092 1.8453048333333335 12.284999847412111 12.305000305175783 1.7105132937431338 -1.6183405518531797 2.8430212736129765 12.275000095367433 0.053184062242507942 -0.016917682252824303 8050.0000000000009 -0.99594181776046742 0.29660666666666669 5750.0000000000009 -1.0820755362510679 450.00000000000006 -1.2373650670051572 0.57282616666666686 3650.0000000000005
decision_type=2 2 2 2 2 2 2 2 2 2 2 2 2 2 2 2 2 2 2 2 2 2 2 2 2 2 2 2 2 2 2 2 2 2 2 2 2 2 2 2 2 2 2 2 2 2 2 2 2 2 2 2 2 2 2 2 2 2 2 2 2 2
left_child=9 11 3 8 5 20 -7 13 -3 28 34 -2 -8 14 -6 16 -15 21 -13 -10 22 -14 41 24 25 26 29 36 -1 30 39 -23 -27 -34 -4 -36 -16 38 52 -11 -41 -5 43 44 -43 50 47 60 -48 -49 51 -44 -18 -28 -21 56 -40 58 59 -57 -47 -62
right_child=1 2 10 4 7 6 12 -9 19 23 -12 18 17 15 27 -17 37 -19 -20 54 -22 31 -24 -25 -26 32 53 -29 -30 -31 -32 -33 33 -35 35 -37 -38 -39 55 40 -42 42 45 -45 -46 46 48 49 -50 -51 -52 -53 -54 -55 -56 57 -58 -59 -60 -61 61 -63
leaf_value=0.064245375539419142 0.06827525812849683 0.018318328108806427 -0.036066193613968817 -0.021459948179014126 -0.054945360143889913 0.094695668032070704 0.020868622643005694 0.0073374208464635927 -0.050136711863583032 -0.0208774086275542 0.028564593988239847 0.043622855651397167 -0.026996465915945879 0.068089007937500209 0.11140412527366693 0.023173939369431722 0.040651661402678049 0.057699587693854443 -0.0021881056495773616 -0.032290526612483536 0.052316152154895525 0.04160893917822131 -0.039663660403190588 -0.03406644731940886 0.064993806461117229 0.036985463146982429 0.022053559982285392 -0.0062516154765868319 0.018224453213193652 0.051914547684734184 -0.033512327681807057 -0.030201188079817306 -0.041466457310821082 0.023938260333278252 0.059865344572046522 -0.022865562574442222 0.027823143626336328 0.015927330699862987 -0.060101579046610343 0.032466110419394852 -0.025009234509818037 0.040128940688669082 0.028526367926205134 0.081528971040381232 -0.02564220062192446 -0.033503979460612239 0.013759169501388835 0.069016351389218952 -0.041280696332485767 0.0043139851968386064 -0.057442378782251551 -0.053302506256900688 -0.02956437370775615 0.091106146016543765 0.024207431547088838 -0.0025214268521578137 -0.0081707331011092281 -0.046608603337546815 -0.041702690704522725 0.075728656239122491 0.059745372187499285 -0.021295344868189944
leaf_weight=21.031997829675678 14.34562763571739 8.1648882478475553 98.955256745219231 32.776461735367775 5.8121199607849148 4.6809413731098166 86.509757593274117 49.288539841771126 40.606767490506172 13.131038725376127 6.474652722477912 19.991684779524803 26.620000392198563 2.1846612989902487 3.8883353322744352 8.957427501678465 4.6138876974582672 4.2709279060363761 15.596761554479597 9.317344203591345 4.9098207652568808 8.3867657482624036 14.971656396985052 5.378524810075759 8.5027029365301114 58.335803687572479 5.1907132714986783 4.2399860173463821 10.880573749542235 5.2985454350709906 13.226788178086279 3.9938700199127188 5.1254007965326336 13.882461071014403 3.9377140849828747 25.437184244394302 3.699213370680809 5.5124939680099478 31.33295750617981 23.284715563058842 9.3371178656816571 6.6082564145326632 7.209343299269678 4.134425848722457 6.0174842476844788 7.5546002835035386 8.3826677203178424 8.844708099961279 11.541773006319998 4.91992263495922 7.6371433883905402 5.4139204621315002 5.3946049064397794 4.8084499388933182 6.0977001935243598 6.5896888226270676 6.0847963243722907 20.290075778961189 13.997938007116316 3.9328800141811318 4.6191720068454725 4.6245787143707275
leaf_count=86 61 38 639 188 35 20 394 252 294 65 28 89 147 11 20 49 24 19 72 55 22 41 87 26 36 250 22 24 47 23 65 21 25 62 21 166 20 31 208 108 44 32 38 19 33 42 43 38 71 22 47 34 29 20 34 40 34 121 86 23 24 27
internal_value=0 -0.00718273 -0.0105334 -0.00604493 -0.00237843 0.00395316 0.0149093 -0.0122683 -0.0317757 0.0244609 -0.0276689 0.0363964 0.0120315 -0.0199054 0.010785 -0.0248771 -0.0291841 -0.00563581 0.023546 -0.0390766 -0.00655712 -0.0125716 -0.00869423 0.019815 0.0216249 0.0191928 0.0085177 0.0430854 0.0485546 0.00124644 -0.00330542 0.0184437 0.0294448 0.00630212 -0.030506 -0.0117755 0.0706553 -0.0313581 -0.0341841 0.00542715 0.0160153 -0.0048395 0.00138575 0.0267274 0.00878212 -0.00461769 0.00386082 0.0181932 -0.0181242 0.0458896 -0.0257455 -0.00656876 0.00280503 0.0552599 -0.00994174 -0.0386862 -0.0516567 -0.0278556 -0.0123381 0.0267251 -0.00450145 0.0192013
internal_weight=0 699.373 649.439 514.635 450.448 274.628 134.462 175.82 64.1867 197.415 134.805 49.9341 129.781 126.531 17.6397 108.891 99.934 43.2716 35.5884 56.0218 140.166 39.0006 135.256 165.502 160.124 151.621 74.2774 11.8275 31.9126 64.2782 58.9797 12.3806 77.3437 19.0079 128.33 29.3749 7.58755 97.7493 92.2368 45.7529 32.6218 120.284 87.508 16.7602 12.6257 70.7478 50.4874 30.563 19.9244 13.7646 20.2604 12.6233 10.0085 9.99916 15.415 82.2283 37.4178 44.8106 24.5205 10.5226 16.7984 9.24375
internal_count=4792 3913 3691 2837 2416 1409 642 1007 421 879 854 222 622 755 99 656 607 228 161 383 767 209 745 746 720 684 347 64 133 305 282 62 337 87 826 187 40 596 565 217 152 658 470 84 65 386 267 153 114 60 119 72 53 42 89 512 242 270 149 63 93 51
is_linear=0
shrinkage=0.05


Tree=13
num_leaves=63
num_cat=0
split_feature=0 9 12 3 7 12 0 4 16 8 6 6 8 8 2 0 18 0 0 2 13 15 3 6 13 7 12 0 0 8 3 7 6 2 9 2 4 2 5 16 13 2 2 2 8 0 0 2 15 4 5 6 9 2 13 2 1 6 6 16 12 8
split_gain=55.6764 39.6768 23.2961 22.382 15.5107 14.8087 14.648 14.5757 13.2318 11.7321 10.4773 10.6767 9.41167 10.1407 10.008 9.28938 8.8778 8.3047 8.08798 7.25204 6.80794 14.0296 7.48267 7.00738 6.77069 6.60474 14.7834 8.92969 8.41864 14.449 6.98356 10.4265 6.57745 6.52474 13.9356 10.2329 7.00974 6.44622 6.39681 6.13523 6.12116 5.75623 5.60841 5.58633 5.56369 5.52833 5.09751 5.07486 5.04303 5.52041 5.72177 4.9362 7.18513 4.91889 4.89786 4.84881 9.78088 4.82794 6.55837 4.81996 4.77224 8.55322
threshold=-0.070855438709259019 12.085000038146974 12.50500011444092 1.051720976829529 2.6468151807785039 12.59500026702881 1.4168738722801211 -0.52223879098892201 1.0000000180025095e-35 1.313369154930115 0.78287766666666669 1.318472277777778 1.6044844388961794 1.455133378505707 0.25776885449886328 0.008472541347146036 -3049.9999999999995 -0.053688894957303994 0.20552235096693042 -1.6493021845817564 6650.0000000000009 136036.50000000003 -0.69393303990364064 0.0047735555555555561 4850.0000000000009 -1.7187434434890745 12.515000343322756 0.024284778162837032 0.025363544002175335 1.5272816419601443 -1.2569688558578489 -1.3571804165840147 0.033363611111111122 -0.85272473096847523 12.47499990463257 -1.4517565965652464 -0.44513329863548273 -0.24777495115995404 -0.95269551873207081 450.00000000000006 2450.0000000000005 -0.720371514558792 0.042049452662467963 -1.7872925996780393 1.6958956122398379 0.042503610253334052 -0.00029630606877617533 -1.0721610784530637 22474.500000000004 0.72761341929435741 -0.55614832043647755 1.2630218333333336 12.494999885559084 -0.23352313041687009 2250.0000000000005 -0.0089633497409522516 6.7858617318762156e-15 0.025381388888888894 0.10505222222222224 950.00000000000011 12.484999656677248 1.6626525521278384
decision_type=2 2 2 2 2 2 2 2 2 2 2 2 2 2 2 2 2 2 2 2 2 2 2 2 2 2 2 2 2 2 2 2 2 2 2 2 2 2 2 2 2 2 2 2 2 2 2 2 2 2 2 2 2 2 2 2 2 2 2 2 2 2
left_child=5 32 3 6 18 16 7 10 -9 37 55 46 13 43 24 -16 20 -10 19 -4 -1 -22 23 -23 -14 26 54 30 -29 -30 31 -27 -2 34 35 -19 -35 -5 -34 60 -37 -13 -31 -11 -26 -40 -12 -36 -18 50 -50 -41 53 -53 -21 -3 -57 -52 -59 -25 61 -38
right_child=1 2 4 9 -6 -7 -8 8 17 12 11 41 14 -15 15 -17 48 33 -20 25 21 22 -24 59 44 27 -28 28 29 42 -32 -33 38 36 47 40 39 -39 45 51 -42 -43 -44 -45 -46 -47 -48 -49 49 -51 57 52 -54 -55 -56 56 -58 58 -60 -61 -62 -63
leaf_value=-0.02360511732624072 0.069254340860107941 -0.052648011346934379 -0.061148398948806471 0.01535518798698926 0.047258035404489113 -0.038355834273538947 -0.035963650612060853 -0.023675355814129672 -0.04118140588924657 0.058722866824585634 -0.018563402526643475 0.024262545123688251 -0.0072248890352703855 -0.058897873359107338 0.034175427659839351 -0.01811725430924949 0.011906152994256753 -0.039275308298718385 -0.053767460614165874 0.092285805067840287 0.059804193151257415 0.04678533831776132 0.060333927415979566 -0.0048411896900257692 0.0091472159405722644 -0.062271716517007081 -0.035470934391978008 0.061688717268809271 -0.05129944118334711 -0.015241366016587888 -0.045844710047976737 0.042901559779737045 0.069274954949931217 0.04826702897900581 0.078988581195044025 -0.009867423779654003 0.051745640021923833 0.095716665388758976 -0.024591977093033575 -0.01723218044492543 0.055282153460849796 -0.036321200191644032 0.061586853489283527 -0.019829589953247687 0.060618430508278198 0.028967202797362319 0.046719521237256284 0.015013857999702805 -0.015898745804047425 0.064957690445552288 0.080207713804907932 -0.027175133927367773 0.060717325509247549 0.0087643913339209116 0.01723947565362614 0.028053142698977795 -0.04745186394577456 -0.025505732316567775 0.035418174844930921 -0.052552289843990879 -0.013792493140830959 -0.0064256773037324605
leaf_weight=12.657356992363928 12.597912356257437 29.427204459905624 12.267853334546087 4.0008300691843033 6.6199526935815802 9.682712107896803 49.579244554042816 49.280767902731895 9.1485276073217374 4.0982486605644226 4.1606291383504876 4.8259494453668621 6.9037201702594748 9.2466913163661939 13.018592208623884 24.428847432136536 26.000957995653152 9.372081518173216 30.728640347719193 4.2626743614673632 14.010941654443739 4.8404167145490637 4.5566294491291073 18.058795630931858 6.9569973200559643 3.9418144673109055 9.8329887986183149 4.2830635756254223 12.188437297940256 4.0178976953029615 46.416905000805855 5.8594127446413022 6.8237869888544109 7.9804112017154685 11.624636292457579 6.2789829969406155 15.949603021144869 6.6321564018726331 6.5961911082267788 50.59528811275959 8.4672595709562284 20.902147606015205 5.8107886761426926 5.0550695508718508 21.399758473038673 17.872276067733765 10.629443198442456 4.2271319925785056 5.8452827036380759 14.651019290089605 5.5761288851499549 13.308390378952025 5.1581068485975257 33.450122624635696 4.437387615442276 6.7393867373466518 11.79697175323963 4.658656269311904 85.275331273674965 7.4886459261178961 8.81234562397003 10.465278863906859
leaf_count=60 53 193 87 20 33 50 337 288 61 19 24 28 36 50 64 134 115 66 205 21 66 22 21 86 37 25 57 23 73 23 289 31 30 38 60 30 77 30 34 284 41 117 31 28 102 76 55 23 27 62 24 73 25 170 21 37 71 21 368 36 51 53
internal_value=0 -0.00722773 -0.0104076 -0.00506209 -0.0275765 0.0220588 -0.0106102 -0.0068309 -0.000529315 0.0157789 -0.0242168 -0.00549714 0.00997851 -0.0219668 0.0180628 6.22824e-05 0.0249317 0.00532505 -0.0310156 -0.024846 0.00908161 0.0175327 0.000584022 -0.00837542 0.0371798 -0.0204388 0.00653413 -0.0264968 -0.00244916 -0.0149261 -0.0377468 0.000603434 0.0387484 0.00761633 0.025512 0.00157721 0.00270763 0.0654794 0.0264671 6.79813e-05 0.0275413 -0.0249572 0.03018 0.015341 0.0479906 0.0145288 0.0283546 0.0619287 0.0318086 0.0362694 0.0321225 -0.006118 0.00471331 -0.0014647 0.0540091 -0.0400306 -0.02 0.0350614 0.0322623 -0.0188266 0.0180693 0.0286988
internal_weight=0 678.479 634.589 483.921 150.668 213.303 382.18 332.601 244.119 101.741 88.4817 40.5182 91.1079 18.4 72.7079 37.4474 203.62 194.838 144.048 113.319 61.6128 48.9554 34.9445 30.3879 35.2605 101.051 18.5331 82.5183 26.3002 22.0171 56.2181 9.80123 43.8902 185.69 39.9701 24.1183 145.72 10.633 31.2923 137.739 14.7462 25.7281 9.82869 9.15332 28.3568 24.4685 14.7901 15.8518 142.007 116.006 101.355 102.512 51.9166 46.7585 8.70006 47.9636 18.5364 95.5101 89.934 25.5474 35.2272 26.4149
internal_count=4792 3834 3641 2722 919 958 2202 1865 1340 520 525 224 470 97 373 198 908 1052 886 681 291 231 165 144 175 594 99 495 150 127 345 56 193 991 220 137 771 50 140 733 71 145 54 47 139 110 79 83 617 502 440 552 268 243 42 301 108 413 389 122 181 130
is_linear=0
shrinkage=0.05


Tree=14
num_leaves=63
num_cat=0
split_feature=0 9 12 3 7 0 4 12 16 8 6 6 8 8 2 0 11 18 0 0 2 8 9 10 12 7 12 0 11 13 4 7 6 2 9 2 4 5 9 8 7 3 2 0 9 2 13 2 2 16 8 2 1 16 17 0 9 12 0 2 7 0
split_gain=50.2552 35.9195 21.6454 20.2685 14.1596 13.6734 13.4192 13.3845 12.0624 10.2919 9.86992 9.65765 8.50471 9.43812 8.88189 8.33624 7.94966 8.30072 7.8095 7.63577 7.01735 6.19799 6.69963 9.24706 6.28592 6.1055 13.2334 8.45076 8.35657 5.96765 5.94844 8.37446 5.94742 5.80802 12.0868 9.33563 6.22208 5.77612 5.71046 7.18869 6.5546 5.60234 5.538 5.48379 7.47851 6.07045 5.38 5.29525 4.95287 4.92429 4.8613 4.68943 9.03664 4.66559 4.59849 5.59795 4.85024 6.45388 5.71823 5.24207 9.64681 4.55926
threshold=-0.070855438709259019 12.085000038146974 12.50500011444092 1.051720976829529 2.6468151807785039 1.4168738722801211 -0.52223879098892201 12.59500026702881 1.0000000180025095e-35 1.313369154930115 0.78287766666666669 1.318472277777778 1.6044844388961794 1.455133378505707 0.25776885449886328 0.008472541347146036 12.045000076293947 -3049.9999999999995 0.20552235096693042 -0.053688894957303994 -1.6493021845817564 1.7896141409873965 12.25500011444092 12.275000095367433 12.574999809265138 -1.7187434434890745 12.515000343322756 0.024976570159196857 12.555000305175783 4850.0000000000009 1.3672352433204653 -1.3571804165840147 0.033363611111111122 -0.85272473096847523 12.47499990463257 -1.4517565965652464 -0.44513329863548273 0.51259091496467601 12.444999694824221 1.8384101390838625 -0.52423155307769764 -0.98938250541687001 -0.24777495115995404 -1.4003302454948423 12.515000343322756 -0.29493302106857294 2450.0000000000005 -0.720371514558792 -1.7872925996780393 650.00000000000011 1.6958956122398379 -0.0089633497409522516 6.7858617318762156e-15 950.00000000000011 3450.0000000000005 -1.8064852356910703 12.454999923706056 12.47499990463257 -1.5617960095405576 -0.34054951369762415 -1.1671528220176695 0.02570996712893248
decision_type=2 2 2 2 2 2 2 2 2 2 2 2 2 2 2 2 2 2 2 2 2 2 2 2 2 2 2 2 2 2 2 2 2 2 2 2 2 2 2 2 2 2 2 2 2 2 2 2 2 2 2 2 2 2 2 2 2 2 2 2 2 2
left_child=7 32 3 5 18 6 10 16 -8 42 51 -12 13 48 29 -16 -1 43 20 -10 -4 22 -19 -24 38 26 -22 30 61 -14 -27 -32 -2 34 35 -21 -35 -34 39 -23 53 49 -5 44 -18 -45 -37 -13 -11 -38 -31 -3 -53 -40 55 -25 -57 -58 -59 -60 -61 -29
right_child=1 2 4 9 -6 -7 8 -9 19 12 11 47 14 -15 15 -17 17 21 -20 33 25 24 23 54 -26 27 -28 28 -30 50 31 -33 37 36 -36 46 41 -39 40 -41 -42 -43 -44 45 -46 -47 -48 -49 -50 -51 -52 52 -54 -55 -56 56 57 58 59 60 -62 -63
leaf_value=0.085085317685412415 0.065774200602311914 -0.051682269935456028 -0.060509080148228228 0.014495882787517162 0.04409612975852667 -0.034984093446650898 -0.022782097193366369 -0.037100001820222939 -0.040133870058687876 0.054719958780091761 0.026613314289949286 0.022777149225661944 -0.0068845740228884863 -0.05754213686445471 0.032044426242542549 -0.017360886978466751 0.0036815376076974994 -0.045413595865254598 -0.052881648508358671 -0.038312099221460838 0.050224077608278565 0.10399428721462566 0.083963588408073858 0.049766730563000183 0.091033220697155484 -0.043526142841374224 -0.034358737100331098 0.061282797661720879 -0.048550908229597567 0.0086535535660393608 -0.06159849668298617 0.038351468286295043 0.043750769066018685 0.045147369342723426 0.057307864975295442 -0.0094093934627291053 0.026428226936899363 0.00039447599476021521 0.028638164350160464 0.039573212586878959 0.045227480265750325 -0.0063520339745229623 0.088467955453429781 -0.00090614390075489525 -0.067027421786161515 0.058810049083381125 0.051483256133529713 -0.035158750241294855 -0.019018733231104212 -0.013750069838553683 0.056592674860387916 0.026290561117956069 -0.046340824633201466 -0.019750430625211937 0.054700099569563537 -0.02455830479235559 0.060202655049076396 -0.032104774051473092 -0.021930153004437292 -0.0081950341931142125 0.07954214006700229 0.0023226043287584127
leaf_weight=5.1200806051492682 12.601051300764082 28.501820556819439 11.789705559611319 4.0254439115524292 6.7367573380470267 48.44819512963295 48.668263122439384 9.5142903625965101 8.9237201511859876 4.1760362237691879 14.959964379668234 4.8821391761302975 6.8832686543464652 8.9976760894060117 13.185658514499663 24.223833724856377 38.583099767565727 3.9517501741647711 29.707205668091774 9.1334453225135821 8.8806362450122851 5.2000928819179562 5.4485512375831595 7.7882119119167319 5.3406811952590934 47.103502847254276 9.6484795063734037 4.2861765176057878 6.8619949072599402 6.985430762171748 3.3492253124713898 5.5994753986597043 17.857818633317951 8.1019861549139005 16.260123521089554 6.2560013681650153 29.225025713443756 13.481236070394514 9.0997027605772001 25.894498899579048 15.743609309196474 97.993889093399048 6.8118314892053586 8.1278969049453753 4.1407553553581229 8.9331377595663053 8.6329672336578351 20.523344218730927 5.008279502391817 10.318638399243353 21.7660231590271 6.8292502611875561 11.483833998441694 11.007302850484846 6.7271173298358908 11.232427075505255 6.0365794897079459 8.0857488960027641 5.5613747537136069 6.1644420176744426 6.3708451986312991 13.950871154665945
