tree
version=v4
num_class=1
num_tree_per_iteration=1
label_index=0
max_feature_idx=55
objective=binary sigmoid:1
feature_names=ret logret vol20 buy_ratio sell_ratio ofi_norm interarrival_mean_s hod_sin hod_cos open high low close volume trades dollar buy_volume sell_volume signed_volume ma_9 ma_20 ma_50 price_ma9_ratio price_ma20_ratio price_ma50_ratio ma9_ma20_cross ma20_ma50_cross ma9_ma50_cross bb20_middle bb20_upper_1std bb20_upper_2std bb20_upper_3std bb20_lower_1std bb20_lower_2std bb20_lower_3std bb20_position bb20_touch_upper_1std bb20_touch_upper_2std bb20_touch_upper_3std bb20_touch_lower_1std bb20_touch_lower_2std bb20_touch_lower_3std bb50_middle bb50_upper_1std bb50_upper_2std bb50_upper_3std bb50_lower_1std bb50_lower_2std bb50_lower_3std bb50_position bb50_touch_upper_1std bb50_touch_upper_2std bb50_touch_upper_3std bb50_touch_lower_1std bb50_touch_lower_2std bb50_touch_lower_3std
feature_infos=[-14.11125659942627:3544.57177734375] [-14.111257553100586:2161.532470703125] [-6.855288028717041:1500.7125244140625] [-2.7236218452453613:28.284360885620117] [-28.284360885620117:14.106736183166504] [-14.106736183166504:28.284360885620117] [0:945.318115234375] [-14.106736183166504:37.595222473144531] [-30.083986282348633:32.198642730712891] [12.350000381469727:58.439998626708984] [12.350000381469727:58.439998626708984] [12.350000381469727:58.430000305175781] [12.350000381469727:58.430000305175781] [200:3600000] [1:2] [2470:208800000] [0:250100] [0:3600000] [-3600000:250100] [12.352222442626953:58.430000305175781] [12.357500076293945:58.430000305175781] [12.359000205993652:58.424198150634766] [-12.853192329406738:1896.8271484375] [-13.706985473632812:1869.67578125] [-13.988844871520996:1669.453369140625] [-1.7795130014419556:14.106736183166504] [-4.1450958251953125:14.106736183166504] [-3.391165018081665:14.106736183166504] [12.357500076293945:58.430000305175781] [0:64.19281005859375] [0:75.497650146484375] [0:88.306114196777344] [0:58.430000305175781] [0:58.430000305175781] [-8.785801887512207:58.430000305175781] [-4.8977537155151367:7.0827555656433105] [-14.106736183166504:14.106736183166504] [-14.106736183166504:14.106736183166504] [-14.106736183166504:14.106736183166504] [-14.106736183166504:3.5118846893310547] [-14.106736183166504:14.106736183166504] [-14.106736183166504:14.106736183166504] [12.359000205993652:58.424198150634766] [0:64.040908813476562] [0:75.282379150390625] [0:87.920059204101562] [0:58.419216156005859] [0:58.414230346679688] [-8.3693628311157227:58.409244537353516] [-8.7701549530029297:12.30136775970459] [-14.106736183166504:14.106736183166504] [-14.106736183166504:14.106736183166504] [-14.106736183166504:14.106736183166504] [-14.106736183166504:14.106736183166504] [-14.106736183166504:14.106736183166504] [-14.106736183166504:14.106736183166504]
tree_sizes=3355 3472 3472 3449 3467 3461 3461 3462 3455 3473 3460 3469 3464 3457 3469 3478 3462 3480 3475 3481 3473 3472 3465 3475 3476 3474 3472 3465 3469 3475 3443 3488 3465 3480 3465 3471 3489 3470 3473 3485 3483 3476 3482 3474 3482 3488 3467 3478 3486 3489 3490 3478 3477 3494 3485 3471 3481 3464 3472 3481 3482 3488 3485 3490 3473 3484 3490 3469 3487 3480 3476 3477 3490 3474 3467 3491 3488 3482 3476 3454 3491 3493 3481 3474 3481 3478 3468 3481 3469 3485 3474 3472 3493 3482 3483 3484 3484 3476 3484 3463 3497 3467 3486 3473 3473 3476 3493 3454 3515 3468 3465 3488 3482 3463 3491 3479 3487 3492 3470 3499 3478 3488 3469 3492 3479 3459 3492 3479 3460 3479 3491 3464 3480 3484 3462 3491 3463 3490 3476 3463 3489 3478 3482 3473 3489 3484 3487 3488 3486 3490 3498 3481 3486 3493 3480 3481 3474 3487 3496 3494 3499 3486 3479 3468 3488 3493 3488 3485 3481 3475 3475 3501 3486 3475 3465 3470 3475 3484 3468 3489 3487 3477 3477 3479 3479 3475 3493 3483 3470 3491 3493 3480 3479 3478 3452 3484 3454 3457 3480 3473 3469 3475 3458 3473 3485 3465 3481 3488 3459 3488 3485 3489 3484 3502 3497 3471 3490 3492 3477 3492 3458 3469 3474 3469 3481 3460 3475 3489 3475 3447 3475 3468 3480 3456 3483 3496 3459

Tree=0
num_leaves=31
num_cat=0
split_feature=22 0 35 45 43 31 2 39 49 53 53 40 40 39 18 50 26 24 38 38 43 53 26 21 22 40 44 7 25 10
split_gain=1612.7 181.856 136.12 90.9567 79.9703 67.5408 61.3288 74.4976 58.2977 73.4466 52.9439 46.0441 35.2405 35.0072 34.5359 34.335 47.2505 33.7647 33.0707 32.6113 32.3279 41.3913 39.4828 32.0427 31.9449 31.9334 31.0542 36.1849 50.4007 30.854
threshold=-0.41269710659980768 -1.4313001632690427 -0.024858280085027214 31.479923248291019 58.183818817138679 58.170139312744148 -0.40553084015846247 1.3261600732803347 -0.022470913827419278 -1.0460739731788633 1.5553022027015688 -0.41206221282482142 -0.23533234000205991 -0.74594056606292714 -449.99999999999994 -1.0000000180025095e-35 1.5687459111213686 -0.17612054944038388 -0.085695948451757417 -0.39517043530941004 12.40034055709839 -0.69139182567596424 1.0151273012161257 58.195499420166023 -0.12999792397022245 -0.18315423280000684 12.404183864593508 -0.93629097938537587 -0.91130065917968739 58.344999313354499
decision_type=2 2 2 2 2 2 2 2 2 2 2 2 2 2 2 2 2 2 2 2 2 2 2 2 2 2 2 2 2 2
left_child=1 10 14 8 6 12 26 20 -4 13 -1 17 -5 -10 -2 16 -11 19 24 -7 -8 -22 -23 -12 -16 -9 -3 28 -28 -19
right_child=2 4 3 5 -6 11 7 25 9 15 23 -13 -14 -15 18 -17 -18 29 -20 -21 21 22 -24 -25 -26 -27 27 -29 -30 -31
leaf_value=-1.3556003033549158 -1.3757625040442152 -1.3480861244651958 -1.3738306417806443 -1.3693489799900564 -1.3719466981155233 -1.3650877041867053 -1.3545967570761026 -1.3548442054733778 -1.3561395043332793 -1.3786150341893957 -1.3445314746143535 -1.3780470610200368 -1.3555928948399705 -1.3825416104942121 -1.3665790708289429 -1.3818903789556889 -1.3557591152706843 -1.3620762907744945 -1.3641611154444866 -1.3352082256551603 -1.3489121121439736 -1.3644029537321245 -1.3814880547814854 -1.3645141016319986 -1.3742460966541381 -1.3429380568736691 -1.3488563021656779 -1.3738458446861836 -1.371534312003037 -1.3806808690200425
leaf_weight=127.03982883691788 115.09453362226486 8.0711454153060895 215.983851313591 57.950824081897736 68.766158938407898 11.622449398040773 41.808533251285553 88.782599568367004 19.370748996734623 533.17986613512039 101.05074059963226 164.1670977473259 27.44189441204071 6.7797621488571158 87.168370485305786 484.4301478266716 9.2011057734489423 15.496599197387694 88.136907935142517 5.3269559741020194 14.528061747550963 93.302441000938416 15.819445013999937 8.7168370485305768 144.31208002567291 30.186083853244781 17.917942821979523 54.076674282550812 21.630669713020325 20.984978079795837
leaf_count=787 713 50 1338 359 426 72 259 550 120 3303 626 1017 170 42 540 3001 57 96 546 33 90 578 98 54 894 187 111 335 134 130
internal_value=-1.37148 -1.35831 -1.37602 -1.37739 -1.36201 -1.37247 -1.36024 -1.35786 -1.37856 -1.37953 -1.35121 -1.37542 -1.36493 -1.36298 -1.37107 -1.37996 -1.37823 -1.36736 -1.36937 -1.3557 -1.3622 -1.36477 -1.36688 -1.34612 -1.37136 -1.35182 -1.36691 -1.36853 -1.36126 -1.37278
internal_weight=0 691.697 2006.65 1571.94 454.89 302.991 386.124 284.427 1268.95 1052.96 236.807 217.598 85.3927 26.1505 434.712 1026.81 542.381 53.431 319.617 16.9494 165.458 123.65 109.122 109.768 231.48 118.969 101.696 93.6253 39.5486 36.4816
internal_count=16716 4285 12431 9738 2818 1877 2392 1762 7861 6523 1467 1348 529 162 2693 6361 3360 331 1980 105 1025 766 676 680 1434 737 630 580 245 226
is_linear=0
shrinkage=1


Tree=1
num_leaves=31
num_cat=0
split_feature=22 0 35 45 43 31 2 39 49 53 53 40 50 26 39 40 17 38 24 43 53 26 38 16 21 10 40 2 22 44
split_gain=1572.44 173.736 134.217 89.8917 77.4338 66.1334 59.0627 71.1853 57.7413 72.3296 50.0213 45.2965 34.1734 46.26 34.0524 34.0358 34.0258 36.0115 32.7256 31.0695 39.7554 38.6605 30.8694 30.4584 30.317 30.2606 30.1117 29.8815 32.1007 29.8801
threshold=-0.41269710659980768 -1.4313001632690427 -0.024858280085027214 31.479923248291019 58.183818817138679 58.170139312744148 -0.40553084015846247 1.3261600732803347 -0.022470913827419278 -1.0460739731788633 1.5553022027015688 -0.41206221282482142 -1.0000000180025095e-35 1.5687459111213686 -0.74594056606292714 -0.23533234000205991 650.00000000000011 -0.085695948451757417 -0.17612054944038388 12.40034055709839 -0.69139182567596424 1.0151273012161257 -0.39517043530941004 1.0000000180025095e-35 58.195499420166023 58.344999313354499 -0.18315423280000684 -0.31885254383087153 0.53444874286651622 12.404183864593508
decision_type=2 2 2 2 2 2 2 2 2 2 2 2 2 2 2 2 2 2 2 2 2 2 2 2 2 2 2 2 2 2
left_child=1 10 16 8 6 15 29 19 -4 14 -1 18 13 -11 -10 -5 17 -2 22 -8 -21 -22 -7 -19 -12 -20 -9 -17 -29 -3
right_child=2 4 3 5 -6 11 7 26 9 12 24 -13 -14 -15 -16 27 -18 23 25 20 21 -23 -24 -25 -26 -27 -28 28 -30 -31
leaf_value=0.015572191565026481 -0.00017566956171887282 0.022839394287840011 -0.0023311309405198277 0.0021063078474398444 -0.00046287766370232709 0.0063035481251155637 0.016546502224888949 0.016306368353571483 0.015048221221700939 -0.0070946816671860541 0.026254775116252644 -0.0065277517030894305 -0.010371570148541521 0.015417899884263248 -0.011024647901689303 0.0055536725592310729 -0.0053325607725201929 0.0021968709949942316 0.0092568681557001504 0.022043713929685044 0.0069760206505074017 -0.0099683617747893701 0.035145073841040618 0.013665289247442782 0.006866903859306662 -0.009159988125377003 0.027781118194479586 0.046744986580565744 0.014565837113299783 0.0029150325107855685
leaf_weight=128.24103562533855 256.45384061336517 8.183591812849043 215.68157503008842 58.024310395121574 68.747026383876801 11.666673660278322 42.228837430477142 89.662057161331177 19.547683596611027 530.91561663150787 102.67259404063225 163.52541156113148 481.4289628714323 9.2872349023818952 6.7351328730583182 14.339592933654787 83.40390408039093 54.917304039001465 15.583353996276854 14.723314493894575 93.695506602525711 15.725224107503889 5.4420507699251166 40.044056206941605 8.7529824972152692 20.870068222284317 30.699229344725609 4.8884975910186759 8.4733958244323713 93.789815559983253
leaf_count=787 1589 50 1338 359 426 72 259 550 120 3303 626 1017 3001 57 42 88 518 339 96 90 578 98 33 247 54 130 187 30 52 580
internal_value=0 0.0129336 -0.00450586 -0.00587031 0.00932021 -0.000976766 0.0110504 0.0133751 -0.00704302 -0.00801282 0.0198307 -0.00391348 -0.00843421 -0.00670764 0.00836689 0.00646001 0.000409486 0.00177229 0.00406791 0.00913708 0.0066167 0.00454089 0.0154776 0.00703296 0.0247318 -0.00128703 0.0192331 0.0155794 0.0263387 0.00451401
internal_weight=0 697.121 2001.23 1566.41 457.455 302.813 388.708 286.734 1263.6 1047.91 239.667 217.088 1021.63 540.203 26.2828 85.7258 434.819 351.415 53.5621 166.373 124.144 109.421 17.1087 94.9614 111.426 36.4534 120.361 27.7015 13.3619 101.973
internal_count=16716 4285 12431 9738 2818 1877 2392 1762 7861 6523 1467 1348 6361 3360 162 529 2693 2175 331 1025 766 676 105 586 680 226 737 170 82 630
is_linear=0
shrinkage=0.01


Tree=2
num_leaves=31
num_cat=0
split_feature=22 0 35 45 43 31 6 49 53 35 2 53 40 35 30 36 39 17 38 48 39 26 24 54 15 10 16 38 40 2
split_gain=1533.49 166.113 132.341 88.8345 75.0024 64.7564 57.1923 57.1905 71.2334 56.1873 52.9291 47.4646 44.5614 42.6609 42.9648 34.0404 34.3736 33.4118 35.1126 33.1669 33.1334 32.2134 31.7304 30.9858 30.2836 29.6811 29.4482 29.2684 29.1637 28.8522
threshold=-0.41269710659980768 -1.4313001632690427 -0.024858280085027214 31.479923248291019 58.183818817138679 58.170139312744148 0.68454250693321239 -0.022470913827419278 -1.0460739731788633 -0.84724175930023182 -0.40553084015846247 1.4416869878768923 -0.41206221282482142 -1.5105639100074766 12.40002489089966 -0.30963709950447077 2.2521020174026494 650.00000000000011 -0.085695948451757417 58.121112823486335 -0.74594056606292714 1.5687459111213686 -0.17612054944038388 -0.28671126067638392 11624.500000000002 58.344999313354499 1.0000000180025095e-35 -0.39517043530941004 -0.19728475064039228 -0.80750346183776844
decision_type=2 2 2 2 2 2 2 2 2 2 2 2 2 2 2 2 2 2 2 2 2 2 2 2 2 2 2 2 2 2
left_child=1 11 17 7 6 19 10 -4 20 24 -3 -1 22 -12 -15 21 -17 18 29 23 -9 -10 27 -5 -8 -24 -20 -7 -28 -2
right_child=2 4 3 5 -6 12 9 8 15 -11 13 -13 -14 14 -16 16 -18 -19 26 -21 -22 -23 25 -25 -26 -27 28 -29 -30 -31
leaf_value=0.014985021820525515 -0.0071432429883238535 0.0023631476805744461 -0.002311046603124838 -0.0013374607298164945 -0.00045837607325080958 0.0062171454170296915 0.020355030012886643 0.014765880272006943 -0.0070703298130162144 0.0087046972528713913 0.023598911918739418 0.023834001967433505 -0.00648789464845101 0.02431299270421703 0.0084967445199268764 -0.010560688898776019 0.020127206731361924 -0.0052961674819631249 0.0021720561027349147 0.027746067363287739 -0.01098727174616876 0.0079911513336210892 0.0091140749526032478 0.011179761393661541 0.038239151319674244 -0.0091185889822853715 0.022525808890224125 0.034090952074676752 0.0054861218042530548 0.0014405205471151822
leaf_weight=121.36183807253838 48.229307621717453 87.117419242858887 215.38193053007126 41.921538382768631 68.728077918291092 11.710302472114565 29.41921503841877 19.721358418464664 521.51695504784584 32.393164128065109 25.93879297375679 121.10041846334934 162.88789285719395 18.949399828910828 183.45951876044273 476.68522551655769 3.6781464517116538 83.138593435287476 54.988888576626778 6.6942650377750388 6.6906869709491721 14.597929269075392 15.668795585632322 37.437421038746834 13.9617583155632 20.755745321512222 18.794493541121483 5.5536453723907462 21.574090361595154 208.19770587980747
leaf_count=738 299 537 1338 259 426 72 179 120 3262 198 157 729 1017 115 1121 2986 23 518 339 41 42 90 96 229 85 130 115 33 132 1290
internal_value=0 0.0127068 -0.00447307 -0.00583234 0.0091761 -0.000967882 0.0108686 -0.0070023 -0.00797116 0.0186698 0.00899473 0.0194047 -0.00388372 0.0115248 0.00997745 -0.00839244 -0.0103257 0.000405225 0.00175266 0.00637062 0.0082421 -0.00666022 0.0040172 0.00456751 0.0261109 -0.00127542 0.00693347 0.0151839 0.0134193 -0.000173931
internal_weight=0 702.43 1995.82 1560.9 459.967 302.63 391.239 1258.27 1042.89 75.7741 315.465 242.462 216.576 228.348 202.409 1016.48 480.363 434.923 351.784 86.0532 26.412 536.115 53.6885 79.359 43.381 36.4245 95.3575 17.2639 40.3686 256.427
internal_count=16716 4285 12431 9738 2818 1877 2392 7861 6523 462 1930 1467 1348 1393 1236 6361 3009 2693 2175 529 162 3352 331 488 264 226 586 105 247 1589
is_linear=0
shrinkage=0.01


Tree=3
num_leaves=31
num_cat=0
split_feature=22 0 24 45 19 44 53 36 23 6 26 24 2 44 53 53 49 23 53 15 31 21 39 40 36 34 3 39 0 52
split_gain=1495.76 159.483 130.808 95.3421 86.4756 73.719 61.6316 58.4223 52.4315 47.7764 42.0985 40.4192 37.2371 37.0599 41.7218 39.8498 35.1221 34.49 32.1538 32.0654 30.2332 29.0517 28.2852 26.8493 26.6715 26.1648 25.807 25.3194 24.4835 24.442
threshold=-0.41269710659980768 -0.071200016885995851 -0.25266420841217035 31.479923248291019 58.159444808959968 58.188856124877937 1.5553022027015688 -0.30963709950447077 -1.0647099018096922 0.68454250693321239 1.6886816024780276 0.19835744798183444 0.086634285748004927 12.405433654785158 -0.67781642079353321 1.4648490548133852 -2.0908850431442256 3.5449130535125737 -0.60837215185165394 23282.000000000004 31.434727668762211 58.195499420166023 2.2521020174026494 -0.31696186959743494 -0.37361946702003473 31.408963203430179 0.97479155659675609 -0.6820598542690276 0.30170688033103948 -0.085695948451757417
decision_type=2 2 2 2 2 2 2 2 2 2 2 2 2 2 2 2 2 2 2 2 2 2 2 2 2 2 2 2 2 2
left_child=1 6 -2 7 26 8 19 10 9 12 11 18 16 -10 -15 -16 -3 22 25 -1 23 -8 -9 -12 -20 27 -5 -4 29 -28
right_child=2 5 3 4 -6 -7 21 17 13 -11 20 -13 -14 14 15 -17 -18 -19 24 -21 -22 -23 -24 -25 -26 -27 28 -29 -30 -31
leaf_value=0.016718367871336015 0.00011212984522506912 0.025599591018676406 -0.0093034382145013427 0.0022804264438357241 -0.0052490909864042713 -0.0010343901453747464 0.025193858537174058 -0.010046945227039528 0.014768261887847516 0.024379872192352287 0.0026576061472031189 -0.0074011159850246987 0.016154863955719859 0.019089122619874881 -0.00069794221893387505 0.013801578233048487 0.0037977573880132831 0.015891973495702868 -0.0046483592025484497 0.0055226023351899311 -0.008709529744854656 0.0064397952813732484 0.015992997172544324 0.034922993093292699 0.015543412156973437 -0.012505066871460881 0.0074812652771938069 0.012853956919079756 0.0020083856133665508 0.026161793877057329
leaf_weight=113.37087854743004 479.17777635157108 8.3740625977516157 6.2470902353525153 72.751772299408913 169.49344824254513 65.204144924879074 112.83959136903286 523.73476760089397 42.655801370739937 36.69343875348568 4.5867705643177024 430.89630997180939 85.406187027692795 16.384453132748604 98.46386231482029 23.473573371767998 62.824469447135925 5.2610111981630316 195.97325548529625 33.036189094185829 5.1922036111354819 8.9124215841293317 4.2048653066158286 5.8920031338930121 6.7677304595708838 6.7279479056596747 12.974627450108526 29.560811653733253 15.775751188397406 15.221166893839838
leaf_count=684 2971 51 39 448 1058 404 669 3296 257 220 28 2704 516 99 604 143 384 32 1223 200 32 54 26 36 42 42 80 184 97 93
internal_value=0 0.0124864 -0.00444052 -0.00588403 -0.000687654 0.00877808 0.0185639 -0.00709811 0.0104876 0.0141091 -0.00518096 -0.0055565 0.0117026 0.00661942 0.00410647 0.00209329 0.00636199 -0.00958566 -0.00231591 0.0141921 0.0110226 0.023821 -0.00983955 0.0207998 -0.00397433 0.00558871 0.00593599 0.00898835 0.0119842 0.0175657
internal_weight=0 707.639 1990.44 1511.26 286.217 439.48 268.159 1225.04 374.276 193.298 691.844 676.173 156.605 180.978 138.322 121.937 71.1985 533.201 245.277 146.407 15.671 121.752 527.94 10.4788 202.741 42.5358 116.723 35.8079 43.9715 28.1958
internal_count=16716 4285 12431 9460 1776 2678 1607 7684 2274 1171 4330 4234 951 1103 846 747 435 3354 1530 884 96 723 3322 64 1265 265 718 223 270 173
is_linear=0
shrinkage=0.01


Tree=4
num_leaves=31
num_cat=0
split_feature=22 0 35 45 44 31 53 50 26 53 23 6 40 44 53 53 2 49 49 17 38 40 15 24 10 22 16 2 22 33
split_gain=1459.2 152.783 129.179 86.676 71.4856 62.3539 58.5138 56.6887 54.942 51.4092 50.4625 45.4944 43.9336 35.7889 40.293 38.7088 35.7786 34.0547 33.7079 32.8472 34.1646 31.575 30.7688 30.6057 29.1479 28.7534 28.4636 28.0006 29.6494 27.9415
threshold=-0.41269710659980768 -0.071200016885995851 -0.024858280085027214 31.479923248291019 58.188856124877937 58.170139312744148 1.5553022027015688 0.76225689053535473 1.5687459111213686 -0.97531643509864796 -1.0647099018096922 0.68454250693321239 -0.41206221282482142 12.405433654785158 -0.67781642079353321 1.4648490548133852 0.086634285748004927 -0.022470913827419278 -2.0908850431442256 650.00000000000011 -0.085695948451757417 -0.23533234000205991 23282.000000000004 -0.17612054944038388 58.344999313354499 -0.12999792397022245 1.0000000180025095e-35 -0.31885254383087153 0.53444874286651622 58.105304718017585
decision_type=2 2 2 2 2 2 2 2 2 2 2 2 2 2 2 2 2 2 2 2 2 2 2 2 2 2 2 2 2 2
left_child=1 6 19 7 10 21 22 8 17 -9 11 16 23 -12 -15 -16 18 -4 -3 20 25 -5 -1 -7 -25 -2 -22 -23 -29 -30
right_child=2 4 3 5 -6 12 -8 9 -10 -11 13 -13 -14 14 15 -17 -18 -19 -20 -21 26 27 -24 24 -26 -27 -28 28 29 -31
leaf_value=0.01639129039194898 0.004043370586416962 0.024967286174520549 -0.0022704406182235443 0.002004564976709821 -0.0010246797496208829 0.014902053530831063 0.023265030576909568 0.0087635324603348424 0.014641367909836382 -0.01036284868932647 0.014495840632217365 0.023799707819204183 -0.0064322211394810406 0.018689780979326404 -0.00069124866303298799 0.013553387124787273 0.015843784152772836 -0.0069459826576079723 0.0037513639648248994 -0.0052564606938815565 0.0021514707035795435 0.0052108546536311171 0.0054497585289319554 0.0090286714053391792 -0.0090555255272119529 -0.0028303590321431694 0.013181753693988893 0.044280735746854975 -0.0022409845593983064 0.033885565296679035
leaf_weight=114.47117975354195 99.464093685150146 8.4996332526206952 214.77618865668774 58.336244806647301 65.163989633321762 17.414244890213013 123.40628536045551 14.519123718142508 13.559650242328642 437.92998687922955 43.020998373627663 37.209390491247177 161.99837632477283 16.56626296043396 98.423330321907997 23.663423806428909 86.208149060606956 567.12689904868603 62.964696928858757 82.849613279104233 55.048208966851234 14.560024455189707 33.142446920275688 15.720187857747076 20.581630855798721 156.78166835010052 40.685221791267395 5.0841598063707343 4.8031471222639066 3.862562358379364
leaf_count=684 615 51 1338 359 404 105 723 89 82 2777 257 220 1017 99 604 143 516 3575 384 518 339 88 200 96 130 974 247 30 29 23
internal_value=0 0.0122724 -0.00440811 -0.00575912 0.00864577 -0.000955435 0.0181832 -0.00692302 -0.0053156 -0.00974908 0.0103193 0.0138538 -0.00383352 0.00652779 0.00405548 0.00206971 0.0115066 -0.00566169 0.00627469 0.000408582 0.00174203 0.00620986 0.0139347 0.0040037 -0.00122432 -0.000162259 0.00683917 0.0148754 0.0251095 0.0138617
internal_weight=0 712.74 1985.1 1550.27 441.72 302.361 271.02 1247.91 795.463 452.449 376.556 194.882 215.714 181.674 138.653 122.087 157.672 781.903 71.4643 434.829 351.979 86.6461 147.614 53.7161 36.3018 256.246 95.7334 28.3099 13.7499 8.66571
internal_count=16716 4285 12431 9738 2678 1877 1607 7861 4995 2866 2274 1171 1348 1103 846 747 951 4913 435 2693 2175 529 884 331 226 1589 586 170 82 52
is_linear=0
shrinkage=0.01


Tree=5
num_leaves=31
num_cat=0
split_feature=22 0 24 45 19 44 36 53 23 6 53 2 24 44 53 53 2 23 37 49 17 26 39 21 3 50 22 2 44 45
split_gain=1423.78 146.466 127.528 93.1805 83.5516 69.339 57.9753 55.6213 48.5918 43.368 41.6845 40.7573 35.0347 34.5739 38.93 37.6089 34.3957 33.6997 32.5463 32.3754 29.9092 28.5431 27.9005 27.2554 24.7228 24.0282 23.9778 23.7674 32.6119 36.2929
threshold=-0.41269710659980768 -0.071200016885995851 -0.25266420841217035 31.479923248291019 58.159444808959968 58.188856124877937 -0.30963709950447077 1.5553022027015688 -1.0647099018096922 0.68454250693321239 -0.66194728016853321 0.047430165112018592 0.12149222940206529 12.405433654785158 -0.67781642079353321 1.4648490548133852 0.086634285748004927 3.5449130535125737 -0.29983632266521448 -2.0908850431442256 2750.0000000000005 1.6886816024780276 2.2521020174026494 58.195499420166023 0.97479155659675609 -0.54504650831222523 0.5022813379764558 -0.33641044795513148 58.374370574951179 58.41980171203614
decision_type=2 2 2 2 2 2 2 2 2 2 2 2 2 2 2 2 2 2 2 2 2 2 2 2 2 2 2 2 2 2
left_child=1 7 27 6 24 8 10 20 9 16 11 -4 18 -10 -15 -16 19 22 -12 -3 -1 25 -8 -9 26 -13 -5 -2 -29 -30
right_child=2 5 3 4 -6 -7 17 23 13 -11 12 21 -14 14 15 -17 -18 -19 -20 -21 -22 -23 -24 -25 -26 -27 -28 28 29 -31
leaf_value=0.014752236730454669 -0.002251773051310127 0.024364750835152518 -0.0054148687547328532 0.0073326236046636906 -0.0051853174070552689 -0.0010150556223073039 -0.0099760555926617419 0.024038793139523475 0.014231710557066639 0.023245641642794274 -0.0063379868666010863 0.020830869157281752 -0.0077326683027626256 0.018305213374949468 -0.00068461699105488581 0.013312417777975117 0.015542828264743593 0.015532302221755624 0.0024388948484334585 0.0037056562025004325 -0.0051491563524332226 0.023764719015839951 0.015819515326805332 0.0060356499459233498 0.011684357085904653 0.00047047049977480478 -0.0042079626824180743 0.0012093738294322561 0.031037975158646269 0.0027354066216826976
leaf_weight=140.81766346096992 224.88747908174992 8.6221018731594068 53.787676930427551 40.656698375940323 168.54163953661919 65.124219238758087 518.01751630008221 115.95543348789215 43.379415974020958 37.712746262550354 92.746496453881264 6.8979565799236289 411.38801084458828 16.744245529174805 98.383191123604774 23.849890545010567 86.994616374373436 5.3186350166797629 77.598531723022461 63.103227853775024 7.9794822335243216 8.504774942994116 4.2271807193756095 9.0667663514614087 44.426319807767868 36.292116284370422 32.311145797371864 235.71528041362762 8.0038089305162448 10.441272303462027
leaf_count=836 1398 51 338 249 1058 404 3296 669 257 220 582 43 2604 99 604 143 516 32 484 384 48 51 26 54 270 228 199 1461 48 64
internal_value=0 0.0120645 -0.00437598 -0.00580994 -0.000673902 0.00851658 -0.00701886 0.0178163 0.0101553 0.0136063 -0.00510476 0.000679024 -0.00615351 0.00643801 0.00400534 0.00204646 0.0113159 -0.0095122 -0.00233979 0.00618909 0.013685 0.00701962 -0.00976726 0.0227332 0.00580309 0.00372226 0.0022223 0.000116179 0.0022114 0.0150166
internal_weight=0 717.733 1979.76 1500.71 285.936 443.914 1214.78 273.819 378.789 196.433 687.216 105.483 581.733 182.357 138.977 122.233 158.72 527.563 170.345 71.7253 148.797 51.6948 522.245 125.022 117.394 43.1901 72.9678 479.048 254.16 18.4451
internal_count=16716 4285 12431 9460 1776 2678 7684 1607 2274 1171 4330 660 3670 1103 846 747 951 3354 1066 435 884 322 3322 723 718 271 448 2971 1573 112
is_linear=0
shrinkage=0.01


Tree=6
num_leaves=31
num_cat=0
split_feature=22 0 35 45 44 31 50 26 53 53 23 40 6 2 44 53 53 49 2 38 45 48 32 41 24 54 17 35 30 3
split_gain=1389.44 140.508 126.144 84.4907 67.2747 60.0976 56.1583 53.2168 52.9431 50.4581 46.8133 43.0523 41.3835 33.4139 33.4118 37.629 36.5482 33.3437 32.4943 32.3798 41.0002 30.5953 29.5754 29.1877 42.6159 28.966 28.9267 27.8967 30.2004 37.9332
threshold=-0.41269710659980768 -0.071200016885995851 -0.024858280085027214 31.479923248291019 58.188856124877937 58.170139312744148 0.76225689053535473 1.5687459111213686 1.5553022027015688 -0.97531643509864796 -1.0647099018096922 -0.41206221282482142 0.68454250693321239 -0.39358025789260859 12.405433654785158 -0.67781642079353321 1.4648490548133852 -0.022470913827419278 -0.57015565037727345 -0.085695948451757417 31.445890426635746 58.121112823486335 58.153245925903327 -0.40362985432147974 0.8445119857788087 -0.28671126067638392 2750.0000000000005 -1.5105639100074766 12.40002489089966 -1.260510981082916
decision_type=2 2 2 2 2 2 2 2 2 2 2 2 2 2 2 2 2 2 2 2 2 2 2 2 2 2 2 2 2 2
left_child=1 8 18 6 10 21 7 17 26 -8 12 23 13 -3 -12 -16 -17 -4 -2 -20 -21 25 -22 -7 -25 -5 -1 -15 -29 -30
right_child=2 4 3 5 -6 11 9 -9 -10 -11 14 -13 -14 27 15 16 -18 -19 19 20 22 -23 -24 24 -26 -27 -28 28 29 -31
leaf_value=0.014482104367554857 -0.0035641374495653522 0.0040305166596417488 -0.0022282970318562726 -0.0014049716235554888 -0.0010055168388807126 -0.0010786992938201549 0.0086042813550465062 0.014288262461249469 0.022224654001595356 -0.010292109072368261 0.013975485364392214 -0.0063745366125021116 0.022715893257059635 0.023519621857810914 0.017934586713468238 -0.00067804626890750333 0.013078350556766741 -0.0068650835106088019 0.00053584443947866033 0.0022336417485810793 0.026727926341828964 0.026215522978735729 0.0040691156687522019 0.029911317549950713 -0.0016426943190967803 0.010622297733633193 -0.0051129779684276856 0.0313636937774842 0.0018677994730094513 0.015661632804611744
leaf_weight=142.00382605195045 139.50041714310646 46.849370956420898 214.14842957258224 42.103848516941071 65.084822252392769 36.684002682566643 14.607927992939947 13.710538223385809 126.59565749764442 432.8328995257616 43.731192022562027 161.07848626375198 38.20379550755024 24.495428398251534 16.918481931090355 98.343434154987335 24.033039718866348 562.34450787305832 230.38208627700806 39.813813462853432 16.004422530531887 6.9295100271701804 8.9997132271528226 8.8942553699016589 8.2506472766399366 38.184297576546669 7.9557032734155646 7.0179480016231528 34.918395668268204 46.466372713446617
leaf_count=836 867 285 1338 259 404 228 89 82 723 2777 257 1017 220 143 99 604 143 3575 1430 244 97 41 55 52 51 229 48 41 207 275
internal_value=0 0.0118624 -0.00434401 -0.00568701 0.00839038 -0.000945884 -0.00684437 -0.00524147 0.0174626 -0.00967518 0.00999554 -0.00378715 0.0133662 0.0111302 0.00635003 0.00395604 0.00202352 -0.00558631 0.00041308 0.00229256 0.00853646 0.00605509 0.0185724 0.0039554 0.0147266 0.00431509 0.0134425 0.0140763 0.0114597 0.00974334
internal_weight=0 722.617 1974.47 1539.77 446.062 302.125 1237.64 790.203 276.555 447.441 380.977 214.907 197.951 159.748 183.026 139.295 122.376 776.493 434.7 295.2 64.8179 87.2177 25.0041 53.8289 17.1449 80.2881 149.96 112.898 88.4027 81.3848
internal_count=16716 4285 12431 9738 2678 1877 7861 4995 1607 2866 2274 1348 1171 951 1103 846 747 4913 2693 1826 396 529 152 331 103 488 884 666 523 482
is_linear=0
shrinkage=0.01


Tree=7
num_leaves=31
num_cat=0
split_feature=22 0 35 45 43 31 50 26 2 39 53 40 53 49 17 38 40 24 10 22 16 44 7 25 40 2 22 33 53 7
split_gain=1356.14 134.94 124.371 83.4867 64.5674 58.8614 55.792 52.059 50.1553 59.6673 49.8022 42.3526 36.6976 32.977 32.1928 32.8342 29.5374 28.516 28.4247 28.0733 27.0853 27.0572 34.4144 45.63 26.5664 26.4979 27.4663 25.8532 25.8283 25.8087
threshold=-0.41269710659980768 -1.4313001632690427 -0.024858280085027214 31.479923248291019 58.183818817138679 58.170139312744148 0.76225689053535473 1.5687459111213686 -0.40553084015846247 1.3261600732803347 -0.97531643509864796 -0.41206221282482142 1.4416869878768923 -0.022470913827419278 650.00000000000011 -0.085695948451757417 -0.23533234000205991 -0.17612054944038388 58.344999313354499 -0.12999792397022245 1.0000000180025095e-35 12.404183864593508 -0.93629097938537587 -0.91130065917968739 -0.19728475064039228 -0.31885254383087153 0.53444874286651622 58.105304718017585 -0.81225714087486256 -1.2973251938819883
decision_type=2 2 2 2 2 2 2 2 2 2 2 2 2 2 2 2 2 2 2 2 2 2 2 2 2 2 2 2 2 2
left_child=1 12 14 6 8 16 7 13 21 -10 -8 17 -1 -4 15 19 -5 -7 -19 -2 -17 -3 23 29 -22 -18 -27 -28 -21 -23
right_child=2 4 3 5 -6 11 10 -9 9 -11 -12 -13 -14 -15 -16 20 25 18 -20 28 24 22 -24 -25 -26 26 27 -29 -30 -31
leaf_value=0.013691286058338694 0.004001061001617125 0.021087443069728002 -0.0022089810235499246 0.0018988121567674577 -0.00046103041835033443 0.0142910612374944 0.0084753331950137133 0.014029517141559018 0.008267875436994707 0.017304399236221166 -0.010254236363661197 -0.0063353538022148746 0.021272558097621092 -0.006825096079617462 -0.0052128395457683033 0.0021223397960099997 0.0048952383204916468 0.0088796877941414078 -0.0089862198286829609 0.022191833933517379 0.021369134359969472 0.014974848973310209 -0.0026260245544726842 -0.00027746069886078927 0.0052693546756661866 0.04214158866585889 -0.0023066462495150591 0.032069669889048455 -0.0034518160503028833 0.043947722628024231
leaf_weight=126.4011307656765 99.665077984333038 8.5556546449661237 213.86223068833351 58.660902574658394 68.735974743962288 17.745886772871017 14.681504920125006 13.823193252086638 172.02073067426682 127.02566882967949 430.10091204941273 160.45709824562073 129.02142213284969 559.99464862048626 82.532045140862465 55.13159641623497 14.766572907567026 15.810070171952246 20.390450060367584 4.0316549837589255 19.35698176920414 14.799827545881273 55.042650073766708 21.91633003950119 21.783118233084679 5.2650829255580893 4.8241442590951902 4.0031713545322418 152.30010595917702 3.8807618618011466
leaf_count=738 615 50 1338 359 426 105 89 82 1025 737 2777 1017 729 3575 518 339 88 96 130 25 115 88 335 134 132 30 29 23 949 23
internal_value=0 0.011666 -0.00431228 -0.00565009 0.0084975 -0.000937277 -0.00680461 -0.0052058 0.0100246 0.0121063 -0.00963601 -0.00375829 0.0175208 -0.00554939 0.000408763 0.00172583 0.00597354 0.0039069 -0.00118353 -0.000146393 0.00670429 0.00404979 0.00252564 0.00951045 0.0128445 0.0142561 0.0240649 0.0132829 -0.00279049 0.0209938
internal_weight=0 727.4 1969.19 1534.39 471.978 301.923 1232.46 787.68 403.242 299.046 444.782 214.404 255.423 773.857 434.801 352.269 87.5199 53.9464 36.2005 255.997 96.2717 104.195 95.6396 40.5969 41.1401 28.859 14.0924 8.82732 156.332 18.6806
internal_count=16716 4285 12431 9738 2818 1877 7861 4995 2392 1762 2866 1348 1467 4913 2693 2175 529 331 226 1589 586 630 580 245 247 170 82 52 974 111
is_linear=0
shrinkage=0.01


Tree=8
num_leaves=31
num_cat=0
split_feature=22 0 24 45 19 44 36 53 23 53 2 6 24 23 37 45 53 53 2 49 15 39 26 21 8 24 50 2 44 45
split_gain=1323.82 129.979 122.909 89.9545 79.4523 63.459 57.5012 48.3322 44.0795 40.9328 39.7712 39.0524 34.2617 32.7614 31.965 31.8906 37.8621 35.5463 31.4188 30.5416 27.9239 27.6313 26.121 25.4301 23.8874 26.3131 23.3432 22.7923 30.6947 33.9315
threshold=-0.41269710659980768 -0.071200016885995851 -0.25266420841217035 31.479923248291019 58.159444808959968 58.188856124877937 -0.30963709950447077 1.5553022027015688 -1.0647099018096922 -0.66194728016853321 0.047430165112018592 0.68454250693321239 0.12149222940206529 3.5449130535125737 -0.29983632266521448 12.40776586532593 -0.67781642079353321 1.4648490548133852 0.086634285748004927 -2.0908850431442256 23282.000000000004 2.2521020174026494 1.6886816024780276 58.195499420166023 1.0503667593002322 0.26698635518550878 -0.54504650831222523 -0.33641044795513148 58.374370574951179 58.43925857543946
decision_type=2 2 2 2 2 2 2 2 2 2 2 2 2 2 2 2 2 2 2 2 2 2 2 2 2 2 2 2 2 2
left_child=1 7 27 6 24 8 9 20 11 10 -4 18 14 21 -11 -10 -17 -18 19 -3 -1 -8 26 -9 -5 -26 -12 -2 -29 -30
right_child=2 5 3 4 -6 -7 13 23 15 12 22 -13 -14 -15 -16 16 17 -19 -20 -21 -22 -23 -24 -25 25 -27 -28 28 29 -31
leaf_value=0.015270709189317361 -0.0022005666653116865 0.023295741408949376 -0.005311176391810956 0.00010170739502605246 -0.0050948310701408829 -0.00099500974414922557 -0.0098752582100465492 0.022523886946473826 0.01479007530728817 -0.0062467646895716447 0.020594624077519667 0.02191388562681303 -0.0076135972051760174 0.015134985723006882 0.0024735474475111362 0.017974768260736726 -0.00022130215578529031 0.012876967242150643 0.014740829847082738 0.0034681502344107648 0.0049708570737169834 0.015783104829118464 0.02279151125082764 0.0053806775271520281 0.021148697759782592 0.0061583299784464599 0.00057002766151004116 0.0011935997366052066 0.022954894097251228 -0.0068908032130383283
leaf_weight=118.36064578592777 224.08118079602718 8.8454998731613141 53.281007066369057 47.249800637364388 167.19240163266659 65.041096791625023 509.84794120490551 120.24186848104 34.725629568099976 91.920807152986526 6.9415288567543021 38.964757353067398 405.7835745215416 5.3829100877046576 77.454521805047989 17.505340084433556 106.57073953747749 25.71904668211937 89.138339206576347 63.821224942803383 33.849369704723358 4.2318778038024893 8.709463492035864 9.3239341378211957 14.783550500869749 56.318776145577431 36.078175351023674 235.90672221779823 13.428179010748865 5.3177672475576392
leaf_count=684 1398 51 338 289 1058 404 3296 669 201 582 43 220 2604 32 484 101 650 151 516 384 200 26 51 54 89 340 228 1461 79 33
internal_value=0 0.0114745 -0.00428081 -0.00570114 -0.000656741 0.00814151 -0.00690184 0.0168013 0.00968385 -0.00498854 0.000752696 0.0129265 -0.00603675 -0.00940706 -0.00225901 0.00615567 0.00415403 0.00232519 0.0107622 0.0058817 0.0129802 -0.00966404 0.00699848 0.0212902 0.00561281 0.00927512 0.00380114 0.00012548 0.00217228 0.0144884
internal_weight=0 732.107 1963.91 1485.18 285.545 450.332 1199.63 281.776 385.291 680.169 105.01 200.77 575.159 519.463 169.375 184.521 149.795 132.29 161.805 72.6667 152.21 514.08 51.7292 129.566 118.352 71.1023 43.0197 478.734 254.653 18.7459
internal_count=16716 4285 12431 9460 1776 2678 7684 1607 2274 4330 660 1171 3670 3354 1066 1103 902 801 951 435 884 3322 322 723 718 429 271 2971 1573 112
is_linear=0
shrinkage=0.01


Tree=9
num_leaves=31
num_cat=0
split_feature=22 0 35 45 44 50 30 26 53 15 53 48 40 16 38 53 6 43 36 6 24 55 54 2 39 4 30 24 49 53
split_gain=1292.47 124.932 121.469 79.427 61.6144 57.7238 54.8421 49.9679 48.8081 46.2735 42.5977 42.0831 40.3404 39.3508 46.1266 36.6926 35.2478 33.8744 32.6275 31.0607 30.0707 28.2575 27.7181 27.6725 28.4735 32.4835 37.1397 30.3128 26.7702 26.4706
threshold=-0.41269710659980768 -0.071200016885995851 -0.082383845001459108 31.479923248291019 58.188856124877937 0.76225689053535473 58.165941238403327 1.5687459111213686 -0.97531643509864796 62770.000000000007 2.0732038021087651 58.121112823486335 -0.41206221282482142 1.0000000180025095e-35 -0.085695948451757417 1.5553022027015688 0.062563497573137297 12.389281272888185 -0.31923992931842798 1.9703110456466677 -0.17612054944038388 -0.11195364594459532 -0.16799563169479367 -0.39358025789260859 1.3261600732803347 1.2506870627403261 12.406095981597902 -1.2182945013046262 -0.022470913827419278 -0.69139182567596424
decision_type=2 2 2 2 2 2 2 2 2 2 2 2 2 2 2 2 2 2 2 2 2 2 2 2 2 2 2 2 2 2
left_child=1 9 13 5 10 7 11 28 -7 15 17 -5 20 16 -15 -1 -2 -3 23 21 -8 -12 -23 -19 29 26 -26 -28 -4 -25
right_child=2 4 3 6 -6 8 12 -9 -10 -11 19 -13 -14 14 -16 -17 -18 18 -20 -21 -22 22 -24 24 25 -27 27 -29 -30 -31
leaf_value=0.014207806933567092 -0.0027666509233806474 0.020642634277604481 -0.0024438311857714386 0.0031268583859899645 -0.00098564766308647579 0.0083249788228936961 0.014357250654162259 0.013700506949560756 -0.010168185646755003 0.0039629397475473959 0.029958603328063049 0.026517981252926166 -0.0064290084138912355 0.0013465298667161125 0.014750287889152159 0.021767321919852142 0.0078601525466967699 0.0026954788419509663 -0.0087086106741193284 0.033265338856590991 -0.0017633700444104454 -0.0018056661900204465 0.015058861016777607 0.018844405455178095 -0.0032427013388214216 0.0056135724300523807 0.03611973194473795 0.017421307368530807 -0.0065313198286233998 0.005249606311417329
leaf_weight=135.77852557599545 245.1090000718832 19.653333753347397 223.05890612304211 92.550828456878662 65.002487942576408 14.765757903456686 17.654908418655396 13.967107549309729 426.34716041386127 26.744657546281815 9.3396828472614271 8.3885234743356687 156.81692415475845 85.080817565321922 36.77016893029213 121.81145702302456 35.766956716775894 77.462794214487076 12.527156442403792 9.4986284971237165 33.57993495464325 12.700502276420591 41.890326529741287 16.355549827218056 6.1709075272083274 25.394119203090668 12.418591305613516 28.721781864762306 568.83417440950871 115.22148913145065
leaf_count=780 1526 112 1399 560 404 89 103 82 2785 155 54 49 999 529 219 672 221 467 75 53 211 74 242 93 35 146 70 166 3659 687
internal_value=0 0.0112885 -0.00424947 -0.0055164 0.00802362 -0.00664108 -0.000977618 -0.00504926 -0.00954915 0.0164827 0.00953548 0.00507077 -0.00391208 0.000645443 0.00539129 0.0177826 -0.00141343 0.00793165 0.00708273 0.0163922 0.0037916 0.0138853 0.0111353 0.00778486 0.00971472 0.0147371 0.0196341 0.0230656 -0.00537996 0.00693949
internal_weight=0 736.692 1958.69 1555.96 452.357 1246.97 308.991 805.86 441.113 284.335 387.355 100.939 208.052 402.727 121.851 257.59 280.876 313.926 294.272 73.4291 51.2348 63.9305 54.5908 281.745 204.282 72.7054 47.3113 41.1404 791.893 131.577
internal_count=16716 4285 12431 9936 2678 8014 1922 5140 2874 1607 2274 609 1313 2495 748 1452 1747 1851 1739 423 314 370 316 1664 1197 417 271 236 5058 780
is_linear=0
shrinkage=0.01


Tree=10
num_leaves=31
num_cat=0
split_feature=22 0 24 45 19 44 36 15 23 53 2 6 53 24 23 37 44 53 53 2 39 35 30 3 0 3 22 38 0 2
split_gain=1262.01 120.155 119.843 87.9112 76.7775 59.8322 57.0635 44.4387 41.6333 40.304 38.8904 36.3595 35.0215 33.6798 32.0244 31.3856 30.5738 34.2062 33.7234 29.6436 27.2524 25.6384 27.9814 35.4388 25.2451 23.1401 22.8561 22.6474 22.6099 22.2414
threshold=-0.41269710659980768 -0.071200016885995851 -0.25266420841217035 31.479923248291019 58.159444808959968 58.188856124877937 -0.30963709950447077 62770.000000000007 -1.0647099018096922 -0.66194728016853321 0.047430165112018592 0.68454250693321239 1.5553022027015688 0.12149222940206529 3.5449130535125737 -0.29983632266521448 12.405433654785158 -0.67781642079353321 1.4648490548133852 -0.39358025789260859 2.2521020174026494 -1.5105639100074766 12.40002489089966 -1.260510981082916 0.92849621176719677 0.97479155659675609 0.5022813379764558 -0.37887085974216456 0.30170688033103948 -0.33641044795513148
decision_type=2 2 2 2 2 2 2 2 2 2 2 2 2 2 2 2 2 2 2 2 2 2 2 2 2 2 2 2 2 2
left_child=1 7 29 6 25 8 9 12 11 10 -4 19 -1 15 20 -11 -10 -18 -19 27 -8 -21 -23 -24 -12 26 -5 -3 -27 -2
right_child=2 5 3 4 -6 -7 14 -9 16 13 24 -13 -14 -15 -16 -17 17 18 -20 21 -22 22 23 -25 -26 28 -28 -29 -30 -31
leaf_value=0.013955986100339981 -0.002171909004543547 0.02873498806582727 -0.0052419873572857835 0.0069678747715068599 -0.0050322216096573245 -0.00097636853702054633 -0.0098065964064542408 0.0039146547459673045 0.013159384542695426 -0.0061830971063764955 0.010616731438577965 0.021093202818690912 0.021305796435071217 -0.0075346904823835369 0.014804030314945558 0.0024698329043466331 0.016776942020908677 -0.00077652674796433851 0.012294027497834255 0.022032533689817117 0.015609318734921187 0.029441632469036656 0.0014744041546744769 0.014643132530195264 -0.006313114819118725 0.01636050811103431 -0.0042526338063180319 0.0018567718097815774 0.001603109613304884 0.0021489449129170049
leaf_weight=136.8408088684082 223.62900553643703 3.3750441819429389 52.945530489087105 41.261983424425125 166.26806969940662 64.964240506291389 504.27916814386845 26.803496226668358 44.876844078302383 91.347826451063156 40.590321451425552 39.765419751405716 123.1985390484333 402.08985525369644 5.4373985081911078 77.466765403747559 17.479265600442886 98.936133995652199 24.660046592354774 25.399499967694283 4.2544407546520224 7.300858572125434 35.631346732378006 47.918851047754288 11.24882562458515 29.196902364492416 32.416612565517426 44.049926534295082 16.110626071691513 254.94289487600327
leaf_count=780 1398 20 338 249 1058 404 3296 155 257 582 252 220 672 2604 32 484 99 604 143 143 26 41 207 275 70 173 199 265 97 1573
internal_value=0 0.0111071 -0.00421834 -0.00562922 -0.000643434 0.00790798 -0.00682471 0.0161744 0.0093902 -0.00491457 0.000786199 0.0125163 0.0174381 -0.0059609 -0.00933585 -0.00221238 0.00597005 0.00368309 0.00183132 0.0104326 -0.00959396 0.0131507 0.0106676 0.00902711 0.00694304 0.00548934 0.00203115 0.00376959 0.011113 0.000129879
internal_weight=0 741.2 1953.49 1474.91 285.254 454.357 1189.66 286.843 389.393 675.689 104.785 203.441 260.039 570.904 513.971 168.815 185.952 141.075 123.596 163.676 508.534 116.251 90.8511 83.5502 51.8391 118.986 73.6786 47.425 45.3075 478.572
internal_count=16716 4285 12431 9460 1776 2678 7684 1607 2274 4330 660 1171 1452 3670 3354 1066 1103 846 747 951 3322 666 523 482 322 718 448 285 270 2971
is_linear=0
shrinkage=0.01


Tree=11
num_leaves=31
num_cat=0
split_feature=22 35 0 45 44 31 50 26 53 15 40 23 6 53 49 17 38 44 53 53 2 49 2 39 34 2 41 24 37 20
split_gain=1232.45 118.553 115.616 79.3948 58.1196 54.8597 54.7334 49.1611 48.1916 42.7047 40.8812 40.1962 34.8374 33.4647 31.6222 31.3748 31.2989 29.5911 33.1219 32.8063 28.9414 28.7977 28.1746 31.5174 35.2338 27.7489 27.5541 38.726 25.9489 29.407
threshold=-0.41269710659980768 -0.024858280085027214 -0.071200016885995851 31.479923248291019 58.188856124877937 58.170139312744148 0.76225689053535473 1.5687459111213686 -0.97531643509864796 62770.000000000007 -0.41206221282482142 -1.0647099018096922 0.68454250693321239 1.5553022027015688 -0.022470913827419278 650.00000000000011 -0.085695948451757417 12.405433654785158 -0.67781642079353321 1.4648490548133852 0.086634285748004927 -2.0908850431442256 -0.30405154824256891 -0.61496251821517933 58.044427871704109 -0.80750346183776844 -0.40362985432147974 0.8445119857788087 5.0749149322509775 31.26874923706055
decision_type=2 2 2 2 2 2 2 2 2 2 2 2 2 2 2 2 2 2 2 2 2 2 2 2 2 2 2 2 2 2
left_child=2 15 9 6 11 22 7 14 -8 13 26 12 20 -1 -3 16 25 -13 -19 -20 21 -4 -5 -24 -25 -2 -7 -28 -16 -30
right_child=1 3 4 5 -6 10 8 -9 -10 -11 -12 17 -14 -15 28 -17 -18 18 19 -21 -22 -23 23 24 -26 -27 27 -29 29 -31
leaf_value=0.013711481269077924 -0.0070114246143032632 -0.0021276474654869488 0.022293362875374673 -0.0011743157485519867 -0.00096717176998247347 -0.0010790942551672233 0.0082332877847900807 0.01345761069540965 -0.010116594823919672 0.0038670821599133538 -0.0062261439327164656 0.012933933428141921 0.020652393779630122 0.020862619118285099 -0.0069325583656075331 -0.0051513237741612943 0.0065539131815380612 0.016458957001448272 -0.00076911385979337916 0.012087963762500131 0.014036779236742241 0.0032561475607975538 0.005150780757412066 -0.0047943992482462564 0.029890897777051163 0.0014545033058987336 0.02828254357587566 -0.0015842034982842116 0.034874487691714071 -0.0041992839910799861
leaf_weight=137.88285183906555 47.57014000415802 212.65233278274536 9.0631134510040265 35.63404643535614 64.926354184746742 36.669315695762634 14.816917076706885 14.074808791279791 420.12516556680202 26.861603289842606 158.72122651338577 45.20085147023201 40.205789938569069 124.5505429059267 542.67878006398678 82.084506779909134 96.868246749043465 17.637984097003937 98.891034111380577 24.828764528036118 91.076811656355858 64.468609735369682 36.487171307206154 3.8148844391107586 12.606817975640295 208.02489656209946 9.204206734895708 8.2172060310840589 3.1682270765304548 4.9128183424472809
leaf_count=780 299 1338 51 214 404 228 89 82 2777 155 1017 257 220 672 3523 518 586 99 604 143 516 384 220 23 72 1290 52 51 20 32
internal_value=0 -0.00418736 0.0109307 -0.005509 0.00779519 -0.000915397 -0.00665076 -0.0050616 -0.00949148 0.0158762 -0.00366751 0.00924881 0.0123074 0.0171054 -0.00540303 0.000416665 0.00171338 0.0058909 0.00363881 0.00181111 0.0102692 0.00560257 0.00569928 0.0103286 0.0218332 -0.000121135 0.00384042 0.0141952 -0.00666768 0.0111198
internal_weight=0 1948.33 745.594 1513.78 456.299 301.355 1212.43 777.487 434.942 289.295 212.812 391.373 204.814 262.433 763.412 434.548 352.463 186.559 141.358 123.72 164.609 73.5317 88.5429 52.9089 16.4217 255.595 54.0907 17.4214 550.76 8.08105
internal_count=16716 12431 4285 9738 2678 1877 7861 4995 2866 1607 1348 2274 1171 1452 4913 2693 2175 1103 846 747 951 435 529 315 95 1589 331 103 3575 52
is_linear=0
shrinkage=0.01


Tree=12
num_leaves=31
num_cat=0
split_feature=22 35 0 45 50 53 30 26 53 46 48 40 16 38 6 2 39 15 24 0 24 49 10 53 29 37 30 39 26 36
split_gain=1203.76 116.922 111.431 76.5288 56.7595 55.9581 51.8127 47.6511 47.4898 45.8626 39.6882 39.127 38.122 43.9389 34.3343 32.8759 32.7802 30.955 28.5008 27.4475 27.138 25.8042 25.287 25.1694 24.9261 24.8416 28.2796 24.9763 24.617 24.2527
threshold=-0.41269710659980768 -0.082383845001459108 -1.4313001632690427 31.479923248291019 0.76225689053535473 2.0335997343063359 58.165941238403327 1.5687459111213686 -0.97531643509864796 58.149894714355476 58.121112823486335 -0.41206221282482142 1.0000000180025095e-35 -0.085695948451757417 0.062563497573137297 -0.24633471667766568 1.3406291007995608 62770.000000000007 -0.17612054944038388 -2.2528560161590572 -1.1410833597183225 -0.022470913827419278 58.344999313354499 -0.60119128227233876 58.201839447021491 5.0749149322509775 31.279002189636234 -0.3850190788507461 1.1174055337905886 -0.3992647230625152
decision_type=2 2 2 2 2 2 2 2 2 2 2 2 2 2 2 2 2 2 2 2 2 2 2 2 2 2 2 2 2 2
left_child=2 12 17 4 7 9 10 21 -6 15 -5 18 14 23 -2 28 -17 19 -8 -1 24 -3 -20 -14 29 27 -27 -23 -4 -7
right_child=1 3 5 6 8 20 11 -9 -10 -11 -12 -13 13 -15 -16 16 -18 -19 22 -21 -22 25 -24 -25 -26 26 -28 -29 -30 -31
leaf_value=0.0227403832318945 -0.0027333624461859003 -0.0023879575912570533 0.0014849546128021679 0.0029877055107053641 0.008112251795163037 0.015928533744855849 0.013922849955588899 0.013223093529804402 -0.010062950728840558 -0.00072187701995795326 0.025447160172362204 -0.0063343336658988596 0.013769772653469941 0.014361460292701314 0.0077330555454493827 0.0073236712239424075 0.015530889986586008 0.0047482187839137787 0.0088590370383757819 0.015029243215044332 0.031193186344711951 -0.0055683896423134819 -0.0088607510782971605 -0.0010422399263352222 -0.010204491278977592 0.033924430206255456 -0.0041864135923675196 -0.010768004541879881 0.01768321183860487 -0.0068554350331881302
leaf_weight=61.772570922970772 244.51356464624405 222.17498053610325 89.378805547952652 93.172786071896553 14.887250944972036 71.863983407616615 17.891116112470627 14.18064872920513 418.71466884016991 75.92756113409996 8.5936620682477933 155.32471410930157 13.665902599692343 37.216951921582222 35.950642585754395 142.80500890314579 73.822597354650497 22.610300123691559 13.498647868633268 182.63689991831779 9.2687409818172437 436.64498934149742 19.964385256171227 71.46442474424839 4.3328624367713919 3.227590858936308 4.9074748456478119 117.17176251113415 10.482409894466398 4.9968285113573065
leaf_count=337 1526 1399 533 560 89 405 103 82 2785 467 49 999 84 219 221 831 413 129 82 1001 52 2837 129 445 27 20 32 770 61 29
internal_value=0 -0.00415668 0.0107588 -0.00541108 -0.0065264 0.00789226 -0.000956541 -0.00494446 -0.00943892 0.0062578 0.00488429 -0.0038325 0.000640119 0.0052979 -0.00139175 0.00793227 0.0101205 0.0159426 0.00373448 0.0169782 0.0149823 -0.00527301 -0.00171277 0.00133552 0.0131318 -0.00641366 0.0109341 -0.00666848 0.00318528 0.0144473
internal_weight=0 1943.17 749.899 1540.35 1231.91 482.879 308.445 798.307 433.602 392.416 101.766 206.679 402.811 122.347 280.464 316.489 216.628 267.02 51.3541 244.409 90.4624 784.127 33.463 85.1303 81.1937 561.952 8.13507 553.817 99.8612 76.8608
internal_count=16716 12431 4285 9936 8014 2818 1922 5140 2874 2305 609 1313 2495 748 1747 1838 1244 1467 314 1338 513 5058 211 529 461 3659 52 3607 594 434
is_linear=0
shrinkage=0.01


Tree=13
num_leaves=31
num_cat=0
split_feature=22 24 0 9 19 36 44 53 2 39 53 2 24 50 35 23 3 22 4 37 39 17 7 53 54 53 25 7 21 0
split_gain=1175.82 115.561 107.574 84.9667 86.7916 57.7821 54.9208 40.1811 38.0332 46.7752 37.1971 36.1908 33.5882 30.6819 30.508 29.9185 28.6927 36.3167 30.8877 27.1612 26.2627 25.6938 24.8173 32.8051 39.3394 26.2 24.2256 31.801 23.1458 22.635
threshold=-0.41269710659980768 -0.25266420841217035 -0.071200016885995851 31.614999771118168 58.157220840454109 -0.30963709950447077 58.188856124877937 1.5553022027015688 -0.40553084015846247 1.3261600732803347 -0.66194728016853321 0.047430165112018592 0.12149222940206529 -0.74021503329277027 0.68186512589454662 3.5449130535125737 0.97479155659675609 0.46958690881729132 -0.95380178093910206 -0.29983632266521448 2.2521020174026494 3750.0000000000005 1.951818108558655 -0.69139182567596424 -0.19728475064039228 1.5324687361717226 -0.97531643509864796 -0.90717723965644825 58.195499420166023 0.92849621176719677
decision_type=2 2 2 2 2 2 2 2 2 2 2 2 2 2 2 2 2 2 2 2 2 2 2 2 2 2 2 2 2 2
left_child=2 -2 7 5 13 10 8 21 26 22 11 -3 14 -5 19 20 17 -15 -18 -12 -7 -1 23 -10 -25 -26 27 -4 -9 -13
right_child=1 3 6 4 -6 15 -8 28 9 -11 12 29 -14 16 -16 -17 18 -19 -20 -21 -22 -23 -24 24 25 -27 -28 -29 -30 -31
leaf_value=0.012601781305144805 0.00014023366609350495 -0.0050628096994351683 0.020384082448289962 0.036307540138775178 -0.0047511246277522389 -0.0096870181723172129 -0.00095560662042600767 0.020436234899238796 0.020477871565698788 0.015369337351294421 -0.0064437996655636841 0.0097561328179924887 -0.0073629886185606072 0.0093745369899650606 0.022743774476061292 0.013634016129696527 0.0091957652576626445 -0.0070089362476854758 0.036584766799529551 0.0017239320237559224 0.015056592568771366 -0.010688384610851016 0.013981266039246397 -0.0037814897266068687 0.0047189338024275244 0.019213359279823216 -0.00018199367871396169 0.0019776340521043033 0.0044196722647298651 -0.0062415141659772659
leaf_weight=152.8531738370657 478.21042375266552 55.890378475189209 16.521359294652939 3.4570885747671118 171.05835318565369 499.613280788064 64.878163933753967 126.51810136437416 12.501354128122328 126.75983557105064 90.77813982963562 42.557967394590378 401.96723955869675 27.155088067054749 4.8199170976877204 5.6656278520822516 35.918256744742393 26.965194970369339 4.6506181061267844 73.824856653809547 4.326706886291503 4.8882717788219443 41.981999397277832 45.541269570589066 51.472452268004417 16.45859782397747 62.340120166540146 21.734806001186371 9.7154908925294858 11.164653509855269
leaf_count=855 2971 359 95 20 1095 3317 404 669 69 702 583 263 2636 162 30 33 211 166 27 462 26 29 240 268 304 93 374 129 54 70
internal_value=0 -0.00412621 0.0105905 -0.00552383 -0.000450195 -0.00667101 0.00757187 0.0153158 0.00897138 0.0107836 -0.00476531 0.000570685 -0.00578894 0.00704586 -0.00205441 -0.00921766 0.00597752 0.00121154 0.0123355 -0.00278055 -0.00947458 0.01188 0.00732258 0.00510351 0.0034097 0.0082307 0.00366227 0.00992667 0.019294 0.0064315
internal_weight=0 1938.02 754.165 1459.81 269.205 1190.61 460.19 293.975 395.312 294.716 681.003 109.613 571.39 98.1462 169.423 509.606 94.6892 54.1203 40.5689 164.603 503.94 157.741 167.956 125.974 113.472 67.9311 100.596 38.2562 136.234 53.7226
internal_count=16716 12431 4285 9460 1681 7779 2678 1607 2274 1676 4403 692 3711 586 1075 3376 566 328 238 1045 3343 884 974 734 665 397 598 224 723 333
is_linear=0
shrinkage=0.01


Tree=14
num_leaves=31
num_cat=0
split_feature=22 35 0 45 50 44 31 53 26 40 15 44 23 2 49 38 45 36 2 39 34 32 41 24 37 30 53 3 53 22
split_gain=1148.69 114.087 103.692 76.5691 53.8394 53.3767 51.8912 46.9087 46.8866 39.6638 38.8263 37.1326 42.8604 30.8135 30.598 28.9146 37.1179 27.6153 26.9626 29.7606 32.9067 26.4804 26.4476 36.4592 25.0272 26.857 24.7639 24.0663 23.1884 24.2775
threshold=-0.41269710659980768 -0.024858280085027214 -0.071200016885995851 31.479923248291019 0.76225689053535473 58.188856124877937 58.170139312744148 -0.97531643509864796 1.5687459111213686 -0.41206221282482142 23282.000000000004 12.396243572235109 -1.3157592415809629 -0.57015565037727345 -0.022470913827419278 -0.085695948451757417 31.445890426635746 -0.3992647230625152 -0.30405154824256891 -0.61496251821517933 58.044427871704109 58.153245925903327 -0.40362985432147974 0.8445119857788087 5.0749149322509775 31.279002189636234 1.5553022027015688 -1.2370930910110471 -0.50112360715866078 0.30851650238037115
decision_type=2 2 2 2 2 2 2 2 2 2 2 2 2 2 2 2 2 2 2 2 2 2 2 2 2 2 2 2 2 2
left_child=2 13 10 4 8 11 18 -6 14 22 26 -4 17 -2 28 -15 -17 27 -5 -20 -21 -18 -8 -24 -16 -26 -1 -13 29 -3
right_child=1 3 5 6 7 -7 9 -9 -10 -11 -12 12 -14 15 24 16 21 -19 19 20 -22 -23 23 -25 25 -27 -28 -29 -30 -31
leaf_value=0.013749522992320656 -0.0034766210132993443 -0.0024313234251413167 0.019195737767408273 -0.0012265983011487121 0.0080279229891331901 -0.00094659415335372895 -0.0010584111140420236 -0.010012828026238105 0.012990518421338776 -0.0061347193454433444 0.0077523752563374007 0.0094135280952274848 0.0052698779243312401 0.0005634273782299205 -0.0068166926456068658 0.0020598768909447329 0.024923545165182279 0.0014990503671186886 0.0049590415779465335 -0.0047844376019997824 0.028647139888705757 0.0037442801960747931 0.027301595794019112 -0.0015527894082076254 0.032870114162357147 -0.0040958088657196768 0.020211008840093917 0.018467068364632151 -0.00486029610563653 0.0082943111462656025
leaf_weight=123.9372024089098 138.54203954339027 52.819836914539337 31.843154102563858 35.745520606637001 14.934344142675398 64.841090247035027 36.610474899411201 412.5883222669363 14.28560735285282 157.27795243263245 58.57610447704792 55.721676558256149 227.48531492054462 229.99429163336754 535.84857308864594 40.167130813002586 16.680460780858997 20.089038610458374 36.797606900334358 3.8116647452116039 12.937303155660627 9.1371379941701871 9.3995790183544177 8.1987131983041746 3.2954707294702512 4.8697048723697662 113.75308786332607 62.064490303397179 123.86264528334141 35.14580225944519
leaf_count=684 867 333 175 214 89 404 228 2777 82 1017 327 314 1326 1430 3523 244 97 115 220 23 72 55 52 51 20 32 596 344 784 221
internal_value=0 -0.00409584 0.0104268 -0.0054041 -0.00653694 0.00746572 -0.000893337 -0.00938262 -0.00495721 -0.00359225 0.0150447 0.00883898 0.00793633 0.000415663 -0.00529642 0.00223757 0.00807289 0.0123358 0.00549898 0.0099887 0.0210389 0.017428 0.00378433 0.0138589 -0.00655193 0.0108237 0.0168418 0.0141841 -0.00207206 0.001854
internal_weight=0 1932.95 758.311 1498.43 1197.65 462.045 300.779 427.523 770.128 211.487 296.266 397.204 365.361 434.521 755.842 295.979 65.9847 137.875 89.2921 53.5466 16.749 25.8176 54.2088 17.5983 544.014 8.16518 237.69 117.786 211.828 87.9656
internal_count=16716 12431 4285 9738 7861 2678 1877 2866 4995 1348 1607 2274 2099 2693 4913 1826 396 773 529 315 95 152 331 103 3575 52 1280 658 1338 554
is_linear=0
shrinkage=0.01


Tree=15
num_leaves=31
num_cat=0
split_feature=22 22 45 49 53 15 25 2 53 36 12 34 22 7 37 39 2 3 50 2 51 55 39 22 5 46 41 0 51 32
split_gain=1124.4 131.934 81.5269 88.8495 66.8547 55.7121 55.6705 54.2153 40.5148 37.6453 36.4616 36.1778 38.3457 31.5457 33.3789 30.7649 29.4904 28.4562 37.5058 31.4241 27.9065 27.8553 27.6512 25.8322 26.6704 35.9093 24.8946 25.0619 24.7513 24.3268
threshold=-0.21111460030078885 -0.92118141055107106 31.479923248291019 -1.0000000180025095e-35 -1.0460739731788633 25067.500000000004 -0.88492876291275013 -0.33641044795513148 1.5553022027015688 -0.30963709950447077 58.164999008178718 58.044427871704109 0.57391622662544262 -1.5135746002197263 -0.19728475064039228 2.2521020174026494 -0.63511645793914784 -0.23031313717365262 -0.42044836282730097 0.02852613385766745 -0.11195364594459532 -0.085695948451757417 -0.73784026503562916 -0.10361041128635405 -1.2357074618339536 31.421568870544437 -0.58889880776405323 -2.4019670486450191 -0.27463616430759424 58.104633331298835
decision_type=2 2 2 2 2 2 2 2 2 2 2 2 2 2 2 2 2 2 2 2 2 2 2 2 2 2 2 2 2 2
left_child=1 5 3 13 22 8 28 -4 26 -6 11 -9 29 14 21 -11 -8 23 -19 -20 -14 -2 -5 24 25 -15 -1 -28 -3 -13
right_child=2 6 7 4 9 -7 16 10 -10 15 -12 12 20 17 -16 -17 -18 18 19 -21 -22 -23 -24 -25 -26 -27 27 -29 -30 -31
leaf_value=-0.0018255508858813136 0.02804855111637445 0.00069923898927461777 -0.0047704099121041402 0.013683142131886677 -0.0058996908656935689 0.0063479384073446285 -0.0048886187928272821 -0.0020524333194976334 0.017854643042375544 -0.010111251523348996 -0.00080769300908712304 0.032593081494034948 -0.0011403288839215403 0.022818473122372753 0.021184684126801436 0.018167819272927339 0.0037620080183943185 -0.0012580870214851257 0.031240574751444421 0.00083622172259399002 0.020032209775983571 -0.00030801723337015025 -0.012355901621311867 -0.0070826535974510422 -0.0040760632903400137 -0.012511607599424018 0.025049079943999047 0.011137478444219077 0.011196972357890817 0.013666376281547156
leaf_weight=13.480701655149458 3.6971696168184272 26.75935722887516 164.89822752773762 20.791109994053844 523.01740302145481 104.93469248712063 49.401897817850113 28.352202668786049 188.51038667559624 438.43043375015259 121.6123311072588 9.4409075379371625 25.964005053043365 10.180276826024054 10.071542009711264 3.8810854256153098 194.80541710555553 133.65443742275238 6.8597623258829099 6.7385735809803009 8.1886359453201276 54.969873070716858 5.0732783973217002 171.13230191171169 27.20911517739296 4.0100597292184821 14.121228426694868 156.09415328502655 139.7845122218132 24.194828033447266
leaf_count=77 23 159 1041 123 3441 595 304 172 1010 2959 767 54 156 63 62 23 1156 840 43 42 47 344 33 1081 169 25 77 881 806 143
internal_value=0 0.00920691 -0.00454158 -0.00564573 -0.00729061 0.0127835 0.00505227 -0.000444937 0.0145978 -0.00771572 0.00283062 0.00743288 0.0114001 -0.00184105 0.00436627 -0.00986312 0.00201203 -0.00302698 0.000351701 0.0161739 0.00393612 0.001479 0.00857561 -0.00536791 0.00172031 0.0128345 0.0112556 0.0122916 0.00951025 0.0189787
internal_weight=0 887.892 1802.37 1419.72 991.193 477.141 410.751 382.651 372.206 965.329 217.753 96.1406 67.7884 428.523 68.7386 442.312 244.207 359.785 147.253 13.5983 34.1526 58.667 25.8644 212.532 41.3995 14.1903 183.696 170.215 166.544 33.6357
internal_count=16716 5065 11651 9271 6579 2640 2425 2380 2045 6423 1339 572 400 2692 429 2982 1460 2263 925 85 203 367 156 1338 257 88 1035 958 965 197
is_linear=0
shrinkage=0.01


Tree=16
num_leaves=31
num_cat=0
split_feature=22 22 45 49 53 25 15 2 0 36 12 34 22 6 7 37 39 2 3 50 2 51 39 55 22 5 46 51 32 38
split_gain=1099.51 127.556 80.4401 87.9105 65.795 54.0657 53.6864 53.214 39.6706 37.4693 35.5463 35.1272 36.8698 32.808 30.927 32.195 30.2001 28.8905 28.0271 36.4189 29.9183 27.011 26.9536 26.8276 25.4814 25.9747 34.7167 23.9744 23.0225 23.6524
threshold=-0.21111460030078885 -0.92118141055107106 31.479923248291019 -1.0000000180025095e-35 -1.0460739731788633 -0.88492876291275013 25067.500000000004 -0.33641044795513148 -0.04472160525619983 -0.30963709950447077 58.164999008178718 58.044427871704109 0.57391622662544262 1.0534904599189761 -1.5135746002197263 -0.19728475064039228 2.2521020174026494 -0.63511645793914784 -0.23031313717365262 -0.42044836282730097 0.02852613385766745 -0.11195364594459532 -0.73784026503562916 -0.085695948451757417 -0.10361041128635405 -1.2357074618339536 31.421568870544437 -0.27463616430759424 58.104633331298835 -1.0000000180025095e-35
decision_type=2 2 2 2 2 2 2 2 2 2 2 2 2 2 2 2 2 2 2 2 2 2 2 2 2 2 2 2 2 2
left_child=1 6 3 14 22 27 8 -4 -1 -6 11 -9 28 -10 15 23 -11 -7 24 -20 -21 -14 -5 -2 25 26 -16 -3 -13 -30
right_child=2 5 7 4 9 17 -8 10 13 16 -12 12 21 -15 18 -17 -18 -19 19 20 -22 -23 -24 -25 -26 -27 -28 -29 29 -31
leaf_value=0.017612304790448834 0.027308014998942389 0.00069196996118287891 -0.0047364172271903184 0.013441573672670768 -0.0058624283098423335 -0.00485380449014647 0.0062629059564264372 -0.0020343563393300491 0.0088347021767463379 -0.01007541188311137 -0.00080000743432896986 0.03170218095090295 -0.0011296715042605097 0.018770326978854921 0.022286294453509544 0.020712168088752474 0.017801300063270589 0.0037164152734656909 -0.00124645584490217 0.030354716673357669 0.00082744379096006554 0.01961620126613994 -0.012327026182922201 -0.00030499377025507466 -0.0070421641167661723 -0.0040451840805078958 -0.012480383324211459 0.011016853532286224 0.0036141178540271186 0.023312910532968925
leaf_weight=186.58820222318172 3.7591366022825232 26.770002081990242 164.42325487732887 20.952294528484348 521.08807258307934 49.25939317047596 105.29399286210537 28.318266808986664 145.31088095903397 435.60427603125572 121.55313856899738 9.608294412493704 25.946951016783714 43.089784219861031 10.318432614207266 10.197650641202925 3.9211803972721091 195.22122265398502 133.55312848091125 6.9886916577815992 6.7419415414333344 8.278214827179907 5.0345051288604727 54.959705963730812 170.39877063035965 27.142983987927437 3.9800419658422461 140.64483319222927 12.237849235534666 12.143797755241396
leaf_count=985 23 159 1041 123 3441 304 595 172 826 2959 767 54 156 234 63 62 23 1156 840 43 42 47 33 344 1081 169 25 806 73 70
internal_value=0 0.00907072 -0.00450942 -0.00560954 -0.00725153 0.00498771 0.0125723 -0.00044081 0.014344 -0.00767627 0.0027978 0.0073281 0.0112148 0.0111071 -0.0018249 0.00431113 -0.00982671 0.00198964 -0.00300241 0.000347969 0.0158564 0.00388824 0.00844934 0.00146277 -0.00533179 0.00170092 0.0126088 0.00936588 0.018592 0.0134255
internal_weight=0 892.178 1797.15 1414.64 986.6 411.895 480.283 382.51 374.989 960.614 218.087 96.5334 68.2151 188.401 428.04 68.9165 439.525 244.481 359.124 147.284 13.7306 34.2252 25.9868 58.7188 211.84 41.4415 14.2985 167.415 33.9899 24.3816
internal_count=16716 5065 11651 9271 6579 2425 2640 2380 2045 6423 1339 572 400 1060 2692 429 2982 1460 2263 925 85 203 156 367 1338 257 88 965 197 143
is_linear=0
shrinkage=0.01


Tree=17
num_leaves=31
num_cat=0
split_feature=22 1 45 49 23 53 2 6 53 2 50 12 34 22 53 39 7 37 29 16 50 50 2 39 51 55 26 17 1 1
split_gain=1075.29 123.941 79.3651 86.9781 68.8843 64.7553 52.2316 51.1462 44.6905 37.8937 37.39 34.6601 34.1182 35.4776 33.1172 30.7138 30.333 30.457 26.4951 26.4368 34.5519 29.6485 26.6334 26.2804 26.1549 25.7952 24.9418 23.768 21.9669 24.2256
threshold=-0.21111460030078885 -0.072287458926439271 31.479923248291019 -1.0000000180025095e-35 -0.54902526736259449 -1.0460739731788633 -0.33641044795513148 0.36686800420284277 1.5553022027015688 0.086634285748004927 -1.0000000180025095e-35 58.164999008178718 58.044427871704109 0.57391622662544262 3.3360630273818974 2.2521020174026494 -1.4513594508171079 -0.19728475064039228 58.182132720947273 1.0000000180025095e-35 -0.42044836282730097 -0.79089066386222828 -0.8354341685771941 -0.73784026503562916 -0.11195364594459532 -0.085695948451757417 1.5687459111213686 3750.0000000000005 0.021826731972396377 0.019075162708759311
decision_type=2 2 2 2 2 2 2 2 2 2 2 2 2 2 2 2 2 2 2 2 2 2 2 2 2 2 2 2 2 2
left_child=1 8 3 16 7 23 -4 9 27 14 15 12 -8 -14 28 26 17 25 -11 21 -21 -18 -22 -5 -15 -2 -7 -1 29 -3
right_child=2 4 6 5 -6 10 11 -9 -10 18 -12 -13 13 24 -16 -17 19 -19 -20 20 22 -23 -24 -25 -26 -27 -28 -29 -30 -31
leaf_value=0.011212111210133473 0.026605365728936316 0.003574727012677414 -0.0047026030580199834 0.013206903595877756 0.00067274023937312171 -0.0063357845152723644 -0.0020164199628528415 0.015422072530781738 0.018110034950537438 0.011023560311393095 -0.0097890406347839326 -0.00079239135558171277 0.018221043470907462 -0.0011191070784320905 0.031005044810197401 0.025396075625310943 0.0088386833849998219 0.019775035560659543 -0.0014763768885062206 -0.0014355018118139562 0.038953259834084271 -0.0064926846709335894 0.0071203500111912477 -0.01229856902764536 0.019215838554248143 -0.00018463437476821248 0.0088226772332422963 -0.010767806939435918 -0.0035767768918834532 0.025152624403759618
leaf_weight=172.11348500847816 3.8195216208696356 96.334404185414314 163.95185692608356 21.110539212822918 163.35117907822132 504.01767924427986 28.284631416201591 81.850444301962852 142.23482818901539 160.73195086419582 437.68203292787075 121.49451389908791 34.332638815045357 25.930056288838387 4.0863386392593375 3.1329798549413672 13.535756841301916 10.476262763142584 18.956961467862129 139.4972423017025 3.4868194907903662 185.15677529573441 10.674513369798659 4.995886266231536 8.3657381087541562 60.906272366642952 11.093587964773176 5.0644806623458853 46.148936361074448 5.5000979304313651
leaf_count=951 23 563 1041 123 987 3347 172 452 732 901 2993 767 197 156 23 18 83 63 117 878 21 1177 66 33 47 381 65 30 278 31
internal_value=0 0.00893767 -0.0044775 -0.00557358 0.00617095 -0.00721262 -0.000436743 0.00834241 0.0139353 0.00659574 -0.00763698 0.00276551 0.00722585 0.011035 0.00292197 -0.00581947 -0.0018089 0.00395658 0.00970483 -0.00303943 7.53665e-05 -0.00544825 0.0149583 0.00832602 0.00384118 0.00139627 -0.00600933 0.0105838 0.0021465 0.00474015
internal_weight=0 896.373 1791.95 1409.59 576.96 982.033 382.359 413.609 319.413 331.759 955.926 218.408 96.9131 68.6284 152.07 518.244 427.553 75.2021 179.689 352.351 153.659 198.693 14.1613 26.1064 34.2958 64.7258 515.111 177.178 147.983 101.835
internal_count=16716 5065 11651 9271 3352 6579 2380 2365 1713 1913 6423 1339 572 400 895 3430 2692 467 1018 2225 965 1260 87 156 203 404 3412 981 872 594
is_linear=0
shrinkage=0.01


Tree=18
num_leaves=31
num_cat=0
split_feature=22 22 45 49 53 25 2 15 53 36 12 34 22 40 36 7 27 27 2 16 50 50 39 51 2 41 0 51 26 31
split_gain=1051.72 120.385 78.3055 86.0577 63.7358 51.4749 51.2682 50.9834 37.3758 37.3616 33.799 33.1432 34.1452 29.8381 33.7079 29.746 29.9412 39.3246 28.0207 26.0442 33.5929 29.1149 25.6302 25.3357 25.2001 23.7555 23.3172 23.0538 21.7874 26.6663
threshold=-0.21111460030078885 -0.92118141055107106 31.479923248291019 -1.0000000180025095e-35 -1.0460739731788633 -0.88492876291275013 -0.33641044795513148 25067.500000000004 1.5553022027015688 -0.30963709950447077 58.164999008178718 58.044427871704109 0.57391622662544262 3.3360630273818974 2.0319002866745 -1.4513594508171079 -1.1111593246459959 -0.93956673145294178 -0.63511645793914784 1.0000000180025095e-35 -0.42044836282730097 -0.79089066386222828 -0.73784026503562916 -0.11195364594459532 -0.8354341685771941 -0.58889880776405323 -2.4019670486450191 -0.27463616430759424 1.6886816024780276 31.432878494262699
decision_type=2 2 2 2 2 2 2 2 2 2 2 2 2 2 2 2 2 2 2 2 2 2 2 2 2 2 2 2 2 2
left_child=1 7 3 15 22 27 -4 8 25 28 11 -8 -13 -11 -15 16 -2 -18 -7 21 -21 -17 -5 -14 -22 -1 -27 -3 -6 -30
right_child=2 5 6 4 9 18 10 -9 -10 13 -12 12 23 14 -16 19 17 -19 -20 20 24 -23 -24 -25 -26 26 -28 -29 29 -31
leaf_value=-0.0020039292199012489 -0.0026232267555603077 0.00060348877166425312 -0.0046689673195426098 0.012978831144033427 -0.0060842444798330569 -0.0048295547705876655 -0.0019986233054615664 0.0060569718727020725 0.016984583944224235 -0.010316615273030431 -0.00078484445865156056 0.017860340352035535 -0.0011086352564984405 -0.0067177049702256911 0.021908235559843278 0.0087047297181342478 0.028261903935361987 0.0044755590906341005 0.0036136533843904523 -0.0014223848605500712 0.037709331938641406 -0.006453378816494916 -0.012270524755473994 0.018830218361184162 0.007019330165040783 0.023843710764049106 0.01060165151921545 0.010699454727920032 0.02257475630495661 -0.0086143899819872954
leaf_weight=13.623942986130713 36.345998838543892 26.896751195192337 163.48401586711407 21.265901625156406 505.8493364751339 49.157315880060196 28.251293614506721 106.15378956496716 192.87497591972351 415.62103223800659 121.43644896149635 34.674010589718819 25.913319572806358 12.67009547352791 6.0910443514585486 13.606254607439039 9.0480604320764524 29.979748904705048 196.14441880583763 139.37643945217133 3.5654157549142829 184.42534765601158 4.9574241936206809 8.4512511938810331 10.719627305865286 14.511617064476011 158.91661249101162 142.16598552465439 5.9173580110073072 5.1073202639818192
leaf_count=77 226 159 1041 123 3375 304 172 595 1010 2859 767 197 156 85 38 83 55 186 1156 878 21 1177 33 47 66 77 881 806 34 32
internal_value=0 0.00880795 -0.00444578 -0.00553784 -0.00717398 0.00484771 -0.000432678 0.0121839 0.0138958 -0.00759795 0.00273368 0.00712547 0.0108591 -0.00975977 0.00257607 -0.001793 0.00390783 0.0099901 0.00192167 -0.00301479 7.44957e-05 -0.0054119 0.00820553 0.00379491 0.0146793 0.0107109 0.0117097 0.00909325 -0.00578115 0.00812599
internal_weight=0 900.445 1786.76 1404.55 977.48 414.364 382.21 486.081 379.927 951.256 218.726 97.2899 69.0386 434.382 18.7611 427.067 75.3738 39.0278 245.302 351.693 153.661 198.032 26.2233 34.3646 14.285 187.052 173.428 169.063 516.874 11.0247
internal_count=16716 5065 11651 9271 6579 2425 2380 2640 2045 6423 1339 572 400 2982 123 2692 467 241 1460 2225 965 1260 156 203 87 1035 958 965 3441 66
is_linear=0
shrinkage=0.01


Tree=19
num_leaves=31
num_cat=0
split_feature=22 1 45 49 23 53 2 6 53 50 20 35 2 12 40 39 7 27 27 45 45 16 50 50 39 26 2 17 36 51
split_gain=1028.72 117.858 77.2585 85.1462 65.438 62.7354 50.323 48.7979 41.6946 37.1961 36.9616 37.0812 34.7929 32.9638 32.248 29.5376 29.17 29.1494 37.5924 26.2912 29.8952 25.6568 32.6699 28.5923 25.0022 24.2105 24.064 22.9751 22.6975 25.2785
threshold=-0.21111460030078885 -0.072287458926439271 31.479923248291019 -1.0000000180025095e-35 -0.54902526736259449 -1.0460739731788633 -0.33641044795513148 0.36686800420284277 1.5553022027015688 -1.0000000180025095e-35 12.38724994659424 -1.5861784815788267 0.51807355880737316 58.164999008178718 -0.34299817681312555 2.2521020174026494 -1.4513594508171079 -1.1111593246459959 -0.93956673145294178 31.435729980468754 31.414079666137699 1.0000000180025095e-35 -0.42044836282730097 -0.79089066386222828 -0.73784026503562916 1.5687459111213686 0.02852613385766745 3750.0000000000005 -0.3992647230625152 -0.27463616430759424
decision_type=2 2 2 2 2 2 2 2 2 2 2 2 2 2 2 2 2 2 2 2 2 2 2 2 2 2 2 2 2 2
left_child=1 8 3 16 7 24 -4 10 27 15 -3 -12 28 14 -8 25 17 -2 -19 20 -14 23 -23 -18 -5 -7 -24 -1 29 -13
right_child=2 4 6 5 -6 9 13 -9 -10 -11 11 12 19 -15 -16 -17 21 18 -20 -21 -22 22 26 -25 -26 -27 -28 -29 -30 -31
leaf_value=0.010904776198416604 -0.0026010854040039231 0.018905376526417585 -0.0046355087303173075 0.012757074232126424 0.00063037796738857506 -0.0062560702229848596 0.00063123259380842844 0.014955170119910439 0.017518054807024244 -0.0097205895569813013 0.013647914226439272 -0.0050306297808069026 0.0099027938522062622 -0.00077736624541367022 0.012190064581468395 0.02458596902097979 0.0085737005953730634 0.027522856003325102 0.0044189643819805627 0.0028561766646885418 0.029206395803103524 -0.0014093774263036363 0.026606899596187977 -0.006414241079553633 -0.012242884919009185 0.0086276883918377564 0.00071416493621438714 -0.010742314070265744 -0.0061384678681406079 0.0054476053273141683
leaf_weight=173.85872533917427 36.289122253656387 22.033052995800972 163.01972611248493 21.418436184525493 163.7293786406517 499.80538529157639 43.619307011365891 82.956937402486801 144.38729581236839 432.44220632314682 47.429212689399719 29.680676564574242 46.530729696154594 121.37894196808338 54.038434594869614 3.1915900856256476 13.675700128078459 9.1973436921834928 30.059665411710739 43.186407014727592 9.6942465156316739 139.25675600767136 7.6196394264698011 183.69880437850952 4.9191220402717581 11.173276856541632 6.785877138376236 5.0452374070882788 33.304706379771233 102.65283824503422
leaf_count=951 226 118 1041 123 987 3347 263 452 732 2993 263 175 259 767 309 18 83 55 186 250 54 878 45 1177 33 65 42 30 198 596
internal_value=0 0.00868059 -0.00441428 -0.00550232 0.00598836 -0.00713555 -0.000428652 0.00808974 0.0135206 -0.0075591 0.00638715 0.00550449 0.00404727 0.00270233 0.00702726 -0.00574119 -0.00177725 0.00385961 0.00983187 0.00872401 0.0132311 -0.00299035 7.36413e-05 -0.00537576 0.00808778 -0.00593062 0.0144098 0.0102943 0.00124041 0.00309747
internal_weight=0 904.489 1781.59 1399.53 581.198 972.95 382.056 417.469 323.291 946.612 334.512 312.479 265.05 219.037 97.6577 514.17 426.583 75.5461 39.257 99.4114 56.225 351.037 153.662 197.375 26.3376 510.979 14.4055 178.904 165.638 132.334
internal_count=16716 5065 11651 9271 3352 6579 2380 2365 1713 6423 1913 1795 1532 1339 572 3430 2692 467 241 563 313 2225 965 1260 156 3412 87 981 969 771
is_linear=0
shrinkage=0.01


Tree=20
num_leaves=31
num_cat=0
split_feature=22 1 45 49 23 53 2 6 53 36 2 35 30 12 34 22 51 40 36 7 37 3 53 3 50 26 55 50 39 51
split_gain=1006.33 114.006 76.2272 84.2407 63.646 61.7532 49.3955 47.1202 40.1771 37.2528 35.9661 32.1744 32.6734 32.149 31.7138 32.655 29.9219 29.4756 32.4641 28.606 28.4762 28.1819 26.5683 25.2821 32.9644 25.9158 24.4753 24.4063 24.3952 24.3727
threshold=-0.21111460030078885 -0.072287458926439271 31.479923248291019 -1.0000000180025095e-35 -0.54902526736259449 -1.0460739731788633 -0.33641044795513148 0.36686800420284277 1.5553022027015688 -0.30963709950447077 -0.40553084015846247 -1.5861784815788267 12.40002489089966 58.164999008178718 58.044427871704109 0.57391622662544262 -0.085695948451757417 3.3360630273818974 2.0319002866745 -1.4513594508171079 -0.19728475064039228 -1.2752094268798826 3.0432364940643315 -0.23031313717365262 -0.42044836282730097 -0.62276798486709584 -0.085695948451757417 -0.79540097713470448 -0.73784026503562916 -0.11195364594459532
decision_type=2 2 2 2 2 2 2 2 2 2 2 2 2 2 2 2 2 2 2 2 2 2 2 2 2 2 2 2 2 2
left_child=1 8 3 19 7 28 -4 10 -1 -7 22 -12 -13 14 -8 -16 21 -11 -19 20 26 -14 -3 27 -25 -26 -2 -21 -5 -17
right_child=2 4 6 5 -6 9 13 -9 -10 17 11 12 16 -15 15 29 -18 18 -20 23 -22 -23 -24 24 25 -27 -28 -29 -30 -31
leaf_value=0.010137419952001949 0.025572478553905823 -0.00017048033225867119 -0.0046022270655509123 0.012541365481148906 0.00062384605455668952 -0.0057006934390766793 -0.002005816985016339 0.014693044268370186 0.017204545763292819 -0.01025380832867278 0.018807991922375013 0.020600189738956744 0.0023327812431430265 -0.0007699555072905594 0.017334291501538916 -0.0011698147993698029 -0.0040200267880130666 -0.0066566431017152563 0.02133029964824628 0.00728269486995452 0.018908917256106276 0.010602354210706502 0.025832392742723524 -0.0012992777930324615 0.02347414860730342 -0.0073141560170202694 -0.00023195776472905328 -0.0061497637298358453 -0.012215642292609399 0.018268421039703157
leaf_weight=179.85060051083565 3.911056473851203 88.211962133646011 162.55896413326263 21.568198308348659 163.78897722065449 512.70565617084503 28.264242872595787 83.589311003684998 145.54231467843056 410.53118662536144 26.104091316461563 16.465143278241158 66.694268003106117 121.32198895514011 35.178855746984482 26.010146632790565 26.190463498234749 12.580838471651079 6.1809955686330786 14.550519704818724 10.724704399704931 107.85110260546207 4.1125408113002768 129.8897116035223 9.9385537654161435 3.7714470475912085 61.078253865242004 192.23250234127045 4.880982667207717 8.5776900351047498
leaf_count=981 23 523 1041 123 987 3441 172 452 732 2859 139 87 380 767 197 156 154 85 38 88 63 607 23 820 59 23 381 1235 33 47
internal_value=0 0.00855646 -0.00438294 -0.00546698 0.00590984 -0.00709725 -0.000424612 0.00797508 0.0132984 -0.00752038 0.00630195 0.00831846 0.00705778 0.00267135 0.00693028 0.0105505 0.00594698 -0.00969364 0.00256352 -0.00176163 0.00381225 0.00744253 0.000987802 -0.00296609 0.000257322 0.0150047 0.00132095 -0.00520457 0.00797266 0.00365082
internal_weight=0 908.401 1776.46 1394.54 583.008 968.448 381.912 419.219 325.393 941.999 335.63 243.305 217.201 219.353 98.0309 69.7667 200.736 429.293 18.7618 426.097 75.714 174.545 92.3245 350.383 143.6 13.71 64.9893 206.783 26.4492 34.5878
internal_count=16716 5065 11651 9271 3352 6579 2380 2365 1713 6423 1913 1367 1228 1339 572 400 1141 2982 123 2692 467 987 546 2225 902 82 404 1323 156 203
is_linear=0
shrinkage=0.01


Tree=21
num_leaves=31
num_cat=0
split_feature=22 22 24 45 19 25 15 36 26 0 24 30 6 23 2 31 3 31 40 9 46 0 51 35 4 44 30 41 53 5
split_gain=984.51 110.689 75.4676 74.0091 57.0674 48.2882 47.8325 46.8942 37.5192 34.1376 30.6981 32.156 28.7929 28.3447 27.0221 26.2999 26.1348 25.4275 24.9856 29.0201 24.3799 22.3372 21.6687 21.4309 25.096 20.9215 26.3966 44.1578 30.1174 29.542
threshold=-0.21111460030078885 -0.92118141055107106 -0.25266420841217035 31.479923248291019 58.159444808959968 -0.88492876291275013 25067.500000000004 -0.30963709950447077 1.6886816024780276 -0.04472160525619983 0.19835744798183444 31.445860862731937 1.0534904599189761 3.5449130535125737 -0.63511645793914784 31.434727668762211 0.97479155659675609 31.438353538513187 3.3360630273818974 31.275000572204593 31.433842658996586 0.30170688033103948 -0.27463616430759424 0.64445903897285473 -0.91739118099212635 31.286262512207035 31.342786788940433 -0.33395406603813166 -0.50112360715866078 -1.2671848535537718
decision_type=2 2 2 2 2 2 2 2 2 2 2 2 2 2 2 2 2 2 2 2 2 2 2 2 2 2 2 2 2 2
left_child=1 6 25 7 16 22 9 8 10 -1 11 17 -11 18 -7 -10 -5 23 -9 -20 -19 -18 -3 -4 -25 -2 27 29 -28 -27
right_child=2 5 3 4 -6 14 -8 13 15 12 -12 -13 -14 -15 -16 -17 21 20 19 -21 -22 -23 -24 24 -26 26 28 -29 -30 -31
leaf_value=0.016248814873552633 -0.0062332691436212933 0.00050833903952423351 -0.0025129117076822106 0.00071084621090322501 -0.0048251800870143741 -0.0048235216737740928 0.0057368980258499297 -0.0097273507472034476 0.01970513584565833 0.0081918915389675787 -0.0068693761103407348 -0.011357504128157989 0.017342764317114234 0.013193045760268165 0.0034644173065668605 -0.0084117712521777233 0.015735802463072206 0.020303391260198114 0.020539491528946928 -0.0055925219144249893 -0.0053185376110082084 0.0011449214071373522 0.010264554169675253 0.027075405665507507 -0.0089962794775190844 0.021062028085557873 0.0041356393236821462 0.017572778659255325 -0.0027902826527731522 -0.0065174429974908911
leaf_weight=193.38082878291607 56.563210695981979 27.030453205108643 154.37749670445919 70.827743038535118 150.36082744598389 49.125204995274544 107.49611929059029 456.18012493848801 10.37145574390888 148.72827272117138 384.87914541363716 31.998820453882217 44.723966971039772 5.7084727734327307 197.48147356510162 4.8977380096912375 28.870823174715042 10.689227133989336 5.7197628468275097 16.534013316035271 5.6908578425645819 16.48203307390213 144.26778520643711 5.3010741621255875 3.0318162739276868 4.7323375791311291 88.557919055223465 22.160263791680336 215.74522787332535 21.663430944085121
leaf_count=985 361 159 1002 426 980 304 595 3171 58 826 2610 211 234 32 1156 31 164 68 35 111 37 97 806 33 20 28 547 134 1360 135
internal_value=0 0.008435 -0.00435182 -0.00548354 -0.000757834 0.00464648 0.0116378 -0.00663346 -0.00479201 0.0132776 -0.00518858 -0.00212398 0.0103075 -0.00895831 0.00181342 0.0106864 0.00450612 -0.00047419 -0.00922261 0.00112404 0.0114017 0.0104332 0.00872505 -0.00166974 0.0139512 -0.000587219 0.000317842 0.00716492 -0.00077471 -0.00157289
internal_weight=0 912.234 1771.34 1361.92 266.541 417.905 494.329 1095.38 611.238 386.833 595.968 211.089 193.452 484.142 246.607 15.2692 116.181 179.09 478.434 22.2538 16.3801 45.3529 171.298 162.71 8.33289 409.422 352.859 48.556 304.303 26.3958
internal_count=16716 5065 11651 9086 1667 2425 2640 7419 4070 2045 3981 1371 1060 3349 1460 89 687 1160 3317 146 105 261 965 1055 53 2565 2204 297 1907 163
is_linear=0
shrinkage=0.01


Tree=22
num_leaves=31
num_cat=0
split_feature=22 1 24 45 23 19 36 6 53 26 2 24 30 53 23 31 3 31 40 48 29 46 17 0 35 4 52 43 44 30
split_gain=963.204 107.758 74.4758 73.1409 60.7432 55.9763 46.5865 44.4886 37.9791 36.7728 34.7671 30.3615 31.7948 30.3311 27.8809 25.4777 25.3981 24.7798 24.7688 29.5348 24.6201 23.5141 22.0399 21.5729 20.8813 24.1323 20.8125 20.6594 20.5869 25.7693
threshold=-0.21111460030078885 -0.072287458926439271 -0.25266420841217035 31.479923248291019 -0.54902526736259449 58.159444808959968 -0.30963709950447077 0.36686800420284277 1.5553022027015688 1.6886816024780276 0.086634285748004927 0.19835744798183444 31.445860862731937 3.3360630273818974 3.5449130535125737 31.434727668762211 0.97479155659675609 31.438353538513187 3.3360630273818974 12.375199794769289 58.182132720947273 31.433842658996586 3750.0000000000005 0.30170688033103948 0.64445903897285473 -0.91739118099212635 -0.15149264782667157 58.198381423950202 31.286262512207035 31.342786788940433
decision_type=2 2 2 2 2 2 2 2 2 2 2 2 2 2 2 2 2 2 2 2 2 2 2 2 2 2 2 2 2 2
left_child=1 8 28 6 7 16 9 10 22 11 13 12 17 -3 18 -11 -5 24 -8 -20 -12 -19 -1 -18 -4 -26 -9 -10 -2 -30
right_child=2 4 3 5 -6 -7 14 26 27 15 20 -13 -14 -15 -16 -17 23 21 19 -21 -22 -23 -24 -25 25 -27 -28 -29 29 -31
leaf_value=0.010422988596327292 -0.0061946141733228398 0.0018782422901395402 -0.0024916741790748185 0.00070344842992633332 0.00058383556643657982 -0.0047913494522838045 -0.0096916749621386057 -0.0014812640568469247 0.017753133003591867 0.019305652869730707 0.010315087314101591 -0.0068308465866440821 -0.011324882956159856 0.028933087961491754 0.012970075508403079 -0.0083702203419234334 0.015446996844505928 0.019853795995090587 0.028200286660914311 -0.0037854126610830556 -0.0016568118098709184 -0.0052828507233287705 -0.010755174488174564 0.0011327393322789852 0.026376871004247376 -0.0089570490856711177 0.015795571779080992 0.0038148667768173974 0.0070638457933731866 -0.00076736357361951893
leaf_weight=176.6354478597641 56.348092034459114 149.93503177165985 154.137595012784 70.85671666264534 164.14601337909698 149.91052474081516 453.29522809386253 7.6664841920137397 136.01402516663074 10.479654312133787 164.57409138977528 383.18808129429817 31.771224543452263 4.2615652978420249 5.7483387291431418 4.8729550242424002 29.115256696939468 10.821299865841867 3.4087506085634258 18.854569673538208 19.179509595036507 5.6721023619174948 5.0546037852764121 16.492644503712654 5.386608213186264 3.0147300809621793 77.041183412075043 11.536006093025206 48.754220470786095 304.15651775896549
leaf_count=951 361 872 1002 426 987 980 3171 42 672 58 901 2610 211 23 32 31 164 68 20 126 117 37 30 97 33 20 410 60 297 1907
internal_value=0 0.00831566 -0.00432083 -0.0054485 0.00574659 -0.000750838 -0.00659584 0.00775163 0.0128945 -0.00475901 0.00612733 -0.00515396 -0.00210579 0.00262596 -0.00892129 0.0105213 0.00445001 -0.000469764 -0.0091859 0.00111194 0.00906551 0.0112093 0.00983381 0.0102707 -0.00165488 0.0136977 0.0142319 0.0166634 -0.000581688 0.000314509
internal_weight=0 916.044 1766.29 1357.03 586.804 266.375 1090.65 422.658 329.24 609.344 337.95 593.992 210.804 154.197 481.307 15.3526 116.465 179.032 475.559 22.2633 183.754 16.4934 181.69 45.6079 162.539 8.40134 84.7077 147.55 409.259 352.911
internal_count=16716 5065 11651 9086 3352 1667 7419 2365 1713 4070 1913 3981 1371 895 3349 89 687 1160 3317 146 1018 105 981 261 1055 53 452 732 2565 2204
is_linear=0
shrinkage=0.01


Tree=23
num_leaves=31
num_cat=0
split_feature=22 22 24 45 19 36 25 15 26 53 24 30 23 2 31 3 40 48 31 39 41 27 0 51 35 4 44 30 41 53
split_gain=942.455 104.794 73.5006 72.2816 54.9073 46.2802 46.1425 45.5153 36.0449 32.5821 30.027 31.438 27.4278 26.292 24.6916 24.6874 24.5534 28.5397 24.153 22.814 22.4996 22.3461 20.8432 20.8109 20.351 23.2243 20.2579 25.1584 42.5289 29.522
threshold=-0.21111460030078885 -0.92118141055107106 -0.25266420841217035 31.479923248291019 58.159444808959968 -0.30963709950447077 -0.88492876291275013 25067.500000000004 1.6886816024780276 1.5553022027015688 0.19835744798183444 31.445860862731937 3.5449130535125737 -0.63511645793914784 31.434727668762211 0.97479155659675609 3.3360630273818974 12.375199794769289 31.438353538513187 -0.56357282400131214 -0.58889880776405323 1.3057600259780886 0.30170688033103948 -0.27463616430759424 0.64445903897285473 -0.91739118099212635 31.286262512207035 31.342786788940433 -0.33395406603813166 -0.50112360715866078
decision_type=2 2 2 2 2 2 2 2 2 2 2 2 2 2 2 2 2 2 2 2 2 2 2 2 2 2 2 2 2 2
left_child=1 7 26 5 15 8 23 9 10 20 11 18 16 -8 -10 -5 -7 -18 24 -20 -1 -22 -17 -3 -4 -26 -2 28 -28 -29
right_child=2 6 3 4 -6 12 13 -9 14 -11 -12 -13 -14 -15 -16 22 17 -19 19 -21 21 -23 -24 -25 25 -27 27 29 -30 -31
leaf_value=-0.002321596962314606 -0.0061561270266529897 0.00044175696900441904 -0.0024705883190182165 0.00069613087097450247 -0.0047576896710736748 -0.0096561665231410364 -0.0048062793627328725 0.0055563167677222611 0.018920854855334308 0.015713209605212001 -0.0067924584341724336 -0.011292561845730501 0.012753162396301372 0.0033703584097017248 -0.0083288499898788969 0.015167150909579943 0.027485448332512919 -0.003756568443040619 0.028608380980925188 0.0032093561349523358 0.0099039994849156252 0.023536956175437905 0.0011206949808949497 0.0099815312768241921 0.02571297291076053 -0.0089179862457271809 -0.0016231108546919044 0.0040937733739314355 0.017080562191755015 -0.002760668034652572
leaf_weight=13.880396604537962 56.134442061185837 27.125762954354286 153.89979638159275 70.885389268398285 149.46366645395756 450.42690761387348 49.05147098004818 108.26026931405067 10.585314452648161 199.41255877912045 381.50860066711903 31.544674262404442 5.787449747323989 198.33291012048721 4.8483117371797553 29.354711934924126 3.4621568620204952 18.809575498104095 5.1076115816831615 11.496510058641432 165.04055899381638 12.967962265014647 16.503142774105072 145.65954531729221 5.4700035005807877 2.9977412819862348 26.478534534573555 88.734216004610062 22.476945385336876 215.28229300677776
leaf_count=77 361 159 1002 426 980 3171 304 595 58 1010 2610 211 32 1156 31 164 20 126 32 73 890 68 97 806 33 20 163 547 134 1360
internal_value=0 0.00819923 -0.00429001 -0.00541368 -0.00074391 -0.00655842 0.00451862 0.0112949 -0.00472623 0.0128826 -0.00511953 -0.00208777 -0.00888446 0.00174909 0.0103606 0.00439484 -0.00914938 0.00110003 -0.00046538 0.0110224 0.00994098 0.0108972 0.0101122 0.00848387 -0.00164015 0.013453 -0.000576121 0.000311288 0.00696431 -0.000760042
internal_weight=0 919.731 1761.26 1352.15 266.207 1085.94 420.17 499.562 607.459 391.301 592.025 210.516 478.486 247.384 15.4336 116.743 472.699 22.2717 178.972 16.6041 191.889 178.009 45.8579 172.785 162.368 8.46774 409.106 352.972 48.9555 304.017
internal_count=16716 5065 11651 9086 1667 7419 2425 2640 4070 2045 3981 1371 3349 1460 89 687 3317 146 1160 105 1035 958 261 965 1055 53 2565 2204 297 1907
is_linear=0
shrinkage=0.01


Tree=24
num_leaves=31
num_cat=0
split_feature=22 1 24 9 19 23 36 45 6 53 35 2 53 32 23 45 45 40 43 50 3 4 22 50 24 37 50 17 4 16
split_gain=922.185 102.942 72.5338 71.4781 64.1145 57.7871 47.1876 42.757 38.1607 35.5512 34.6322 35.6432 29.6266 28.4875 25.8984 25.0467 25.8172 24.2488 27.5957 23.5164 31.8342 24.7355 24.6705 22.2991 22.2586 22.0221 22.6409 21.3525 20.1652 28.9815
threshold=-0.21111460030078885 -0.072287458926439271 -0.25266420841217035 31.614999771118168 58.157220840454109 -0.54902526736259449 -0.30963709950447077 12.40776586532593 0.68454250693321239 1.5553022027015688 -1.5861784815788267 0.51807355880737316 -0.57831734418869007 31.423944473266605 3.5449130535125737 31.435729980468754 31.414079666137699 3.3360630273818974 12.39192056655884 -0.72977623343467701 0.97479155659675609 -0.95380178093910206 0.5022813379764558 -0.34703965485095972 0.12149222940206529 -0.30963709950447077 -0.40409344434738154 3750.0000000000005 1.3487946391105654 1.0000000180025095e-35
decision_type=2 2 2 2 2 2 2 2 2 2 2 2 2 2 2 2 2 2 2 2 2 2 2 2 2 2 2 2 2 2
left_child=1 9 28 6 19 7 12 -3 10 27 -9 -12 13 -4 17 16 23 -8 -19 -5 22 -22 -21 -13 25 -14 -27 -1 29 -2
right_child=2 5 3 4 -6 -7 14 8 -10 -11 11 15 24 -15 -16 -17 -18 18 -20 20 21 -23 -24 -25 -26 26 -28 -29 -30 -31
leaf_value=0.01015519045058884 -0.0040805983925619764 0.016744729639802586 0.00052159778624900931 0.030838789465146899 -0.0045244485024827415 0.00054439271898943081 -0.009598983692729289 0.01280113591697218 0.013433471025802791 0.01615326244409265 0.00069777570735439552 0.0072028933922286377 -0.0060657448861776118 -0.0099865771735870856 0.011815447970201292 0.0025061440594622304 0.026900063188099153 0.026806466652406425 -0.0037278916435401544 0.006728551351919302 0.008571654798805067 0.032241579775791507 -0.0071861236291602612 0.029734912488851677 -0.0075400145671234422 0.00028772896917201782 0.023153763734336048 -0.010728405146881172 0.0060449170865864797 0.0015362760419035761
leaf_weight=178.19651520252228 186.63817453384399 44.964943364262581 151.33043751120567 3.635700359940528 155.16916361451149 164.49683505296707 450.99942067265511 48.280940413475037 64.682263776659966 149.45722354948521 164.14142292737961 44.515943482518196 75.564493343234062 31.100834086537361 5.9976074099540702 44.563396349549294 10.20169512927532 3.5140849947929409 18.764951720833778 25.019909292459488 35.656175389885902 5.0388806313276282 25.964918807148933 4.8730610460042945 305.98665033280849 48.804563328623772 4.7518612146377555 5.0342883914709082 41.409478470683098 180.89587654173374
leaf_count=951 1187 235 989 20 1017 987 3192 261 342 732 950 242 500 209 33 254 55 20 126 146 202 27 160 26 2104 312 29 30 257 1121
internal_value=0 0.00808467 -0.00425941 -0.00537905 -0.000559235 0.00557899 -0.00647978 0.00752204 0.00643433 0.0125338 0.00500428 0.0036012 -0.00465248 -0.00126983 -0.00883421 0.00817685 0.0124175 -0.00909589 0.00108831 0.00589594 0.0049068 0.0115025 -0.000357741 0.00942606 -0.00607076 -0.00258896 0.00231655 0.00958141 -0.000570672 -0.00131604
internal_weight=0 923.409 1756.24 1347.3 250.485 590.721 1096.81 426.224 381.259 332.688 316.576 268.296 617.539 182.431 479.276 104.154 59.5907 473.278 22.279 95.3156 91.6799 40.6951 50.9848 49.389 435.108 129.121 53.5564 183.231 408.944 367.534
internal_count=16716 5065 11651 9086 1572 3352 7514 2365 2130 1713 1788 1527 4143 1198 3371 577 323 3338 146 555 535 229 306 268 2945 841 341 981 2565 2308
is_linear=0
shrinkage=0.01


Tree=25
num_leaves=31
num_cat=0
split_feature=22 1 24 9 19 23 36 45 6 53 35 2 53 32 23 45 29 50 40 21 24 37 50 3 50 22 4 17 44 30
split_gain=902.444 99.7456 71.5804 70.613 62.8253 56.2525 46.8798 41.2981 36.957 34.3578 33.5783 34.7099 29.2647 28.1135 25.4931 24.2636 24.7092 25.6716 24.0361 26.6988 22.0465 21.6699 21.8574 21.6584 34.5937 24.3844 23.6328 20.8361 19.8322 24.4515
threshold=-0.21111460030078885 -0.072287458926439271 -0.25266420841217035 31.614999771118168 58.157220840454109 -0.54902526736259449 -0.30963709950447077 12.40776586532593 0.68454250693321239 1.5553022027015688 -1.5861784815788267 0.51807355880737316 -0.57831734418869007 31.423944473266605 3.5449130535125737 31.435729980468754 31.4107780456543 -0.34703965485095972 3.3360630273818974 12.387499809265138 0.12149222940206529 -0.30963709950447077 -0.40409344434738154 0.97479155659675609 -0.74021503329277027 0.46958690881729132 -0.95380178093910206 3750.0000000000005 31.286262512207035 31.342786788940433
decision_type=2 2 2 2 2 2 2 2 2 2 2 2 2 2 2 2 2 2 2 2 2 2 2 2 2 2 2 2 2 2
left_child=1 9 28 6 23 7 12 -3 10 27 -9 -12 13 -4 18 16 17 -13 -8 -20 21 -14 -23 24 -5 -26 -25 -1 -2 -30
right_child=2 5 3 4 -6 -7 14 8 -10 -11 11 15 20 -15 -16 -17 -18 -19 19 -21 -22 22 -24 26 25 -27 -28 -29 29 -31
leaf_value=0.010002875632979169 -0.0061028397563321988 0.016444232130374787 0.00051621423784779254 0.031952625622105567 -0.0044919319318882977 0.00053877939380656871 -0.0095636869101456985 0.012591360575701233 0.013212448038072498 0.015882187765289827 0.00069053029920213514 0.0081586536557682436 -0.0060281594748671013 -0.0099500431165874155 0.011625981972590965 0.0024776993200664589 0.036999688862159402 0.029629371151547412 0.026160631421064697 -0.0036993814771788479 -0.007501332522251063 0.00028480142532111313 0.022614254221933972 0.0084468684571732087 0.0068627788325079557 -0.006966126110980948 0.031417548577629212 -0.010687157324639335 0.0068523737934876759 -0.00074816219648692962
leaf_weight=179.09626471996307 55.839014276862144 45.326910212635994 151.37927652895451 3.5353592634201041 154.73170512914658 164.54828517138958 448.15159343183041 48.592874243855476 65.104503512382507 150.48283760249615 164.2047199010849 49.926909595727921 75.27672877907753 30.903867036104202 6.0342092812061301 44.623940333724022 3.7699040472507468 6.2678793519735327 3.5645711272954967 18.72069451212883 304.49637007713318 48.813143312931061 4.8162447959184638 35.82026495039463 24.305466860532761 26.821322858333588 5.118920609354972 5.0033365488052359 49.179441645741463 303.77558560669422
leaf_count=951 361 235 989 19 1017 987 3192 261 342 732 950 270 500 209 33 254 20 33 20 126 2104 312 29 202 141 166 27 30 297 1907
internal_value=0 0.00797299 -0.00422893 -0.00534455 -0.000554162 0.00550766 -0.00644255 0.0074188 0.00634925 0.0123378 0.00494142 0.00355845 -0.00461996 -0.00125821 -0.00879766 0.0080611 0.0122161 0.0105535 -0.00905963 0.00107679 -0.00603386 -0.00256747 0.00229012 0.00581916 0.00170001 -0.000391921 0.0113191 0.00944058 -0.000565209 0.000310868
internal_weight=0 926.948 1751.28 1342.49 250.333 592.366 1092.16 427.818 382.491 334.582 317.386 268.793 615.686 182.283 476.471 104.589 59.9647 56.1948 470.437 22.2853 433.402 128.906 53.6294 95.6013 54.6621 51.1268 40.9392 184.1 408.794 352.955
internal_count=16716 5065 11651 9086 1572 3352 7514 2365 2130 1713 1788 1527 4143 1198 3371 577 323 303 3338 146 2945 841 341 555 326 307 229 981 2565 2204
is_linear=0
shrinkage=0.01


Tree=26
num_leaves=31
num_cat=0
split_feature=22 1 45 49 53 25 21 2 2 50 53 50 50 24 39 7 37 3 50 2 18 55 22 5 47 26 3 39 34 34
split_gain=883.19 96.6792 70.7286 78.9117 59.1012 54.9743 53.503 47.5518 44.9338 36.8087 33.2235 29.93 40.3771 27.0186 26.9107 26.8497 26.4878 25.768 31.1983 25.9725 24.9446 24.2506 24.212 23.9943 31.9187 23.5632 24.1336 23.1736 22.5188 31.5191
threshold=-0.21111460030078885 -0.072287458926439271 31.479923248291019 -1.0000000180025095e-35 -1.0460739731788633 -0.87515878677368153 12.388700008392336 -0.33641044795513148 -0.37375268340110773 -1.0000000180025095e-35 1.5553022027015688 1.7918816804885866 1.4832836389541628 -2.1987390518188472 2.2521020174026494 -1.5135746002197263 -0.19728475064039228 -0.23031313717365262 -0.42044836282730097 0.02852613385766745 -449.99999999999994 -0.085695948451757417 -0.10361041128635405 -1.2357074618339536 31.412926673889164 1.2841635942459109 -0.73724341392517079 -0.73784026503562916 58.149047851562507 58.044427871704109
decision_type=2 2 2 2 2 2 2 2 2 2 2 2 2 2 2 2 2 2 2 2 2 2 2 2 2 2 2 2 2 2
left_child=1 10 3 15 27 20 -7 -4 -8 14 -1 12 28 -10 25 16 21 22 -19 -20 -3 -2 23 24 -17 -6 -27 -5 29 -9
right_child=2 5 7 4 9 6 8 11 13 -11 -12 -13 -14 -15 -16 17 -18 18 19 -21 -22 -23 -24 -25 -26 26 -28 -29 -30 -31
leaf_value=0.0093028156369165636 0.025339750200666058 0.003979008322755908 -0.0045102777898264204 0.012205131909744087 -0.0062845280345878995 0.019036292058262343 -0.0044710514864810683 -0.0026678584398849244 0.019984706079143637 -0.0094987752740923158 0.01561910372451814 -0.0068922060017923914 0.020145841931495691 0.0033241757339466144 0.022942796491993597 0.021093937542741435 0.018333945657389442 -0.0011078368871367016 0.027356706327658773 0.00042499441054011752 0.010857397609088399 -0.0003642750016893481 -0.0067764824433392233 -0.0038391679294539202 -0.012387311890297013 -0.010401014099827601 0.0071353531911758682 -0.012144073657313095 -0.00083966639871914882 0.010264306248737184
leaf_weight=184.95263107120991 3.9321549087762824 73.71188086271286 161.21038824319839 21.7846943885088 459.30325539410114 19.056115254759789 84.265421599149704 27.156123980879784 10.181070849299429 415.47975789010525 151.48226447403431 28.62552247941494 14.446853294968603 221.59758099913597 3.3110115826129904 10.637202978134153 10.867102101445196 132.3121423125267 7.4536128342151624 6.8917865306138992 185.16545782983303 55.149618044495583 165.57426854968071 26.696118265390396 3.8881251513957968 11.148092359304426 26.508240878582001 4.7632403075695029 87.612891882658005 61.590996742248535
leaf_count=981 23 411 1041 123 3167 100 511 166 54 2993 732 181 83 1270 18 63 62 840 43 42 1006 344 1081 169 25 76 169 33 554 355
internal_value=0 0.00786362 -0.00419865 -0.00526111 -0.0068724 0.0054376 0.00276364 -0.000386657 0.00178247 -0.00729882 0.0121468 0.00264284 0.00407333 0.004056 -0.00547173 -0.0016751 0.00398558 -0.00279536 0.000410855 0.0144182 0.00889887 0.00134644 -0.00506918 0.00178854 0.0121317 -0.00566104 0.00194374 0.00783639 0.00275672 0.00630714
internal_weight=0 930.412 1746.34 1365.7 942.298 593.978 335.1 380.643 316.044 915.75 336.435 219.432 190.807 231.779 500.271 423.402 69.9489 353.453 146.658 14.3454 258.877 59.0818 206.796 41.2214 14.5253 496.96 37.6563 26.5479 176.36 88.7471
internal_count=16716 5065 11651 9271 6579 3352 1935 2380 1835 6423 1713 1339 1158 1324 3430 2692 429 2263 925 85 1417 367 1338 257 88 3412 245 156 1075 521
is_linear=0
shrinkage=0.01


Tree=27
num_leaves=31
num_cat=0
split_feature=22 22 24 45 12 36 25 15 26 0 24 30 3 37 23 2 2 35 40 9 34 31 46 27 3 26 35 8 51 44
split_gain=864.383 95.1324 70.0348 68.8324 51.4702 45.3875 42.3759 42.2868 34.9165 30.1051 29.2144 30.9712 28.3611 27.1723 25.8629 24.9408 24.1812 28.6206 23.8494 25.765 23.4975 23.4377 22.001 21.005 20.8956 19.8715 19.7051 22.1707 19.5842 19.3968
threshold=-0.21111460030078885 -0.92118141055107106 -0.25266420841217035 31.479923248291019 58.164999008178718 -0.30963709950447077 -0.88492876291275013 25067.500000000004 1.6886816024780276 -2.2528560161590572 0.19835744798183444 31.445860862731937 0.97479155659675609 -0.63522517681121815 3.5449130535125737 -0.63511645793914784 -0.40553084015846247 -1.6783503293991087 3.3360630273818974 31.275000572204593 31.409203529357914 31.438353538513187 31.433842658996586 -1.2365191578865049 3.398598432540894 -0.15149264782667157 0.64445903897285473 1.4181730747222903 -0.27463616430759424 31.286262512207035
decision_type=2 2 2 2 2 2 2 2 2 2 2 2 2 2 2 2 2 2 2 2 2 2 2 2 2 2 2 2 2 2
left_child=1 7 29 5 12 8 28 9 10 -1 11 21 23 -11 18 -8 -15 -18 -7 -20 -10 26 -23 -5 -14 -17 -4 -28 -3 -2
right_child=2 6 3 4 -6 14 15 -9 20 13 -12 -13 24 16 -16 25 17 -19 19 -21 -22 22 -24 -25 -26 -27 27 -29 -30 -31
leaf_value=0.019214592477631014 -0.0060402780015159719 0.00025491067980492894 -0.0023720099963535791 0.023110445658153705 -0.00474724562509732 -0.009523525190063423 -0.0047885913033860056 0.0051770201460554837 0.016932015306383767 0.00022461801893264484 -0.0066517480372951781 -0.011213693328117917 0.012602924685374731 0.0069022887930947118 0.012022020931956312 0.0060194893010868849 0.021343531279141088 0.011903073190294171 0.018843567545665768 -0.0054334590399494108 -0.012392258269174942 0.019106628669590005 -0.0051916603758513707 -0.00085881575173531502 -0.01042300113086353 -0.00031607487457259139 0.030819344336120894 -0.0015625001521794174 0.0094580637328551074 0.00032026941500314592
