tree
version=v4
num_class=1
num_tree_per_iteration=1
label_index=0
max_feature_idx=55
objective=binary sigmoid:1
feature_names=ret logret vol20 buy_ratio sell_ratio ofi_norm interarrival_mean_s hod_sin hod_cos open high low close volume trades dollar buy_volume sell_volume signed_volume ma_9 ma_20 ma_50 price_ma9_ratio price_ma20_ratio price_ma50_ratio ma9_ma20_cross ma20_ma50_cross ma9_ma50_cross bb20_middle bb20_upper_1std bb20_upper_2std bb20_upper_3std bb20_lower_1std bb20_lower_2std bb20_lower_3std bb20_position bb20_touch_upper_1std bb20_touch_upper_2std bb20_touch_upper_3std bb20_touch_lower_1std bb20_touch_lower_2std bb20_touch_lower_3std bb50_middle bb50_upper_1std bb50_upper_2std bb50_upper_3std bb50_lower_1std bb50_lower_2std bb50_lower_3std bb50_position bb50_touch_upper_1std bb50_touch_upper_2std bb50_touch_upper_3std bb50_touch_lower_1std bb50_touch_lower_2std bb50_touch_lower_3std
feature_infos=[-3.3191103935241699:939.3946533203125] [-3.3227207660675049:574.171142578125] [-0.68378603458404541:979.2763671875] [-2.5029821395874023:1.5343194007873535] [-1.6377404928207397:2.5885155200958252] [-2.5949058532714844:1.5676032304763794] [0.0010803636396303773:4856.16064453125] [-0.94667637348175049:6.7543177604675293] [-3.2838716506958008:2.0545594692230225] [12.350000381469727:58.430000305175781] [12.359999656677246:58.439998626708984] [12.350000381469727:58.389999389648438] [12.350000381469727:58.419998168945312] [3700:3689800] [14:100] [45860:214011064] [0:409600] [0:3684600] [-3679400:275500] [12.375555992126465:58.375556945800781] [12.379500389099121:58.264999389648438] [12.383999824523926:58.205398559570312] [-3.3469095230102539:889.87481689453125] [-4.3246669769287109:955.71771240234375] [-4.1010041236877441:1033.47412109375] [-1.7440375089645386:1.2817398309707642] [-2.6457512378692627:4.4721360206604004] [-2.5869495868682861:1.3662600517272949] [12.379500389099121:58.264999389648438] [0:64.088996887207031] [0:75.565483093261719] [0:88.441696166992188] [0:58.154376983642578] [0:58.130256652832031] [-8.7276363372802734:58.106136322021484] [-4.0946488380432129:3.3700411319732666] [-0.78513586521148682:2.2360680103302002] [-0.32232919335365295:6.4807405471801758] [-0.21821789443492889:9.8994951248168945] [-0.52223294973373413:5] [-0.34641015529632568:5.6862406730651855] [-0.20000000298023224:0] [12.383999824523926:58.205398559570312] [0:63.846385955810547] [0:75.011940002441406] [0:87.557815551757812] [0:58.107376098632812] [0:58.020187377929688] [-8.3127861022949219:57.934181213378906] [-3.6578726768493652:4.8407464027404785] [-0.95118975639343262:2.4494898319244385] [-0.48795002698898315:6.4807405471801758] [-0.34503278136253357:6.4807405471801758] [-0.52223294973373413:5] [-0.40824830532073975:5.5827112197875977] none
tree_sizes=946 1278

Tree=0
num_leaves=8
num_cat=0
split_feature=11 24 12 20 8 2 0
split_gain=55.1324 21.5556 47.5082 11.8081 6.16789 2.19328 7.10543e-15
threshold=58.164999008178718 -0.57193931937217701 31.394999504089359 12.39464330673218 1.3414119482040407 -0.47187122702598566 -0.077687457203865037
decision_type=2 2 2 2 2 2 2
left_child=1 2 -1 -3 5 -5 -7
right_child=-2 3 -4 4 -6 6 -8
leaf_value=0.98735398935010676 0.94304892851248312 0.96651863641565672 0.94604251370421455 0.98270241851372431 0.97573887880618926 0.9891501404651456 0.98915014046514549
leaf_weight=5.5674601197242719 4.7721086740493766 3.9767572283744803 5.5674601197242737 7.7546765953302375 5.9651358425617209 12.327947407960893 4.1755950897932115
leaf_count=28 24 20 28 39 30 62 21
internal_value=0.97538 0.978783 0.966698 0.982717 0.984849 0.987089 0.98915
internal_weight=0 45.335 11.1349 34.2001 30.2234 24.2582 16.5035
internal_count=252 228 56 172 152 122 83
is_linear=0
shrinkage=1


Tree=1
num_leaves=11
num_cat=0
split_feature=11 24 12 44 12 33 15 17 7 2
split_gain=53.3379 21.1448 46.0225 11.6672 5.97076 9.94338 1.22277 0.196658 1.41181e-05 1.35579e-05
threshold=58.164999008178718 -0.57193931937217701 31.394999504089359 12.41365432739258 31.425000190734867 31.402412414550785 2442921.5000000005 23400.000000000004 0.2260609716176987 -0.43793141841888422
decision_type=2 2 2 2 2 2 2 2 2 2
left_child=1 2 -1 -3 7 -6 -7 8 9 -5
right_child=-2 3 -4 4 5 6 -8 -9 -10 -11
leaf_value=0.011919653238015139 -0.031546953509228232 -0.0087880216601184721 -0.02866386721014175 0.013742981978811105 -0.0089556283071394911 0.013745948082818531 0.0061487645532584461 0.011203707476679522 0.013751156398537252 0.01371892650744492
leaf_weight=5.5372253656387311 4.8414065837860099 3.9861089885234824 5.6408721804618835 3.963563144206999 3.9645943492650977 4.5596664845943433 3.9572001695632935 3.9574903547763816 3.9673232138156882 5.7302731573581767
leaf_count=28 24 20 28 20 20 23 20 20 20 29
internal_value=0 0.00337494 -0.00856026 0.00728892 0.00941796 0.00412639 0.0102161 0.0131666 0.0137353 0.0137288
internal_weight=0 45.2643 11.1781 34.0862 30.1001 12.4815 8.51687 17.6186 13.6612 9.69384
internal_count=252 228 56 172 152 63 43 89 69 49
is_linear=0
shrinkage=0.01


end of trees

feature_importances:
close=3
vol20=2
low=2
price_ma50_ratio=2
ret=1
hod_sin=1
hod_cos=1
dollar=1
sell_volume=1
ma_20=1
bb20_lower_2std=1
bb50_upper_2std=1

parameters:
[boosting: gbdt]
[objective: binary]
[metric: binary_logloss,auc]
[tree_learner: serial]
[device_type: cpu]
[data_sample_strategy: bagging]
[data: ]
[valid: ]
[num_iterations: 1000]
[learning_rate: 0.01]
[num_leaves: 31]
[num_threads: 0]
[seed: 0]
[deterministic: 0]
[force_col_wise: 1]
[force_row_wise: 0]
[histogram_pool_size: -1]
[max_depth: -1]
[min_data_in_leaf: 20]
[min_sum_hessian_in_leaf: 0.001]
[bagging_fraction: 1]
[pos_bagging_fraction: 1]
[neg_bagging_fraction: 1]
[bagging_freq: 0]
[bagging_seed: 3]
[feature_fraction: 1]
[feature_fraction_bynode: 1]
[feature_fraction_seed: 2]
[extra_trees: 0]
[extra_seed: 6]
[early_stopping_round: 0]
[early_stopping_min_delta: 0]
[first_metric_only: 0]
[max_delta_step: 0]
[lambda_l1: 0]
[lambda_l2: 0]
[linear_lambda: 0]
[min_gain_to_split: 0]
[drop_rate: 0.1]
[max_drop: 50]
[skip_drop: 0.5]
[xgboost_dart_mode: 0]
[uniform_drop: 0]
[drop_seed: 4]
[top_rate: 0.2]
[other_rate: 0.1]
[min_data_per_group: 100]
[max_cat_threshold: 32]
[cat_l2: 10]
[cat_smooth: 10]
[max_cat_to_onehot: 4]
[top_k: 20]
[monotone_constraints: ]
[monotone_constraints_method: basic]
[monotone_penalty: 0]
[feature_contri: ]
[forcedsplits_filename: ]
[refit_decay_rate: 0.9]
[cegb_tradeoff: 1]
[cegb_penalty_split: 0]
[cegb_penalty_feature_lazy: ]
[cegb_penalty_feature_coupled: ]
[path_smooth: 0]
[interaction_constraints: ]
[verbosity: -1]
[saved_feature_importance_type: 0]
[use_quantized_grad: 0]
[num_grad_quant_bins: 4]
[quant_train_renew_leaf: 0]
[stochastic_rounding: 1]
[linear_tree: 0]
[max_bin: 255]
[max_bin_by_feature: ]
[min_data_in_bin: 3]
[bin_construct_sample_cnt: 200000]
[data_random_seed: 1]
[is_enable_sparse: 1]
[enable_bundle: 1]
[use_missing: 1]
[zero_as_missing: 0]
[feature_pre_filter: 0]
[pre_partition: 0]
[two_round: 0]
[header: 0]
[label_column: ]
[weight_column: ]
[group_column: ]
[ignore_column: ]
[categorical_feature: ]
[forcedbins_filename: ]
[precise_float_parser: 0]
[parser_config_file: ]
[objective_seed: 5]
[num_class: 1]
[is_unbalance: 0]
[scale_pos_weight: 1]
[sigmoid: 1]
[boost_from_average: 1]
[reg_sqrt: 0]
[alpha: 0.9]
[fair_c: 1]
[poisson_max_delta_step: 0.7]
[tweedie_variance_power: 1.5]
[lambdarank_truncation_level: 30]
[lambdarank_norm: 1]
[label_gain: ]
[lambdarank_position_bias_regularization: 0]
[eval_at: ]
[multi_error_top_k: 1]
[auc_mu_weights: ]
[num_machines: 1]
[local_listen_port: 12400]
[time_out: 120]
[machine_list_filename: ]
[machines: ]
[gpu_platform_id: -1]
[gpu_device_id: -1]
[gpu_use_dp: 0]
[num_gpu: 1]

end of parameters

pandas_categorical:[]
