tree
version=v4
num_class=1
num_tree_per_iteration=1
label_index=0
max_feature_idx=18
objective=binary sigmoid:1
feature_names=ret logret vol20 buy_ratio sell_ratio ofi_norm interarrival_mean_s hod_sin hod_cos open high low close volume trades dollar buy_volume sell_volume signed_volume
feature_infos=[-795.56341552734375:563.86956787109375] [-1269.202392578125:425.67251586914062] [-2.3252480030059814:691.2105712890625] [-3.1036503314971924:2.8527600765228271] [-2.8903892040252686:3.1036503314971924] [-3.1036503314971924:2.8957281112670898] [0.0013786565978080034:12213.6796875] [-2.3123087882995605:14.621358871459961] [-4.0858416557312012:3.430485725402832] [7.7800002098083496:31.450000762939453] [7.7899999618530273:31.450000762939453] [7.7699999809265137:31.430000305175781] [7.7800002098083496:31.450000762939453] [5500:7513700] [12:100] [109670:166361490] [0:696400] [0:622200] [-615600:563900]
tree_sizes=3336

Tree=0
num_leaves=31
num_cat=0
split_feature=12 8 7 10 12 9 7 6 6 12 17 7 7 7 7 9 9 10 2 8 2 7 8 2 8 8 10 9 7 2
split_gain=44.7561 38.1515 35.7813 33.7464 28.7591 19.9763 18.7205 18.192 15.9646 24.3417 21.856 20.2868 19.3228 23.6163 18.6602 14.414 12.4274 40.774 22.8646 28.5266 19.4648 15.8481 15.2073 15.1214 12.7627 28.0093 19.5715 17.3055 16.0477 23.3232
threshold=7.8650000095367441 -1.8735432624816892 -0.90498042106628407 21.064999580383304 12.50500011444092 11.664999961853029 -1.4887927174568174 0.29032321274280554 1.7913929820060732 11.114999771118166 5950.0000000000009 0.67037147283554088 0.31839247047901159 1.3047791719436648 2.1350299119949345 11.284999847412111 26.914999961853031 30.98499965667725 -0.82857924699783314 1.7106313705444338 0.24521737545728686 1.7853612899780276 1.4776711463928225 -0.33499027788639063 0.47823229432106024 0.71128040552139293 22.115000724792484 12.465000152587892 0.25950206816196447 0.28911666572093969
decision_type=2 2 2 2 2 2 2 2 2 2 2 2 2 2 2 2 2 2 2 2 2 2 2 2 2 2 2 2 2 2
left_child=-1 3 6 4 5 -2 -3 -5 9 10 -4 -12 15 -14 16 -10 21 23 19 -19 22 24 -20 -18 -11 26 27 -26 29 -27
right_child=1 2 8 7 -6 -7 -8 -9 12 14 11 -13 13 -15 -16 -17 17 18 20 -21 -22 -23 -24 -25 25 28 -28 -29 -30 -31
leaf_value=-0.40128186049488634 -0.42547350093585601 -0.43090464196536943 -0.40101039625169893 -0.42328675204765714 -0.43548635513649903 -0.39987567571517557 -0.41721996166700676 -0.40399650292676037 -0.43117007366981935 -0.42812916752544883 -0.42351959277067464 -0.40670014005147814 -0.40797273970986847 -0.42522128076420679 -0.43748355635423491 -0.42070003714038523 -0.40024728010140542 -0.40380175683925634 -0.4299143775295371 -0.42850014299564676 -0.4156625637505173 -0.41205899094942622 -0.41325343361945077 -0.42161453230962276 -0.42579508165470875 -0.42541179035014864 -0.43206590567233777 -0.40373907993753089 -0.43101486360535285 -0.41166770800579744
leaf_weight=10.524932265281675 6.2192781567573565 10.764135271310804 6.6976841688156119 5.9800751507282248 10.524932265281675 5.9800751507282257 140.17296153306961 26.790736675262451 16.744210422039032 153.80753287672997 37.794074952602386 8.8505112230777723 22.724285572767258 12.199353307485579 11.720947295427321 61.235969543457031 10.764135271310804 11.003338277339937 65.302420645952225 8.1329022049903852 14.112977355718611 8.3721052110195142 5.9800751507282248 4.7840601205825797 4.7840601205825868 112.18620982766151 4.7840601205825797 13.873774349689482 42.338932067155838 13.873774349689482
leaf_count=44 26 45 28 25 44 25 586 112 70 643 158 37 95 51 49 256 45 46 273 34 59 35 25 20 20 469 20 58 177 58
internal_value=-0.421778 -0.422029 -0.422583 -0.41401 -0.423375 -0.412926 -0.418196 -0.407517 -0.423599 -0.424315 -0.417903 -0.420328 -0.42018 -0.413998 -0.425019 -0.422948 -0.424711 -0.421931 -0.424178 -0.414299 -0.426392 -0.425654 -0.428517 -0.406822 -0.425983 -0.424263 -0.414021 -0.409394 -0.425688 -0.423899
internal_weight=0 858.5 803.004 55.4951 22.7243 12.1994 150.937 32.7708 652.067 539.164 53.3423 46.6446 112.904 34.9236 485.821 77.9802 474.1 120.08 104.532 19.1362 85.3955 354.02 71.2825 15.5482 345.648 191.841 23.4419 18.6578 168.399 126.06
internal_count=3633 3589 3357 232 95 51 631 137 2726 2254 223 195 472 146 2031 326 1982 502 437 80 357 1480 298 65 1445 802 98 78 704 527
is_linear=0
shrinkage=1


end of trees

feature_importances:
hod_sin=8
hod_cos=5
vol20=4
open=4
high=3
close=3
interarrival_mean_s=2
sell_volume=1

parameters:
[boosting: gbdt]
[objective: binary]
[metric: binary_logloss,auc]
[tree_learner: serial]
[device_type: cpu]
[data_sample_strategy: bagging]
[data: ]
[valid: ]
[num_iterations: 1000]
[learning_rate: 0.01]
[num_leaves: 31]
[num_threads: 0]
[seed: 0]
[deterministic: 0]
[force_col_wise: 1]
[force_row_wise: 0]
[histogram_pool_size: -1]
[max_depth: -1]
[min_data_in_leaf: 20]
[min_sum_hessian_in_leaf: 0.001]
[bagging_fraction: 1]
[pos_bagging_fraction: 1]
[neg_bagging_fraction: 1]
[bagging_freq: 0]
[bagging_seed: 3]
[feature_fraction: 1]
[feature_fraction_bynode: 1]
[feature_fraction_seed: 2]
[extra_trees: 0]
[extra_seed: 6]
[early_stopping_round: 0]
[early_stopping_min_delta: 0]
[first_metric_only: 0]
[max_delta_step: 0]
[lambda_l1: 0]
[lambda_l2: 0]
[linear_lambda: 0]
[min_gain_to_split: 0]
[drop_rate: 0.1]
[max_drop: 50]
[skip_drop: 0.5]
[xgboost_dart_mode: 0]
[uniform_drop: 0]
[drop_seed: 4]
[top_rate: 0.2]
[other_rate: 0.1]
[min_data_per_group: 100]
[max_cat_threshold: 32]
[cat_l2: 10]
[cat_smooth: 10]
[max_cat_to_onehot: 4]
[top_k: 20]
[monotone_constraints: ]
[monotone_constraints_method: basic]
[monotone_penalty: 0]
[feature_contri: ]
[forcedsplits_filename: ]
[refit_decay_rate: 0.9]
[cegb_tradeoff: 1]
[cegb_penalty_split: 0]
[cegb_penalty_feature_lazy: ]
[cegb_penalty_feature_coupled: ]
[path_smooth: 0]
[interaction_constraints: ]
[verbosity: -1]
[saved_feature_importance_type: 0]
[use_quantized_grad: 0]
[num_grad_quant_bins: 4]
[quant_train_renew_leaf: 0]
[stochastic_rounding: 1]
[linear_tree: 0]
[max_bin: 255]
[max_bin_by_feature: ]
[min_data_in_bin: 3]
[bin_construct_sample_cnt: 200000]
[data_random_seed: 1]
[is_enable_sparse: 1]
[enable_bundle: 1]
[use_missing: 1]
[zero_as_missing: 0]
[feature_pre_filter: 0]
[pre_partition: 0]
[two_round: 0]
[header: 0]
[label_column: ]
[weight_column: ]
[group_column: ]
[ignore_column: ]
[categorical_feature: ]
[forcedbins_filename: ]
[precise_float_parser: 0]
[parser_config_file: ]
[objective_seed: 5]
[num_class: 1]
[is_unbalance: 0]
[scale_pos_weight: 1]
[sigmoid: 1]
[boost_from_average: 1]
[reg_sqrt: 0]
[alpha: 0.9]
[fair_c: 1]
[poisson_max_delta_step: 0.7]
[tweedie_variance_power: 1.5]
[lambdarank_truncation_level: 30]
[lambdarank_norm: 1]
[label_gain: ]
[lambdarank_position_bias_regularization: 0]
[eval_at: ]
[multi_error_top_k: 1]
[auc_mu_weights: ]
[num_machines: 1]
[local_listen_port: 12400]
[time_out: 120]
[machine_list_filename: ]
[machines: ]
[gpu_platform_id: -1]
[gpu_device_id: -1]
[gpu_use_dp: 0]
[num_gpu: 1]

end of parameters

pandas_categorical:[]
