tree
version=v4
num_class=1
num_tree_per_iteration=1
label_index=0
max_feature_idx=18
objective=binary sigmoid:1
feature_names=ret logret vol20 buy_ratio sell_ratio ofi_norm interarrival_mean_s hod_sin hod_cos open high low close volume trades dollar buy_volume sell_volume signed_volume
feature_infos=[-24.620981216430664:13.891074180603027] [-24.906713485717773:13.48737907409668] [-0.69820958375930786:16.570346832275391] [-3.1093764305114746:2.0640254020690918] [-2.0640254020690918:3.1093764305114746] [-3.1093764305114746:2.0640254020690918] [0.050164628773927689:6075.62451171875] [-1.5905284881591797:12.133391380310059] [-2.8252677917480469:1.9397680759429932] [11.960000038146973:12.600000381469727] [11.989999771118164:12.609999656677246] [11.899999618530273:12.600000381469727] [11.960000038146973:12.609999656677246] [20200:2178900] [200:200] [252698:26939321] [800:834800] [200:728900] [-714800:603300]
tree_sizes=1060 1064 1061 1161

Tree=0
num_leaves=9
num_cat=0
split_feature=11 7 8 2 9 7 16 7
split_gain=42.1196 22.768 26.8181 6.82491 5.61198 5.52533 5.35401 4.69397
threshold=12.47499990463257 -0.25639756768941874 -1.0000000180025095e-35 -0.15781470388174054 12.515000343322756 -0.63094970583915699 79000.000000000015 -0.08861983940005301
decision_type=2 2 2 2 2 2 2 2
left_child=1 6 -3 -4 5 -2 -1 -7
right_child=4 2 3 -5 -6 7 -8 -9
leaf_value=-0.35282283488281874 -0.46132263763650655 -0.39786787934734619 -0.47189843068469994 -0.54945424637145157 -0.5565047750702472 -0.55650477507024709 -0.41820594290156421 -0.49213038260298297
leaf_weight=6.3825000822544116 4.7277778387069729 7.564444541931155 4.7277778387069729 7.0916667580604509 8.7463890016078931 5.9097222983837154 6.1461111903190613 5.4369445145130149
leaf_count=27 20 32 20 30 37 25 26 23
internal_value=-0.475424 -0.437429 -0.471383 -0.518432 -0.524274 -0.506736 -0.384898 -0.525659
internal_weight=0 31.9125 19.3839 11.8194 24.8208 16.0744 12.5286 11.3467
internal_count=240 135 82 50 105 68 53 48
is_linear=0
shrinkage=1


Tree=1
num_leaves=9
num_cat=0
split_feature=11 7 8 13 9 7 16 7
split_gain=38.1436 19.9651 24.012 6.66381 5.28006 5.07431 4.58912 4.40369
threshold=12.47499990463257 -0.25639756768941874 -1.0000000180025095e-35 202950.00000000003 12.515000343322756 -0.63094970583915699 59700.000000000007 -0.08861983940005301
decision_type=2 2 2 2 2 2 2 2
left_child=1 6 -3 -4 5 -2 -1 -7
right_child=4 2 3 -5 -6 7 -8 -9
leaf_value=0.12115395693413711 0.013351484289699934 0.072427389409868759 -0.072264486746805925 0.0047223854271607572 -0.078660452382378579 -0.078660452382378579 0.059931202711361466 -0.015936044601434895
leaf_weight=5.0899457484483701 4.7431358695030204 7.6915717124938956 6.9930357187986392 4.6998664289712906 8.5692320317029935 5.7900216430425635 7.678147554397583 5.4154343008995083
leaf_count=21 20 32 30 20 37 25 32 23
internal_value=0 0.0357904 0.00381372 -0.0413202 -0.0470057 -0.0299975 0.0843374 -0.0483467
internal_weight=0 32.1526 19.3845 11.6929 24.5178 15.9486 12.7681 11.2055
internal_count=240 135 82 50 105 68 53 48
is_linear=0
shrinkage=0.05


Tree=2
num_leaves=9
num_cat=0
split_feature=11 7 8 9 9 7 7 6
split_gain=34.6252 18.005 25.8781 12.0987 4.98982 4.66675 4.15035 0.874615
threshold=12.47499990463257 -0.69432291388511647 -0.19833687692880628 12.425000190734865 12.515000343322756 -0.63094970583915699 -0.08861983940005301 1.4425005912780764
decision_type=2 2 2 2 2 2 2 2
left_child=1 -1 -3 7 5 -2 -7 -4
right_child=4 2 3 -5 -6 6 -8 -9
leaf_value=0.098515528490599913 0.012645120871962789 0.076577801204166296 -0.077901043135736148 0.031661415317803615 -0.076492400587203579 -0.076492400587203579 -0.015200010043985383 -0.047511626377226251
leaf_weight=8.068424463272093 4.7573098540306082 9.5075682401657104 4.8233867734670621 5.2466186434030542 8.3763810843229276 5.6597169488668433 5.3943350166082409 4.6502649188041687
leaf_count=33 20 39 21 22 37 25 23 20
internal_value=0 0.0338231 0.0122791 -0.0292504 -0.0452912 -0.0287618 -0.0465819 -0.062984
internal_weight=0 32.2963 24.2278 14.7203 24.1877 15.8114 11.0541 9.47365
internal_count=240 135 102 63 105 68 48 41
is_linear=0
shrinkage=0.05


Tree=3
num_leaves=10
num_cat=0
split_feature=12 7 8 11 9 16 13 16 17
split_gain=31.7013 22.8947 22.7239 11.0274 7.94061 5.31246 2.15875 0.4107 0.144603
threshold=12.494999885559084 -0.65128600597381581 -0.19833687692880628 12.394999980926515 12.425000190734865 48700.000000000007 144650.00000000003 92550.000000000015 97700.000000000015
decision_type=2 2 2 2 2 2 2 2 2
left_child=1 6 3 -3 7 -2 -1 -4 -7
right_child=5 2 4 -5 -6 8 -8 -9 -10
leaf_value=0.1118622623489629 -0.020691217787226455 0.11423488394489174 -0.055271327140132526 0.0094676312228033615 0.0072309843317769715 -0.076960999788371467 0.066672484256923112 -0.076559105030754554 -0.0654810882452041
leaf_weight=5.4309957474470121 8.6964103579521197 4.9223129153251648 4.5427635014057142 5.1286260783672333 6.2899732589721689 7.0060512572526914 5.1477259546518326 4.5201307088136673 4.5082057416439056
leaf_count=22 38 20 20 21 27 31 21 20 20
internal_value=0 0.0280673 0.00233023 0.060776 -0.035932 -0.0501881 0.0898724 -0.0658886 -0.0724662
internal_weight=0 35.9825 25.4038 10.0509 15.3529 20.2107 10.5787 9.06289 11.5143
internal_count=240 151 108 41 67 89 43 40 51
is_linear=0
shrinkage=0.05


end of trees

feature_importances:
hod_sin=10
open=5
hod_cos=4
low=4
buy_volume=4
volume=2
vol20=1
interarrival_mean_s=1
close=1
sell_volume=1

parameters:
[boosting: gbdt]
[objective: binary]
[metric: binary_logloss,auc]
[tree_learner: serial]
[device_type: cpu]
[data_sample_strategy: bagging]
[data: ]
[valid: ]
[num_iterations: 500]
[learning_rate: 0.05]
[num_leaves: 63]
[num_threads: 0]
[seed: 0]
[deterministic: 0]
[force_col_wise: 0]
[force_row_wise: 0]
[histogram_pool_size: -1]
[max_depth: -1]
[min_data_in_leaf: 20]
[min_sum_hessian_in_leaf: 0.001]
[bagging_fraction: 1]
[pos_bagging_fraction: 1]
[neg_bagging_fraction: 1]
[bagging_freq: 0]
[bagging_seed: 3]
[feature_fraction: 1]
[feature_fraction_bynode: 1]
[feature_fraction_seed: 2]
[extra_trees: 0]
[extra_seed: 6]
[early_stopping_round: 0]
[early_stopping_min_delta: 0]
[first_metric_only: 0]
[max_delta_step: 0]
[lambda_l1: 0]
[lambda_l2: 0]
[linear_lambda: 0]
[min_gain_to_split: 0]
[drop_rate: 0.1]
[max_drop: 50]
[skip_drop: 0.5]
[xgboost_dart_mode: 0]
[uniform_drop: 0]
[drop_seed: 4]
[top_rate: 0.2]
[other_rate: 0.1]
[min_data_per_group: 100]
[max_cat_threshold: 32]
[cat_l2: 10]
[cat_smooth: 10]
[max_cat_to_onehot: 4]
[top_k: 20]
[monotone_constraints: ]
[monotone_constraints_method: basic]
[monotone_penalty: 0]
[feature_contri: ]
[forcedsplits_filename: ]
[refit_decay_rate: 0.9]
[cegb_tradeoff: 1]
[cegb_penalty_split: 0]
[cegb_penalty_feature_lazy: ]
[cegb_penalty_feature_coupled: ]
[path_smooth: 0]
[interaction_constraints: ]
[verbosity: -1]
[saved_feature_importance_type: 0]
[use_quantized_grad: 0]
[num_grad_quant_bins: 4]
[quant_train_renew_leaf: 0]
[stochastic_rounding: 1]
[linear_tree: 0]
[max_bin: 255]
[max_bin_by_feature: ]
[min_data_in_bin: 3]
[bin_construct_sample_cnt: 200000]
[data_random_seed: 1]
[is_enable_sparse: 1]
[enable_bundle: 1]
[use_missing: 1]
[zero_as_missing: 0]
[feature_pre_filter: 0]
[pre_partition: 0]
[two_round: 0]
[header: 0]
[label_column: ]
[weight_column: ]
[group_column: ]
[ignore_column: ]
[categorical_feature: ]
[forcedbins_filename: ]
[precise_float_parser: 0]
[parser_config_file: ]
[objective_seed: 5]
[num_class: 1]
[is_unbalance: 0]
[scale_pos_weight: 1]
[sigmoid: 1]
[boost_from_average: 1]
[reg_sqrt: 0]
[alpha: 0.9]
[fair_c: 1]
[poisson_max_delta_step: 0.7]
[tweedie_variance_power: 1.5]
[lambdarank_truncation_level: 30]
[lambdarank_norm: 1]
[label_gain: ]
[lambdarank_position_bias_regularization: 0]
[eval_at: ]
[multi_error_top_k: 1]
[auc_mu_weights: ]
[num_machines: 1]
[local_listen_port: 12400]
[time_out: 120]
[machine_list_filename: ]
[machines: ]
[gpu_platform_id: -1]
[gpu_device_id: -1]
[gpu_use_dp: 0]
[num_gpu: 1]

end of parameters

pandas_categorical:[]
