tree
version=v4
num_class=1
num_tree_per_iteration=1
label_index=0
max_feature_idx=18
objective=binary sigmoid:1
feature_names=ret logret vol20 buy_ratio sell_ratio ofi_norm interarrival_mean_s hod_sin hod_cos open high low close volume trades dollar buy_volume sell_volume signed_volume
feature_infos=[-50.299224853515625:1411.7491455078125] [-51.051002502441406:865.5712890625] [-5.7317547798156738:767.7923583984375] [-3.0296993255615234:2.2740023136138916] [-2.2245726585388184:3.0296993255615234] [-3.0296993255615234:2.270805835723877] [-1.8638471364974976:4135.08251953125] [-2.2372424602508545:24.173145294189453] [-22.093610763549805:5.8716793060302734] [-20.082880020141602:814.63006591796875] [-20.646570205688477:643.66943359375] [-20.15962028503418:828.8985595703125] [-19.817514419555664:629.07525634765625] [-1.7364658117294312:201.40353393554688] [0:0.070888116955757141] [-1.7381563186645508:202.11219787597656] [-2.0188548564910889:12.774232864379883] [-1.307975172996521:31.267755508422852] [-19.952802658081055:9.6172494888305664]
tree_sizes=6710 6741 6740 6761 6745 6764 6770 6753 6775 6780 6771 6789 6792 6784 6765 6782 6765 6784

Tree=0
num_leaves=63
num_cat=0
split_feature=14 12 12 8 10 12 11 15 12 1 12 7 10 2 2 7 10 8 18 6 11 12 1 0 12 0 7 0 12 17 9 2 10 10 12 7 6 12 11 9 7 17 9 2 7 0 17 0 12 2 16 10 12 16 7 3 13 12 1 10 2 17
split_gain=190.102 151.656 50.3555 24.552 27.0104 38.0654 32.0251 21.9232 20.7288 19.4911 21.7098 18.6673 17.9951 17.3199 16.4711 15.269 22.7472 15.421 15.1002 14.5171 14.0889 13.5608 13.0761 30.1494 31.6345 24.7632 22.8991 37.1223 25.1165 14.3026 13.767 13.421 13.3631 13.2696 16.2475 13.7292 13.0676 12.8473 15.5237 13.4283 12.5172 12.3134 12.1534 12.0781 11.9442 10.9886 10.9525 10.8328 10.6802 10.5759 9.85916 9.76213 9.76008 9.71639 9.70892 9.20373 9.73403 9.16817 12.9438 8.99934 8.72364 9.75201
threshold=1.0000000180025095e-35 1.4424628019332888 -2.2722823619842525 1.0530605316162112 1.3338600397109988 0.84622958302497875 0.76114827394485485 -0.24581724405288694 2.4866763353347783 -1.1355990171432493 -1.0000000180025095e-35 -1.3458734750747678 0.64348813891410839 1.6639170646667483 1.6979184150695803 -0.49884505569934839 1.243330240249634 -0.44176708161830897 -0.95715537667274464 -0.072948116809129701 -0.62898191809654225 1.24958872795105 0.0080070337280631083 -0.063553977757692323 0.13136181235313418 -0.007847133791074155 -0.51885297894477833 0.50576490163803112 -0.027878961525857445 -0.099268980324268327 0.23286214470863345 -1.4225469827651975 0.55873563885688793 -1.7823490500450132 -0.20354875922203061 -1.5938372015953062 -0.99927228689193714 0.39039362967014318 -1.2486428022384641 -0.52219432592391957 1.8223767280578616 -0.61968225240707386 1.2582032680511477 2.2316249608993535 -1.6426793932914732 -0.37541237473487848 0.2584246695041657 -0.067922767251729951 -0.47565266489982599 0.90074491500854503 -0.5165516436100005 2.4727834463119511 0.13136181235313418 -0.5131886601448058 0.73321968317031871 -0.49665300548076624 -0.27703441679477686 -1.5165625810623167 -0.51506677269935597 -1.2014654874801634 -0.41199237108230585 -0.50276345014572132
decision_type=2 2 2 2 2 2 2 2 2 2 2 2 2 2 2 2 2 2 2 2 2 2 2 2 2 2 2 2 2 2 2 2 2 2 2 2 2 2 2 2 2 2 2 2 2 2 2 2 2 2 2 2 2 2 2 2 2 2 2 2 2 2
left_child=1 2 43 7 5 6 9 19 11 10 18 13 -8 44 22 16 57 37 -5 -4 -16 54 23 29 25 40 33 36 55 -11 -26 -27 -32 41 35 59 -28 38 -17 -40 48 -24 -7 -1 -3 -14 -43 -44 -25 -23 -37 -13 -41 -33 -6 -29 -57 -9 -59 -35 61 -36
right_child=-2 8 3 4 21 42 12 15 -10 14 -12 51 45 -15 20 17 -18 -19 -20 -21 -22 49 26 24 30 31 27 28 -30 -31 32 53 -34 34 60 50 -38 -39 39 52 -42 46 47 -45 -46 -47 -48 -49 -50 -51 -52 -53 -54 -55 -56 56 -58 58 -60 -61 -62 -63
leaf_value=-0.7561126117222966 -0.80991609981634982 -0.77959466551469481 -0.78905435483057496 -0.70888095854979594 -0.61558171020042018 -0.75963592611415132 -0.61620913746006223 -0.73277615905499638 -0.7993282648098895 -0.70940302978652747 -0.68020671794355547 -0.77453928602492306 -0.65453735873863783 -0.65193265460825556 -0.70036520640966748 -0.74795682180294654 -0.80238391704840617 -0.77345050456197839 -0.77296725594771987 -0.7433363384747409 -0.61278069564844651 -0.73235289463380926 -0.61163788171124134 -0.7181954295113433 -0.79065415522958415 -0.78012130788207046 -0.71542231778632426 -0.63798982661620907 -0.75760280665635149 -0.75399984646023643 -0.66992139250870841 -0.64706511376460374 -0.75416729172576102 -0.68555422466859128 -0.66039794303199806 -0.6955614487921592 -0.77321419067918162 -0.77213975022539894 -0.63438266641269181 -0.74928347148129426 -0.60678444968162892 -0.71294111255867554 -0.67069356408790104 -0.80908663808773307 -0.7132377272253585 -0.71884322201235717 -0.63500207776077056 -0.75563243779910105 -0.63500207776077056 -0.64135104407857746 -0.75470583190406981 -0.69849174093883926 -0.66332823517867812 -0.72255098172210741 -0.68869619290565154 -0.65495597190244936 -0.71481765432748545 -0.61370231979135403 -0.69153548219063343 -0.74134726358403569 -0.65070133992843848 -0.75182305800841698
leaf_weight=52.064468294382095 87.503308057785034 13.56301274895668 23.188376635313034 12.03170485794544 11.156671777367594 68.690096825361252 10.937913507223127 8.7503308057785016 52.064468294382095 43.532895758748055 10.937913507223127 119.00449895858765 11.375430047512053 5.9064732939004889 13.344254478812219 14.656804099678988 4.812681943178176 20.34451912343502 38.93897208571434 69.127613365650177 7.0002646446228018 11.812946587800981 5.4689567536115673 6.3439898341894176 6.7815063744783428 4.593923673033717 11.812946587800978 7.437781184911727 19.031969502568245 30.626157820224762 10.500396966934206 8.750330805778507 8.5315725356340391 23.188376635313034 5.2501984834671021 8.5315725356340391 56.877150237560272 9.8441221565008146 8.9690890759229642 7.8752977252006584 17.719419881701469 19.031969502568248 8.0940559953451139 13.563012748956679 13.56301274895668 15.969353720545771 5.9064732939004889 7.0002646446228018 9.8441221565008146 4.3751654028892508 40.470279976725578 4.3751654028892508 5.6877150237560272 8.3128142654895747 7.6565394550561896 9.1878473460674268 26.032234147191048 6.7815063744783393 25.157201066613201 10.500396966934202 12.03170485794544 6.5627481043338793
leaf_count=238 400 62 106 55 51 314 50 40 238 199 50 544 52 27 61 67 22 93 178 316 32 54 25 29 31 21 54 34 87 140 48 40 39 106 24 39 260 45 41 36 81 87 37 62 62 73 27 32 45 20 185 20 26 38 35 42 119 31 115 48 55 30
internal_value=-0.738891 -0.733446 -0.724831 -0.721636 -0.716953 -0.719339 -0.714502 -0.736748 -0.772001 -0.717844 -0.744124 -0.762905 -0.670411 -0.729522 -0.714173 -0.721968 -0.699591 -0.73708 -0.75784 -0.75482 -0.670229 -0.674207 -0.716287 -0.70476 -0.683746 -0.662498 -0.722994 -0.737992 -0.709839 -0.727821 -0.729483 -0.704264 -0.707687 -0.708715 -0.71703 -0.727516 -0.763275 -0.721348 -0.707903 -0.681849 -0.635821 -0.679582 -0.750709 -0.767061 -0.746416 -0.692092 -0.694482 -0.710086 -0.667605 -0.707758 -0.744408 -0.771843 -0.713238 -0.68384 -0.645338 -0.688529 -0.699202 -0.687432 -0.675009 -0.702944 -0.680668 -0.71119
internal_weight=0 1141.48 933.004 867.377 662.181 627.18 543.396 205.195 208.477 505.113 61.9086 156.412 38.2827 33.0325 443.204 112.879 45.5017 67.3775 50.9707 92.316 20.3445 35.0013 422.86 155.537 81.3781 55.5646 267.323 130.38 61.6898 74.1591 25.8135 21.6571 19.032 136.943 106.535 82.6906 68.6901 47.033 37.1889 22.5321 33.9075 30.4074 83.7844 65.6275 27.126 27.3448 24.9384 15.0943 16.1881 16.1881 49.0019 123.38 13.563 17.0631 18.8132 42.6579 35.2201 40.689 31.9387 33.6888 23.8447 11.8129
internal_count=5618 5218 4265 3965 3027 2867 2484 938 953 2309 283 715 175 151 2026 516 208 308 233 422 93 160 1933 711 372 254 1222 596 282 339 118 99 87 626 487 378 314 215 170 103 155 139 383 300 124 125 114 69 74 74 224 564 62 78 86 195 161 186 146 154 109 54
is_linear=0
shrinkage=1


Tree=1
num_leaves=63
num_cat=0
split_feature=14 12 12 7 2 12 11 7 11 9 12 8 8 7 2 1 0 0 12 12 7 8 4 0 2 0 2 7 2 5 10 2 16 0 8 11 1 7 12 0 0 6 12 6 4 8 17 5 17 7 7 7 6 2 7 13 7 12 11 7 17 6
split_gain=175.895 137.563 45.3896 22.3196 27.7367 31.0983 26.4413 24.7819 23.2056 19.8382 19.2313 21.0237 17.46 17.0702 18.8181 17.0597 30.8574 17.9181 35.3273 14.1575 15.4132 13.8865 13.8366 13.1557 13.0669 16.8389 16.2712 11.8301 11.3936 11.2018 10.3974 14.1323 10.6662 10.6111 10.1749 9.97165 12.0479 13.1667 9.62854 9.55929 10.6603 9.53577 9.41734 14.0946 10.1192 10.0627 18.8829 9.20735 8.71324 9.7634 8.71119 8.6373 9.35107 8.40877 8.18317 8.104 7.84737 7.67689 16.5734 14.138 11.0267 11.1613
threshold=1.0000000180025095e-35 1.4424628019332888 -2.2722823619842525 -0.49884505569934839 -0.080718196928501115 0.8614167869091035 0.76114827394485485 -1.1334258317947385 0.12270300462841989 2.5412400960922246 0.72555729746818554 1.6228030323982241 1.2781746983528139 -1.1334258317947385 1.6639170646667483 0.0080070337280631083 -0.026559895835816857 0.48341199755668646 -0.027878961525857445 1.2989503145217898 -0.87939628958702076 1.186510503292084 -1.256584584712982 -1.1349734067916868 -0.16368364542722699 0.19618345052003863 0.87639516592025768 1.5536198019981386 2.2316249608993535 -1.0911166071891782 1.0019268989562991 0.93898603320121776 -0.44788186252117151 -1.0684374570846555 0.29022818803787237 0.68513479828834545 -0.010357323102653025 1.9282728433609011 -1.5926317572593687 -1.5143437981605528 -1.185280382633209 -0.91953155398368824 0.49510547518730169 -0.61564564704895008 0.74675440788269054 1.6642986536026003 -0.52360746264457692 1.2460165619850161 -0.33859188854694361 0.28338536620140081 -1.3776552677154539 -1.6426793932914732 -0.070559177547693239 -0.035975938662886613 -1.021003723144531 -0.18170223385095594 1.8082180023193362 -0.22937397658824918 0.20078288763761523 -1.5850748419761655 -0.43517567217350001 -0.069959104061126695
decision_type=2 2 2 2 2 2 2 2 2 2 2 2 2 2 2 2 2 2 2 2 2 2 2 2 2 2 2 2 2 2 2 2 2 2 2 2 2 2 2 2 2 2 2 2 2 2 2 2 2 2 2 2 2 2 2 2 2 2 2 2 2 2
left_child=1 2 28 4 5 6 23 50 21 13 -8 -12 24 14 51 16 22 41 38 20 54 -6 -14 -4 27 53 -27 48 -1 -23 32 33 39 -32 -22 36 37 -18 -19 -24 -41 -17 44 -44 45 46 -25 -31 -5 -50 -7 -3 -53 -26 -9 -34 -37 59 -59 60 61 -47
right_child=-2 9 3 12 8 7 10 19 -10 -11 11 -13 15 -15 -16 17 35 18 -20 -21 34 29 30 42 25 26 -28 -29 -30 47 31 -33 55 -35 -36 56 -38 -39 -40 40 -42 -43 43 -45 -46 57 -48 -49 49 -51 -52 52 -54 -55 -56 -57 -58 58 -60 -61 -62 -63
leaf_value=-0.01646418432974063 -0.069311888427994975 -0.041237123985862274 -0.024929377124989997 -0.032290969289921478 0.11602545597031516 -0.01125047641516945 0.14630950036596146 0.035320402835237685 0.082653847077644754 -0.060740835403924547 0.1133609780208619 -0.0096157101731922066 0.081778985539027585 -0.03364229718332911 0.082934387793824088 0.020895483126468693 0.036141847382127855 -0.010496978625166332 -0.017096699555371821 -0.03382537259763406 -0.047184512345097934 0.093432357388071707 -0.031408701182190364 0.092517084014573925 0.036756931246333856 0.073237283806365044 -0.010047151559636817 -0.068960983035086548 -0.068480069235858268 0.0077896479800163053 0.048310542521345701 0.083217280214029327 0.0054696996728088865 -0.027384023965756191 0.028750224543678916 0.046565429717082329 0.043841927850595687 0.12391826800432104 0.056382644817584648 0.08810828654113867 0.016363430145255133 -0.025888013384010734 0.07253603814249647 -0.019782992234759537 0.051640170839519044 -0.0038994104291177217 0.021926029880614727 0.062075552497757459 -0.020597994750487559 0.042359540895305886 -0.073125359133829546 -0.018887039658360427 0.044497099568404828 -0.01600215257602132 0.11385800593844331 -0.034661404791658877 -0.028065857575681138 0.11718762794210041 -0.010815274458635404 -0.028506911024335904 -0.020569951010261447 0.075318377711331708
leaf_weight=51.7451151907444 85.240322351455688 14.217105209827421 14.374915465712546 26.592478767037392 4.4470745772123328 8.7622856497764605 7.1967144608497646 7.7302740514278412 32.865514233708382 46.129302650690079 6.3246248662471753 7.7145543694496155 6.6830552518367758 115.50955584645271 6.2946559041738501 13.650809794664381 6.2643872946500805 6.2112699002027503 38.959492370486259 12.74081067740917 7.2872750759124818 5.3389808982610694 8.2818296402692777 12.227988943457602 9.0084879249334318 15.595599532127382 9.3988422453403455 11.287972211837767 13.216459125280378 43.81054912507534 8.9055501073598879 9.7875912934541685 23.783422872424126 9.6434312611818331 11.178922936320303 9.9144967645406705 25.26721316576004 13.434930086135862 40.289869695901871 6.1573052853345862 32.540126383304596 53.896058440208435 5.0910380035638836 22.001638293266296 38.753260016441345 7.070100963115693 42.055538788437843 9.5056214630603773 13.124714121222498 11.601465240120886 16.21494847536087 13.712337374687193 10.108465880155565 46.720194950699806 5.8091271370649284 26.705304935574532 5.4631152153015128 4.6769183278083784 5.5056757926940918 23.165435895323757 9.2688546031713468 11.981847375631332
leaf_count=238 400 66 66 122 20 40 32 35 147 215 28 35 30 535 28 62 28 28 179 59 33 24 38 55 41 71 43 52 62 199 40 44 108 44 51 45 114 59 181 28 148 249 23 100 175 32 191 43 60 53 75 63 46 214 26 122 25 21 25 106 42 54
internal_value=0 0.00514239 0.0132733 0.0162761 0.0253139 0.017536 0.0268545 -0.0115207 0.0485851 -0.0318557 0.0798522 0.0457851 0.00919804 -0.0235196 0.0028553 0.0152793 0.0251714 0.0028126 0.0180243 0.0107503 0.0284951 0.0308411 0.0116727 0.0211175 -0.0054754 0.00781992 0.0419192 -0.022618 -0.0270468 0.0243827 0.00794847 0.0346073 0.000198024 0.00895769 -0.00121573 0.0548081 0.0666941 0.0960053 0.0474494 0.017345 0.027779 -0.0164334 0.0247584 -0.00243514 0.0295207 0.022128 0.0378275 0.0174682 -0.0124245 0.00894153 -0.051419 -0.0103965 0.00801031 -0.0074737 0.0690172 -0.0157571 0.0200516 0.00830859 0.0479771 0.000463215 0.0241598 0.045921
internal_weight=0 1143.2 937.231 872.27 383.1 287.133 217.409 69.7236 95.9677 205.971 21.2359 14.0392 489.169 159.842 44.3326 345.839 192.832 153.008 85.4606 44.7464 32.0056 63.1022 132.488 196.173 143.33 80.7231 24.9944 62.6066 64.9616 58.6552 125.805 28.3366 97.468 18.549 18.4662 60.3441 44.9665 19.6993 46.5011 46.9793 38.6974 67.5469 181.798 27.0927 154.706 115.952 54.2835 53.3162 51.3187 24.7262 24.9772 38.0379 23.8208 55.7287 13.5394 50.4887 15.3776 61.6688 10.1826 51.4862 28.3208 19.0519
internal_count=5618 5218 4265 3965 1737 1304 985 319 433 953 95 63 2228 738 203 1572 873 699 388 204 145 286 602 890 656 369 114 287 300 266 572 128 444 84 84 271 201 87 209 214 176 311 824 123 701 526 246 242 235 113 115 175 109 255 61 230 70 280 46 234 128 86
is_linear=0
shrinkage=0.05


Tree=2
num_leaves=63
num_cat=0
split_feature=14 12 12 7 8 10 12 8 11 0 12 8 10 12 10 0 8 7 18 2 0 2 17 12 8 2 10 12 7 2 8 2 8 12 8 13 7 7 2 8 9 12 7 18 2 12 10 7 6 8 9 3 7 7 10 12 0 7 10 12 0 2
split_gain=163.011 124.904 42.3073 23.2776 21.7551 19.3023 29.7796 23.437 22.1828 18.3822 15.0975 16.0208 21.9032 18.2409 28.6993 19.105 18.927 14.388 13.7126 13.2509 16.2111 13.0349 12.3731 11.9927 13.3352 11.9671 13.6887 15.0807 11.0573 10.7731 10.6601 10.4581 10.4471 27.9054 14.3808 18.4362 11.8158 10.1292 15.6516 17.0535 10.3438 9.94795 9.93424 9.89946 10.1294 9.82834 19.9925 16.2048 15.8578 12.2772 11.8079 10.317 9.56334 11.0872 10.0398 11.2589 10.0714 11.8245 9.64978 9.62432 11.5694 9.55925
threshold=1.0000000180025095e-35 1.3380370736122134 -2.2722823619842525 -0.49884505569934839 1.286484479904175 1.3338600397109988 0.8614167869091035 -0.22350165992975232 0.76114827394485485 -1.8455383181571958 -1.7715609073638914 1.2781746983528139 -1.2662205100059507 -0.73689648509025563 -0.65218910574913014 0.013861539773643019 1.6517200469970705 1.6503632068634035 0.79309555888175975 -0.16368364542722699 0.098156414926052107 1.1359926462173464 0.82447785139083873 0.75513699650764476 1.6228030323982241 1.6639170646667483 -1.7823490500450132 -1.5460559129714964 1.9894566535949709 2.2316249608993535 1.4799191355705263 0.71296754479408275 1.4062066674232485 1.0000000180025095e-35 0.11561876907944681 -0.16920893639326093 -0.79665976762771595 -0.86808076500892628 1.6639170646667483 1.5748824477195742 1.3300033807754519 1.4610018134117129 1.5536198019981386 -0.64986312389373768 0.93898603320121776 -0.22937397658824918 0.13968964666128161 -1.5938372015953062 -1.0861508846282957 1.8616786599159243 -1.0262466669082639 -0.72109445929527272 2.4798325300216679 2.2734839916229252 1.4574294090270998 0.96820360422134411 -0.014526971150189636 1.8396161794662478 0.88311570882797252 0.50846362113952648 -1.3696137070655821 1.2867369651794436
decision_type=2 2 2 2 2 2 2 2 2 2 2 2 2 2 2 2 2 2 2 2 2 2 2 2 2 2 2 2 2 2 2 2 2 2 2 2 2 2 2 2 2 2 2 2 2 2 2 2 2 2 2 2 2 2 2 2 2 2 2 2 2 2
left_child=1 2 29 5 -3 6 8 -8 25 -6 -5 19 21 16 17 18 -14 -15 52 42 -21 28 -17 -10 -25 26 43 -28 -13 -1 -7 -22 33 34 35 -29 -35 38 39 -11 -41 -39 -12 -4 -45 47 -47 49 -48 -34 -51 -49 53 54 55 56 58 -58 59 60 -16 -54
right_child=-2 4 3 10 9 30 7 -9 23 37 11 12 13 14 15 22 -18 -19 -20 20 31 -23 -24 24 -26 -27 27 32 -30 -31 -32 -33 45 36 -36 -37 -38 41 -40 40 -42 -43 -44 44 -46 46 48 51 -50 50 -52 -53 61 -55 -56 -57 57 -59 -60 -61 -62 -63
leaf_value=-0.015737619821939788 -0.067740076949646844 -0.045765571807193026 0.10205665112318862 -0.031241924333534194 0.081088001383116781 0.02119046716930105 0.054104880412167523 -0.025691396086758436 0.11069866813752526 0.074475755292801427 -0.012064339475190814 0.038216709453866411 -0.038397964682711047 -0.0016289673943278805 -0.046035984293441551 -0.013020441251514393 0.022602269276223871 0.090317598075165567 0.090795532251118805 -0.0053302651382256608 0.070728453916175549 0.006570363974618439 0.073423366663215223 0.10075579113853844 0.0023510014198488329 0.081549852706379627 -0.016414259616619204 -0.026038084842314881 0.10192355485930785 -0.066901901979829217 0.10920934234361053 0.0026164940490126225 0.10674290146776573 -0.038224808615497083 0.12203828882122741 0.11048644513295024 0.044254456273331896 0.0070155574385326273 0.070066967858861282 0.052022520244430562 -0.028582498587675743 -0.04204287720877433 -0.066767303748731605 0.027824437722054746 0.10457377744602701 0.090016365187316871 0.10209294321519645 0.030257188876711489 0.007930695551774631 0.041953039816623308 -0.025556098246477772 -0.020767169158291309 -0.011443159983491595 0.073466318621933563 0.092059064904681367 -0.029386606907324253 0.11336661577361316 0.0087571250136924701 0.063107611430706978 -0.038347846198123127 0.035158549174227262 0.060042446447267417
leaf_weight=51.435436874628067 82.916289567947388 99.218744784593582 7.2646463066339484 22.412691369652748 4.8245088607072821 5.1425985097885123 11.49475774168968 46.131221070885658 11.848591789603235 5.112269088625907 50.429310142993927 13.267074748873712 32.198528692126274 5.497033134102824 5.4404514133930126 70.81275700032711 21.016322046518326 18.825862050056458 7.1898701936006537 51.895067527890205 14.638534039258959 11.061692863702772 4.3965213000774375 5.8267299085855475 8.4145006388425809 9.1250398308038694 27.548609301447868 5.1080946028232574 13.996705025434492 12.860846012830732 10.38967405259609 9.163567513227461 4.9320147782564154 9.5327503681182879 11.632825657725332 4.7931289076805133 7.9747788310050955 12.928671121597288 6.4230352640151969 4.3661648780107489 45.01515157520771 51.478949427604675 9.9345188885927183 31.835939198732376 4.9702661335468283 12.272861987352369 5.0183203965425482 12.749220713973044 41.016145884990692 21.695864453911781 9.2339137494564074 44.438520982861519 32.443258687853813 12.059923514723776 4.7460329234600058 11.040266141295431 6.3224584907293373 4.7165796756744385 8.6724181175231916 9.6885915845632535 22.663930371403698 5.4642023742198935
leaf_count=238 400 468 32 103 22 23 51 213 51 24 232 60 147 25 25 325 95 83 32 238 65 50 20 25 38 40 125 23 62 62 45 42 22 43 52 21 36 59 28 20 209 242 47 142 22 54 22 57 185 97 42 204 147 54 21 50 28 21 39 44 102 24
internal_value=0 0.00486246 0.0131355 0.0160924 -0.0281293 0.0255095 0.0231215 -0.00977429 0.0294992 -0.0146842 0.00882557 0.0107881 0.0168742 0.0120734 0.0181775 0.0121032 -0.0143069 0.0695375 0.0236746 -0.00359379 0.0103402 0.0523489 -0.00796718 0.0735338 0.0426128 0.0252621 0.0233018 0.0181628 0.0709226 -0.0259717 0.0800671 0.044506 0.0231657 0.0462264 0.0843418 0.0400527 -0.000655036 -0.0183711 -0.0037547 -0.0124559 -0.0214556 -0.0321953 -0.0210672 0.0487166 0.0381886 0.0172173 0.0333128 0.00713142 0.0181955 0.0334808 0.0217986 -0.00939199 0.0197594 0.029041 0.0217309 0.0168614 0.0257405 0.0686708 0.0155413 0.0046262 0.0194409 -0.00113881
internal_weight=0 1144.05 914.681 850.385 229.367 370.391 354.859 57.626 297.233 130.149 479.994 457.581 321.52 283.195 229.98 205.657 53.2149 24.3229 130.448 136.061 75.6972 38.3255 75.2093 26.0898 14.2412 271.143 262.018 217.947 27.2638 64.2963 15.5323 23.8021 190.398 39.0416 21.534 9.90122 17.5075 125.324 60.9166 54.4936 49.3813 64.4076 60.3638 44.0709 36.8062 151.357 58.3073 93.0495 46.0345 35.8618 30.9298 57.1877 123.258 85.3507 73.2907 68.5447 57.5044 11.039 46.4654 37.793 28.1044 37.9075
internal_count=5618 5218 4146 3846 1072 1665 1597 264 1333 604 2181 2078 1454 1282 1040 932 242 108 587 624 345 172 345 114 63 1219 1179 983 122 300 68 107 858 175 96 44 79 582 281 253 229 301 279 196 164 683 261 422 207 161 139 261 555 384 330 309 259 49 210 171 127 171
is_linear=0
shrinkage=0.05


Tree=3
num_leaves=63
num_cat=0
split_feature=14 12 12 9 8 10 12 11 13 1 11 7 2 2 6 10 7 6 11 10 18 9 2 12 7 7 6 1 12 0 7 0 18 1 8 12 3 5 16 6 6 2 2 9 4 10 8 16 10 12 6 8 7 2 4 7 6 11 12 12 12 17
split_gain=151.283 113.553 36.9894 18.6359 18.0341 19.4446 28.4785 22.4823 17.4127 15.118 18.9987 14.7274 14.6396 12.9608 12.6857 12.4308 12.2185 12.1307 11.6402 11.6108 10.6224 10.3733 10.2068 10.1398 9.90454 9.95714 9.45144 9.33396 24.2428 27.6533 17.3625 35.1216 16.7081 15.5963 14.9354 12.6677 12.4761 12.3068 12.1613 11.0647 10.3563 8.87079 14.5179 13.3706 8.76357 8.5232 8.42862 9.93324 8.37332 9.27865 9.57725 8.26899 11.5038 8.18363 8.12327 8.07802 8.21022 7.80873 7.75366 10.0185 13.7751 10.7398
threshold=1.0000000180025095e-35 1.4424628019332888 -2.2722823619842525 2.5412400960922246 1.0530605316162112 1.3338600397109988 0.84622958302497875 0.76114827394485485 -0.25341397523879999 -1.1355990171432493 0.38463829457759863 -1.1334258317947385 1.6639170646667483 1.6979184150695803 -0.057847017422318452 1.243330240249634 -0.49884505569934839 -0.072348035871982561 -1.2625218629837034 0.61839556694030773 -0.95715537667274464 1.2582032680511477 2.2316249608993535 1.24958872795105 -0.25698946416378016 1.8501608967781069 -0.071345303207635866 0.0080070337280631083 0.13136181235313418 -0.52115473151206959 -0.8340182602405547 0.090909056365489974 -0.1457545608282089 -0.0051994903478771439 1.6102856397628786 -0.027878961525857445 -0.66947850584983815 1.4577850699424746 -0.53359669446945179 0.68693101406097423 -0.99927228689193714 -0.33286683261394495 0.15557864308357242 0.084507066756486907 -0.075972657650709138 1.6271100044250491 1.7243356704711916 0.27466055750846868 0.046272454783320434 -0.22937397658824918 0.41392832994461065 1.4859820008277895 1.6880570054054262 -1.1608069539070127 -0.85245198011398304 -1.6426793932914732 -0.070559177547693239 -1.1019090414047239 -0.61091309785842884 0.37354296445846563 0.22543957829475406 -0.36338232457637781
decision_type=2 2 2 2 2 2 2 2 2 2 2 2 2 2 2 2 2 2 2 2 2 2 2 2 2 2 2 2 2 2 2 2 2 2 2 2 2 2 2 2 2 2 2 2 2 2 2 2 2 2 2 2 2 2 2 2 2 2 2 2 2 2
left_child=1 2 22 11 8 6 7 9 17 10 20 12 55 27 15 16 -10 -4 -15 -9 -6 53 -1 -7 -18 41 -23 28 29 39 34 40 -30 48 54 46 57 -38 -35 -11 -32 -26 43 44 -43 -25 51 -48 49 50 -31 -33 -53 -8 -29 -3 -57 -36 -19 60 61 -60
right_child=-2 3 4 -5 5 23 21 19 14 13 -12 -13 -14 18 -16 -17 24 58 -20 -21 -22 26 -24 45 25 -27 -28 30 32 33 31 35 -34 38 36 -37 37 -39 -40 -41 -42 42 -44 -45 -46 -47 47 -49 -50 -51 -52 52 -54 -55 -56 56 -58 -59 59 -61 -62 -63
leaf_value=-0.015040720100653514 -0.066292142190543329 -0.039250153042353866 -0.04826062049715963 -0.058140507202828901 0.022778204552629161 0.077896051919920314 0.034051758055803204 0.10550890929591777 0.040937338225856962 -0.0029794266675027964 0.06595649136073399 -0.031032095189903453 0.071882865879058719 0.022082425483593269 -0.062959300897592066 -0.049444894416765472 -0.050574927050881652 -0.039141712675237514 0.096138117853913671 0.041805066009053968 -0.028864719174875021 -0.011528411143376384 -0.065444044405531393 4.7660514528156471e-05 -0.016453509689829362 -0.052719049754328298 0.067149255084724691 0.11406314925496164 -0.037241387994746605 0.085469631151685183 0.018281925343800211 0.060533844480586234 0.022154363184529718 0.062163100981270418 0.07251612355173527 -0.008110480723713483 0.0025291418301098818 0.050472171661267565 -0.018954194031133336 0.057448041149876145 -0.033225807168847585 0.034570202529570222 -0.0010075927859888841 -0.017222133406345898 0.10948205259300317 0.075992580833569162 0.10015091034375419 0.013178988803517606 0.017719235424691955 0.12946235792229543 0.017232473743393529 -0.035552299966286595 0.033274943442648204 -0.024910749371127725 0.041209969385250227 -0.016859100425649295 0.04258658788949455 0.012916283291094587 0.040020085989205742 -0.016076915539753999 0.10827452065428445 -0.038284555431120665
leaf_weight=51.135553926229477 80.551016330718994 13.90212459862232 21.446242243051529 44.342815011739731 13.192370504140852 19.997719645500183 6.5102365463972083 9.2994641661643964 45.77548822760582 33.406924054026604 8.0957496017217618 112.44366465508938 6.5736211240291587 10.633046120405199 5.150735840201377 6.5879878252744666 6.6814437955617896 13.056531921029089 10.591783076524733 30.984994471073151 40.604201301932335 7.9291248023509979 12.499161213636397 11.189631998538973 12.326958164572714 5.1102586239576331 7.3604805767536146 6.728063851594924 18.893322065472603 26.950747460126877 11.779773518443106 11.995910763740538 31.716151610016823 9.6215367466211337 15.996784433722498 20.747526630759239 70.88561338186264 16.501470237970352 8.8895363360643369 9.7971703559160215 56.885621756315231 6.3002917170524588 17.758798956871033 4.3821193873882285 10.264979302883154 5.5153987854719153 9.5793779045343381 4.9948267787694922 5.2489166408777228 9.0828517973422986 6.3544910401105872 9.0114881694316882 18.605185583233833 61.259101867675781 8.8714495003223401 13.475524157285689 10.208583652973177 8.3720561712980253 11.302157744765285 27.816417992115021 4.3847559988498679 7.1483702063560495
leaf_count=238 400 66 102 215 59 86 30 39 202 151 36 535 28 47 24 31 31 60 46 136 188 36 62 50 57 24 33 29 86 116 53 53 142 42 70 96 320 73 40 44 265 28 81 20 46 24 42 22 23 39 28 41 82 284 39 63 46 37 51 128 20 33
internal_value=0 0.00460092 0.0118714 -0.0295255 0.0145347 0.0184877 0.0164498 0.020541 0.00156772 0.0177221 -0.00545404 -0.0214231 0.00304425 0.0208946 0.0138112 0.017244 0.0212896 -0.0157346 0.0590383 0.0565108 -0.0162005 -0.0108536 -0.024941 0.0538762 0.00697379 0.0138225 0.0263473 0.0190158 0.0285932 0.0418352 0.0133617 0.00144213 -1.90161e-05 0.0621557 0.0268015 0.0251127 0.0204043 0.0115823 0.0232083 0.0107234 -0.0243895 0.0204857 0.0322499 0.0604449 0.0809907 0.0251219 0.0378335 0.0703442 0.0772901 0.0846667 0.0724503 0.0258722 0.0108162 -0.0192465 0.0726315 -0.00899523 0.00876383 0.0520403 -0.00478523 0.00407087 0.0286135 0.00968217
internal_weight=0 1144.15 943.208 200.946 879.574 674.08 637.377 554.318 205.494 514.034 61.8923 156.604 44.1599 452.142 120.339 115.188 108.6 85.1545 21.2248 40.2845 53.7966 83.0589 63.6347 36.7028 62.8248 56.1434 15.2896 430.917 159.962 109.352 270.955 143.6 50.6095 66.1481 127.355 74.9343 111.756 87.3871 18.5111 43.2041 68.6654 51.0331 38.7062 20.9474 16.5653 16.705 54.1868 14.5742 47.637 42.3881 33.3052 39.6126 27.6167 67.7693 15.5995 37.5862 23.6841 24.3688 63.7082 50.6517 22.8353 18.4505
internal_count=5618 5218 4265 953 3965 3027 2867 2484 938 2309 283 738 203 2026 544 520 489 394 93 175 247 383 300 160 287 256 69 1933 711 483 1222 654 228 288 568 336 500 393 82 195 318 232 175 94 74 74 240 64 206 183 144 176 123 314 68 175 109 107 292 232 104 84
is_linear=0
shrinkage=0.05


Tree=4
num_leaves=63
num_cat=0
split_feature=14 12 12 12 7 2 12 7 11 12 12 12 8 7 12 8 10 12 10 8 0 2 7 12 12 12 0 2 4 3 2 2 12 7 2 16 5 7 9 8 8 7 17 8 3 10 8 9 8 7 16 0 7 2 6 9 13 8 10 9 11 16
split_gain=140.585 103.199 33.4255 17.7423 16.3397 20.9899 22.9179 21.1528 18.7118 17.7339 18.34 13.809 15.8633 13.6444 13.1025 13.479 18.6693 15.6846 24.2962 16.6837 16.5374 12.9209 13.3611 12.2135 12.1768 35.4097 14.0646 11.9563 11.2206 11.6562 11.1641 13.7137 11.0331 11.7721 10.9387 10.8091 11.944 10.1996 10.1966 9.71384 13.6474 9.58782 9.52553 9.41796 9.29213 9.23641 9.1204 11.2846 9.05171 8.96916 8.76967 8.45878 8.22407 7.99375 7.56472 7.28189 8.97563 7.23079 7.09042 7.08333 8.15252 6.98956
threshold=1.0000000180025095e-35 1.4424628019332888 -2.2722823619842525 2.4866763353347783 -0.49884505569934839 -0.080718196928501115 0.8614167869091035 -1.1334258317947385 0.76114827394485485 -0.082718916237354265 -0.37279044091701502 0.72555729746818554 1.6228030323982241 -1.3458734750747678 -1.7715609073638914 1.2781746983528139 -1.2662205100059507 -0.73689648509025563 -0.65218910574913014 1.6517200469970705 0.013861539773643019 1.4194315671920779 2.4798325300216679 -0.64215204119682301 0.37354296445846563 0.048195315524935729 0.8328741490840913 -0.17503305524587628 0.013130487408488991 -0.08398761227726935 -0.35927744209766382 0.15557864308357242 1.2989503145217898 -0.87939628958702076 1.1359926462173464 -0.35790653526782984 1.4767919182777407 -1.6426793932914732 1.1851183772087099 -1.668624699115753 -1.327289819717407 2.2585170269012456 0.82447785139083873 0.29022818803787237 0.57435274124145519 2.4727834463119511 1.5219500660896303 -1.007713198661804 1.8527379035949709 1.9894566535949709 -0.6970238685607909 -0.00015148291277000678 -1.3776552677154539 0.65166649222373974 1.1796728372573855 -0.4324446022510528 -0.034985657781362527 1.5169633030891421 -1.1214001774787901 -0.96359530091285694 -0.62898191809654225 -0.36311589181423182
decision_type=2 2 2 2 2 2 2 2 2 2 2 2 2 2 2 2 2 2 2 2 2 2 2 2 2 2 2 2 2 2 2 2 2 2 2 2 2 2 2 2 2 2 2 2 2 2 2 2 2 2 2 2 2 2 2 2 2 2 2 2 2 2
left_child=1 2 39 13 5 6 8 52 27 10 35 -10 -13 37 -6 24 34 19 23 46 21 22 41 -19 25 26 28 -4 -16 30 -30 -32 33 -9 49 53 -37 -3 -26 -1 -41 51 48 -35 -39 -15 47 -18 55 -17 -51 -20 -8 -7 -24 56 -22 -11 -21 -60 -61 -27
right_child=-2 3 4 -5 14 9 7 32 11 57 -12 12 -14 45 15 16 17 18 20 58 42 -23 54 -25 38 61 -28 -29 29 -31 31 -33 -34 43 -36 36 -38 44 -40 40 -42 -43 -44 -45 -46 -47 -48 -49 -50 50 -52 -53 -54 -55 -56 -57 -58 -59 59 60 -62 -63
leaf_value=-0.069196232539008445 -0.064953175089713946 -0.021169946138651981 0.020397776998363041 -0.054900607935813708 -0.029921728074792715 0.090519426286401819 -0.0093454241707303497 0.059370868470002294 0.11964012508723293 0.01143263941776964 -0.074265685244579424 0.093235329014867085 -0.011413114509994313 -0.030700888002461901 -0.037051619751942114 0.03463703844531496 0.060850461989561483 0.020551897192516853 0.014612322164381578 -0.033893657555818316 0.038437892179113482 0.066363673453774183 -0.020745030835473112 0.091718471282656519 -0.041040249099646507 0.028935008180380813 0.046945098122023965 -0.035644641907918516 -0.055468324182764518 0.077130484151192516 0.043810600562145016 -0.031878524297476604 -0.030617453778511845 -0.046003832113537417 0.0053909289600281175 0.0057728984644754809 0.083443265439962402 0.062189626982909287 0.023170115968869164 0.065906476868668601 -0.023344312869060087 0.065843537982627015 0.061007095290733462 0.027253491034533207 -0.013300385136669955 0.044111482771808583 -0.0578735143816905 -0.039791999754226856 0.015950261893491295 0.035162349495773501 0.11816905266592498 0.077720104896987857 -0.070324062109163116 0.017691725087853098 0.036648583334404163 -0.034302125770253426 -0.044425908448963734 0.075624787944019972 0.083516965069796056 -0.022309994795704433 0.063976717084639825 0.095463937591906523
leaf_weight=9.982676610350607 78.161633014678955 15.489065065979956 189.69121599197388 47.981160089373589 22.110441476106644 10.982680410146715 8.6265495270490664 14.092037901282305 7.7754404246807125 5.0323106944560996 4.3872602432966223 6.7525245100259763 7.8094675987958908 113.08958595991135 33.600608557462692 13.503079786896707 4.4216582477092743 10.183834761381151 68.782042160630226 4.7162755876779583 8.8208092898130399 14.082255378365515 29.446866780519485 14.776173934340475 30.123990938067436 6.2286231070756939 10.122235655784605 10.01977254450321 8.932696238160128 4.6136906892061225 13.371396690607076 10.832864537835119 12.305233865976332 7.1943178921938005 11.136072799563406 32.955393269658089 5.8245371729135504 11.113263398408892 7.7795369178056708 4.700006663799285 48.296836778521538 13.115230873227118 4.7257217019796363 11.244386747479437 6.4378107488155356 4.2819007337093344 19.778915002942085 7.5258483588695544 20.529932156205177 4.7093203365802756 9.8111290931701642 5.7540476173162451 15.400471955537794 5.735638126730918 7.1317099034786215 38.884175136685371 5.191192314028739 34.20753900706768 5.2613214552402541 6.6370538175106084 4.6590531766414571 10.781823039054869
leaf_count=50 400 73 845 238 103 48 40 61 32 22 20 28 35 544 157 60 20 45 307 21 40 61 133 63 141 28 45 45 42 21 60 50 59 33 50 147 25 49 36 22 228 57 21 51 29 20 92 35 94 20 42 25 75 25 32 181 24 146 23 30 21 48
internal_value=0 0.00435762 0.0112396 -0.0284268 0.0137521 0.0213957 0.014625 -0.0105755 0.0224403 0.0412663 0.0241471 0.0658401 0.0371133 -0.0199816 0.00769368 0.00946335 0.0148777 0.0105639 0.015971 -0.0140665 0.0105849 0.0209733 0.015828 0.0626821 -0.0037794 0.00548902 -0.00821028 0.0175861 -0.0160349 0.00267142 -0.00769559 0.00993516 0.0097106 0.0249653 0.0473116 0.0319269 0.0174386 0.00840195 -0.0278613 -0.0239516 -0.0154291 0.0264209 -0.00780045 -0.00132967 0.0344996 -0.0279716 -0.037038 -0.00254518 -0.0122289 0.0639701 0.091248 0.0194841 -0.0484306 0.0655341 -0.00955502 -0.0231658 0.00773836 0.0673925 0.0201919 0.0355978 0.0132788 0.0711034
internal_weight=0 1143.49 945.098 198.393 882.118 390.037 290.911 68.863 222.048 99.1254 59.8855 22.3374 14.562 150.412 492.082 469.971 333.584 294.424 241.424 53.0001 216.464 138.312 124.23 24.96 136.387 98.4839 81.4735 199.711 71.3513 37.7506 33.137 24.2043 44.836 32.5307 39.1596 55.4982 38.7799 33.0401 37.9035 62.9795 52.9968 87.6513 78.1518 18.4387 17.5511 117.371 31.7264 11.9475 73.4261 28.0235 14.5204 74.5361 24.027 16.7183 36.5786 52.8962 14.012 39.2398 21.2737 16.5574 11.2961 17.0104
internal_count=5618 5218 4265 953 3965 1737 1304 319 985 433 265 95 63 715 2228 2125 1497 1325 1083 242 975 615 554 108 628 451 375 890 330 173 152 110 204 145 172 245 172 151 177 300 250 389 360 84 78 564 147 55 339 122 62 332 115 73 165 245 64 168 95 74 51 76
is_linear=0
shrinkage=0.05


Tree=5
num_leaves=63
num_cat=0
split_feature=14 12 12 9 7 8 10 12 7 11 7 8 12 8 10 12 10 8 0 18 7 2 0 12 8 6 13 0 10 2 17 8 12 10 1 0 2 7 13 8 9 12 0 4 2 7 17 8 7 10 13 3 8 17 11 7 7 10 12 7 0 7
split_gain=130.794 93.8292 31.2115 19.4192 17.0257 15.8296 14.5582 22.4552 19.7123 15.7761 12.3145 12.0039 11.9852 11.6229 16.4041 14.3216 21.2814 15.2492 14.1515 11.0605 11.0025 10.9483 13.1643 10.7948 12.0038 10.5478 13.6659 10.0075 15.2051 12.3364 9.71272 9.66965 9.65605 13.7216 9.61132 10.6285 9.38145 9.05901 8.88196 8.54033 10.1313 7.93686 11.1908 9.14643 7.89327 7.87151 9.26132 16.5271 10.2094 12.2 8.22099 7.86343 7.83543 7.67046 7.59797 7.55227 8.2618 8.17376 9.72726 8.05086 7.86084 9.44859
threshold=1.0000000180025095e-35 1.3380370736122134 -2.2722823619842525 2.5412400960922246 -0.49884505569934839 2.4929205179214482 1.3338600397109988 0.8614167869091035 -1.1334258317947385 0.74900758266448986 -0.8939676284790038 1.9614725708961489 -1.7715609073638914 1.2781746983528139 -1.2662205100059507 -0.73689648509025563 -0.65218910574913014 1.6517200469970705 0.013861539773643019 0.79309555888175975 1.6503632068634035 -0.16368364542722699 0.098156414926052107 0.72555729746818554 1.6228030323982241 -0.070841882377862916 -0.13570331037044522 -1.1349734067916868 -0.049392197281122201 1.6639170646667483 0.82447785139083873 1.6413543224334719 1.7817623019218447 1.6921742558479311 0.021789417602121833 1.0881364941596987 2.2316249608993535 1.5536198019981386 -0.35912959277629847 1.5219500660896303 -1.007713198661804 0.49510547518730169 -0.0053708744235336772 0.74675440788269054 0.71296754479408275 -0.65156865119934071 -0.52360746264457692 1.6189064979553225 -1.5938372015953062 -0.96467471122741688 -0.79241725802421559 -0.057806739583611481 1.4799191355705263 -0.65143653750419606 0.32257534563541418 2.4798325300216679 2.2734839916229252 1.4574294090270998 0.96820360422134411 2.8221029043197636 -0.014526971150189636 1.8396161794662478
decision_type=2 2 2 2 2 2 2 2 2 2 2 2 2 2 2 2 2 2 2 2 2 2 2 2 2 2 2 2 2 2 2 2 2 2 2 2 2 2 2 2 2 2 2 2 2 2 2 2 2 2 2 2 2 2 2 2 2 2 2 2 2 2
left_child=1 2 36 5 6 25 7 9 11 27 -10 -9 -6 21 34 17 20 39 19 55 -17 37 -23 -11 -25 26 -3 28 31 41 53 -4 33 -27 -15 -36 -1 -14 -34 40 -16 43 -43 45 -24 46 47 -29 50 -50 -49 -35 -8 -20 -45 56 57 58 60 -57 -18 -62
right_child=-2 3 4 -5 12 -7 52 8 10 23 -12 -13 13 14 15 16 18 -19 30 -21 -22 22 44 24 -26 32 -28 29 -30 -31 -32 -33 38 51 35 -37 -38 -39 -40 -41 -42 42 -44 54 -46 -47 -48 48 49 -51 -52 -53 -54 -55 -56 59 -58 -59 -60 -61 61 -63
leaf_value=-0.013613530470827501 -0.063710374204463058 -0.045264960552041038 0.023775957012732187 -0.05554432154072373 -0.028758687588727079 0.058949198120337748 0.017630044036673658 -0.069519956054446788 0.053278293239893762 0.096345907396278185 -0.0098640133274805197 0.00067092447621174564 -0.010778130872874029 0.071969889051386349 0.056650983578395188 -0.0035088496138953001 0.012816342411149701 0.019060708764630965 0.03474711816396369 0.078859586300869491 0.076145071970967981 -0.0049021204620891788 0.061849651661050678 0.083874697401777276 0.00021049381967582688 -0.011380157371849976 -0.0083025396660575592 0.088844642659231532 0.060594026552163331 0.086841836931827843 0.063141521745649465 -0.051999046232562608 0.038176691380353338 0.020114464379283364 -0.0053975676003176149 0.065799162604266326 -0.06307038031889399 -0.064166656118005844 -0.037388042144702753 -0.05624350856599928 -0.038392294966355107 -0.034694871604902221 0.027506943377940397 0.050585346400342693 0.0029902986857603879 0.068723253219653932 0.0078731153360654411 -0.009923095674420266 -0.030383227327121128 0.045907053642854141 0.062134281004516893 0.097362140217232523 0.092108507629225442 -0.017783709516624616 -0.012009757137309259 -0.02800769878345671 0.061904945479065998 0.080217689276259108 -0.029351022482359341 0.018294787441077539 0.097523498110020701 0.005507220181378219
leaf_weight=50.503904789686203 75.762939453125 63.535504072904587 6.012545555830008 42.329154789447784 21.860854372382164 6.4608457684516898 5.2164737433195141 15.488440558314325 13.50990477204323 11.933969452977182 18.023209735751152 10.039431571960447 49.801104754209518 17.58728201687336 4.5095735639333725 5.5532837510108974 47.127454131841652 21.384542018175125 7.8226757049560538 7.507361263036727 19.76579113304615 51.600029647350311 15.163478747010233 7.3090784996747997 10.369842022657393 23.605512008070946 41.237246140837669 10.858332172036169 6.1481188833713523 7.6402754932641974 4.5924582779407492 14.044628620147703 4.5670180022716549 8.0801872462034208 13.425966367125513 8.5995014458894712 11.835774198174475 9.4539034813642484 26.184599176049232 19.345595061779022 7.4131206870079058 13.855071023106577 15.124365046620367 46.065053552389145 9.1227925866842252 7.8058230727910987 96.316871628165245 5.2216041088104275 14.732062295079229 8.1335963457822853 16.360560491681095 5.5622811615467063 10.931712016463278 62.233380690217018 5.4181490689516059 16.849024668335915 12.618438065052031 4.9531462937593451 11.022116392850874 21.200712829828262 6.6612628400325828 4.8002337962388992
leaf_count=238 400 309 27 215 103 28 23 77 58 49 83 46 232 75 20 25 210 95 36 32 83 238 65 30 46 111 198 46 27 32 20 65 22 38 60 37 62 47 125 92 35 63 66 198 42 34 429 23 67 36 71 26 45 289 24 76 54 21 50 95 28 21
internal_value=0 0.00412845 0.0111571 -0.0250845 0.0136375 -0.0178908 0.0216035 0.0195225 -0.00925355 0.0249354 0.0171884 -0.0419158 0.00741385 0.00913247 0.0142571 0.0100717 0.0153998 -0.0134769 0.0101166 0.0199113 0.0586744 -0.00319075 0.00938491 0.0596031 0.0348002 -0.0207643 -0.030717 0.021185 -0.00819735 0.0242957 -0.00730021 -0.0292839 -0.00542926 0.0116906 0.0444081 0.0224001 -0.0230034 -0.0192961 -0.0261657 -0.0357295 -0.00244365 0.0223036 -0.00223175 0.0256748 0.03974 0.0197579 0.0172371 0.0335446 0.0200352 -0.00324583 0.0447007 0.0516097 0.0680492 -0.011918 0.0439978 0.0163775 0.0244892 0.0181573 0.0137414 -0.00220868 0.0218483 0.0589858
internal_weight=0 1142.44 920.874 221.562 858.534 179.233 376.559 360.411 57.061 303.35 31.5331 25.5279 481.975 460.114 324.973 285.36 232.707 52.6528 207.388 132.74 25.3191 135.141 75.8863 29.6129 17.6789 172.772 104.773 273.737 26.2053 247.532 74.6485 20.0572 67.9996 37.248 39.6127 22.0255 62.3397 59.255 30.7516 31.2683 11.9227 239.891 28.9794 210.912 24.2863 159.429 151.623 55.3062 44.4478 22.8657 21.5822 13.6425 16.1482 70.0561 51.4832 125.232 87.1827 74.5642 69.6111 38.0497 58.589 11.4615
internal_count=5618 5218 4146 1072 3846 857 1665 1597 264 1333 141 123 2181 2078 1454 1282 1040 242 932 587 108 624 345 125 76 829 507 1208 119 1089 345 92 322 175 172 97 300 279 147 147 55 1057 129 928 107 706 672 243 197 103 94 64 68 325 222 555 384 330 309 171 259 49
is_linear=0
shrinkage=0.05


Tree=6
num_leaves=63
num_cat=0
split_feature=14 12 12 9 8 10 12 11 15 7 1 11 2 6 10 6 2 7 7 11 18 9 8 8 10 0 13 10 11 2 9 0 17 2 1 7 0 9 12 12 10 6 12 18 12 12 12 6 0 16 15 1 3 16 0 0 2 17 1 13 10 0
split_gain=121.819 85.853 27.3857 16.1722 13.3928 14.9716 21.6631 16.5608 14.083 12.152 11.8166 16.1455 11.6681 10.3996 10.3869 10.1808 10.1604 9.58691 9.94619 9.43089 9.26659 9.20783 9.00789 12.198 8.60658 8.23793 8.12119 16.9947 8.9978 8.59318 13.1607 15.4695 14.8941 13.2056 16.7181 9.90241 9.5505 9.30901 11.5208 12.685 8.8164 8.63104 8.18549 9.66174 8.02014 7.92603 15.1194 11.1093 10.5667 8.87039 10.0399 7.81944 8.47029 13.5207 9.50179 10.0332 11.1237 8.31656 8.25039 7.66305 7.60443 7.53918
threshold=1.0000000180025095e-35 1.4424628019332888 -2.2722823619842525 2.5412400960922246 1.0530605316162112 1.3338600397109988 0.84622958302497875 0.76114827394485485 -0.24581724405288694 -1.1334258317947385 -1.1355990171432493 0.38463829457759863 1.6639170646667483 -0.029829444363713261 1.243330240249634 -0.072948116809129701 1.6979184150695803 -0.58541041612625111 -0.71932148933410633 -1.2625218629837034 -0.95715537667274464 1.2582032680511477 -1.668624699115753 -1.327289819717407 0.60255721211433422 -0.067922767251729951 -0.28308941423892969 -2.1531622409820552 -2.1145583391189571 -0.97122082114219654 0.54280209541320812 0.015897102653980259 0.91630595922470104 -0.46074570715427393 -0.06031422317028045 -1.6189253926277158 0.05888218246400357 -1.6086239814758299 -0.64215204119682301 -0.37279044091701502 -1.0091415047645567 -0.86506462097167958 -0.22937397658824918 -0.2349927872419357 1.24958872795105 -1.2165482640266416 0.37354296445846563 -0.074548341333866106 -0.76958003640174855 -0.19855830818414685 -0.12113292887806891 -0.90757468342781056 0.89463150501251232 -0.25314769148826594 0.0073102542664855727 0.041004484519362457 -1.4477711915969846 -0.33859188854694361 0.10926796495914461 1.4825921654701235 -1.3873519301414488 -0.83626678586006153
decision_type=2 2 2 2 2 2 2 2 2 2 2 2 2 2 2 2 2 2 2 2 2 2 2 2 2 2 2 2 2 2 2 2 2 2 2 2 2 2 2 2 2 2 2 2 2 2 2 2 2 2 2 2 2 2 2 2 2 2 2 2 2 2
left_child=1 2 22 9 8 6 7 10 15 12 11 20 -3 14 17 -4 26 18 -10 -18 -6 -8 -1 -24 -9 -23 51 -28 -29 37 31 33 35 42 -35 -33 41 -30 60 -40 -38 -37 43 -31 -7 -19 47 -47 -49 -50 -51 -12 53 54 -53 -56 -57 -58 -54 -34 -39 -5
right_child=-2 3 4 61 5 44 21 24 13 -11 16 -13 -14 -15 -16 -17 19 45 -20 -21 -22 25 23 -25 -26 -27 27 28 29 30 -32 32 59 34 -36 36 40 38 39 -41 -42 -43 -44 -45 -46 46 -48 48 49 50 -52 52 58 -55 55 56 57 -59 -60 -61 -62 -63
leaf_value=-0.067079099080909935 -0.06255272416433437 -0.0076887311699738352 -0.043849577907918234 -0.0022534905807983685 0.020500601725216273 0.067332590042914697 -0.018045126724952777 0.092287458472680592 0.028550542563030135 -0.027876792944095636 0.07827941146547221 0.059266526309677242 0.063794059421001123 -0.059816414499880732 -0.046927753729675642 -0.0042896918884192193 0.01798182406772297 -0.015425901736391051 0.098438682512269823 0.083705949306008318 -0.027640300494149946 0.057940108284557514 0.062053323573252578 -0.021648864402161943 0.036185287251750735 -0.015620434845359936 0.067172399125695489 -0.063686101007197668 0.041396586759432204 0.091295424705735775 -0.029921537017653085 0.034654313053474849 0.029063172541534055 -0.0067735050560510518 0.048777848759503313 0.025440355550354146 -0.022074693860139515 0.016733030872951221 0.069874304132109849 -0.010584950838998573 0.017241734180133694 -0.048866752934556251 0.10069268693995125 -0.0061298024541658986 0.020940842894276487 0.090987387119152052 -0.02746501875977013 -0.049331888247127392 0.083655428148777064 -0.033602695928487809 0.053722177368992999 0.044578618652044343 0.024407962220110213 -0.019487280338158448 -0.023782569429000658 0.08555961055596048 0.035469247109827989 -0.021311088632705161 0.075523667811731546 0.1036440536449233 -0.047521663141734782 -0.062999146731352526
leaf_weight=9.4260502159595472 73.367655277252197 37.076512485742569 21.303385272622108 5.9729327559471121 13.323709785938261 20.641064003109932 66.864107400178909 8.642598941922186 30.878481164574623 108.55289620161057 6.7746898084878913 8.3207578510045987 6.7476386725902548 4.7317585796117774 6.2100885957479468 68.744869217276573 10.836232677102091 23.00352954864502 6.0958466380834571 10.997447356581686 40.024595990777016 8.4639216661453229 4.7918643653392783 47.487429365515709 32.706048116087914 6.9158814102411261 13.017865300178526 4.2251739650964728 8.8026790767908079 4.6531838476657867 15.332457572221754 17.238591566681862 11.622984185814859 25.265888258814812 29.192079141736031 4.9137715101242092 21.971237748861313 5.7052269726991645 6.6953900605440166 18.254600897431374 40.620599746704102 19.09021270275116 10.570588707923887 5.6163136661052722 16.980142459273338 7.7028873860835985 11.84150058031082 4.2699952572584143 6.8124793618917474 6.1092180758714667 7.1363727003336033 36.339309275150299 19.100558191537857 21.049980327486992 14.659841075539587 6.3226688355207399 15.440797254443167 11.074089154601102 13.455046877264975 4.8945688754320136 23.869838744401935 35.264571487903595
leaf_count=50 400 175 106 30 59 86 314 35 133 535 30 36 28 23 30 316 47 106 26 46 188 37 22 228 140 32 57 19 39 20 69 75 51 113 125 22 98 25 29 82 182 90 46 25 74 34 55 20 30 28 31 157 85 94 67 27 68 50 58 21 109 185
internal_value=0 0.00391521 0.0101176 -0.0264227 0.0123623 0.0157364 0.0139422 0.0174577 0.00115359 -0.0189052 0.0150328 -0.00551339 0.00331753 0.0127652 0.0158856 -0.0136487 0.0178017 0.0196418 0.0400728 0.0510865 -0.0156171 -0.0100214 -0.0220887 -0.0139768 0.0479116 0.0248619 0.016134 0.0113333 0.00872357 0.00983889 0.0146873 0.0181832 0.00706243 0.0359579 0.0230047 4.70381e-05 -0.00684222 -0.00631408 -0.0140166 0.0110065 0.00344072 -0.0336556 0.0698063 0.0380143 0.0463939 0.00834586 0.02081 0.0386568 0.0220876 0.0372915 0.0134456 0.0258391 0.0232543 0.0163389 0.0253343 0.0106109 0.0259653 0.0117546 0.0455338 0.0511634 -0.0351265 -0.0542006
internal_weight=0 1140.65 947.032 193.615 885.327 680.487 642.866 560.622 204.84 152.377 519.273 61.6691 43.8242 114.792 110.06 90.0483 457.604 103.85 36.9743 21.8337 53.3483 82.2439 61.7053 52.2793 41.3486 15.3798 435.77 291.553 278.535 274.31 210.982 195.65 120.352 75.2981 54.458 103.834 86.5958 63.3277 54.5251 24.95 62.5918 24.004 20.8401 10.2695 37.6212 66.876 43.8725 32.031 24.3281 20.0581 13.2456 144.217 137.442 104.887 83.8367 47.4974 32.8376 26.5149 32.5556 16.5176 29.5751 41.2375
internal_count=5618 5218 4265 953 3965 3027 2867 2484 938 738 2309 283 203 516 493 422 2026 463 159 93 247 383 300 250 175 69 1933 1297 1240 1221 937 868 539 329 238 467 392 284 245 111 280 112 91 45 160 304 198 143 109 89 59 636 606 463 369 212 145 118 143 72 134 215
is_linear=0
shrinkage=0.05


Tree=7
num_leaves=63
num_cat=0
split_feature=14 12 12 12 7 2 12 7 11 12 12 7 12 8 2 12 6 10 12 7 8 2 17 0 7 7 8 8 12 9 16 5 12 2 10 11 6 2 2 2 8 13 10 17 12 1 4 10 7 6 10 11 12 2 11 2 6 9 6 2 2 11
split_gain=113.567 78.0864 24.7864 15.3887 12.5484 16.9484 16.9218 17.6131 13.9855 13.7657 15.9302 11.016 10.73 12.4564 10.4759 10.449 11.2702 10.7613 33.4023 17.9229 14.1155 13.0343 11.1832 12.7967 10.5759 9.21635 9.51419 9.20164 9.15186 12.5859 9.14074 9.83614 8.65551 8.65477 8.47239 8.33483 7.47074 7.37442 7.21508 6.99076 6.69804 6.69557 7.48938 11.323 6.8232 13.6551 13.6983 12.9007 11.1671 8.07366 7.77202 8.88622 8.45107 7.70957 8.18844 7.55443 7.66329 10.3226 7.46358 12.3519 7.20931 6.6914
threshold=1.0000000180025095e-35 1.4424628019332888 -2.2722823619842525 2.4866763353347783 -0.49884505569934839 -0.080718196928501115 0.8614167869091035 -1.1334258317947385 0.76114827394485485 -0.082718916237354265 -0.37279044091701502 -1.3458734750747678 0.72555729746818554 1.6228030323982241 -0.17503305524587628 -1.7715609073638914 1.1354264020919802 -0.65218910574913014 -0.64215204119682301 1.9726198315620425 1.5313038825988772 -0.43035088479518885 -0.34585383534431452 0.8328741490840913 0.19471967220306399 -1.6305519938468931 2.0708944797515874 1.6471616029739382 1.2053390741348269 0.98948058485984813 -0.35790653526782984 1.4767919182777407 -0.70185589790344227 2.2316249608993535 2.4727834463119511 -1.081672668457031 -0.070928279310464845 -0.061758747324347489 1.4566463232040407 0.65166649222373974 1.9614725708961489 2.2024668455123906 -2.0174587965011592 -0.48155131936073298 -0.85760891437530506 0.099510110914707198 0.4104666560888291 0.13968964666128161 -1.0932354927062986 -0.64322891831397999 0.341633290052414 0.59221428632736217 0.37354296445846563 -0.58959662914276112 0.47850398719310766 -1.4225469827651975 -0.080076765269041048 -1.4048553705215452 -0.53909546136856068 -0.95477759838104237 -0.35469269752502436 0.22456352412700656
decision_type=2 2 2 2 2 2 2 2 2 2 2 2 2 2 2 2 2 2 2 2 2 2 2 2 2 2 2 2 2 2 2 2 2 2 2 2 2 2 2 2 2 2 2 2 2 2 2 2 2 2 2 2 2 2 2 2 2 2 2 2 2 2
left_child=1 2 33 11 5 6 8 36 14 10 30 25 -10 -14 41 -6 17 18 19 20 22 35 23 -17 -24 38 -27 -23 29 -9 39 -32 -19 -1 -13 -21 -8 -26 -3 -7 -11 42 43 -4 45 46 58 48 49 -46 52 53 -49 -52 -55 -48 -57 -58 -44 -60 -53 -2
right_child=61 3 4 -5 15 9 7 28 12 40 -12 34 13 -15 -16 16 -18 32 -20 21 -22 27 24 -25 37 26 -28 -29 -30 -31 31 -33 -34 -35 -36 -37 -38 -39 -40 -41 -42 -43 44 -45 47 -47 55 50 -50 -51 51 60 -54 54 -56 56 57 -59 59 -61 -62 -63
leaf_value=-0.012309103021031078 0.0054433235918799859 -0.045205475904534061 0.1078399980920686 -0.051134873108892302 -0.027610805842728278 0.081369302196526175 -0.064987412262446462 -0.024449362756690199 0.10279611453621139 0.039051037649653911 -0.072425873127902843 -0.027699204865122423 0.07961028239970834 -0.012298270337760344 -0.035302650853522126 -0.029834164039938767 0.038331982192780202 -0.036021195526456481 0.082102810279108207 0.11491631680531056 -0.039331910660711678 -0.040147406798507979 -0.024825242146662738 0.047402716270860394 0.023112539673513025 0.010048617290130707 0.093817134277900199 0.028366944716465278 -0.017831783965275887 0.051162996057252941 0.0040586155463726778 0.073578987335177315 0.0022879741699970402 -0.060991312656753019 0.044003318937802072 0.039177650795255772 -0.0037732236990371129 0.078184253586707178 0.022562373837979557 0.013967159170526917 0.07989023546807078 -0.038703760527042982 -0.06328905248945621 0.019751785857010137 0.075762046362858451 0.048206771736472781 0.080038382053916626 0.0037874122462889428 0.083648308808872029 0.0089070503268388179 0.082787666722059838 -0.032459330149901669 -0.074308669394128057 0.060958042254989936 -0.02378020876041323 -0.02725213846590549 -0.024747187953520457 0.068521987730774406 0.036552210170877154 -0.030563866045611444 0.039058310314421724 -0.064992449359066673
leaf_weight=49.900928348302841 3.5493329167366019 10.012016579508783 5.7369971126317969 44.652877956628799 21.593062669038773 11.328093990683557 15.530889779329302 7.9448423981666592 7.9702055007219341 20.828664526343346 4.242913305759429 109.2516703158617 6.9471475034952146 7.8547202497720718 9.9616394191980344 26.904241889715195 28.682946115732193 15.598157942295073 17.263141870498657 6.4738123416900626 22.021114766597748 6.0000063925981513 8.2068837881088239 6.6978132873773566 20.518062353134155 11.734466448426248 4.766450196504592 26.742659881711006 18.923778086900711 17.909820169210434 33.187512114644051 6.0091818124055854 269.38339887559414 11.174015939235685 4.2812525331974021 8.2763287425041181 7.3397591412067404 8.6377101242542285 6.4630950391292563 5.8251414895057669 19.383280724287033 5.1961217671632758 8.610509589314459 10.01916319131851 6.1629286259412792 15.27207091450691 4.9503682851791408 12.300770431756975 13.792987883090971 16.897576227784157 8.0497764945030159 9.4599978476762754 4.8221222609281531 5.7409915328025871 5.6631409823894501 7.9590523988008544 4.6210097819566771 8.2859182953834445 9.6639119684696144 23.586570426821712 5.6154852211475363 67.437325417995453
leaf_count=238 20 49 24 238 103 48 80 36 32 87 20 544 28 35 45 127 126 72 72 27 103 28 38 29 92 53 20 116 90 78 147 25 1221 62 20 36 35 38 29 25 81 23 39 43 27 66 21 54 58 75 35 43 22 25 25 35 20 35 43 107 25 380
internal_value=0 0.00371303 0.00959334 -0.0254381 0.0117157 0.018373 0.0122851 -0.00964356 0.018874 0.0360557 0.0210036 -0.0176063 0.0560235 0.0308383 0.0146937 0.00640069 0.00795861 0.00599079 0.0164686 0.00840293 -0.00436071 0.0333928 0.00649123 -0.0144387 0.0253146 0.00783341 0.034246 0.0158119 0.0085896 0.0279282 0.0280384 0.0147167 0.000191163 -0.0212158 -0.0249953 0.0724192 -0.0453423 0.0394281 -0.0186205 0.0584799 0.0587367 0.0172822 0.0188361 0.0518257 0.0158045 0.00550137 -0.00413553 0.0254608 0.0480601 0.0267741 0.00933627 0.0229942 -0.0182059 0.0453231 0.0188782 0.0245088 0.0113347 0.0351292 -0.021801 -0.0110573 -0.00581964 -0.0614707
internal_weight=0 1138.83 947.669 191.162 886.594 393.595 292.79 67.6491 225.141 100.805 60.5928 146.509 22.7721 14.8019 202.369 492.999 471.406 442.723 157.742 140.479 92.9858 47.4928 70.9647 33.6021 37.3627 32.976 16.5009 32.7427 44.7784 25.8547 56.3499 39.1967 284.982 61.0749 113.533 14.7501 22.8706 29.1558 16.4751 17.1532 40.2119 192.407 187.211 15.7562 171.455 82.9494 67.6773 88.5058 36.8535 23.0605 51.6523 34.5294 17.1229 19.4539 11.4041 25.8163 20.866 12.9069 41.861 33.2505 15.0755 70.9867
internal_count=5618 5218 4265 953 3965 1737 1304 319 985 433 265 715 95 63 890 2228 2125 1999 706 634 427 207 324 156 168 151 73 144 204 114 245 172 1293 300 564 63 115 130 78 73 168 845 822 67 755 366 300 389 160 102 229 153 76 85 50 111 90 55 189 150 68 400
is_linear=0
shrinkage=0.05


Tree=8
num_leaves=63
num_cat=0
split_feature=14 12 12 9 4 6 12 1 7 7 12 1 13 8 17 12 12 7 0 11 12 7 10 7 2 12 8 8 9 2 10 7 10 12 16 2 2 2 2 2 11 2 8 8 7 7 5 5 8 8 4 3 3 16 17 8 13 18 0 7 11 2
split_gain=105.982 71.0597 22.4368 14.9792 11.6176 12.0336 12.2692 25.3198 13.2077 15.2174 12.8851 22.4662 17.1406 11.4724 20.0305 11.0893 20.6851 15.0294 13.0698 11.0567 31.9365 16.2821 17.1531 10.4044 10.3246 10.0791 22.95 20.166 9.86114 19.4277 13.6889 10.7052 9.97908 15.2465 9.83342 9.49139 9.79915 10.1929 9.37591 9.1818 8.76138 8.54093 8.3879 10.9085 8.26013 7.99516 7.84717 7.82971 7.73925 8.90857 8.96429 10.4554 8.07931 7.45449 7.60778 7.37943 7.07415 9.9333 7.04562 6.77323 6.46572 6.44991
threshold=1.0000000180025095e-35 1.4424628019332888 -2.2722823619842525 2.5412400960922246 1.5436278581619265 1.0972437858581545 0.8614167869091035 -0.49200381338596338 -0.49884505569934839 1.9726198315620425 0.025075059384107593 0.57738244533538829 -0.49575397372245783 1.6373010873794558 -0.52360746264457692 -0.22937397658824918 0.39039362967014318 -1.2655419707298277 0.055128715932369239 -1.2316917181015012 1.0000000180025095e-35 -1.0609049797058103 0.40089879930019384 -1.1334258317947385 1.2867369651794436 0.37354296445846563 1.4355643987655642 1.186510503292084 -0.35125085711479181 -0.46074570715427393 -0.98729440569877613 2.4310767650604252 -1.3043256402015684 -1.7715609073638914 -0.36311589181423182 -1.1608069539070127 -0.40584494173526758 -0.31734484434127802 1.6639170646667483 1.4194315671920779 -1.9004795551300047 0.030062916688621048 -1.668624699115753 -1.327289819717407 -0.87939628958702076 1.7435610294342043 0.53963306546211254 0.15393668413162234 1.7243356704711916 1.5219500660896303 0.013130487408488991 -0.08398761227726935 -1.0053738355636594 -0.5131886601448058 -0.70872673392295826 1.8405251502990725 -0.47752761840820307 0.1631574481725693 -0.83626678586006153 -1.6426793932914732 0.22456352412700656 -0.27475230395793909
decision_type=2 2 2 2 2 2 2 2 2 2 2 2 2 2 2 2 2 2 2 2 2 2 2 2 2 2 2 2 2 2 2 2 2 2 2 2 2 2 2 2 2 2 2 2 2 2 2 2 2 2 2 2 2 2 2 2 2 2 2 2 2 2
left_child=1 2 42 23 5 6 8 44 13 10 11 48 -12 14 -4 18 -17 -18 40 46 -21 -22 -23 38 53 26 34 -27 29 -11 32 -32 33 -31 -14 -9 -37 -38 59 -30 -15 -35 -1 -44 -8 -29 -16 -46 49 50 -10 52 61 55 -55 -7 -20 -58 -5 -3 -2 -52
right_child=60 3 4 58 -6 24 7 35 9 28 12 -13 25 15 19 16 17 -19 56 20 21 22 -24 -25 -26 27 -28 45 39 30 31 -33 -34 41 -36 36 37 -39 -40 -41 -42 -43 43 -45 47 -47 -48 -49 -50 -51 51 -53 -54 54 -56 -57 57 -59 -60 -61 -62 -63
leaf_value=-0.065276313477778333 0.005155648310535099 -0.035341491951696329 0.070537233155458137 -0.0017924385996776642 0.033652748727597021 0.09976845759063166 0.080880495299221644 0.039350792991866584 -0.030701976795572985 0.068065564825659008 0.10076026561339393 0.024816143119372178 0.0024924366258699949 0.046398609162627238 0.014489739057438784 0.073577480070562223 0.020426420287679173 -0.075062774868763227 0.052199817763785829 0.093262486550265908 -0.035913131281223885 -0.0047935849360119165 0.086535202291187094 -0.025742824626002143 0.075092901724223435 -0.046234714940788256 -0.062935104667517047 0.056404811449481 -0.0039708378351528207 -0.061547359720045408 0.061011496122126266 -0.016915872519335691 -0.050215279426899018 0.089328878042284662 0.081232492727143335 -0.040784170935820992 0.043323167171951678 -0.016830486275123548 0.056928607304478962 0.053903605791241455 -0.025591208474378208 0.0099078217450279393 0.058522569337239677 -0.020072642308921709 -0.0032491148257051219 -0.012889282923155243 -0.035724639885681898 0.060552110850890954 0.041531918761648835 -0.042650904795037234 -0.010047721205376552 0.071890678782523906 -0.025620840245505164 0.06128852749938251 0.0017489650777364732 0.026208610081884361 0.036644481994623036 -0.013118490627565208 -0.060930433863727665 0.0093788613123194225 -0.064049042602108933 0.049945913141988832
leaf_weight=8.8721395283937436 3.5597360134124747 13.239600598812101 25.378741309046745 5.9336573481559745 53.694499880075455 5.2069729864597312 7.5135112255811718 6.8962426334619513 41.27221654355526 23.105049028992653 5.4313631802797309 35.378865256905556 5.6313771903514906 4.6943953335285178 25.583900541067123 17.382038787007332 26.535270497202877 4.8782860040664664 11.661709159612654 16.12800070643425 13.085779696702955 11.735059112310411 9.1498275846242887 105.87131111323833 10.627213880419729 17.933421969413757 4.9484304189681998 10.621354475617411 55.963932126760483 5.3604259938001659 17.858487740159038 5.8510747998952857 9.8718206137418729 5.0924103558063534 13.400404259562492 38.939947411417961 8.1873442679643613 50.354276403784752 6.8622524589300147 7.8095481991767874 42.394085645675659 10.096924081444739 4.8755192160606375 46.719259679317474 13.345793947577478 6.8456183373928061 11.180373400449751 7.5173010379075995 4.9051560908555976 38.178446009755135 9.3408248722553271 4.713755100965499 24.004485145211223 6.3081984668970099 35.890990644693375 9.8760980367660505 17.462437614798546 23.555211201310158 33.309115812182426 23.487509921193123 65.069128274917603 8.6092196553945488
leaf_count=50 20 66 106 30 234 22 32 31 197 100 23 154 25 20 111 73 115 22 50 68 58 52 38 535 45 86 23 46 252 26 77 26 45 21 58 193 36 232 28 34 193 44 22 228 59 30 50 33 21 181 43 21 112 27 159 43 75 105 185 109 380 38
internal_value=0 0.00352347 0.0091018 -0.0244964 0.0111099 0.009658 0.00786914 -0.00595101 0.0107674 0.00472197 -0.00317307 -0.0105394 0.0157399 0.0193955 0.0314602 0.0102805 0.0298135 0.00559768 0.000726986 0.0200431 0.0353246 0.00781786 0.0352183 -0.0172781 0.0298302 0.00796334 0.032992 -0.00899104 0.0176676 0.0296824 0.0132992 0.0417805 -0.00889824 0.0109499 0.0579338 -0.0173365 -0.0213468 -0.00841769 0.00328147 0.00311633 -0.0184143 0.0365347 -0.020368 -0.0126457 0.0359283 0.0292472 -0.000780942 0.0197395 -0.0200861 -0.0224826 -0.0137268 0.0012857 -0.00664705 0.0214329 0.0106493 0.0516029 0.0178368 0.00806709 -0.0519885 -0.00674219 -0.0604594 0.0187265
internal_weight=0 1136.56 947.855 188.703 887.388 833.694 765.784 132.754 633.03 372.225 231.215 166.403 64.812 260.805 112.242 148.563 48.7956 31.4136 99.7678 86.8629 50.0987 33.9707 20.8849 149.461 67.9095 59.3806 23.9802 35.4004 141.01 77.2362 54.1311 23.7096 30.4216 20.5498 19.0318 104.378 97.4816 58.5416 43.5894 63.7735 47.0885 15.1893 60.4669 51.5948 28.3766 17.467 36.7643 20.8631 131.024 126.119 87.9405 46.6683 41.9545 57.2823 42.1992 15.0831 52.6794 41.0176 39.2428 36.7271 68.6289 17.95
internal_count=5618 5218 4265 953 3965 3731 3435 616 2819 1683 1058 767 291 1136 483 653 210 137 443 377 216 148 90 738 296 268 106 162 625 339 239 103 136 91 83 492 461 268 203 286 213 65 300 250 124 76 161 92 613 592 411 214 193 251 186 65 230 180 215 175 400 81
is_linear=0
shrinkage=0.05


Tree=9
num_leaves=63
num_cat=0
split_feature=14 12 8 9 12 4 10 12 8 0 6 11 13 7 1 12 6 7 0 8 12 8 0 12 0 0 0 5 18 4 13 12 2 0 7 12 0 2 12 2 2 0 12 18 2 2 2 7 0 0 2 16 11 3 4 1 2 18 17 4 6 7
split_gain=98.9848 64.6693 21.011 14.2487 12.2364 11.4649 11.1648 17.6853 11.876 14.1108 10.6952 10.3266 9.67366 9.54848 8.60765 17.6371 10.8871 11.8133 14.2898 17.2187 11.7412 12.3938 20.7066 13.5989 11.1064 11.0869 11.1199 10.5626 10.5169 11.0189 9.63602 12.7732 9.25255 8.77865 8.56328 9.64366 8.53432 8.53383 8.52349 8.06602 7.84834 7.57699 7.56473 7.41621 7.39984 10.8822 7.61186 7.25795 6.87767 6.77663 6.32199 9.03734 6.25811 6.15638 7.47247 8.73932 7.23554 8.38415 6.68241 6.06947 6.35492 13.6883
threshold=1.0000000180025095e-35 1.4424628019332888 -2.0774890184402461 2.5412400960922246 -2.2722823619842525 1.8137543201446535 1.4095618724823 0.95083296298980724 -0.25483314692974085 -1.185280382633209 -0.071241773664951311 0.87600010633468639 -0.1295366361737251 -1.1334258317947385 0.21778720617294314 0.37354296445846563 -1.1035750508308408 -1.4889982938766477 0.015897102653980259 -0.52296847105026234 0.49510547518730169 1.286484479904175 -0.33339899778366083 0.066396418958902373 -0.00035558990202844137 -1.1349734067916868 -1.2889341711997984 -0.72871723771095265 0.49003788828849798 -1.0721228122711179 -0.21812956780195233 -0.185522586107254 -0.071825250983238206 -0.074453394860029207 -0.25698946416378016 0.37354296445846563 1.26378870010376 1.4194315671920779 -1.4928576946258543 -0.11244690418243407 -1.1608069539070127 -0.00027702623629011208 0.64493736624717724 -0.070163305848836885 -0.12249199673533438 -1.2424895763397215 0.60849940776824962 -1.6305519938468931 -0.37541237473487848 -0.83626678586006153 -0.58959662914276112 -0.42952349781990046 0.22456352412700656 1.4613528251647951 -0.55666461586952198 0.68149960041046154 0.50489944219589245 -0.1457545608282089 -0.60916125774383534 -1.5646110773086546 -0.071406308561563478 -0.8340182602405547
decision_type=2 2 2 2 2 2 2 2 2 2 2 2 2 2 2 2 2 2 2 2 2 2 2 2 2 2 2 2 2 2 2 2 2 2 2 2 2 2 2 2 2 2 2 2 2 2 2 2 2 2 2 2 2 2 2 2 2 2 2 2 2 2
left_child=1 2 -1 13 -4 6 7 11 10 -10 -9 14 41 37 16 53 28 25 20 -20 21 23 -23 30 33 26 -18 -27 29 -6 -19 38 -17 42 -25 -36 -34 47 -32 -14 -11 48 -22 -29 45 -45 -46 -3 -13 -5 51 -21 -2 54 55 -16 -56 -58 -57 -15 -61 -62
right_child=52 3 4 49 5 -7 -8 8 9 40 -12 12 39 59 15 32 17 18 19 50 24 22 -24 34 -26 27 -28 43 -30 -31 31 -33 36 -35 35 -37 -38 -39 -40 -41 -42 -43 -44 44 46 -47 -48 -49 -50 -51 -52 -53 -54 -55 56 58 57 -59 -60 60 61 -63
leaf_value=-0.041638959675053308 0.0048839971887366124 -0.044565796348691671 -0.013638250022901199 -0.0017042197048388243 0.090065678004331004 0.048436480440704893 0.041262242928144427 0.061940946303368695 0.083209316758664956 0.029916120507106209 -0.02096831403109424 0.068087519204408739 -0.038516876582636375 0.032123106909869886 0.053187430282123076 -0.034321809913755094 0.032043578583744313 -0.04584389260680994 0.038106340331098623 -0.039375051433323413 -0.044271416673034518 0.0012915795589973213 0.037632772449308037 0.082412797137914787 0.054450116808173701 0.061495232701654828 -0.059708284609886267 -0.034362448406430927 -0.019775177727586551 0.026573129806531582 -0.026871263109835404 -0.058941597109101344 -0.01636150871613291 -0.045882284528754647 0.041813446244020815 -0.042850953629204803 0.068694305124354413 0.039443088102965811 0.035926840769498529 0.037152862937932962 -0.027307332436245474 0.096921716209429742 0.034262939692634137 0.068195115160918127 0.08431496226765503 -0.007227899355834573 0.01440544642997472 0.0063530240483392376 0.011838222549582007 -0.059868352052854706 -0.032730422586919196 0.011181887548815691 -0.063177424412870414 0.052697489831451116 0.045277640401867408 0.027266635100763839 -0.047912440190431255 0.031795725044798294 -0.012209755683719835 -0.037246112667726081 0.055312056484834962 -0.024702941859334002
leaf_weight=20.334307014942169 3.5695829987525931 10.424698472023008 52.782970502972603 5.9288907498121253 8.4662358164787275 20.143143907189369 28.108003631234169 9.6481908559799212 3.2831782251596442 6.5317204743623725 6.5172022581100455 10.017673179507257 6.6226540803909302 4.4890444576740256 9.8669898957014066 19.904390245676044 5.8603897392749786 20.344406858086586 13.661012187600134 13.580894857645033 4.8501685857772818 78.570560097694397 78.217452213168144 5.5513389557600048 4.7249513119459143 19.203451886773109 7.5650588423013669 5.9886307120323172 9.276350334286688 35.42924852669239 8.0026861131191271 7.5137886404991141 6.6543739885091764 22.780235663056374 8.7238159328699094 5.4738073647022238 5.2965977340936661 11.787306800484656 16.635694459080696 7.5213237851858121 72.510697141289711 7.1291111707687405 8.336957246065138 6.1421809494495383 8.5363932847976702 21.603022575378418 7.1591017991304389 21.292761877179149 11.877723902463911 32.232390001416206 55.781957000494003 25.317799016833305 62.727833390235901 21.069156602025032 46.219356507062912 16.398975223302838 4.9579075723886481 9.8603296130895597 30.956500500440601 61.701290875673294 6.4160891622304908 32.016948655247688
leaf_count=106 20 53 258 30 35 84 119 41 14 29 30 43 31 23 42 92 26 96 62 65 22 357 333 24 20 81 36 27 41 154 36 36 30 105 38 27 23 51 74 32 349 30 37 27 37 96 31 99 53 185 260 116 380 90 199 70 22 43 136 317 32 163
internal_value=0 0.00334304 0.00863788 -0.0235877 0.00974052 0.0111518 0.0102726 0.00921825 -0.0106661 -0.0183598 0.0285154 0.0119097 0.0356281 -0.016569 0.0104138 0.020123 0.00717583 0.00470044 0.000967992 -0.0143698 0.00712876 0.0115259 0.0194213 -0.00560864 -0.0176203 0.021897 -0.0196574 0.0300255 0.0285968 0.0388191 -0.0189139 -0.00187387 -0.0134415 -0.027088 0.0297594 0.0091716 0.0213347 0.00311727 0.0155297 0.00172192 -0.0225786 0.0521509 0.00537834 0.0177994 0.0249903 0.00946911 0.0524275 -0.0103827 0.0375736 -0.0508317 -0.0219413 -0.00646931 -0.0595129 0.027797 0.0233608 0.0103801 0.0355301 0.00512685 0.00146073 -0.0247551 -0.0273049 -0.0113451
internal_weight=0 1133.8 947.51 186.289 927.176 874.393 854.25 826.142 98.491 82.3256 16.1654 727.651 43.1685 148.128 684.482 171.185 513.298 460.126 378.068 108.342 269.726 229.034 156.788 72.2455 40.6923 82.0582 13.4254 68.6328 53.1718 43.8955 52.4966 32.1522 31.8554 35.9674 19.749 14.1976 11.951 43.5048 24.6384 14.144 79.0424 29.0245 13.1871 49.4293 43.4407 27.7452 15.6955 31.7175 21.8954 38.1613 94.6807 38.8987 66.2974 139.329 118.26 57.2225 61.0376 14.8182 47.3555 104.623 100.134 38.433
internal_count=5618 5218 4265 953 4159 3901 3817 3698 463 392 71 3235 189 738 3046 747 2299 2069 1708 503 1205 1021 690 331 184 361 62 299 230 189 242 146 145 164 89 65 53 203 110 63 378 126 59 218 191 123 68 152 96 215 441 181 400 602 512 248 264 65 206 535 512 195
is_linear=0
shrinkage=0.05


Tree=10
num_leaves=63
num_cat=0
split_feature=14 12 8 9 12 4 10 12 9 16 7 7 7 7 9 2 11 0 17 2 8 17 3 11 9 0 8 3 11 13 7 12 10 10 2 2 12 11 6 8 0 7 16 7 8 10 2 2 17 13 15 7 0 3 8 2 6 6 12 8 11 7
split_gain=92.5253 58.9535 19.1602 13.2748 10.9715 10.2866 10.7012 14.4394 12.1519 11.6126 10.1566 10.286 10.0938 13.6472 16.6184 13.6931 14.2203 10.052 10.0401 8.97966 10.6872 13.3175 10.9687 10.1476 8.89939 11.4575 9.42015 8.88123 8.69267 8.62697 8.46674 8.28416 7.99829 8.07518 7.88021 9.83753 16.6856 12.9561 7.69306 7.27054 7.10417 7.09862 11.5288 7.42586 7.09617 7.00169 7.98001 10.3175 9.87898 6.88961 7.21271 6.61714 6.52557 6.49342 6.3063 7.81579 6.92471 6.34981 6.29941 6.12075 6.06657 5.72952
threshold=1.0000000180025095e-35 1.4610018134117129 -2.0774890184402461 2.5412400960922246 -2.2722823619842525 1.8137543201446535 1.5192444920539858 0.9122418761253358 1.2582032680511477 -0.7243586778640746 -1.3458734750747678 -1.4980872273445127 -0.49884505569934839 1.9726198315620425 1.0000000180025095e-35 -0.43446998298168177 -1.081672668457031 -0.33339899778366083 -0.74176961183547963 1.4566463232040407 1.6102856397628786 -0.52360746264457692 0.62165847420692455 0.76114827394485485 0.69638758897781383 0.19618345052003863 1.2082954645156863 0.96448841691017162 -1.1723969578742979 -0.81259629130363453 1.7622842788696291 -1.7715609073638914 -0.69412481784820546 -0.50028386712074269 0.58498430252075206 -0.11244690418243407 -0.082718916237354265 -0.94522789120674122 -0.071444444358348833 1.5313038825988772 0.05888218246400357 2.5066008567810063 -0.63482317328453053 2.8221029043197636 0.16470093280076983 0.30816695094108587 0.87639516592025768 -0.061758747324347489 -0.48972177505493159 -0.22401476651430127 -0.046975530683994286 2.4310767650604252 -0.83626678586006153 1.3325964808464053 -0.22350165992975232 -1.1608069539070127 1.0972437858581545 -0.071025040000677095 0.46368238329887396 1.809653162956238 0.22456352412700656 -1.6426793932914732
decision_type=2 2 2 2 2 2 2 2 2 2 2 2 2 2 2 2 2 2 2 2 2 2 2 2 2 2 2 2 2 2 2 2 2 2 2 2 2 2 2 2 2 2 2 2 2 2 2 2 2 2 2 2 2 2 2 2 2 2 2 2 2 2
left_child=1 2 -1 10 -4 6 7 8 12 -9 11 27 19 24 15 32 28 -11 -18 20 21 -6 38 -24 25 29 -26 61 31 -14 -28 -17 -15 -34 35 -22 37 -37 49 -20 -31 42 -16 -43 -40 46 47 48 -27 -23 -51 -35 -5 54 57 -56 -57 -19 -44 -33 -2 -3
right_child=60 3 4 52 5 -7 -8 9 -10 17 -12 -13 13 14 41 16 18 53 39 -21 34 22 23 -25 26 45 30 -29 -30 40 -32 59 33 51 -36 36 -38 -39 44 -41 -42 43 58 -45 -46 -47 -48 -49 -50 50 -52 -53 -54 -55 55 56 -58 -59 -60 -61 -62 -63
leaf_value=-0.040359189591909476 0.004627396084425011 -0.011567042754212534 -0.013033346106238889 -0.0016202824622351731 0.063269009201593479 0.045699115823733441 0.046579020827387831 -0.04767021680147155 0.085242460494415348 0.029386737150313248 -0.023582515344468116 0.053834585372921406 -0.069664017313678037 0.07348700194743564 0.083407718174782472 -0.053031737568761422 0.094706069172406968 0.056253333411607188 -0.032714272339676685 0.061796315625553093 0.0069048803773547832 -0.010289740263544254 -0.022952704312692751 0.058379122413377976 -0.017297610150175318 -0.024282933664491219 0.095126784388491897 -0.057362591969686731 -0.073232157295276129 -0.0055168712503754257 0.010772329652203531 0.028678147936395094 -0.028139687959700673 0.094837724540707491 -0.018624285689402883 0.037390075891134751 0.11376702346852872 -0.053744698156906051 0.013780650087095224 0.032083880306706759 -0.039234017304794928 -0.046673432188534904 0.017924548259099445 0.0081798810690733078 0.072778446777064784 -0.038200297472228917 -0.021017031293006916 0.06042411075197917 0.032479284480704133 0.067082187593316009 0.0078774576624957415 0.019701678623207135 -0.058866282828081311 -0.062251772436160285 0.044945811149151707 -0.021761252059234532 0.034118042630755539 -0.018760972918176716 -0.044244975307745432 -0.035788876678182958 -0.062370663648732561 0.046972378381519297
leaf_weight=19.940283298492432 3.5789045691490164 11.564678505063059 52.479043126106262 5.924355372786521 22.236925214529037 20.278545662760735 19.199017763137817 15.374339163303373 5.5490557998418799 21.475183233618736 108.99118155241013 8.9242101162672025 6.1895379722118369 20.137172743678093 4.6092533916234997 5.7212207764387157 5.7711819857358924 7.5082766711711884 4.9259227663278571 11.180997461080549 134.91791065037251 14.036949992179869 20.557388290762905 4.7147333920001975 6.4308131486177471 12.325115829706187 6.6951251327991468 6.8174543380737296 4.6872923970222464 134.1554968059063 5.3530874699354172 16.899155125021938 4.7829835414886501 4.7325297445058805 22.664021193981171 21.092124149203308 5.8923901021480551 4.7844591289758673 7.5051131993532207 35.71964505314827 17.681590721011162 15.971726045012476 10.784944608807566 10.053743764758108 15.882771387696264 6.0177558213472357 10.525880709290503 15.636164665222166 20.275059014558796 9.5176699310541153 11.19538514316082 7.6948298215866089 31.169044762849808 5.3410753905773154 5.6846371889114371 56.546912416815758 6.1468881517648688 4.5189554542303068 6.5487460047006598 4.7075265794992438 60.420705676078796 6.5456744283437756
leaf_count=106 20 57 258 30 92 84 81 77 23 93 561 39 31 85 20 28 24 32 23 46 595 62 92 19 31 55 28 33 22 622 23 72 21 20 99 91 24 22 33 155 87 73 47 45 67 29 47 66 88 40 48 34 185 26 25 275 27 21 30 21 380 28
internal_value=0 0.00317219 0.0081366 -0.0230727 0.00917494 0.0105011 0.00966974 0.0088255 0.0115377 -0.00703145 -0.0161522 0.00777091 0.0109626 0.00578372 0.0169247 0.0271774 0.0153118 -0.00120434 0.0329933 0.0178137 0.0161466 0.0288875 0.0197214 -0.00777955 -0.00177709 -0.0045425 0.0315662 -0.00871998 -0.0103235 -0.011802 0.0576476 0.00046667 0.0520959 0.027067 0.00903797 0.0127991 0.0378311 0.0205397 0.0316759 0.0242309 -0.00944327 -0.00782188 0.0131256 -0.0254834 0.0538462 0.0131665 0.0184269 0.0270342 0.0110192 0.0167546 0.0350821 0.0483146 -0.0497233 -0.00886584 -0.0053196 -0.0111923 -0.0162825 0.0280684 -0.00556338 0.0146325 -0.0586241 0.00959102
internal_weight=0 1131.19 951.255 179.937 931.314 878.835 858.557 839.358 716.761 122.596 142.843 33.852 711.212 405.034 163.748 115.779 78.4319 107.222 46.4167 306.179 294.998 105.647 83.41 25.2721 241.286 222.807 18.479 24.9278 32.0152 158.027 12.0482 27.3279 37.3475 17.2103 189.351 166.687 31.769 25.8766 58.1379 40.6456 151.837 47.9684 21.9429 26.0255 23.3879 64.78 58.7622 48.2363 32.6002 34.75 20.7131 12.4274 37.0934 85.7467 80.4057 68.3784 62.6938 12.0272 17.3337 21.6067 63.9996 18.1104
internal_count=5618 5218 4285 933 4179 3921 3837 3756 3180 576 718 157 3157 1827 720 505 345 499 202 1330 1284 453 361 111 1107 1025 82 118 143 740 51 121 160 75 831 732 137 113 250 178 709 215 97 118 100 285 256 209 143 150 88 54 215 406 380 327 302 53 77 93 400 85
is_linear=0
shrinkage=0.05


Tree=11
num_leaves=63
num_cat=0
split_feature=14 12 8 9 12 0 10 6 13 10 12 8 12 12 12 7 7 11 0 16 10 1 16 11 7 1 0 10 7 11 12 8 12 17 2 8 12 12 12 8 13 0 6 10 12 17 6 18 8 18 17 10 13 17 9 18 8 7 17 9 12 1
split_gain=86.5563 54.1033 17.283 12.3604 12.1129 19.6965 16.0866 15.8078 10.1764 9.84488 8.88386 8.97772 8.60339 8.32446 7.99508 15.8101 17.4242 12.7226 9.258 9.54239 11.2121 9.73249 8.95948 9.80459 9.71158 7.63136 11.7273 17.8049 15.9959 11.1646 13.9294 9.08258 8.77831 10.3597 12.2962 8.61584 9.14096 8.37087 7.73433 7.4169 7.29294 10.2467 7.20756 7.18814 10.5396 7.46485 9.57938 10.9186 6.94935 6.76506 7.5515 6.71985 6.62287 9.9101 8.73371 7.36643 6.62034 6.71051 6.89697 6.59052 11.9044 6.79913
threshold=1.0000000180025095e-35 1.8042593598365786 -1.7350422739982603 1.225613594055176 1.1637198328971865 -1.8455383181571958 1.3694439530372622 -0.071345303207635866 -0.24745661020278928 -1.4794250726699827 -2.2722823619842525 -1.327289819717407 1.24958872795105 1.6618503332138064 0.8614167869091035 -1.1334258317947385 -0.87939628958702076 0.76114827394485485 -0.063553977757692323 -0.68167072534561146 0.199585035443306 -2.9006443378947957e-14 -0.77673807740211476 -0.58431288599967945 1.1335251331329348 0.21778720617294314 -0.00015148291277000678 0.13968964666128161 -1.0408335924148557 0.14186219871044162 -1.1435379385948179 -0.56667983531951893 0.37354296445846563 -0.40512517094612116 -0.36347301304340357 0.29022818803787237 -0.47565266489982599 0.089711986482143416 -0.85760891437530506 1.7904575467109682 0.12873227149248126 -0.53958547115325917 1.0588899254798891 0.018730523064732555 0.048195315524935729 -0.60916125774383534 1.5155503153800967 0.23833609372377398 1.7373127937316897 0.91806843876838695 -0.72014179825782765 -0.69412481784820546 -0.41371177136898035 -0.29398806393146509 -0.13433873653411862 0.077489256858825697 1.7960369586944582 -1.6933168768882749 -0.43756516277790064 -1.4285855889320371 -2.0296695232391353 -0.33185255527496332
decision_type=2 2 2 2 2 2 2 2 2 2 2 2 2 2 2 2 2 2 2 2 2 2 2 2 2 2 2 2 2 2 2 2 2 2 2 2 2 2 2 2 2 2 2 2 2 2 2 2 2 2 2 2 2 2 2 2 2 2 2 2 2 2
left_child=1 2 9 -3 6 -6 10 8 -7 -1 11 -4 -10 -9 17 -16 -17 18 49 20 21 -20 23 24 -23 26 27 35 29 30 56 -30 43 34 -34 -21 51 -38 -32 -5 41 -18 -33 44 45 -27 47 -47 -24 50 -12 -37 53 54 -52 59 -28 -58 -59 60 -54 -61
right_child=-2 3 4 39 5 7 -8 13 12 -11 14 -13 -14 -15 15 16 40 -19 19 25 -22 22 48 -25 -26 32 28 -29 31 -31 38 42 33 -35 -36 36 37 -39 -40 -41 -42 -43 -44 -45 -46 46 -48 -49 -50 -51 52 -53 55 -55 -56 -57 57 58 -60 61 -62 -63
leaf_value=-0.066042382743819211 -0.057787038430236831 0.043538228548306052 0.05170276997335696 -0.044894817818868039 0.084170397101761663 -0.041751658556782936 0.063221198192728784 0.00085329213594748327 0.042766061417637523 -0.0096760946712535854 -0.061304262861991698 -0.018120276636658692 -0.017109446248478936 0.048709363017306086 -0.04867591716020403 0.080000675349708866 0.034268056553872606 0.036415883485150097 0.075184219766260413 -0.0068139638078027701 -0.043464315642406132 0.014410117962659012 0.026938097088091136 0.062347074020970686 -0.061497125026813149 0.045537014935039172 0.001418043092724272 -0.0069871203598988636 0.03666758771553532 0.063015919968760561 -0.047291454017169519 -0.022132632205036546 -0.029218228065584207 -0.044926725813813205 0.064779100174942247 0.049823118485366052 0.094937918947195818 0.018841489961647775 0.0057651284571741098 -0.016617310832134847 0.03720939682676961 -0.023959979253156211 0.041923457302618761 0.064700447449140691 -0.029100604748091424 0.041345268856418642 -0.049318049357224357 0.0030726244473235804 0.082275981640110324 0.047573637946811693 0.0081056163771114631 -0.014523373220104059 0.034229119600500658 -0.025402025157627572 0.068734399783585462 -0.023458251707284744 0.014352490281544448 0.10454989831534922 0.030057379460863228 0.01266459837053914 -0.056950978441706372 -0.038861385312313319
leaf_weight=11.371211886405943 61.741563081741333 5.2965165972709647 5.1183490306138983 65.079376325011253 5.8205215930938712 39.961625650525093 13.980771884322165 42.382324606180191 7.3621045798063269 24.302913323044777 5.0935467779636374 45.786911055445671 32.413462519645691 11.567084014415739 16.227316007018089 7.1828327625989905 9.645860552787779 50.100399181246758 13.262715592980383 7.3693893849849692 4.6250665038824073 11.92335467040539 14.521856158971792 5.7536298781633368 6.5166858285665503 33.321572989225388 13.783219337463377 30.795950785279274 7.9849376380443564 10.838890984654425 12.681841969490053 87.559849321842194 6.5667562484741211 10.626569733023642 7.3997778147459048 11.036558195948603 14.565682455897333 4.8065090626478186 14.985339745879172 36.025339484214783 9.3619259744882566 34.863018363714218 4.6233239620923987 10.402096167206762 9.5253524929285032 36.607513457536697 5.046539679169654 37.956760138273239 9.310892313718794 7.3739958405494681 12.284085378050804 6.4162531644105902 5.3691119700670269 8.5275908559560758 11.5013817101717 36.775304347276688 9.7045319825410825 6.6575674265623057 5.8266528844833427 76.662447646260262 10.740963622927664 6.9857823401689521
leaf_count=65 400 27 23 364 25 209 57 197 31 119 25 228 161 56 82 30 42 212 54 34 21 51 65 24 33 140 61 139 36 45 58 412 30 50 32 46 59 20 67 180 43 164 21 44 43 156 22 165 38 32 55 27 24 38 50 169 41 28 25 342 49 32
internal_value=0 0.00301254 0.00654594 -0.0309185 0.0077828 -0.00586842 0.0100324 -0.00978858 -0.023931 -0.027643 0.00913923 -0.0110998 -0.00602702 0.0111139 0.0104572 -0.00480932 0.00684989 0.0121321 0.0102727 0.013955 0.0316041 0.037269 0.0267985 0.00536427 -0.0124154 0.0110973 0.00566049 0.0221988 -0.00144081 0.0161079 0.0081186 -0.0144888 0.0197173 -0.0077231 0.0205836 0.0425365 0.0524124 0.0760573 -0.0185545 -0.0348191 -0.00290363 -0.0113409 -0.01892 0.0247967 0.0214071 0.0256672 0.0173505 0.0218627 0.0485573 0.000666541 -0.00132203 0.0261671 0.000487435 0.0208427 0.0374225 -0.00433 0.0286337 0.0455396 0.0697826 0.00272151 -0.0265628 0.00836147
internal_weight=0 1128.17 1021.77 106.401 986.092 139.507 846.585 133.687 79.7372 35.6741 832.604 50.9053 39.7756 53.9494 781.699 77.281 61.0536 704.418 654.318 473.004 65.9142 61.2891 48.0264 24.1937 18.44 407.089 249.636 74.9903 174.646 74.478 63.6392 100.168 157.453 24.5931 13.9665 44.1944 36.825 19.3722 27.6672 101.105 53.8708 44.5089 92.1832 132.86 122.458 112.932 79.6108 74.5643 23.8327 181.314 173.94 17.4528 168.847 32.3131 23.7855 136.534 35.972 22.1888 12.4842 99.7583 16.1101 83.6482
internal_count=5618 5218 4647 571 4463 679 3784 654 401 184 3727 251 192 253 3476 361 279 3115 2903 2087 286 265 211 108 84 1801 1119 325 794 325 280 469 682 112 62 186 152 79 125 544 249 206 433 570 526 483 343 321 103 816 784 73 759 143 105 616 155 94 53 447 73 374
is_linear=0
shrinkage=0.05


Tree=12
num_leaves=63
num_cat=0
split_feature=14 12 8 9 12 0 6 10 13 10 7 12 8 12 2 8 6 17 7 12 7 7 11 1 12 8 1 0 17 8 7 12 4 1 1 7 8 12 8 12 13 13 17 12 16 0 3 16 2 7 2 16 2 2 18 3 10 4 7 16 12 17
split_gain=80.9893 49.4597 15.7449 11.2914 10.9353 17.5984 14.469 14.4439 9.77424 9.41418 8.25575 8.02176 8.16138 8.01364 7.64491 8.27647 8.08255 7.50538 10.1701 7.20585 14.5776 15.532 11.41 8.06714 9.65001 8.12152 8.12033 8.80662 9.94475 8.18004 8.85472 7.97956 13.8696 9.34104 16.9854 13.8548 13.3424 9.94145 18.8174 13.0998 11.3345 10.0946 8.59415 8.52617 8.10092 7.84823 8.96102 7.80085 7.7582 7.71768 11.7472 7.30211 7.27995 7.69035 7.14213 7.63715 7.27077 7.07037 7.00368 6.99657 6.66342 6.551
threshold=1.0000000180025095e-35 1.8042593598365786 -1.7350422739982603 1.225613594055176 1.1637198328971865 -1.8455383181571958 -0.070928279310464845 1.3694439530372622 -0.25341397523879999 -1.4794250726699827 2.8221029043197636 -2.2722823619842525 -1.1630563735961912 1.24958872795105 -0.1690704673528671 1.6228030323982241 -0.61564564704895008 -0.064321704208850847 -1.3458734750747678 0.8614167869091035 -1.1334258317947385 -0.87939628958702076 0.74900758266448986 -0.83924978971481312 -0.046608392149209969 1.8662807345390322 -0.90757468342781056 -1.1976157426834104 0.59248173236846935 1.7291632890701296 -1.2303483486175535 0.37354296445846563 -0.87482362985610951 -0.0051994903478771439 0.21778720617294314 -1.4795774817466734 -0.52296847105026234 -1.0000000180025095e-35 -0.25483314692974085 -0.45283313095569605 -0.40411320328712458 -0.21180537343025205 0.95480465888977062 -1.646395146846771 -0.44276602566242212 -0.00027702623629011208 -1.2129461169242857 -0.60986527800559986 -0.30399121344089503 1.8082180023193362 -0.74005970358848561 0.34423954784870153 -0.45569176971912378 -0.68443688750267018 -0.19273955374956128 0.54694941639900219 1.5691886544227602 -1.5646110773086546 1.7622842788696291 -0.68167072534561146 0.72555729746818554 2.141104102134705
decision_type=2 2 2 2 2 2 2 2 2 2 2 2 2 2 2 2 2 2 2 2 2 2 2 2 2 2 2 2 2 2 2 2 2 2 2 2 2 2 2 2 2 2 2 2 2 2 2 2 2 2 2 2 2 2 2 2 2 2 2 2 2 2
left_child=1 2 9 -3 7 -6 8 11 -7 -1 54 12 -4 -10 -14 -16 -17 57 -19 22 -21 -22 23 24 25 26 27 28 -13 30 -29 33 -33 37 35 43 -37 38 41 48 -39 -25 59 -35 47 46 -24 -45 49 50 -40 -50 53 -42 -8 -56 -57 -5 60 -38 -48 -44
right_child=-2 3 4 17 5 6 10 -9 13 -11 -12 19 14 -15 15 16 -18 18 -20 20 21 -23 45 31 -26 -27 -28 29 -30 -31 -32 32 -34 34 -36 36 42 40 39 -41 52 -43 61 44 -46 -47 58 -49 51 -51 -52 -53 -54 -55 55 56 -58 -59 -60 -61 -62 -63
leaf_value=-0.065054684208698574 -0.056974209018007288 0.040563642361458485 0.037054394290470132 0.0056834294735568416 0.078923863132788305 -0.039995082138176534 -0.01519668762860797 0.059833543235707824 0.040071298724414325 -0.0092298487539774817 -0.035633723516599658 -0.034132403280204969 0.0070392806791187666 -0.015998361957807569 -0.065222231944723097 0.048278738414638839 -0.03515244564412278 0.043533161494917504 -0.028582207503803969 -0.047274946655880695 0.075123213322012022 -0.0027714005920136536 0.059679274624149403 -0.056584254384037205 0.0258676786804947 -0.044569874423861365 -0.053931393189037141 0.060399935581557429 0.020611012609941498 0.064924425107385719 -0.0098459742152309446 0.025978662021338847 -0.019759934056823809 0.050719446013038232 0.024242678181988817 0.040202355828147122 0.011844154140748492 0.059168253789873143 -0.012842924884115637 0.079546248286553795 -0.034538746298160089 0.026542505378233744 0.049414447507213959 0.0095233781717630629 -0.0055835996923469392 0.068626197950544379 0.062150738385695029 0.086599743271871837 -0.014134158386702542 0.076704628581041767 0.075714477518181098 0.058449130730936084 -0.041366333120421046 0.050788536480293515 0.049846852209801756 -0.035073335679181646 0.044922290406436333 -0.047025389247424859 -0.027440562181688007 -0.020239672758233171 0.0026532662455652817 -0.023100200727258453
leaf_weight=10.976665899157522 59.547007977962494 5.3979407399892798 7.6278596818447104 7.041428104043006 5.8950111865997306 40.171302080154419 10.776103243231772 14.032241329550741 7.853090062737464 24.206538960337639 7.8585508018732062 23.777438282966614 16.974035024642944 33.80171300470829 12.588651046156885 4.2435087561607352 9.1886977851390821 6.489591836929324 19.820714727044106 15.881661131978033 7.2644618749618521 53.753491044044495 11.972597062587736 7.3326448798179626 23.9821547716856 14.167982220649717 7.1936928182840338 5.8581808656454113 12.741619005799292 7.9159172028303137 19.154407903552055 25.942028567194939 45.899909973144531 18.23094217479229 139.477264508605 14.093722805380819 20.280709818005562 6.7868096232414272 8.9098979830741865 21.565390035510063 4.5307003855705261 7.2761773467063886 9.6312521994113904 7.9085575938224792 28.10378023982048 12.357878014445303 7.5369753539562288 5.6124266237020475 12.545804783701898 13.011850848793982 6.4597763419151333 4.7873393893241873 11.948562055826184 6.3299670368433034 20.881921678781509 6.621642053127287 4.9742257595062256 65.968478053808212 9.3252245932817441 104.79857045412064 12.528014823794363 4.6031134426593772
leaf_count=65 400 27 35 40 25 214 50 57 33 119 37 114 84 169 63 21 48 30 109 82 30 249 50 36 104 67 33 25 57 34 88 114 211 76 595 63 93 29 39 88 20 33 42 33 125 51 32 24 54 53 27 20 52 27 96 32 23 365 40 491 54 21
internal_value=0 0.00286075 0.00621985 -0.0298632 0.00739384 -0.00561224 -0.0093609 0.00952788 -0.022398 -0.0266464 0.0115103 0.00867954 -0.0106091 -0.00542767 -0.0190653 -0.0360939 -0.00879483 -0.0336908 -0.0107945 0.00992903 -0.00460402 0.0065023 0.0115152 0.00968721 -0.00234212 -0.00979216 -0.00336311 0.00187498 -0.0150322 0.0206258 0.00660627 0.0122631 -0.00324379 0.0146629 0.0106756 0.00180249 -0.00615805 0.027279 0.0362551 0.0474238 0.00244291 -0.0151815 -0.0108481 0.022205 0.00971611 0.0336624 0.0232164 0.041517 0.0322704 0.0483673 0.0243772 0.00591303 -0.0144355 0.0151929 0.0200756 0.0317789 -0.000757982 -0.0419419 0.00836262 -0.0150375 0.0250022 0.0259646
internal_weight=0 1124.87 1020.15 104.718 984.967 138.834 132.939 846.134 81.8261 35.1832 51.1124 832.102 50.6228 41.6548 42.9949 26.0209 13.4322 99.3202 26.3103 781.479 76.8996 61.018 704.579 650.859 114.791 90.8092 76.6413 69.4476 36.5191 32.9285 25.0126 536.067 71.8419 464.225 352.74 213.263 153.407 111.485 81.8889 67.2801 29.596 14.6088 139.314 59.8557 41.6248 53.7207 41.3628 13.521 45.7147 28.3815 15.3697 17.3331 22.8092 10.8607 43.2539 32.4778 11.5959 73.0099 29.3902 125.079 20.065 14.2344
internal_count=5618 5218 4647 571 4463 679 654 3784 416 184 238 3727 251 202 216 132 69 544 139 3476 361 279 3115 2888 522 418 351 318 171 147 113 2366 325 2041 1563 968 710 478 350 281 128 69 647 258 182 227 176 57 193 119 66 74 99 47 201 151 55 405 126 584 86 63
is_linear=0
shrinkage=0.05


Tree=13
num_leaves=63
num_cat=0
split_feature=14 12 8 9 6 12 9 10 9 12 0 16 5 12 1 17 6 7 7 13 13 7 8 10 9 2 17 7 11 8 8 7 16 8 4 4 6 3 13 8 10 6 11 9 8 2 16 17 16 12 10 12 12 17 0 3 16 12 10 11 17 9
split_gain=75.8216 45.2372 14.4177 10.3274 8.86104 12.0552 13.338 10.8276 9.31865 11.3791 10.251 9.79249 8.34233 10.1376 8.75874 11.2388 8.25311 8.20295 13.587 10.3004 7.8118 7.60997 14.2655 10.8938 7.33202 7.25534 7.06229 9.20273 6.71521 8.64193 6.71132 7.2056 9.14287 7.2763 6.66892 6.66193 9.02978 6.62909 6.52649 6.44675 6.43818 9.64633 6.38493 6.32897 6.211 6.80959 7.11948 6.17126 6.09804 6.35017 9.45475 8.10013 8.20775 7.09107 7.51692 7.26701 11.9784 7.28501 10.6801 8.39194 6.94025 6.89684
threshold=1.0000000180025095e-35 1.8042593598365786 -2.0774890184402461 1.225613594055176 1.0972437858581545 1.1768767833709719 1.6905843019485476 1.3338600397109988 1.1851183772087099 0.8614167869091035 -1.480786859989166 -0.68167072534561146 1.0414410233497622 0.24391043931245807 0.51635396480560314 -0.55373084545135487 -0.073092162609100328 -1.1025099158287046 -0.99967139959335316 0.12873227149248126 -0.45697404444217676 2.1915585994720463 1.8572282791137698 -2.3827086687088008 0.57914239168167125 2.8669931888580327 -0.064321704208850847 -1.3458734750747678 -1.5284738540649412 1.3772744536399844 1.5219500660896303 -1.4086200594902036 -0.75836345553398121 1.809653162956238 -1.5646110773086546 1.5436278581619265 -1.2433135509490965 -1.1241629123687742 -0.05829063989222049 1.286484479904175 -0.87885832786560047 -0.19675444066524503 0.22456352412700656 2.5412400960922246 -1.0556759238243101 -1.2160685062408445 -0.88378834724426258 0.10473566502332689 -0.65895590186119068 0.49510547518730169 0.32726375758647924 0.67987829446792614 0.72555729746818554 0.95480465888977062 -0.015418677125126122 -0.85870441794395436 -0.41802249848842615 -0.64215204119682301 -0.43051415681838984 -0.52858543395996083 1.3319718837738039 0.37043008208274847
decision_type=2 2 2 2 2 2 2 2 2 2 2 2 2 2 2 2 2 2 2 2 2 2 2 2 2 2 2 2 2 2 2 2 2 2 2 2 2 2 2 2 2 2 2 2 2 2 2 2 2 2 2 2 2 2 2 2 2 2 2 2 2 2
left_child=1 2 -1 -3 5 7 44 8 9 10 -4 21 25 14 28 -16 -15 -11 -19 -20 -8 23 -23 -12 -18 35 34 -28 29 -14 39 32 33 -32 43 36 37 -13 -37 -25 -33 -42 -2 -5 -7 -46 -47 -29 -38 50 53 -51 -53 55 -55 56 -50 59 -59 -57 -56 -60
right_child=42 3 4 26 -6 6 20 -9 -10 17 11 12 13 16 15 -17 24 18 19 -21 -22 22 -24 30 -26 -27 27 47 -30 -31 31 40 -34 -35 -36 38 48 -39 -40 -41 41 -43 -44 -45 45 46 -48 -49 49 51 -52 52 -54 54 60 57 -58 58 61 -61 -62 -63
leaf_value=-0.034388136882953578 0.010597339358966848 0.037868451645479854 -0.019354647574644127 0.048339639481749262 0.022579183618604934 0.033498335662239628 -0.045092263614876581 0.049169240299778448 0.04512528808308186 -0.048941322407103749 -0.060527431605048143 0.088790526918528748 -0.018942324489575602 0.060401504654234023 0.045025747871625443 -0.0083602390635820045 0.036239187186122034 0.068159474843390452 -0.026244949512934729 0.038141518355875842 0.028168468204332126 0.084190082382741727 -0.00015220574491193184 0.020486962661701309 -0.029860219764398524 -0.06158983378202755 0.040851746713658946 0.024341282624674485 -0.014134616485959449 0.054354587887241491 0.054094384239585902 -0.038170181064427634 0.076466811947079216 -0.021700205241122553 -0.045798730557883353 0.083693835309937861 -0.039496224033577138 0.015650216004198338 0.0073282517912588831 0.0695800429937843 0.038385774434411997 -0.034824264913556724 -0.060362525876554364 -0.046768492153994444 0.041803027165867326 0.042149887426047347 -0.02879057624910554 -0.042783818590982459 -0.034524027238716518 -0.035437142233752481 0.035810015985058868 0.056232543928592796 -0.010835238836613718 -0.0013365733794439812 0.083816379025089552 -0.0019335132674455292 0.053602915739901003 0.04461778010746735 0.0094046526092222762 -0.070932284175761723 0.022520466449285063 -0.045013938081535469
leaf_weight=21.720423176884651 3.3676463365554801 5.490531161427497 33.037289157509804 3.8727575093507758 81.584619805216789 5.2797064185142508 4.1897109448909786 15.383840173482893 15.551071435213087 13.570123881101607 4.3470309376716605 4.9960846751928321 6.9588447660207775 20.654938906431198 27.581574589014053 15.342019647359846 12.960867375135424 5.61696933209896 34.456891819834709 7.5776963979005805 27.668644532561302 12.483056753873827 8.3783658444881421 16.333638817071918 6.2033371925353995 4.2946195751428595 6.5676774531602886 4.4279339313507107 42.86661371588707 9.5268694907426816 5.1568129956722286 10.184345677495005 7.5231982916593543 8.2039940208196622 64.38907977938652 5.0735261589288712 8.9434182792901975 8.1544191837310773 6.237678334116934 11.322783544659613 12.02945949137211 7.1880733519792548 54.036138951778412 3.1900161504745483 3.9380139261484137 3.7070118784904471 76.986681386828423 15.103419736027716 28.233496978878975 23.832869365811348 22.786331787705421 6.0099617540836361 18.931760415434837 17.777071461081505 6.9267130643129375 148.85522037744522 4.4657305777072898 21.584646046161652 60.834218770265579 4.5412031561136237 13.85498897731304 6.4385297894477835
leaf_count=121 20 27 156 20 358 26 22 63 67 73 21 21 32 86 116 67 56 23 163 35 134 52 38 73 28 22 30 25 195 42 21 47 31 35 365 22 41 36 27 47 52 33 380 20 19 17 389 84 132 110 100 26 85 81 30 681 20 93 271 22 60 29
internal_value=0 0.00271696 0.0059116 -0.0288535 0.00678994 0.00538209 -0.00926584 0.00763076 0.00680922 0.00602754 0.00783282 0.00917739 0.00659046 0.0170715 0.00873839 0.0259442 0.0384752 -0.0146449 -0.00487801 -0.0146378 0.0185339 0.0233438 0.0503165 0.0165059 0.0148432 0.00306775 -0.0326088 -0.010349 -0.00370484 0.023415 0.0208022 0.00992135 0.0323789 0.00755391 -0.0407396 0.0037313 0.00267981 0.0434374 0.0415813 0.0405861 -0.00603014 0.0110025 -0.0561996 0.00538251 -0.0191161 -0.0223985 -0.0255316 -0.027566 0.00131951 0.00226746 0.00471273 -0.0145925 0.00532543 0.00245255 0.0225327 -0.000363441 -0.0224885 0.00262299 0.0140153 -0.00397618 0.0429509 0.00419637
internal_weight=0 1121.33 1018.29 103.041 996.567 914.982 121.77 793.212 777.828 762.277 701.056 668.018 564.868 142.095 102.276 42.9236 39.8191 61.2217 47.6516 42.0346 31.8584 103.151 20.8614 82.2893 19.1642 422.772 97.5509 26.099 59.3523 16.4857 77.9423 50.2859 20.884 13.3608 71.4519 418.478 407.167 13.1505 11.3112 27.6564 29.4019 19.2175 57.4038 7.06277 89.9114 84.6317 80.6937 19.5314 394.016 385.073 336.298 48.7746 24.9417 313.512 38.5588 274.953 32.6992 242.254 88.8574 153.396 20.7817 67.2727
internal_count=5618 5218 4647 571 4526 4168 607 3561 3498 3431 3137 2981 2531 622 452 183 170 294 221 198 156 450 90 360 84 1909 544 139 269 74 339 219 87 56 405 1887 1838 57 49 120 132 85 400 40 451 425 406 109 1781 1740 1519 221 111 1419 171 1248 152 1096 393 703 90 300
is_linear=0
shrinkage=0.05


Tree=14
num_leaves=63
num_cat=0
split_feature=14 12 8 9 7 12 4 10 12 11 12 2 7 2 5 6 10 2 18 10 0 7 11 4 10 7 7 7 8 7 16 8 8 11 12 5 12 12 12 7 2 7 16 11 11 2 6 12 12 11 18 5 8 6 16 7 16 8 2 0 13 12
split_gain=71.0514 41.4849 13.8877 11.6747 8.58367 7.72375 7.17897 9.4407 9.42665 9.42008 7.37145 7.33671 7.18094 7.121 6.97594 7.29888 6.65089 6.59441 6.80873 6.93964 6.49318 6.19892 6.19116 6.03397 6.83449 6.34082 7.76326 6.16699 9.36114 11.181 11.88 9.04576 9.39002 10.4196 13.7623 9.20301 8.13582 13.0184 8.13062 10.0279 8.47937 7.76679 7.51121 7.08599 8.7749 6.7926 6.65254 7.12166 14.4303 10.5333 9.23121 7.24141 6.54558 6.51671 6.96105 6.41929 6.36661 6.11363 5.98677 6.37521 6.44811 5.91732
threshold=1.0000000180025095e-35 1.4610018134117129 -2.0774890184402461 2.5412400960922246 -1.1334258317947385 -2.2722823619842525 1.5436278581619265 1.5192444920539858 1.1518112421035769 1.1318644881248476 0.95083296298980724 0.60849940776824962 -1.3458734750747678 1.4194315671920779 1.0414410233497622 -1.2664753794670103 1.0730291008949282 1.9181202054023745 -0.04698678478598594 -1.7597647905349729 -0.83626678586006153 -1.6305519938468931 0.22456352412700656 -0.70256850123405445 -1.1214001774787901 2.0036754608154301 2.5066008567810063 -0.47182697057723993 1.5957825779914858 -1.4708756804466245 -0.37455044686794275 1.6517200469970705 2.000851154327393 0.84027796983718883 0.15896288305521014 0.68114978075027477 -0.87761968374252308 0.49510547518730169 -0.28712192177772516 1.799300014972687 -0.37716490030288691 1.8223767280578616 -0.75836345553398121 -0.095105167478322969 -0.62898191809654225 -0.87784001231193531 -0.81562530994415272 0.048195315524935729 0.37354296445846563 -0.41069664061069483 0.030991721898317341 -0.9087792932987212 1.5271443128585818 0.41392832994461065 -0.6970238685607909 -1.2433478832244871 -0.49160170555114741 1.7091329693794253 -0.45569176971912378 0.029618796892464164 -0.24401841312646863 -1.2165482640266416
decision_type=2 2 2 2 2 2 2 2 2 2 2 2 2 2 2 2 2 2 2 2 2 2 2 2 2 2 2 2 2 2 2 2 2 2 2 2 2 2 2 2 2 2 2 2 2 2 2 2 2 2 2 2 2 2 2 2 2 2 2 2 2 2
left_child=1 2 -1 4 13 -4 7 8 9 10 14 -8 -10 21 15 -7 -12 18 -16 -20 -5 -3 -2 24 -17 -26 -27 28 55 30 42 35 33 34 38 41 -31 -38 39 -33 45 46 -30 44 58 -41 -29 49 56 52 51 -50 61 54 -44 -25 -49 -42 -32 -60 -61 -48
right_child=22 3 5 20 -6 6 11 -9 12 -11 16 -13 -14 -15 17 23 -18 -19 19 -21 -22 -23 -24 27 25 26 -28 31 29 36 43 32 -34 -35 -36 -37 37 -39 -40 40 57 -43 53 -45 -46 -47 47 48 50 -51 -52 -53 -54 -55 -56 -57 -58 -59 59 60 -62 -63
leaf_value=-0.036206146904360768 0.010005292100179797 -0.040792853430582879 -0.01129579447628889 0.0023370756373899217 -0.021819656166537135 0.034355351268289001 0.033231796971588734 0.044113908050717777 0.031616742801021357 0.040032079144724321 -0.030695605632880919 -0.023412280076659343 -0.020081607254867712 0.038665075958247329 0.058463017963411551 -0.027772103114730641 0.024331328107947008 0.068018722086070432 0.042922996371026978 0.0086132986553409275 -0.056218191184879598 0.0078339714379923771 -0.059755519555850269 0.067287192661145301 -0.0088744507788736642 0.075155285053098542 -0.0019185160837583968 0.03885810635274034 -0.013853911991081255 -0.055171201008407084 -0.031905755352992136 -0.035535348748849109 -0.031020468757369399 0.083094983144791745 -0.02754491201383312 0.061959445570069209 0.027643586966578166 -0.041915404365595349 0.054922097631468429 0.02117489485181823 0.039001284261975494 -0.025805933090173795 0.077294242632385809 0.03933150186146505 -0.073425125563676419 0.083890707169309117 -0.015202291921686956 0.0093863078311027682 -0.039568808810048622 -0.043163207962800744 -0.06329738302362739 0.043348112442140527 -0.052331365342746107 0.069166391395777543 0.0078936615330336465 0.022211843636361896 0.078162630328034291 -0.0143779631678971 -0.029422392726875732 -0.0030276611431866436 0.068768879900582766 0.020090116157284309
