tree
version=v4
num_class=1
num_tree_per_iteration=1
label_index=0
max_feature_idx=18
objective=binary sigmoid:1
feature_names=ret logret vol20 buy_ratio sell_ratio ofi_norm interarrival_mean_s hod_sin hod_cos open high low close volume trades dollar buy_volume sell_volume signed_volume
feature_infos=[-24.620981216430664:936.76849365234375] [-24.906713485717773:573.5533447265625] [-0.76928937435150146:453.53524780273438] [-3.1093764305114746:2.225987434387207] [-2.3844461441040039:3.1093764305114746] [-3.1093764305114746:2.225987434387207] [0.0026144823059439659:6076.47705078125] [-1.5905284881591797:12.17448616027832] [-3.6491570472717285:2.0600686073303223] [11.960000038146973:57.569999694824219] [11.989999771118164:57.610000610351562] [11.899999618530273:57.520000457763672] [11.960000038146973:57.549999237060547] [20200:8523800] [79:200] [252698:264707990] [0:834800] [0:728900] [-714800:603300]
tree_sizes=3526

Tree=0
num_leaves=33
num_cat=0
split_feature=2 2 8 13 16 4 8 7 7 7 6 9 1 11 0 2 7 9 12 11 0 2 8 13 8 15 6 7 16 0 13 6
split_gain=16.8274 16.574 14.5143 10.9044 11.0062 10.6582 10.5417 15.1162 14.7381 9.9901 10.5424 7.73857 6.84281 11.6059 10.775 7.22866 9.59063 6.53586 6.08509 5.89453 5.82405 5.70591 5.23302 4.76521 4.49871 3.17386 3.16531 2.61921 2.56141 1.28173 1.02859 0.108207
threshold=2.4147441387176518 -0.19898154586553571 1.3118212819099428 121300.00000000001 35650.000000000007 1.0929846763610842 0.83959835767745983 -0.9324832260608672 -0.74689713120460499 -0.81096863746643055 1.7823145985603335 55.855001449584968 -0.024494989775121209 31.035000801086429 -0.10297037288546561 -0.30241328477859492 -0.5807247757911681 31.365000724792484 12.494999885559084 12.385000228881838 0.19885785132646563 -0.55760070681571949 -0.16206432878971097 113250.00000000001 0.13699180632829669 5742733.5000000009 0.4798711240291596 -0.17108597606420514 47450.000000000007 -0.20793853700160977 220700.00000000003 1.0812571048736574
decision_type=2 2 2 2 2 2 2 2 2 2 2 2 2 2 2 2 2 2 2 2 2 2 2 2 2 2 2 2 2 2 2 2
left_child=1 2 5 4 -4 6 7 -1 24 -3 26 27 13 14 -10 16 -15 21 -14 -12 30 -8 -16 -7 -9 -25 -11 -2 -18 -28 -5 -31
right_child=11 9 3 20 -6 23 17 8 12 10 19 -13 18 15 22 -17 28 -19 -20 -21 -22 -23 -24 25 -26 -27 29 -29 -30 31 -32 -33
leaf_value=-0.26766620785967737 -0.1264237741790955 -0.18490696937496143 -0.16688384632717884 -0.15272282107534968 -0.25949245591056963 -0.28826406277142885 -0.23701463805052331 -0.11178108140169385 -0.23364296537151635 -0.24375798340853719 -0.18773634504965256 -0.22352794733449552 -0.19848123600472964 -0.18643954786541911 -0.1757114984322152 -0.17497586075679555 -0.28758972823562751 -0.2110786943658545 -0.2695687190892111 -0.25847073691693112 -0.19848123600472964 -0.30444809163066222 -0.11659775665741806 -0.2525762042613246 -0.17168847989476371 -0.20329791126045385 -0.27073136484059274 -0.16958118447038439 -0.24007979503143873 -0.30444809163066228 -0.12307535441511616 -0.29433307359364136
leaf_weight=8.1561891138553602 6.1789311468601236 5.4374594092369071 6.1789311468601245 4.9431449174880999 6.6732456386089325 6.1789311468601253 7.4147173762321472 5.1903021633625013 4.9431449174881008 4.9431449174881008 6.4260883927345258 4.9431449174880973 5.1903021633625013 5.9317739009857169 8.1561891138553619 6.1789311468601289 5.931773900985716 9.6391325891017896 7.1675601303577423 5.437459409236908 5.1903021633625022 5.4374594092369097 6.9204028844833347 9.6391325891017896 7.909031867980957 4.9431449174880973 5.9317739009857204 8.1561891138553619 5.437459409236908 5.6846166551113111 7.1675601303577423 4.9431449174880981
leaf_count=33 25 22 25 20 27 25 30 21 20 20 26 20 21 24 33 25 24 39 29 22 21 22 28 39 32 20 24 33 22 23 29 20
internal_value=-0.214084 -0.218616 -0.211104 -0.180083 -0.214969 -0.218875 -0.212083 -0.203298 -0.195684 -0.247752 -0.257994 -0.169581 -0.206878 -0.197551 -0.169581 -0.221398 -0.237978 -0.242202 -0.239712 -0.220156 -0.154168 -0.265544 -0.148577 -0.251465 -0.147952 -0.235872 -0.27887 -0.150979 -0.264868 -0.289351 -0.135176 -0.299743
internal_weight=0 189.322 150.519 30.1532 12.8522 120.366 99.6044 77.1131 68.9569 38.8037 33.3662 19.2783 55.8575 43.4997 20.0197 23.4799 17.301 22.4913 12.3579 11.8635 17.301 12.8522 15.0766 20.7612 13.0993 14.5823 21.5027 14.3351 11.3692 16.5595 12.1107 10.6278
internal_count=844 766 609 122 52 487 403 312 279 157 135 78 226 176 81 95 70 91 50 48 70 52 61 84 53 59 87 58 46 67 49 43
is_linear=0
shrinkage=1


end of trees

feature_importances:
hod_sin=5
vol20=4
hod_cos=4
ret=3
interarrival_mean_s=3
volume=3
open=2
low=2
buy_volume=2
logret=1
sell_ratio=1
close=1
dollar=1

parameters:
[boosting: gbdt]
[objective: binary]
[metric: binary_logloss,auc]
[tree_learner: serial]
[device_type: cpu]
[data_sample_strategy: bagging]
[data: ]
[valid: ]
[num_iterations: 500]
[learning_rate: 0.05]
[num_leaves: 63]
[num_threads: 0]
[seed: 0]
[deterministic: 0]
[force_col_wise: 0]
[force_row_wise: 0]
[histogram_pool_size: -1]
[max_depth: -1]
[min_data_in_leaf: 20]
[min_sum_hessian_in_leaf: 0.001]
[bagging_fraction: 1]
[pos_bagging_fraction: 1]
[neg_bagging_fraction: 1]
[bagging_freq: 0]
[bagging_seed: 3]
[feature_fraction: 1]
[feature_fraction_bynode: 1]
[feature_fraction_seed: 2]
[extra_trees: 0]
[extra_seed: 6]
[early_stopping_round: 0]
[early_stopping_min_delta: 0]
[first_metric_only: 0]
[max_delta_step: 0]
[lambda_l1: 0]
[lambda_l2: 0]
[linear_lambda: 0]
[min_gain_to_split: 0]
[drop_rate: 0.1]
[max_drop: 50]
[skip_drop: 0.5]
[xgboost_dart_mode: 0]
[uniform_drop: 0]
[drop_seed: 4]
[top_rate: 0.2]
[other_rate: 0.1]
[min_data_per_group: 100]
[max_cat_threshold: 32]
[cat_l2: 10]
[cat_smooth: 10]
[max_cat_to_onehot: 4]
[top_k: 20]
[monotone_constraints: ]
[monotone_constraints_method: basic]
[monotone_penalty: 0]
[feature_contri: ]
[forcedsplits_filename: ]
[refit_decay_rate: 0.9]
[cegb_tradeoff: 1]
[cegb_penalty_split: 0]
[cegb_penalty_feature_lazy: ]
[cegb_penalty_feature_coupled: ]
[path_smooth: 0]
[interaction_constraints: ]
[verbosity: -1]
[saved_feature_importance_type: 0]
[use_quantized_grad: 0]
[num_grad_quant_bins: 4]
[quant_train_renew_leaf: 0]
[stochastic_rounding: 1]
[linear_tree: 0]
[max_bin: 255]
[max_bin_by_feature: ]
[min_data_in_bin: 3]
[bin_construct_sample_cnt: 200000]
[data_random_seed: 1]
[is_enable_sparse: 1]
[enable_bundle: 1]
[use_missing: 1]
[zero_as_missing: 0]
[feature_pre_filter: 0]
[pre_partition: 0]
[two_round: 0]
[header: 0]
[label_column: ]
[weight_column: ]
[group_column: ]
[ignore_column: ]
[categorical_feature: ]
[forcedbins_filename: ]
[precise_float_parser: 0]
[parser_config_file: ]
[objective_seed: 5]
[num_class: 1]
[is_unbalance: 0]
[scale_pos_weight: 1]
[sigmoid: 1]
[boost_from_average: 1]
[reg_sqrt: 0]
[alpha: 0.9]
[fair_c: 1]
[poisson_max_delta_step: 0.7]
[tweedie_variance_power: 1.5]
[lambdarank_truncation_level: 30]
[lambdarank_norm: 1]
[label_gain: ]
[lambdarank_position_bias_regularization: 0]
[eval_at: ]
[multi_error_top_k: 1]
[auc_mu_weights: ]
[num_machines: 1]
[local_listen_port: 12400]
[time_out: 120]
[machine_list_filename: ]
[machines: ]
[gpu_platform_id: -1]
[gpu_device_id: -1]
[gpu_use_dp: 0]
[num_gpu: 1]

end of parameters

pandas_categorical:[]
