tree
version=v4
num_class=1
num_tree_per_iteration=1
label_index=0
max_feature_idx=55
objective=binary sigmoid:1
feature_names=ret logret vol20 buy_ratio sell_ratio ofi_norm interarrival_mean_s hod_sin hod_cos open high low close volume trades dollar buy_volume sell_volume signed_volume ma_9 ma_20 ma_50 price_ma9_ratio price_ma20_ratio price_ma50_ratio ma9_ma20_cross ma20_ma50_cross ma9_ma50_cross bb20_middle bb20_upper_1std bb20_upper_2std bb20_upper_3std bb20_lower_1std bb20_lower_2std bb20_lower_3std bb20_position bb20_touch_upper_1std bb20_touch_upper_2std bb20_touch_upper_3std bb20_touch_lower_1std bb20_touch_lower_2std bb20_touch_lower_3std bb50_middle bb50_upper_1std bb50_upper_2std bb50_upper_3std bb50_lower_1std bb50_lower_2std bb50_lower_3std bb50_position bb50_touch_upper_1std bb50_touch_upper_2std bb50_touch_upper_3std bb50_touch_lower_1std bb50_touch_lower_2std bb50_touch_lower_3std
feature_infos=[-18.129055023193359:1185.5458984375] [-18.589401245117188:702.568115234375] [-1.1089260578155518:413.14846801757812] [-3.3732829093933105:2.6862542629241943] [-3.513052225112915:2.8801517486572266] [-2.9391698837280273:2.7343389987945557] [0.0021507940255105495:6075.87451171875] [-2.0139822959899902:14.441712379455566] [-4.685154914855957:3.265005350112915] [12.939999580383301:41.009998321533203] [13:41.119998931884766] [12.920000076293945:40.979999542236328] [12.949999809265137:41.009998321533203] [24000:11853000] [133:200] [357650:215715475] [0:620000] [0:514100] [-460100:543700] [13.012222290039062:40.7066650390625] [13.017499923706055:40.583999633789062] [13.079799652099609:40.475601196289062] [-13.448910713195801:613.68743896484375] [-11.162922859191895:460.06378173828125] [-8.7331361770629883:323.58242797851562] [-1.6641006469726562:1.6035674810409546] [-14.106736183166504:4.4721360206604004] [-5.2508502006530762:2.2495791912078857] [13.017499923706055:40.583999633789062] [0:40.934154510498047] [0:50.075168609619141] [0:60.733547210693359] [0:40.4659423828125] [-0.86013543605804443:40.417884826660156] [-11.521580696105957:40.370353698730469] [-3.624356746673584:3.2460112571716309] [-1.1055415868759155:3.1797974109649658] [-0.37139067053794861:9.9498739242553711] [-0.1856953352689743:14.106736183166504] [-0.81649661064147949:6.9282031059265137] [-0.35355338454246521:14.106736183166504] [-0.1428571492433548:14.106736183166504] [13.079799652099609:40.475601196289062] [0:40.832973480224609] [0:49.648754119873047] [0:60.081710815429688] [0:40.395858764648438] [-0.56646263599395752:40.3389892578125] [-11.035502433776855:40.28900146484375] [-4.7292513847351074:6.048795223236084] [-1.29099440574646:8.1034975051879883] [-0.54772257804870605:14.106736183166504] [-0.32163375616073608:14.106736183166504] [-1.0304638147354126:14.106736183166504] [-0.39505615830421448:14.106736183166504] [-0.23385359346866608:14.106736183166504]
tree_sizes=3353

Tree=0
num_leaves=31
num_cat=0
split_feature=10 51 50 43 47 36 6 52 24 53 36 40 33 37 22 48 54 25 8 9 49 49 22 8 7 19 41 44 24 50
split_gain=148.558 53.1141 88.724 60.378 55.2121 54.0124 39.143 44.8641 42.9972 34.1476 33.4337 26.6617 29.8648 24.8655 22.8789 20.3488 17.4592 18.1945 16.4359 42.9648 12.812 12.081 9.78645 11.6409 9.7482 10.9362 9.57356 16.5268 9.00582 8.26951
threshold=13.164999961853029 -0.40218257904052729 -0.51169040799140919 40.533048629760749 13.109628677368166 -0.5580991506576537 0.26119607686996466 -0.19849364459514615 0.92766544222831737 2.2972024679183964 -0.74218240380287159 -0.25815480947494501 13.839344024658205 -0.30489294230937952 0.18329834192991259 13.110066890716555 -0.28655184805393213 1.0999915599823 -0.40088440477848047 39.82500076293946 0.17399825900793078 1.3676879405975344 -0.28538072109222407 0.91490307450294506 -0.93513560295104969 13.17611074447632 -0.085695948451757417 13.262752532958986 -0.58224695920944203 -0.32866387069225306
decision_type=2 2 2 2 2 2 2 2 2 2 2 2 2 2 2 2 2 2 2 2 2 2 2 2 2 2 2 2 2 2
left_child=15 4 3 10 13 -5 8 14 26 18 -3 12 20 -2 -8 -1 17 24 19 -6 -12 28 23 -13 -9 -26 27 -4 -18 -27
right_child=1 2 6 5 9 -7 7 16 -10 -11 11 22 -14 -15 -16 -17 21 -19 -20 -21 -22 -23 -24 -25 25 29 -28 -29 -30 -31
leaf_value=0.085613286157878415 0.059008435048956684 0.055508010969391071 0.081862314928431754 0.046266891399337845 0.084309500296056938 0.077653396605734837 0.085133953120444056 0.078302772575522359 0.053274740406628204 0.07553043670450639 0.086311742869568484 0.086311742869568484 0.059047163145156137 0.086311742869568497 0.059615175222748056 0.06428707456094164 0.061283710700674336 0.050080686777455044 0.047935426877264126 0.049974748016951787 0.067242765978982461 0.063619660369771125 0.086311742869568497 0.069883085856140531 0.074124179378628724 0.066289317134453171 0.086311742869568484 0.060683037928620877 0.048099008786864739 0.050409462241085834
leaf_weight=42.951838672161102 5.4938398301601401 6.4927197992801657 8.9899197220802289 13.484879583120348 4.9943998456001308 9.2396397143602353 8.4904797375202161 4.9943998456001273 9.9887996912002546 6.4927197992801657 10.737959668040277 7.7413197606802013 11.736839637160299 8.4904797375202161 5.9932798147201529 4.9943998456001273 5.9932798147201529 10.488239675760267 41.952958703041077 13.484879583120344 5.2441198378801337 7.4915997684001914 35.210518911480904 9.7390796989202482 5.7435598224401536 5.9932798147201556 8.7401997298002261 6.2429998070001593 38.207158818840981 7.2418797761201823
leaf_count=172 22 26 36 54 20 37 34 20 40 26 43 31 47 34 24 20 24 42 168 54 21 30 141 39 23 24 35 25 153 29
internal_value=0.0669594 0.0645362 0.0668626 0.0735412 0.0575141 0.0590284 0.061423 0.0582903 0.070706 0.0537379 0.0773362 0.0790987 0.0711596 0.0755854 0.0745745 0.0833918 0.0555527 0.0610661 0.0513966 0.0592544 0.0800547 0.051877 0.0832752 0.0771586 0.0658722 0.062601 0.0779691 0.0731823 0.0498868 0.0576003
internal_weight=0 325.135 244.226 109.627 80.9093 22.7245 134.599 100.637 33.9619 66.925 86.9026 80.4098 27.7189 13.9843 14.4838 47.9462 86.1534 34.4614 60.4322 18.4793 15.9821 51.692 52.6909 17.4804 23.9731 18.9787 23.9731 15.2329 44.2004 13.2352
internal_count=1494 1302 978 439 324 91 539 403 136 268 348 322 111 56 58 192 345 138 242 74 64 207 211 70 96 76 96 61 177 53
is_linear=0
shrinkage=1


end of trees

feature_importances:
hod_cos=2
price_ma9_ratio=2
price_ma50_ratio=2
bb20_touch_upper_1std=2
bb50_position=2
bb50_touch_upper_1std=2
interarrival_mean_s=1
hod_sin=1
open=1
high=1
ma_9=1
ma9_ma20_cross=1
bb20_lower_2std=1
bb20_touch_upper_2std=1
bb20_touch_lower_2std=1
bb20_touch_lower_3std=1
bb50_upper_1std=1
bb50_upper_2std=1
bb50_lower_2std=1
bb50_lower_3std=1
bb50_touch_upper_2std=1
bb50_touch_upper_3std=1
bb50_touch_lower_1std=1
bb50_touch_lower_2std=1

parameters:
[boosting: gbdt]
[objective: binary]
[metric: binary_logloss,auc]
[tree_learner: serial]
[device_type: cpu]
[data_sample_strategy: bagging]
[data: ]
[valid: ]
[num_iterations: 1000]
[learning_rate: 0.01]
[num_leaves: 31]
[num_threads: 0]
[seed: 0]
[deterministic: 0]
[force_col_wise: 1]
[force_row_wise: 0]
[histogram_pool_size: -1]
[max_depth: -1]
[min_data_in_leaf: 20]
[min_sum_hessian_in_leaf: 0.001]
[bagging_fraction: 1]
[pos_bagging_fraction: 1]
[neg_bagging_fraction: 1]
[bagging_freq: 0]
[bagging_seed: 3]
[feature_fraction: 1]
[feature_fraction_bynode: 1]
[feature_fraction_seed: 2]
[extra_trees: 0]
[extra_seed: 6]
[early_stopping_round: 0]
[early_stopping_min_delta: 0]
[first_metric_only: 0]
[max_delta_step: 0]
[lambda_l1: 0]
[lambda_l2: 0]
[linear_lambda: 0]
[min_gain_to_split: 0]
[drop_rate: 0.1]
[max_drop: 50]
[skip_drop: 0.5]
[xgboost_dart_mode: 0]
[uniform_drop: 0]
[drop_seed: 4]
[top_rate: 0.2]
[other_rate: 0.1]
[min_data_per_group: 100]
[max_cat_threshold: 32]
[cat_l2: 10]
[cat_smooth: 10]
[max_cat_to_onehot: 4]
[top_k: 20]
[monotone_constraints: ]
[monotone_constraints_method: basic]
[monotone_penalty: 0]
[feature_contri: ]
[forcedsplits_filename: ]
[refit_decay_rate: 0.9]
[cegb_tradeoff: 1]
[cegb_penalty_split: 0]
[cegb_penalty_feature_lazy: ]
[cegb_penalty_feature_coupled: ]
[path_smooth: 0]
[interaction_constraints: ]
[verbosity: -1]
[saved_feature_importance_type: 0]
[use_quantized_grad: 0]
[num_grad_quant_bins: 4]
[quant_train_renew_leaf: 0]
[stochastic_rounding: 1]
[linear_tree: 0]
[max_bin: 255]
[max_bin_by_feature: ]
[min_data_in_bin: 3]
[bin_construct_sample_cnt: 200000]
[data_random_seed: 1]
[is_enable_sparse: 1]
[enable_bundle: 1]
[use_missing: 1]
[zero_as_missing: 0]
[feature_pre_filter: 0]
[pre_partition: 0]
[two_round: 0]
[header: 0]
[label_column: ]
[weight_column: ]
[group_column: ]
[ignore_column: ]
[categorical_feature: ]
[forcedbins_filename: ]
[precise_float_parser: 0]
[parser_config_file: ]
[objective_seed: 5]
[num_class: 1]
[is_unbalance: 0]
[scale_pos_weight: 1]
[sigmoid: 1]
[boost_from_average: 1]
[reg_sqrt: 0]
[alpha: 0.9]
[fair_c: 1]
[poisson_max_delta_step: 0.7]
[tweedie_variance_power: 1.5]
[lambdarank_truncation_level: 30]
[lambdarank_norm: 1]
[label_gain: ]
[lambdarank_position_bias_regularization: 0]
[eval_at: ]
[multi_error_top_k: 1]
[auc_mu_weights: ]
[num_machines: 1]
[local_listen_port: 12400]
[time_out: 120]
[machine_list_filename: ]
[machines: ]
[gpu_platform_id: -1]
[gpu_device_id: -1]
[gpu_use_dp: 0]
[num_gpu: 1]

end of parameters

pandas_categorical:[]
