tree
version=v4
num_class=1
num_tree_per_iteration=1
label_index=0
max_feature_idx=55
objective=binary sigmoid:1
feature_names=ret logret vol20 buy_ratio sell_ratio ofi_norm interarrival_mean_s hod_sin hod_cos open high low close volume trades dollar buy_volume sell_volume signed_volume ma_9 ma_20 ma_50 price_ma9_ratio price_ma20_ratio price_ma50_ratio ma9_ma20_cross ma20_ma50_cross ma9_ma50_cross bb20_middle bb20_upper_1std bb20_upper_2std bb20_upper_3std bb20_lower_1std bb20_lower_2std bb20_lower_3std bb20_position bb20_touch_upper_1std bb20_touch_upper_2std bb20_touch_upper_3std bb20_touch_lower_1std bb20_touch_lower_2std bb20_touch_lower_3std bb50_middle bb50_upper_1std bb50_upper_2std bb50_upper_3std bb50_lower_1std bb50_lower_2std bb50_lower_3std bb50_position bb50_touch_upper_1std bb50_touch_upper_2std bb50_touch_upper_3std bb50_touch_lower_1std bb50_touch_lower_2std bb50_touch_lower_3std
feature_infos=[-46.173477172851562:1218.41943359375] [-46.828189849853516:745.3851318359375] [-4.481651782989502:742.24725341796875] [-2.7611443996429443:2.2879395484924316] [-2.2879395484924316:2.7611443996429443] [-2.7611443996429443:2.2879395484924316] [0.00090112244897959165:24668.236622306114] [-2.2504034042358398:18.455337524414062] [-10.188756942749023:4.3568897247314453] [11.909999847412109:57.580001831054688] [11.939999580383301:57.610000610351562] [11.899999618530273:57.569999694824219] [11.909999847412109:57.599998474121094] [5000:6165900] [29:50] [60350:142985785] [0:617700] [0:576400] [-575800:607500] [11.95555591583252:57.555557250976562] [11.98900032043457:57.532501220703125] [12.038000106811523:57.520000457763672] [-39.473453521728516:713.91845703125] [-29.039766311645508:667.3565673828125] [-20.45343017578125:615.15850830078125] [-2.0317986011505127:4.7958316802978516] [-3.1797974109649658:5.6862406730651855] [-4.1450958251953125:14.106736183166504] [11.98900032043457:57.532501220703125] [0:61.21429443359375] [0:71.599227905273438] [0:83.306037902832031] [0:57.506366729736328] [0:57.480236053466797] [-8.372981071472168:57.455348968505859] [-3.4488518238067627:3.6687314510345459] [-0.9607689380645752:3.7927055358886719] [-0.46625241637229919:9.9498739242553711] [-0.3333333432674408:14.106736183166504] [-1.0304638147354126:4.3588991165161133] [-0.3333333432674408:9.9498739242553711] [-0.3333333432674408:14.106736183166504] [12.038000106811523:57.520000457763672] [0:61.093929290771484] [0:71.31622314453125] [0:82.809410095214844] [0:57.491146087646484] [0:57.462287902832031] [-7.9794039726257324:57.433433532714844] [-4.4174332618713379:5.8811626434326172] [-1.3048765659332275:14.106736183166504] [-0.51075392961502075:14.106736183166504] [-0.3333333432674408:14.106736183166504] [-1.4919136762619019:7] [-0.4605661928653717:9.9498739242553711] [-0.3333333432674408:14.106736183166504]
tree_sizes=3369 3426 3425 3431 3434 3429 3427 3430 3421 3431 3439 3438

Tree=0
num_leaves=31
num_cat=0
split_feature=7 21 55 7 45 8 47 51 44 24 27 21 39 26 48 48 8 2 49 22 37 21 12 53 37 8 33 43 31 50
split_gain=99.5469 96.9374 92.6138 114.42 117.814 94.2086 82.5143 71.2372 80.4393 57.5862 57.5401 56.9979 62.1238 54.7269 65.2032 98.9919 73.2632 41.8103 38.5854 38.5493 37.5304 36.5626 32.6431 34.6269 27.535 25.7528 41.8955 55.6718 41.5502 34.5163
threshold=-1.5297164916992185 12.283899784088137 -1.0000000180025095e-35 -0.7242634892463683 12.597688198089601 1.7276797294616701 30.970340728759769 -0.21059826761484143 12.527308464050295 -0.28648264706134791 1.3058317899703982 12.506299972534181 -0.52415388822555531 -1.5367164015769956 31.348185539245609 55.37428283691407 -1.9846926927566526 2.0376285314559941 -0.87848514318466175 -0.13614547252655027 -0.25377325713634485 30.988100051879886 30.994999885559086 -0.42418679594993586 -0.2638996541500091 0.42135381698608404 30.965133666992191 30.990736007690433 31.380896568298343 -0.72174680233001698
decision_type=2 2 2 2 2 2 2 2 2 2 2 2 2 2 2 2 2 2 2 2 2 2 2 2 2 2 2 2 2 2
left_child=-1 -2 7 5 -5 -4 21 19 -9 -7 -11 -10 17 -8 22 16 -16 -13 -17 25 -18 -6 -15 24 -24 26 27 -3 -27 -28
right_child=1 2 3 4 6 9 13 8 11 10 -12 12 -14 14 15 18 20 -19 -20 -21 -22 -23 23 -25 -26 28 29 -29 -30 -31
leaf_value=-0.24884249032722963 -0.21699190923694844 -0.24629598900521607 -0.21593219781815626 -0.24605804908085885 -0.22847245014639622 -0.21945359911662712 -0.21136863725689808 -0.21359223904290439 -0.24715945181685908 -0.24384012586585047 -0.22086661844983926 -0.24747342215885218 -0.21338455399804213 -0.22131935954579535 -0.25094874904781034 -0.22005695447929347 -0.23593190446589241 -0.2230737312926252 -0.24984296321950544 -0.24803965628575267 -0.21727837187000568 -0.2111611281228222 -0.2144578167137498 -0.25094874904781034 -0.24108633490346965 -0.23715492582874964 -0.23349879547034114 -0.22102232305955963 -0.21156171097295132 -0.24906291275147643
leaf_weight=37.982038587331772 39.46185827255249 15.044833466410635 81.390082687139511 63.385609850287437 22.690568506717682 27.623300790786743 10.358737796545027 21.950658664107323 26.390117719769478 37.982038587331772 15.291470080614088 17.264562994241718 16.771289765834808 6.4125519692897788 9.1255547255277616 5.1793688982725135 13.318377166986464 11.838557481765745 27.130027562379837 54.999964967370033 56.726421266794205 26.390117719769478 4.9327322840690639 37.735401973128319 18.251109451055527 23.923751577734947 19.484292522072792 20.717475593090057 8.6322814971208555 53.026872053742409
leaf_count=154 160 61 330 257 92 112 42 89 107 154 62 70 68 26 37 21 54 48 110 223 230 107 20 153 74 97 79 84 35 215
internal_value=-0.233027 -0.23227 -0.23307 -0.230299 -0.233942 -0.223528 -0.230718 -0.237503 -0.230358 -0.23117 -0.237246 -0.23545 -0.228714 -0.233716 -0.23501 -0.230317 -0.224297 -0.237548 -0.245068 -0.24094 -0.220825 -0.219164 -0.24278 -0.245039 -0.235421 -0.238167 -0.240512 -0.231655 -0.230369 -0.244881
internal_weight=0 793.43 753.968 463.923 301.637 162.287 238.251 290.045 94.2152 80.8968 53.2735 72.2645 45.8744 189.17 178.812 111.48 79.1704 29.1031 32.3094 195.829 70.0448 49.0807 67.3318 60.9192 23.1838 140.83 108.273 35.7623 32.556 72.5112
internal_count=3371 3217 3057 1881 1223 658 966 1176 382 328 216 293 186 767 725 452 321 118 131 794 284 199 273 247 94 571 439 145 132 294
is_linear=0
shrinkage=1


Tree=1
num_leaves=31
num_cat=0
split_feature=7 21 55 7 45 8 47 51 44 24 27 21 39 26 48 48 8 2 22 49 37 21 12 53 37 8 33 43 9 50
split_gain=97.7427 94.8298 90.7942 112.002 115.63 92.0378 80.7324 69.9006 78.6656 56.3692 56.4156 55.9457 60.7556 53.5251 63.9763 97.0347 71.7849 41.0233 37.9084 37.8902 36.6796 35.6753 32.033 34.0701 26.963 25.2708 41.1496 54.5655 40.6569 33.9454
threshold=-1.5297164916992185 12.283899784088137 -1.0000000180025095e-35 -0.7242634892463683 12.597688198089601 1.7276797294616701 30.970340728759769 -0.21059826761484143 12.527308464050295 -0.28648264706134791 1.3058317899703982 12.506299972534181 -0.52415388822555531 -1.5367164015769956 31.348185539245609 55.37428283691407 -1.9846926927566526 2.0376285314559941 -0.13614547252655027 -0.87848514318466175 -0.25377325713634485 30.988100051879886 30.994999885559086 -0.42418679594993586 -0.2638996541500091 0.42135381698608404 30.965133666992191 30.990736007690433 31.345000267028812 -0.72174680233001698
decision_type=2 2 2 2 2 2 2 2 2 2 2 2 2 2 2 2 2 2 2 2 2 2 2 2 2 2 2 2 2 2
left_child=-1 -2 7 5 -5 -4 21 18 -9 -7 -11 -10 17 -8 22 16 -16 -13 25 -17 -18 -6 -15 24 -24 26 27 -3 -27 -28
right_child=1 2 3 4 6 9 13 8 11 10 -12 12 -14 14 15 19 20 -19 -20 -21 -22 -23 23 -25 -26 28 29 -29 -30 -31
leaf_value=-0.015686771477239736 0.015846526350673486 -0.013156779709167697 0.016891808731979232 -0.012920466272490503 0.0045070592103758 0.013417457832685784 0.021390617837440448 0.019199089532279466 -0.014014461734708706 -0.010718379884742564 0.012022588207022303 -0.014326376049178576 0.01940382170805614 0.011575573152503946 -0.01778062326401356 0.012821903250515918 -0.0028764090510466985 0.0098429752855393945 -0.014888965654236148 -0.016681209452918018 0.01556392402669609 0.021595085670817908 0.018345730740429441 -0.01778062326401356 -0.0079859426418565412 -0.0036982889072391194 -0.00046667737445215963 0.01186885771362569 0.022356062310630111 -0.015905842960434412
leaf_weight=37.910092681646347 39.532816410064697 15.021045699715613 81.545747369527817 63.287231296300888 22.702444672584534 27.665568113327026 10.38359150290489 21.99814735352993 26.345598205924034 37.933341085910797 15.312495559453962 17.234772592782978 16.807944118976593 6.4210490882396689 9.1058844625949842 5.1869516819715491 13.313863813877104 11.851943492889403 54.90122988820076 27.075277417898178 56.826661974191666 26.454012677073479 4.9429476261138943 37.654062777757645 18.233765304088593 24.653871282935143 19.483227163553238 20.745606243610382 7.911146640777587 52.924983203411102
leaf_count=154 160 61 330 257 92 112 42 89 107 154 62 70 68 26 37 21 54 48 223 110 230 107 20 153 74 100 79 84 32 215
internal_value=0 0.000749353 -4.22835e-05 0.00270051 -0.000905238 0.00939428 0.00228573 -0.00443301 0.00264234 0.00183798 -0.00417851 -0.00239942 0.00426814 -0.000681523 -0.00196362 0.0026823 0.00863435 -0.00447811 -0.00784114 -0.0119379 0.0120636 0.0137031 -0.00966691 -0.0119092 -0.00237013 -0.00509185 -0.0074168 0.00135875 0.0026312 -0.0117516
internal_weight=0 793.457 753.924 464.045 301.588 162.457 238.301 289.88 94.2384 80.9114 53.2458 72.2403 45.8947 189.144 178.76 111.509 79.2464 29.0867 195.641 32.2622 70.1405 49.1565 67.2518 60.8308 23.1767 140.74 108.175 35.7667 32.565 72.4082
internal_count=3371 3217 3057 1881 1223 658 966 1176 382 328 216 293 186 767 725 452 321 118 794 131 284 199 273 247 94 571 439 145 132 294
is_linear=0
shrinkage=0.01


Tree=2
num_leaves=31
num_cat=0
split_feature=7 21 55 7 45 8 47 51 44 24 27 21 39 26 48 48 8 2 22 49 37 21 12 53 37 23 8 33 43 30
split_gain=95.9816 92.7818 89.0195 109.649 113.494 89.938 79.001 68.5942 76.9473 55.1835 55.3165 54.9179 59.4303 52.3625 62.7792 95.1276 70.3455 40.2545 37.2827 37.2122 35.8558 34.8278 31.4376 33.5294 26.4062 24.9545 24.7999 40.4202 53.4856 39.7988
threshold=-1.5297164916992185 12.283899784088137 -1.0000000180025095e-35 -0.7242634892463683 12.597688198089601 1.7276797294616701 30.970340728759769 -0.21059826761484143 12.527308464050295 -0.28648264706134791 1.3058317899703982 12.506299972534181 -0.52415388822555531 -1.5367164015769956 31.348185539245609 55.37428283691407 -1.9846926927566526 2.0376285314559941 -0.13614547252655027 -0.87848514318466175 -0.25377325713634485 30.988100051879886 30.994999885559086 -0.42418679594993586 -0.2638996541500091 -0.58781439065933216 0.42135381698608404 30.965133666992191 30.990736007690433 31.369812011718754
decision_type=2 2 2 2 2 2 2 2 2 2 2 2 2 2 2 2 2 2 2 2 2 2 2 2 2 2 2 2 2 2
left_child=-1 -2 7 5 -5 -4 21 18 -9 25 -11 -10 17 -8 22 16 -16 -13 26 -17 -18 -6 -15 24 -24 -7 27 28 -3 -28
right_child=1 2 3 4 6 9 13 8 11 10 -12 12 -14 14 15 19 20 -19 -20 -21 -22 -23 23 -25 -26 -27 29 -29 -30 -31
leaf_value=-0.015561186570131379 0.015662056680688471 -0.013046890815912373 0.016693565868481374 -0.012812138225476588 0.0044597132315461899 -0.00081260269966384286 0.021131230486417487 0.018969853834755399 -0.013899039980391978 -0.0106253741646138 0.011886979681361326 -0.014208995442030024 0.019171796576756647 0.011445512659619432 -0.017643500267114847 0.012676287687704173 -0.0028486179919315273 0.0097340771896560086 -0.014768125146312424 -0.01654997823484106 0.015383149573954456 0.021332848136114906 0.018128049991418378 -0.017643500267114847 -0.0079138239756304969 0.019662910591181304 -0.0036654401088188726 -0.011651618797623442 0.011735161599174787 0.022092836470080295
leaf_weight=37.83426171541214 39.598119258880615 14.996210798621176 81.688262969255447 63.184621036052704 22.713971257209778 8.6577916145324725 10.405826658010481 22.041117668151855 26.298969268798828 37.882975280284882 15.332210063934324 17.20353335142136 16.84107631444931 6.429033249616622 9.0849913209676725 5.1940337866544715 13.309340804815291 11.864624977111815 54.797473818063736 27.01735720038414 56.919043958187103 26.5111153870821 4.9522316455841091 37.567666813731194 18.216019779443741 19.047141551971436 24.643714085221291 72.299672678112984 20.772002041339874 7.9281775951385489
leaf_count=154 160 61 330 257 92 35 42 89 107 154 62 70 68 26 37 21 54 48 223 110 230 107 20 153 74 77 100 294 84 32
internal_value=0 0.00074179 -4.19913e-05 0.00267299 -0.000896562 0.00929158 0.00226255 -0.00439172 0.00261547 0.00181932 -0.00413918 -0.00237661 0.00422399 -0.000675021 -0.00194489 0.00265496 0.00854068 -0.00443625 -0.00777093 -0.0118373 0.011928 0.0135471 -0.00958276 -0.0118087 -0.00234735 0.0132643 -0.00504461 -0.00735 0.00134502 0.00260427
internal_weight=0 793.398 753.8 464.114 301.505 162.608 238.321 289.687 94.2493 80.9201 53.2152 72.2082 45.9092 189.096 178.69 111.525 79.3134 29.0682 195.437 32.2114 70.2284 49.2251 67.165 60.7359 23.1683 27.7049 140.64 108.068 35.7682 32.5719
internal_count=3371 3217 3057 1881 1223 658 966 1176 382 328 216 293 186 767 725 452 321 118 794 131 284 199 273 247 94 112 571 439 145 132
is_linear=0
shrinkage=0.01


Tree=3
num_leaves=31
num_cat=0
split_feature=7 21 55 7 45 8 47 51 44 24 27 21 39 26 48 48 8 2 22 49 37 21 12 53 37 23 8 33 43 31
split_gain=94.2621 90.7911 87.2873 107.357 111.407 87.9056 77.3182 67.3152 75.2821 54.0288 54.2422 53.9135 58.146 51.2372 61.6109 93.2686 68.9435 39.5033 36.6731 36.5508 35.0576 34.0178 30.8567 33.0042 25.8641 24.3807 24.3385 39.7034 52.4313 38.9849
threshold=-1.5297164916992185 12.283899784088137 -1.0000000180025095e-35 -0.7242634892463683 12.597688198089601 1.7276797294616701 30.970340728759769 -0.21059826761484143 12.527308464050295 -0.28648264706134791 1.3058317899703982 12.506299972534181 -0.52415388822555531 -1.5367164015769956 31.348185539245609 55.37428283691407 -1.9846926927566526 2.0376285314559941 -0.13614547252655027 -0.87848514318466175 -0.25377325713634485 30.988100051879886 30.994999885559086 -0.42418679594993586 -0.2638996541500091 -0.58781439065933216 0.42135381698608404 30.965133666992191 30.990736007690433 31.380896568298343
decision_type=2 2 2 2 2 2 2 2 2 2 2 2 2 2 2 2 2 2 2 2 2 2 2 2 2 2 2 2 2 2
left_child=-1 -2 7 5 -5 -4 21 18 -9 25 -11 -10 17 -8 22 16 -16 -13 26 -17 -18 -6 -15 24 -24 -7 27 28 -3 -28
right_child=1 2 3 4 6 9 13 8 11 10 -12 12 -14 14 15 19 20 -19 -20 -21 -22 -23 23 -25 -26 -27 29 -29 -30 -31
leaf_value=-0.015438211234364081 0.015481935133882714 -0.012938832324466439 0.016500291085168602 -0.012705581181240114 0.0044129317252528137 -0.00080454413499557247 0.020880202821829785 0.018747173871290958 -0.013785687275674084 -0.010533645528100415 0.011753905176415365 -0.014093777689808329 0.018946482177777408 0.011317813613847975 -0.01750982531761526 0.012533527471957726 -0.0028210968985927449 0.0096269550467523741 -0.014649623956565289 -0.016421729788797374 0.015206562737477215 0.021079159408344466 0.017916300982286248 -0.01750982531761526 -0.0078425316098797975 0.019428695567691067 -0.0040181438125655661 -0.011552737972440752 0.011603939227309184 0.020720982704313756
leaf_weight=37.75467649102211 39.65792179107666 14.970366030931471 81.817993372678757 63.07791693508625 22.725159227848053 8.6570682376623171 10.425517112016676 22.079696923494339 26.250302657485008 37.831000834703445 15.350646853446959 17.170895338058475 16.870786666870117 6.4365180134773246 9.0629155486822111 5.2006296068429938 13.304808944463728 11.876619815826414 54.688866227865219 26.956373453140259 57.003783136606216 26.56161718070507 4.9606102705001858 37.47638051211834 18.19788721203804 19.08380064368248 23.891108378767967 72.189852654933929 20.796708047389984 8.6855710893869382
leaf_count=154 160 61 330 257 92 35 42 89 107 154 62 70 68 26 37 21 54 48 223 110 230 107 20 153 74 77 97 294 84 35
internal_value=0 0.000734382 -4.17008e-05 0.00264604 -0.000888063 0.00919108 0.00223987 -0.00435116 0.00258921 0.00180098 -0.00410044 -0.00235426 0.00418079 -0.000668656 -0.00192654 0.0026282 0.00844897 -0.00439511 -0.00770178 -0.0117389 0.0117951 0.0133947 -0.00950031 -0.0117102 -0.00232492 0.0131145 -0.00499802 -0.00728407 0.00133152 0.00257778
internal_weight=0 793.259 753.601 464.131 301.39 162.741 238.312 289.471 94.2483 80.9225 53.1816 72.1686 45.9183 189.025 178.6 111.529 79.3715 29.0475 195.222 32.157 70.3086 49.2868 67.0714 60.6349 23.1585 27.7409 140.534 107.957 35.7671 32.5767
internal_count=3371 3217 3057 1881 1223 658 966 1176 382 328 216 293 186 767 725 452 321 118 794 131 284 199 273 247 94 112 571 439 145 132
is_linear=0
shrinkage=0.01


Tree=4
num_leaves=31
num_cat=0
split_feature=7 21 55 7 45 8 47 51 44 21 39 24 27 26 48 48 8 2 22 49 37 21 12 53 37 8 33 43 45 50
split_gain=92.5828 88.8555 85.5971 105.127 109.366 85.9369 75.682 66.064 73.6675 52.932 56.9009 52.9053 53.1919 50.1474 60.4703 91.4563 67.5776 38.7692 36.0781 35.9055 34.2841 33.2429 30.2896 32.4939 25.3363 23.8872 39.0011 51.4018 38.1782 33.5064
threshold=-1.5297164916992185 12.283899784088137 -1.0000000180025095e-35 -0.7242634892463683 12.597688198089601 1.7276797294616701 30.970340728759769 -0.21059826761484143 12.527308464050295 12.506299972534181 -0.52415388822555531 -0.28648264706134791 1.3058317899703982 -1.5367164015769956 31.348185539245609 55.37428283691407 -1.9846926927566526 2.0376285314559941 -0.13614547252655027 -0.87848514318466175 -0.25377325713634485 30.988100051879886 30.994999885559086 -0.42418679594993586 -0.2638996541500091 0.42135381698608404 30.965133666992191 30.990736007690433 31.391404151916507 -0.72174680233001698
decision_type=2 2 2 2 2 2 2 2 2 2 2 2 2 2 2 2 2 2 2 2 2 2 2 2 2 2 2 2 2 2
left_child=-1 -2 7 5 -5 -4 21 18 -9 -10 17 -7 -13 -8 22 16 -16 -11 25 -17 -18 -6 -15 24 -24 26 27 -3 -27 -28
right_child=1 2 3 4 6 11 13 8 9 10 -12 12 -14 14 15 19 20 -19 -20 -21 -22 -23 23 -25 -26 28 29 -29 -30 -31
leaf_value=-0.015317758242947099 0.015305988144024766 -0.012832548920510891 0.016311781547627836 -0.012600739461725146 0.0043667048281894926 0.012968316866499645 0.020637138804004734 0.018530753400471712 -0.013674338584482524 -0.013980652921929742 0.018727579159598717 -0.01044315730802013 0.011623279147724144 0.011192404621874832 -0.017379474154870848 0.012393528393198808 -0.0027938440957110382 0.00952155803720851 -0.014533384705350408 -0.016296362245566558 0.015034003355526937 0.020833604755389021 0.017710227490862731 -0.017379474154870848 -0.0077720489292970362 -0.0036016793266299254 -0.00023096935596170643 0.011475107420441909 0.021595652870779292 -0.015596960075486544
leaf_weight=37.671465516090393 39.712381362915039 14.943545937538145 81.935297548770905 62.967268347740173 22.736015439033508 27.772843390703201 10.442736715078352 22.114011108875275 26.199668526649475 17.136905491352085 16.897170424461365 37.777477413415909 15.367842882871626 6.4435165524482718 9.0396968424320203 5.2067516595125189 13.30027064681053 11.887945890426634 54.575576588511467 26.892431080341339 57.081092000007629 26.605707794427872 4.9681091308593777 37.380368024110794 18.179383039474487 24.62320651113987 19.42701743543148 20.819771826267242 7.9561869204044333 52.649364620447159
leaf_count=154 160 61 330 257 92 112 42 89 107 70 68 154 62 26 37 21 54 48 223 110 230 107 20 153 74 100 79 84 32 215
internal_value=0 0.000727126 -4.14134e-05 0.00261965 -0.000879736 0.00909275 0.00221768 -0.00431134 0.00256353 -0.00233236 0.00413853 0.00178298 -0.00406228 -0.000662424 -0.00190857 0.00260199 0.00835916 -0.00435466 -0.00763378 -0.0116426 0.011665 0.0132459 -0.00941951 -0.0116138 -0.00230283 -0.00495216 -0.00721916 0.00131826 0.00255174 -0.0114553
internal_weight=0 793.04 753.327 464.097 301.243 162.853 238.276 289.23 94.2357 72.1217 45.922 80.9182 53.1453 188.934 178.492 111.52 79.4211 29.0249 194.995 32.0992 70.3814 49.3417 66.9714 60.5279 23.1475 140.419 107.84 35.7633 32.5794 72.0764
internal_count=3371 3217 3057 1881 1223 658 966 1176 382 293 186 328 216 767 725 452 321 118 794 131 284 199 273 247 94 571 439 145 132 294
is_linear=0
shrinkage=0.01


Tree=5
num_leaves=31
num_cat=0
split_feature=7 21 55 7 45 8 47 51 44 21 39 24 27 26 48 48 8 2 22 49 37 21 12 53 37 23 8 33 43 31
split_gain=90.9426 86.973 83.9482 102.952 107.369 84.0313 74.0908 64.8416 72.1014 51.9755 53.5014 51.8073 52.1648 49.0917 59.3567 89.6889 66.2466 39.1111 35.4957 35.2757 33.5341 32.5011 29.7359 31.9978 24.8221 23.8073 23.4468 38.3162 50.3962 37.3883
threshold=-1.5297164916992185 12.283899784088137 -1.0000000180025095e-35 -0.7242634892463683 12.597688198089601 1.7276797294616701 30.970340728759769 -0.21059826761484143 12.527308464050295 12.507699966430666 -0.52415388822555531 -0.28648264706134791 1.3058317899703982 -1.5367164015769956 31.348185539245609 55.37428283691407 -1.9846926927566526 2.0376285314559941 -0.13614547252655027 -0.87848514318466175 -0.25377325713634485 30.988100051879886 30.994999885559086 -0.42418679594993586 -0.2638996541500091 -0.58781439065933216 0.42135381698608404 30.965133666992191 30.990736007690433 31.380896568298343
decision_type=2 2 2 2 2 2 2 2 2 2 2 2 2 2 2 2 2 2 2 2 2 2 2 2 2 2 2 2 2 2
left_child=-1 -2 7 5 -5 -4 21 18 -9 -10 17 25 -13 -8 22 16 -16 -11 26 -17 -18 -6 -15 24 -24 -7 27 28 -3 -28
right_child=1 2 3 4 6 11 13 8 9 10 -12 12 -14 14 15 19 20 -19 -20 -21 -22 -23 23 -25 -26 -27 29 -29 -30 -31
leaf_value=-0.015199741477976113 0.015134059501565067 -0.012727987667455049 0.016127843996432748 -0.012497561732818614 0.0043210268099472052 -0.00092512975085410221 0.02040166492219642 0.018320323487946814 -0.013319163035034151 -0.013818706535765564 0.018470697769686347 -0.010353879737587519 0.01149502529558102 0.011069212163002022 -0.017252330848550389 0.012256198615833084 -0.0027668556044195057 0.010007934016821082 -0.014419333167251259 -0.01617377600938143 0.014865316813241441 0.020595806670071545 0.017509587118815367 -0.017252330848550389 -0.007702358599193466 0.019051803152961518 -0.0039456937923412969 -0.011359966138841038 0.011348596777232418 0.020258028264148655
leaf_weight=37.584755003452301 39.761643409729004 14.915785059332846 82.040524631738663 62.852816969156265 22.746546745300293 8.6676096171140689 10.457556188106535 22.144180908799171 26.888160452246666 16.857304081320766 16.67149655520916 37.722462385892868 15.383830487728117 6.4500428140163413 9.0153743475675565 5.2124134004116049 13.295725911855696 11.650733843445776 54.457764402031898 26.82562842965126 57.151179611682892 26.643572181463242 4.9747532606124905 37.279791221022606 18.160523802042007 19.136351078748703 23.868630766868591 71.955306127667427 20.841235935688019 8.7115882486104947
leaf_count=154 160 61 330 257 92 35 42 89 110 69 67 154 62 26 37 21 54 47 223 110 230 107 20 153 74 77 97 294 84 35
internal_value=0 0.000720014 -4.11313e-05 0.00259379 -0.000871573 0.00899636 0.00219596 -0.0042723 0.00253841 -0.00231088 0.00424059 0.00176525 -0.00402469 -0.00065632 -0.00189095 0.00257631 0.00827118 -0.00408118 -0.00756703 -0.0115484 0.0115375 0.0131005 -0.00934029 -0.0115193 -0.00228106 0.0128242 -0.00490716 -0.00715553 0.00130522 0.00252611
internal_weight=0 792.741 752.979 464.017 301.066 162.951 238.213 288.962 94.2119 72.0677 45.1795 80.9103 53.1063 188.823 178.365 111.5 79.4623 28.508 194.75 32.038 70.4469 49.3901 66.8651 60.4151 23.1353 27.804 140.293 107.712 35.757 32.5802
internal_count=3371 3217 3057 1881 1223 658 966 1176 382 293 183 328 216 767 725 452 321 116 794 131 284 199 273 247 94 112 571 439 145 132
is_linear=0
shrinkage=0.01


Tree=6
num_leaves=31
num_cat=0
split_feature=7 21 55 7 45 8 47 51 44 21 39 24 27 26 48 48 8 2 22 49 37 21 12 53 37 23 47 8 33 43
split_gain=89.34 85.1414 82.3375 100.836 105.417 82.1827 72.5427 63.6438 70.5818 51.0555 54.5518 50.7413 51.1605 48.0684 58.2691 87.965 64.9493 37.3485 34.9284 34.6609 32.8067 31.7905 29.1953 31.5154 24.321 23.2808 23.2166 23.0146 37.6415 49.414
threshold=-1.5297164916992185 12.283899784088137 -1.0000000180025095e-35 -0.7242634892463683 12.597688198089601 1.7276797294616701 30.970340728759769 -0.21059826761484143 12.527308464050295 12.506299972534181 -0.52415388822555531 -0.28648264706134791 1.3058317899703982 -1.5367164015769956 31.348185539245609 55.37428283691407 -1.9846926927566526 2.0376285314559941 -0.13614547252655027 -0.87848514318466175 -0.25377325713634485 30.988100051879886 30.994999885559086 -0.42418679594993586 -0.2638996541500091 -0.58781439065933216 30.934017181396488 0.42135381698608404 30.965133666992191 30.990736007690433
decision_type=2 2 2 2 2 2 2 2 2 2 2 2 2 2 2 2 2 2 2 2 2 2 2 2 2 2 2 2 2 2
left_child=-1 -2 7 5 -5 -4 21 18 -9 -10 17 25 -13 -8 22 16 -16 -11 27 -17 -18 -6 -15 24 -24 -7 -14 28 29 -3
right_child=1 2 3 4 6 11 13 8 9 10 -12 12 26 14 15 19 20 -19 -20 -21 -22 -23 23 -25 -26 -27 -28 -29 -30 -31
leaf_value=-0.015084080941358805 0.014965990774558322 -0.012625094119706694 0.01594829881404836 -0.012396000107248981 0.0042758867144290572 -0.00091596193955202176 0.020173434047000335 0.018115621670152533 -0.013459340948190037 -0.0137608699237754 0.018313618088056104 -0.010265781372526032 -0.0064247033719381898 0.010948170757264989 -0.017128283723122372 0.012121450071845544 -0.0027401289032113036 0.0093146550903201574 -0.014307400778257196 -0.01605387559344898 0.014700359148639519 0.020365403042097503 0.017314153911717006 -0.017128283723122372 -0.0076334476562923814 0.018835261455938154 0.019842301370274422 0.0025009029071989229 -0.01126530412337458 0.011224334829076426
leaf_weight=37.494664281606674 39.805855751037598 14.887117028236387 82.134013921022415 62.734693005681038 22.756761372089386 8.6668299138546008 10.47004374861717 22.170324355363846 26.093776434659958 17.065217003226284 16.939764127135277 37.666008532047272 4.9673038721084586 6.4561088085174552 8.9899861067533475 5.2176270335912731 13.291176348924635 11.908740118145941 54.335585847496986 26.756067126989365 57.21424475312233 26.675388917326927 4.9805667996406582 37.174807414412498 18.141320526599884 19.162654981017113 10.431338131427763 32.57901094853878 71.834946617484093 20.861144185066223
leaf_count=154 160 61 330 257 92 35 42 89 107 70 68 154 20 26 37 21 54 48 223 110 230 107 20 153 74 77 42 132 294 84
internal_value=0 0.000713042 -4.08494e-05 0.00256847 -0.00086357 0.00890208 0.00217469 -0.00423388 0.00251382 -0.0022898 0.00405809 0.00174787 -0.00398764 -0.00065034 -0.00187368 0.00255115 0.00818497 -0.00427648 -0.00750119 -0.0114561 0.0114126 0.0129584 -0.0092626 -0.0114266 -0.00225961 0.0126842 0.0113691 -0.00486268 -0.00709257 0.0012924
internal_weight=0 792.368 752.563 463.887 300.859 163.028 238.124 288.676 94.1778 72.0075 45.9137 80.8941 53.0647 188.692 178.222 111.469 79.4954 28.974 194.498 31.9737 70.5054 49.4322 66.7528 60.2967 23.1219 27.8295 15.3986 140.162 107.583 35.7483
internal_count=3371 3217 3057 1881 1223 658 966 1176 382 293 186 328 216 767 725 452 321 118 794 131 284 199 273 247 94 112 62 571 439 145
is_linear=0
shrinkage=0.01


Tree=7
num_leaves=31
num_cat=0
split_feature=7 21 55 7 45 8 47 51 44 21 39 24 27 26 48 48 8 2 22 49 37 21 12 53 37 23 8 33 43 45
split_gain=87.774 83.3591 80.7626 98.7744 103.506 80.3908 71.0362 62.467 69.1066 50.1379 53.4135 49.1404 48.4967 47.0761 57.2067 86.2831 63.6845 36.6628 34.378 34.0607 32.1008 31.1093 28.6672 31.0461 23.8327 22.6007 22.5938 36.9802 48.4543 36.6189
threshold=-1.5297164916992185 12.283899784088137 -1.0000000180025095e-35 -0.7242634892463683 12.597688198089601 1.7350858449935915 30.970340728759769 -0.21059826761484143 12.527308464050295 12.506299972534181 -0.52415388822555531 -0.28648264706134791 1.3058317899703982 -1.5367164015769956 31.348185539245609 55.37428283691407 -1.9846926927566526 2.0376285314559941 -0.13614547252655027 -0.87848514318466175 -0.25377325713634485 30.988100051879886 30.994999885559086 -0.42418679594993586 -0.2638996541500091 -0.58781439065933216 0.42135381698608404 30.965133666992191 30.990736007690433 31.391404151916507
decision_type=2 2 2 2 2 2 2 2 2 2 2 2 2 2 2 2 2 2 2 2 2 2 2 2 2 2 2 2 2 2
left_child=-1 -2 7 5 -5 -4 21 18 -9 -10 17 25 -13 -8 22 16 -16 -11 26 -17 -18 -6 -15 24 -24 -7 27 28 -3 -28
right_child=1 2 3 4 6 11 13 8 9 10 -12 12 -14 14 15 19 20 -19 -20 -21 -22 -23 23 -25 -26 -27 29 -29 -30 -31
leaf_value=-0.014970700474885601 0.014801641332788265 -0.012523820067364225 0.015709972101225062 -0.012296004402048064 0.004231276124652618 -0.00090688420643556715 0.019952112988586616 0.017916407382578058 -0.013353600301205209 -0.013653623953926271 0.018112159295678987 -0.010131908077140546 0.011072350993701905 0.01082921714214026 -0.017007228390684314 0.011989200480662409 -0.0027136625422688201 0.0092141845157722412 -0.014197515705920177 -0.015936572794443396 0.014538989271750027 0.020142054761297379 0.017123709949925889 -0.017007228390684314 -0.0075652983415648968 0.01859050497227183 -0.0035605467507030608 -0.011171974427989064 0.011102251290290625 0.021092591336743651
leaf_weight=37.401310384273529 39.845161437988281 14.857574567198752 82.957701951265335 62.613034322857857 22.766667544841766 8.666054382920267 10.480268239974974 22.192555502057076 26.037676617503166 17.027456149458889 16.956813246011734 37.363964304327965 15.163506239652632 6.4617269337177268 8.9635679572820646 5.2224050760269192 13.286622762680052 11.918159127235411 54.20920042693615 26.683838963508606 57.270489633083344 26.70133338868618 4.9855732917785671 37.065564796328545 18.121789753437042 18.936128795146942 24.609381467103958 71.711321592330933 20.879539132118225 7.9783888161182395
leaf_count=154 160 61 333 257 92 35 42 89 107 70 68 153 61 26 37 21 54 48 223 110 230 107 20 153 74 76 100 294 84 32
internal_value=0 0.000706198 -4.057e-05 0.00254364 -0.000855722 0.00880978 0.00215386 -0.00419597 0.00248977 -0.00226915 0.0040184 0.00166606 -0.00401071 -0.000644478 -0.00185674 0.00252648 0.00810046 -0.00423796 -0.00743593 -0.0113657 0.0112901 0.0128194 -0.0091864 -0.0113358 -0.00223847 0.0124691 -0.00481846 -0.00703054 0.0012798 0.00247522
internal_weight=0 791.933 752.088 463.71 300.623 163.087 238.01 288.378 94.1327 71.9401 45.9024 80.1297 52.5275 188.542 178.062 111.427 79.5207 28.9456 194.245 31.9062 70.5571 49.468 66.6347 60.1729 23.1074 27.6022 140.036 107.448 35.7371 32.5878
internal_count=3371 3217 3057 1881 1223 658 966 1176 382 293 186 325 214 767 725 452 321 118 794 131 284 199 273 247 94 111 571 439 145 132
is_linear=0
shrinkage=0.01


Tree=8
num_leaves=31
num_cat=0
split_feature=7 21 55 7 45 8 47 51 44 21 39 24 27 26 48 48 8 2 22 49 37 21 12 53 37 47 23 8 33 43
split_gain=86.2434 81.624 79.2265 96.7885 96.4779 80.7021 70.1077 61.319 67.674 49.2598 50.1882 48.7027 49.2312 46.2988 55.7707 85.6468 62.4511 37.0193 33.8369 33.5979 31.4157 30.4559 28.009 32.1327 24.654 22.699 22.285 22.18 36.332 47.5166
threshold=-1.5297164916992185 12.283899784088137 -1.0000000180025095e-35 -0.7344040274620055 12.597688198089601 1.7276797294616701 30.970340728759769 -0.21059826761484143 12.527308464050295 12.507699966430666 -0.52415388822555531 -0.28648264706134791 1.3058317899703982 -1.5367164015769956 31.348185539245609 55.37428283691407 -1.9846926927566526 2.0376285314559941 -0.13614547252655027 -0.87848514318466175 -0.25377325713634485 30.988100051879886 30.994999885559086 -0.42418679594993586 -0.2638996541500091 30.934017181396488 -0.58781439065933216 0.42135381698608404 30.965133666992191 30.990736007690433
decision_type=2 2 2 2 2 2 2 2 2 2 2 2 2 2 2 2 2 2 2 2 2 2 2 2 2 2 2 2 2 2
left_child=-1 -2 7 5 -5 -4 21 18 -9 -10 17 26 -13 -8 22 16 -16 -11 27 -17 -18 -6 -15 24 -24 -14 -7 28 29 -3
right_child=1 2 3 4 6 11 13 8 9 10 -12 12 25 14 15 19 20 -19 -20 -21 -22 -23 23 -25 -26 -27 -28 -29 -30 -31
leaf_value=-0.014859523980791824 0.014640868878527977 -0.012424117550105179 0.015856339972439099 -0.011803974094719279 0.0041871880485921985 -0.00089789526713364182 0.019737396663500429 0.0177224453177901 -0.013010532143116262 -0.013496977519718024 0.017867022681480507 -0.010094822024309159 -0.0064709943029623044 0.010712287682123425 -0.016889063480516175 0.011859369829425054 -0.0026874515930661379 0.0096987018571197611 -0.014089614171892383 -0.015851586942036949 0.01438107665512405 0.019925449951007878 0.017134757642013842 -0.016917607021281995 -0.0074978978160920862 0.019488650674170299 0.018420926840859646 0.0024506787023585901 -0.011079938391656014 0.010982281620059969
leaf_weight=37.304812639951706 39.879696369171143 14.827189490199087 80.541362822055817 63.236025661230087 22.776270747184753 8.6652825027704257 10.48829475045204 22.210989728569984 26.71978172659874 16.745812341570858 16.721710965037346 37.55023455619812 4.969233661890029 6.4669103622436515 8.936156287789343 5.2267594188451758 13.282066762447355 11.678973540663717 54.078754350543022 26.858396351337433 57.320099323987961 26.721576198935509 5.2391506433486965 37.450921967625618 18.101944714784622 10.454964548349379 19.204289212822914 32.584597572684288 71.584558099508286 20.896463334560394
leaf_count=154 160 61 323 260 92 35 42 89 110 69 67 154 20 26 37 21 54 47 223 111 230 107 21 155 74 42 77 132 294 84
internal_value=0 0.000699492 -4.02936e-05 0.00251931 -0.000820683 0.00877159 0.00208694 -0.00415886 0.00246621 -0.00224888 0.00412037 0.00171336 -0.00391634 -0.000682806 -0.00188009 0.00245418 0.0080176 -0.0039665 -0.00737206 -0.0113374 0.0111701 0.0126835 -0.00907329 -0.011178 -0.00196884 0.0111252 0.0124143 -0.00477524 -0.00696942 0.0012674
internal_weight=0 791.418 751.539 463.49 302.105 161.385 238.869 288.049 94.0773 71.8663 45.1465 80.844 52.9744 189.371 178.882 111.623 79.5383 28.4248 193.972 32.0852 70.6022 49.4978 67.2589 60.792 23.3411 15.4242 27.8696 139.893 107.308 35.7237
internal_count=3371 3217 3057 1881 1230 651 970 1176 382 293 183 328 216 771 729 453 321 116 794 132 284 199 276 250 95 62 112 571 439 145
is_linear=0
shrinkage=0.01


Tree=9
num_leaves=31
num_cat=0
split_feature=7 21 55 7 45 8 47 51 44 21 39 24 27 46 24 51 48 8 8 8 2 22 21 8 30 33 43 50 23 19
split_gain=84.747 79.9346 77.7234 94.8531 99.8566 77.0137 68.1414 60.1904 66.2824 48.3821 51.2632 47.1732 46.6395 45.2147 77.0681 59.0135 43.0203 47.3535 39.7975 35.877 35.3344 33.3123 29.8287 21.7772 35.8841 35.6964 46.6001 33.2371 21.6444 21.1434
threshold=-1.5297164916992185 12.283899784088137 -1.0000000180025095e-35 -0.7242634892463683 12.597688198089601 1.7350858449935915 30.970340728759769 -0.21059826761484143 12.527308464050295 12.506299972534181 -0.52415388822555531 -0.28648264706134791 1.3058317899703982 31.367948532104496 -0.22065077722072599 -0.3242186158895492 55.37428283691407 -1.0805923342704771 0.68700668215751659 1.4066857695579531 2.0376285314559941 -0.13614547252655027 30.988100051879886 0.42135381698608404 31.369812011718754 30.965133666992191 30.990736007690433 -0.72174680233001698 -0.58781439065933216 31.391666412353519
decision_type=2 2 2 2 2 2 2 2 2 2 2 2 2 2 2 2 2 2 2 2 2 2 2 2 2 2 2 2 2 2
left_child=-1 -2 7 5 -5 29 22 21 -9 -10 20 28 -13 19 15 18 17 -16 -15 -8 -11 23 -6 25 -25 26 -3 -27 -7 -4
right_child=1 2 3 4 6 11 13 8 9 10 -12 12 -14 14 16 -17 -18 -19 -20 -21 -22 -23 -24 24 -26 27 -28 -29 -30 -31
leaf_value=-0.014750480000573211 0.014483545008876718 -0.012325940144259518 0.017132823913061302 -0.012103653482191109 0.0041436140448215036 -0.00088899470575895241 0.015196462280799331 0.017533518209333541 -0.013149199859584335 -0.01344503901563719 0.017730643543679134 -0.0099615692430309738 0.01083151200126533 -0.016828686995397777 -0.016883039776112135 0.016473957106286716 -0.015725473593522214 0.0055919767726742668 0.0081659601535093457 -0.013441430753120095 0.0090167328511957801 -0.013983634585962799 0.019715284005435377 -0.0035523147641257319 0.020843111623138792 0.00022011393230640026 0.010864363243242454 -0.015138842544034832 0.018187188829735801 0.0008870957614200201
leaf_weight=37.205283492803574 39.90959644317627 14.795993611216543 74.106007397174835 62.36382320523262 22.785580575466156 8.6645153164863604 4.9827339053153983 22.225735783576965 25.921519622206688 16.948643475770954 16.981654196977615 37.2453992664814 15.185566022992132 11.088769525289537 12.310668855905531 44.570605546236038 25.115976989269257 39.306493535637856 14.970839455723761 35.840447410941124 11.935216709971426 53.944397151470184 26.736286357045174 24.606392726302147 7.9865906238555899 19.305633664131165 20.911955595016479 52.149137556552887 18.97032767534256 8.9821843802928907
leaf_count=154 160 61 297 257 92 35 20 89 107 70 68 153 61 46 51 179 104 159 60 148 48 223 107 100 32 79 84 215 76 36
internal_value=0 0.000692902 -4.0019e-05 0.00249544 -0.000841244 0.00863226 0.0021135 -0.00412218 0.00244313 -0.00222896 0.00394277 0.00163333 -0.00393927 -0.000633053 0.00194685 0.00948455 -0.00499134 0.000231696 -0.00246965 -0.00994599 -0.00416352 -0.00730867 0.0125506 -0.0047322 0.00242554 -0.00690919 0.0012552 -0.0109892 0.0122061 0.0153766
internal_weight=0 790.849 750.939 463.226 300.072 163.154 237.708 287.713 94.0128 71.787 45.8655 80.0658 52.431 188.187 147.363 70.6302 76.7331 51.6172 26.0596 40.8232 28.8839 193.7 49.5219 139.756 32.593 107.163 35.7079 71.4548 27.6348 83.0882
internal_count=3371 3217 3057 1881 1223 658 966 1176 382 293 186 325 214 767 599 285 314 210 106 168 118 794 199 571 132 439 145 294 111 333
is_linear=0
shrinkage=0.01


Tree=10
num_leaves=31
num_cat=0
split_feature=7 21 55 7 45 8 47 51 44 21 39 24 27 26 48 48 8 2 22 49 37 21 12 53 37 47 8 36 20 21
split_gain=83.2837 78.2894 76.2562 92.9442 98.0635 75.3895 66.7522 59.0919 64.9299 47.5381 48.1402 46.7678 47.3849 44.605 54.2815 81.4725 60.1118 35.6942 32.7937 32.3783 30.5321 29.2263 27.4216 29.7912 22.5988 22.2079 21.3823 35.2551 35.1173 61.1629
threshold=-1.5297164916992185 12.283899784088137 -1.0000000180025095e-35 -0.7242634892463683 12.597688198089601 1.7276797294616701 30.970340728759769 -0.21059826761484143 12.527308464050295 12.507699966430666 -0.52415388822555531 -0.28648264706134791 1.3058317899703982 -1.5367164015769956 31.348185539245609 55.37428283691407 -1.9846926927566526 2.0376285314559941 -0.13614547252655027 -0.87848514318466175 -0.25377325713634485 30.988100051879886 30.994999885559086 -0.42418679594993586 -0.2638996541500091 30.934017181396488 0.42135381698608404 -0.53615474700927723 30.983249664306644 22.237899780273441
decision_type=2 2 2 2 2 2 2 2 2 2 2 2 2 2 2 2 2 2 2 2 2 2 2 2 2 2 2 2 2 2
left_child=-1 -2 7 5 -5 -4 21 18 -9 -10 17 -7 -13 -8 22 16 -16 -11 26 -17 -18 -6 -15 24 -24 -14 28 -28 29 -3
right_child=1 2 3 4 6 11 13 8 9 10 -12 12 25 14 15 19 20 -19 -20 -21 -22 -23 23 -25 -26 -27 27 -29 -30 -31
leaf_value=-0.01464350039413574 0.014329542575975296 -0.011791137366296764 0.015275348966565397 -0.012008046289966098 0.0041005462498469028 0.012155983176614451 0.019403012955522551 0.017349421241839885 -0.012812213765216705 -0.013291600490275954 0.017490757191497019 -0.0099282811555341174 -0.0065154133231616245 0.010576628022444396 -0.016666453929951971 0.011621874806915964 -0.0027216135183567129 0.0094984142812091204 -0.013879515296152603 -0.015600521221420582 0.014100149202416302 0.019511275703065933 0.016642461228725404 -0.016684361570298997 -0.0073887034319434211 0.019151499393434843 -0.0039905358411295574 0.019326205359661466 -0.010441986712853851 0.016675244476973865
leaf_weight=37.102833092212677 39.934995174407959 15.262255474925043 82.394887357950211 62.232414364814758 22.794601142406464 27.895889833569527 10.496750503778456 22.236901089549065 26.599270939826965 16.665925830602649 16.740893796086311 37.429446533322334 4.9710238873958579 6.4721839129924765 8.8798488676547986 5.2336361855268505 13.28788188099861 11.694961234927176 53.806268393993378 26.452853947877884 57.394108772277832 26.745626494288445 4.9950686097145107 36.739010900259018 18.068140774965286 10.473346978425978 23.654024884104729 8.9338059425353986 76.811506524682045 14.932759881019591
leaf_count=154 160 63 330 257 92 112 42 89 110 69 67 154 20 26 37 21 54 47 223 110 230 107 20 153 74 42 96 36 316 60
internal_value=0 0.000686416 -3.97495e-05 0.00247184 -0.000833713 0.00854533 0.00209357 -0.00408639 0.00242053 -0.00220942 0.00404369 0.00167989 -0.00384724 -0.000627396 -0.00181177 0.00245623 0.00785685 -0.00389386 -0.00724691 -0.0111042 0.0109377 0.0124204 -0.00897606 -0.0110922 -0.00218399 0.0108902 -0.00469039 0.00240164 -0.00685021 0.00228674
internal_weight=0 790.23 750.295 462.957 299.792 163.165 237.56 287.339 93.938 71.7011 45.1018 80.7697 52.8738 188.019 177.523 111.248 79.5618 28.3609 193.401 31.6865 70.682 49.5402 66.2744 59.8022 23.0632 15.4444 139.594 32.5878 107.007 30.195
internal_count=3371 3217 3057 1881 1223 658 966 1176 382 293 183 328 216 767 725 452 321 116 794 131 284 199 273 247 94 62 571 132 439 123
is_linear=0
shrinkage=0.01


Tree=11
num_leaves=31
num_cat=0
split_feature=7 21 55 7 45 8 47 51 44 21 39 24 27 26 48 48 8 2 22 49 37 21 12 53 37 47 23 52 8 44
split_gain=81.8527 76.6865 74.8207 91.114 91.3251 75.7192 65.9261 58.0098 63.6152 46.7009 49.2319 45.8205 46.487 43.8992 52.9513 80.9325 58.9653 34.0634 32.2923 31.9589 29.8947 28.6472 26.806 30.8685 23.3873 21.7418 21.3594 21.0234 23.8434 29.668
threshold=-1.5297164916992185 12.283899784088137 -1.0000000180025095e-35 -0.7344040274620055 12.597688198089601 1.7276797294616701 30.970340728759769 -0.21059826761484143 12.527308464050295 12.506299972534181 -0.52415388822555531 -0.28648264706134791 1.3058317899703982 -1.5367164015769956 31.348185539245609 55.37428283691407 -1.9846926927566526 2.0376285314559941 -0.13614547252655027 -0.87848514318466175 -0.25377325713634485 30.988100051879886 30.994999885559086 -0.42418679594993586 -0.2638996541500091 30.934017181396488 -0.58781439065933216 -0.085695948451757417 0.42135381698608404 31.017760276794437
decision_type=2 2 2 2 2 2 2 2 2 2 2 2 2 2 2 2 2 2 2 2 2 2 2 2 2 2 2 2 2 2
left_child=-1 -2 7 5 -5 -4 21 18 -9 -10 17 26 -13 -8 22 16 -16 -11 27 -17 -18 -6 -15 24 -24 -14 -7 28 29 -3
right_child=1 2 3 4 6 11 13 8 9 10 -12 12 25 14 15 19 20 -19 -20 -21 -22 -23 23 -25 -26 -27 -28 -29 -30 -31
leaf_value=-0.014538520457937283 0.014178742343337707 0.0045439933321741793 0.015361821614271281 -0.011523535941423661 0.0040579774837859123 -0.0010006432021335606 0.019204254121229475 0.01716995857219376 -0.012951331590894472 -0.013243350592944196 0.017368536557890654 -0.0098456013491149148 -0.0064535436842865215 0.010463919251151135 -0.016556269356997454 0.011498592773208806 -0.0026953263390861433 0.0088252230701732891 -0.013777198616323044 -0.015525933670056868 0.013951370141907123 0.019313165028704296 0.016662212259354364 -0.016606711347095963 -0.007323213152773002 0.018943343744260228 0.017901005197370097 -0.012356781984926495 0.0064462773830816899 -0.0085365740786828622
leaf_weight=36.997564703226089 39.956023693084717 23.669418916106224 80.688158378005028 62.846731588244438 22.803340673446655 8.6738973110914248 10.499320983886717 22.244590416550636 25.799152344465256 16.865507572889332 16.995513007044792 37.366640448570251 4.9685065746307364 6.4764562249183646 8.8497066497802717 5.2368346154689815 13.283326983451841 11.949919387698172 53.664514288306236 26.620266824960709 57.425940230488777 26.749754458665848 5.2471555471420315 37.113640084862709 18.047526627779007 10.482498764991758 19.238549381494522 28.221897691488266 22.717211753129959 64.836250469088554
leaf_count=154 160 96 323 260 92 35 42 89 107 70 68 154 20 26 37 21 54 48 223 111 230 107 21 155 74 42 77 116 92 267
internal_value=0 0.000680057 -3.94824e-05 0.00244882 -0.000800029 0.00851105 0.00202744 -0.00405091 0.00239836 -0.00219021 0.00387008 0.00166384 -0.00381289 -0.000666897 -0.00183702 0.0023853 0.0077785 -0.00409139 -0.00718538 -0.0110835 0.0108241 0.012293 -0.00887052 -0.0109434 -0.00192047 0.0107766 0.0120272 -0.00464855 -0.00269265 -0.00503839
internal_weight=0 789.538 749.582 462.618 301.2 161.418 238.353 286.964 93.8547 71.6101 45.8109 80.7301 52.8176 188.8 178.301 111.416 79.559 28.8154 193.109 31.8571 70.7093 49.5531 66.8848 60.4083 23.2947 15.451 27.9124 139.445 111.223 88.5057
internal_count=3371 3217 3057 1881 1230 651 970 1176 382 293 186 328 216 771 729 453 321 118 794 132 284 199 276 250 95 62 112 571 455 363
is_linear=0
shrinkage=0.01


end of trees

feature_importances:
hod_cos=38
ma_50=37
hod_sin=24
bb50_lower_3std=23
bb20_touch_upper_2std=22
bb50_lower_2std=16
bb50_upper_3std=14
price_ma50_ratio=13
bb50_upper_2std=13
bb50_touch_upper_2std=13
vol20=12
price_ma9_ratio=12
ma9_ma50_cross=12
bb20_touch_lower_1std=12
bb50_touch_lower_3std=12
close=11
ma20_ma50_cross=11
bb50_position=11
bb50_touch_lower_1std=11
bb20_lower_2std=10
bb50_upper_1std=10
price_ma20_ratio=8
bb50_touch_upper_1std=4
bb20_upper_3std=3
bb20_upper_2std=2
open=1
ma_9=1
ma_20=1
bb20_touch_upper_1std=1
bb50_lower_1std=1
bb50_touch_upper_3std=1

parameters:
[boosting: gbdt]
[objective: binary]
[metric: binary_logloss,auc]
[tree_learner: serial]
[device_type: cpu]
[data_sample_strategy: bagging]
[data: ]
[valid: ]
[num_iterations: 1000]
[learning_rate: 0.01]
[num_leaves: 31]
[num_threads: 0]
[seed: 0]
[deterministic: 0]
[force_col_wise: 1]
[force_row_wise: 0]
[histogram_pool_size: -1]
[max_depth: -1]
[min_data_in_leaf: 20]
[min_sum_hessian_in_leaf: 0.001]
[bagging_fraction: 1]
[pos_bagging_fraction: 1]
[neg_bagging_fraction: 1]
[bagging_freq: 0]
[bagging_seed: 3]
[feature_fraction: 1]
[feature_fraction_bynode: 1]
[feature_fraction_seed: 2]
[extra_trees: 0]
[extra_seed: 6]
[early_stopping_round: 0]
[early_stopping_min_delta: 0]
[first_metric_only: 0]
[max_delta_step: 0]
[lambda_l1: 0]
[lambda_l2: 0]
[linear_lambda: 0]
[min_gain_to_split: 0]
[drop_rate: 0.1]
[max_drop: 50]
[skip_drop: 0.5]
[xgboost_dart_mode: 0]
[uniform_drop: 0]
[drop_seed: 4]
[top_rate: 0.2]
[other_rate: 0.1]
[min_data_per_group: 100]
[max_cat_threshold: 32]
[cat_l2: 10]
[cat_smooth: 10]
[max_cat_to_onehot: 4]
[top_k: 20]
[monotone_constraints: ]
[monotone_constraints_method: basic]
[monotone_penalty: 0]
[feature_contri: ]
[forcedsplits_filename: ]
[refit_decay_rate: 0.9]
[cegb_tradeoff: 1]
[cegb_penalty_split: 0]
[cegb_penalty_feature_lazy: ]
[cegb_penalty_feature_coupled: ]
[path_smooth: 0]
[interaction_constraints: ]
[verbosity: -1]
[saved_feature_importance_type: 0]
[use_quantized_grad: 0]
[num_grad_quant_bins: 4]
[quant_train_renew_leaf: 0]
[stochastic_rounding: 1]
[linear_tree: 0]
[max_bin: 255]
[max_bin_by_feature: ]
[min_data_in_bin: 3]
[bin_construct_sample_cnt: 200000]
[data_random_seed: 1]
[is_enable_sparse: 1]
[enable_bundle: 1]
[use_missing: 1]
[zero_as_missing: 0]
[feature_pre_filter: 0]
[pre_partition: 0]
[two_round: 0]
[header: 0]
[label_column: ]
[weight_column: ]
[group_column: ]
[ignore_column: ]
[categorical_feature: ]
[forcedbins_filename: ]
[precise_float_parser: 0]
[parser_config_file: ]
[objective_seed: 5]
[num_class: 1]
[is_unbalance: 0]
[scale_pos_weight: 1]
[sigmoid: 1]
[boost_from_average: 1]
[reg_sqrt: 0]
[alpha: 0.9]
[fair_c: 1]
[poisson_max_delta_step: 0.7]
[tweedie_variance_power: 1.5]
[lambdarank_truncation_level: 30]
[lambdarank_norm: 1]
[label_gain: ]
[lambdarank_position_bias_regularization: 0]
[eval_at: ]
[multi_error_top_k: 1]
[auc_mu_weights: ]
[num_machines: 1]
[local_listen_port: 12400]
[time_out: 120]
[machine_list_filename: ]
[machines: ]
[gpu_platform_id: -1]
[gpu_device_id: -1]
[gpu_use_dp: 0]
[num_gpu: 1]

end of parameters

pandas_categorical:[]
