tree
version=v4
num_class=1
num_tree_per_iteration=1
label_index=0
max_feature_idx=55
objective=binary sigmoid:1
feature_names=ret logret vol20 buy_ratio sell_ratio ofi_norm interarrival_mean_s hod_sin hod_cos open high low close volume trades dollar buy_volume sell_volume signed_volume ma_9 ma_20 ma_50 price_ma9_ratio price_ma20_ratio price_ma50_ratio ma9_ma20_cross ma20_ma50_cross ma9_ma50_cross bb20_middle bb20_upper_1std bb20_upper_2std bb20_upper_3std bb20_lower_1std bb20_lower_2std bb20_lower_3std bb20_position bb20_touch_upper_1std bb20_touch_upper_2std bb20_touch_upper_3std bb20_touch_lower_1std bb20_touch_lower_2std bb20_touch_lower_3std bb50_middle bb50_upper_1std bb50_upper_2std bb50_upper_3std bb50_lower_1std bb50_lower_2std bb50_lower_3std bb50_position bb50_touch_upper_1std bb50_touch_upper_2std bb50_touch_upper_3std bb50_touch_lower_1std bb50_touch_lower_2std bb50_touch_lower_3std
feature_infos=[-109.35169219970703:976.45709228515625] [-128.83294677734375:580.3067626953125] [-1.3105654716491699:440.2542724609375] [-3.1093764305114746:3.4655086994171143] [-3.4655086994171143:3.1093764305114746] [-3.1093764305114746:3.4655086994171143] [0.0015755577478557825:6076.47705078125] [-1.5905284881591797:12.133391380310059] [-2.9287552833557129:2.2173066139221191] [11.960000038146973:42.279998779296875] [11.989999771118164:42.310001373291016] [11.899999618530273:42.259998321533203] [11.960000038146973:42.279998779296875] [200:10264900] [2:200] [4224:264707990] [0:834800] [0:728900] [-714800:603300] [12.031110763549805:42.243331909179688] [12.093999862670898:42.201000213623047] [12.216799736022949:42.138999938964844] [-65.578109741210938:477.04031372070312] [-47.341915130615234:376.5867919921875] [-15.686398506164551:340.21859741210938] [-1.9395630359649658:5.7445626258850098] [-3.1797974109649658:6.4807405471801758] [-3.6449573040008545:5.9160799980163574] [12.093999862670898:42.201000213623047] [0:42.269950866699219] [0:45.855125427246094] [0:55.599140167236328] [0:42.142158508300781] [-0.64699041843414307:42.083320617675781] [-10.389421463012695:42.024482727050781] [-3.3642141819000244:4.0969743728637695] [-0.91370803117752075:5.385164737701416] [-0.35156151652336121:7] [-0.19044534862041473:14.106736183166504] [-1.0202040672302246:2.8444523811340332] [-0.37796446681022644:14.106736183166504] [-0.17960530519485474:14.106736183166504] [12.216799736022949:42.138999938964844] [0:42.264804840087891] [0:45.443431854248047] [0:54.988712310791016] [0:42.059120178222656] [-0.42389050126075745:41.979244232177734] [-9.9893045425415039:41.899723052978516] [-5.560603141784668:5.5935640335083008] [-1.0726311206817627:5.5677642822265625] [-0.48432210087776184:14.106736183166504] [-0.24124895036220551:14.106736183166504] [-1.1167770624160767:7] [-0.4525696337223053:14.106736183166504] [-0.26366403698921204:14.106736183166504]
tree_sizes=3307 3420 3422

Tree=0
num_leaves=31
num_cat=0
split_feature=55 43 48 33 37 50 31 7 51 34 27 54 55 2 41 8 48 21 24 6 25 21 54 54 7 36 7 36 47 2
split_gain=120.406 122.524 61.0349 138.188 56.6097 79.295 67.6683 54.0525 49.4945 40.9699 38.0468 36.0746 35.3335 89.4215 33.8811 33.3796 32.3854 33.5892 30.7665 35.9948 24.3647 23.6762 23.4906 19.8045 13.459 11.3114 9.98532 10.8778 9.18328 9.12811
threshold=-0.16088628768920896 42.050836563110359 37.246730804443366 32.544672012329109 -0.28981564939022059 -0.45656791329383845 31.606782913208011 -1.0056943297386167 -0.18146866559982297 12.230214118957521 -0.70445838570594776 -0.11195364594459532 -0.14408827573060987 -0.50075930356979359 -0.12194278463721274 0.13579968363046649 30.884472846984867 31.028500556945804 0.11224104836583139 1.0443243980407717 -0.81773936748504628 33.178600311279304 -0.43236267566680903 1.0000000180025095e-35 -0.78288257122039784 1.1934376955032351 -0.85575115680694569 -0.86414045095443714 15.302961349487306 -0.32528434693813318
decision_type=2 2 2 2 2 2 2 2 2 2 2 2 2 2 2 2 2 2 2 2 2 2 2 2 2 2 2 2 2 2
left_child=8 2 3 4 6 7 16 -6 22 -7 20 29 13 15 -9 -11 17 -2 19 25 -10 -13 -1 -24 -20 -14 -16 -28 -26 -5
right_child=1 -3 -4 11 5 9 -8 14 10 12 -12 21 18 -15 26 -17 -18 -19 24 -21 -22 -23 23 -25 28 -27 27 -29 -30 -31
leaf_value=0.13795350039972518 0.11375112739076616 0.11183789632286426 0.14760060013056897 0.11303129788007038 0.12188235942934922 0.11557537096713773 0.1484443840887206 0.12469480909916501 0.12389125205064623 0.12188235942934923 0.11344501041990185 0.12188235942934922 0.11906990975953344 0.1123736010218768 0.13927642968692075 0.14954326552259245 0.11183789632286426 0.14755154292369971 0.13387091216934741 0.14650114155308688 0.1503060529008918 0.15201574874880414 0.1131066706099992 0.13280025411031116 0.13594460777842818 0.13347212455221649 0.13629398040821897 0.15049960337424037 0.1506421469564643 0.12200337705713821
leaf_weight=4.9778667092323294 5.2267600446939486 20.907040178775787 45.298587054014206 25.138226881623265 8.9601600766181928 10.702413424849508 11.200200095772741 6.222333386540412 4.9778667092323348 5.9734400510787991 6.222333386540412 4.9778667092323285 12.444666773080828 18.667000159621239 10.204626753926275 16.178066805005074 19.413680166006088 6.7201200574636459 7.7156933993101111 12.693560108542441 11.697986766695976 5.4756533801555634 47.289733737707138 5.724546715617179 4.9778667092323294 9.7068400830030424 5.724546715617179 92.339427456259727 29.120520249009132 20.658146843314174
leaf_count=20 21 84 182 101 36 43 45 25 20 24 25 20 50 75 41 65 78 27 31 51 47 22 190 23 20 39 23 371 117 83
internal_value=0.133263 0.135431 0.136677 0.135265 0.138011 0.139815 0.127345 0.145535 0.122099 0.134306 0.134547 0.120905 0.136013 0.128497 0.147387 0.142084 0.11981 0.132764 0.140015 0.133075 0.142421 0.137667 0.117183 0.115233 0.145798 0.125381 0.148691 0.14967 0.148497 0.117078
internal_weight=0 416.647 395.74 350.442 294.192 251.631 42.5608 123.451 80.8903 128.18 22.8982 56.2499 117.478 40.8185 114.491 22.1515 31.3606 11.9469 76.6591 34.8451 16.6759 10.4535 57.9921 53.0143 41.8141 22.1515 108.269 98.064 34.0984 45.7964
internal_count=1999 1674 1590 1408 1182 1011 171 496 325 515 92 226 472 164 460 89 126 48 308 140 67 42 233 213 168 89 435 394 137 184
is_linear=0
shrinkage=1


Tree=1
num_leaves=31
num_cat=0
split_feature=55 43 48 33 37 50 31 7 51 34 27 54 55 2 41 8 48 21 24 6 2 46 54 54 7 36 7 36 47 7
split_gain=117.948 119.971 59.9015 135.396 55.5062 77.8245 66.3086 53.0333 48.4302 40.1204 37.2694 35.3026 34.6428 87.5525 33.256 32.7474 31.6707 32.9107 30.1946 35.292 24.0763 23.2688 22.981 19.3641 13.2179 11.0709 9.81336 10.6893 9.0233 9.00996
threshold=-0.16088628768920896 42.050836563110359 37.246730804443366 32.544672012329109 -0.28981564939022059 -0.45656791329383845 31.606782913208011 -1.0056943297386167 -0.18146866559982297 12.230214118957521 -0.70445838570594776 -0.11195364594459532 -0.14408827573060987 -0.50075930356979359 -0.12194278463721274 0.13579968363046649 30.884472846984867 31.028500556945804 0.11224104836583139 1.0443243980407717 3.0630743503570561 33.002922058105476 -0.43236267566680903 1.0000000180025095e-35 -0.78288257122039784 1.1934376955032351 -0.85575115680694569 -0.86414045095443714 15.302961349487306 -0.67522060871124256
decision_type=2 2 2 2 2 2 2 2 2 2 2 2 2 2 2 2 2 2 2 2 2 2 2 2 2 2 2 2 2 2
left_child=8 2 3 4 6 7 16 -6 22 -7 20 -5 13 15 -9 -11 17 -2 19 25 -10 -13 -1 -24 -20 -14 -16 -28 -26 -4
right_child=1 -3 29 11 5 9 -8 14 10 12 -12 21 18 -15 26 -17 -18 -19 24 -21 -22 -23 23 -25 28 -27 27 -29 -30 -31
leaf_value=0.0046446772197709782 -0.019293802617549378 -0.021183316049685069 0.0021748337913155844 -0.016006859153390115 -0.011259028533666223 -0.017491821015256755 0.015045300602659042 -0.0084782059155939556 0.016917557453906017 -0.011259028533666216 -0.019596148810358115 -0.011275240429845691 -0.01403893617921064 -0.020654290501485199 0.0059553434560758811 0.016135686409632713 -0.021183316049685069 0.014159501177517828 0.00060145775184010505 0.013117540787059375 -0.009343019869856882 0.018601715813578786 -0.019930312345656852 -0.00045850414111862545 0.0026548726914511485 0.00020663593464832926 0.0030008855566469299 0.017084782917890326 0.017226259963572292 0.015862750851453628
leaf_weight=4.97628629207611 5.2330535799264926 20.934471130371094 5.4701527953147879 45.842498242855072 8.9666579961776716 10.714180797338484 11.188251525163649 6.2257677316665641 11.686134308576589 5.9777719974517849 6.2299340963363639 4.9809640794992429 12.455799430608751 18.690931051969528 10.200453370809553 16.159486621618271 19.439151763916016 6.7133934795856476 7.7153806686401358 12.681831657886503 4.9786135554313651 5.4688600450754166 47.348405122756958 5.7247228771448126 4.9769696593284598 9.7067052572965604 5.7233793884515753 92.226776659488678 29.084682181477547 39.782929420471191
leaf_count=20 21 84 22 184 36 43 45 25 47 24 25 20 50 75 41 65 78 27 31 51 20 22 190 23 20 39 23 371 117 160
internal_value=0 0.00214644 0.00338093 0.00198252 0.00470227 0.00648972 -0.00585717 0.0121601 -0.0110456 0.00103266 0.00127116 -0.0122259 0.00272254 -0.00471751 0.013996 0.00873823 -0.0133084 -0.000494473 0.00668701 -0.000186715 0.00907218 0.00436071 -0.0159033 -0.01783 0.0124201 -0.00779968 0.0152898 0.0162618 0.0150971 0.0142082
internal_weight=0 416.561 395.626 350.373 294.081 251.507 42.5739 123.343 80.9441 128.164 22.8947 56.2923 117.45 40.8282 114.376 22.1373 31.3856 11.9464 76.6214 34.8443 16.6647 10.4498 58.0494 53.0731 41.777 22.1625 108.151 97.9502 34.0617 45.2531
internal_count=1999 1674 1590 1408 1182 1011 171 496 325 515 92 226 472 164 460 89 126 48 308 140 67 42 233 213 168 89 435 394 137 182
is_linear=0
shrinkage=0.01


Tree=2
num_leaves=31
num_cat=0
split_feature=55 43 48 33 37 50 31 7 51 34 27 54 55 2 41 8 48 21 24 6 48 46 54 54 7 21 47 7 36 2
split_gain=115.558 117.496 58.7944 132.678 54.4306 76.3895 64.9874 52.0394 47.3987 39.2946 36.5139 34.5522 33.9689 85.7409 32.6468 32.1309 30.9814 32.251 29.6366 34.6055 23.7931 22.8284 22.4888 18.9413 12.984 10.871 27.6602 9.64785 10.5075 8.91523
threshold=-0.16088628768920896 42.050836563110359 37.246730804443366 32.544672012329109 -0.28981564939022059 -0.45656791329383845 31.606782913208011 -1.0056943297386167 -0.18146866559982297 12.230214118957521 -0.70445838570594776 -0.11195364594459532 -0.14408827573060987 -0.50075930356979359 -0.12194278463721274 0.13579968363046649 30.884472846984867 31.028500556945804 0.11224104836583139 1.0443243980407717 15.660267353057863 33.002922058105476 -0.43236267566680903 1.0000000180025095e-35 -0.78288257122039784 32.442701339721687 32.409074783325202 -0.85575115680694569 -0.86414045095443714 -0.32528434693813318
decision_type=2 2 2 2 2 2 2 2 2 2 2 2 2 2 2 2 2 2 2 2 2 2 2 2 2 2 2 2 2 2
left_child=8 2 3 4 6 7 16 -6 22 -7 20 29 13 15 -9 -11 17 -2 19 25 -10 -13 -1 -24 -20 -14 -27 -16 -29 -5
right_child=1 -3 -4 11 5 9 -8 14 10 12 -12 21 18 -15 27 -17 -18 -19 24 -21 -22 -23 23 -25 -26 26 -28 28 -30 -31
leaf_value=0.0045997337321779207 -0.019081608146382857 -0.020948908584129306 0.014081676547642115 -0.01982795546769222 -0.011139115327861252 -0.017300663138758228 0.014912384905585153 -0.0083891227959796404 0.016794902647540518 -0.011139115327861245 -0.019380412044495185 -0.011155049454740549 -0.014797040404067881 -0.020426115133368429 0.0058982952288185175 0.015994713451398416 -0.020948908584129306 0.014033306290844667 0.00059546645416908115 0.012999447672437053 -0.0093143295842459777 0.018443191527231312 -0.019710650829968035 -0.00045390628549054008 0.014964143140132891 0.016778471048057759 -0.014839332842242132 0.0029714932994697892 0.016936995752818013 -0.01096924532041489
leaf_weight=4.9746680259704581 5.2383069545030612 20.956912815570831 45.203252047300339 25.190669208765026 8.9725218415260297 10.724186748266218 11.175158992409704 6.2289439141750327 11.673269405961042 5.9816812276840237 6.2362581491470328 4.9842679649591428 10.965465217828752 18.710621818900108 10.196140691637991 16.138994470238686 19.459990471601486 6.7060626000165939 7.7150697857141486 12.669131979346274 4.9790274351835242 5.4607477486133575 47.397051155567169 5.7248962968587866 34.020962983369827 4.9790047854185087 6.2276905030012131 5.7221980094909659 92.101825326681137 20.691826045513157
leaf_count=20 21 84 182 101 36 43 45 25 47 24 25 20 44 75 41 65 78 27 31 51 20 22 190 23 137 20 25 23 371 83
internal_value=0 0.00212577 0.00334857 0.0019634 0.00465765 0.0064288 -0.00579773 0.0120504 -0.0109295 0.00102266 0.00125888 -0.012096 0.00269633 -0.00466988 0.0138716 0.00865742 -0.0131674 -0.000489527 0.00662401 -0.000184821 0.00898826 0.00431918 -0.0157314 -0.0176354 0.012308 -0.00771829 -0.000791909 0.0151552 0.0161201 -0.0158329
internal_weight=0 416.422 395.465 350.261 293.934 251.354 42.5795 123.222 80.9852 128.133 22.8886 56.3275 117.409 40.8313 114.249 22.1207 31.4044 11.9444 76.5773 34.8413 16.6523 10.445 58.0966 53.1219 41.736 22.1722 11.2067 108.02 97.824 45.8825
internal_count=1999 1674 1590 1408 1182 1011 171 496 325 515 92 226 472 164 460 89 126 48 308 140 67 42 233 213 168 89 45 435 394 184
is_linear=0
shrinkage=0.01


end of trees

feature_importances:
hod_sin=10
bb50_touch_lower_2std=9
bb50_lower_3std=7
vol20=6
bb50_touch_lower_3std=6
ma_50=5
bb20_touch_upper_1std=5
interarrival_mean_s=3
hod_cos=3
price_ma50_ratio=3
ma9_ma50_cross=3
bb20_upper_3std=3
bb20_lower_2std=3
bb20_lower_3std=3
bb20_touch_upper_2std=3
bb20_touch_lower_3std=3
bb50_upper_1std=3
bb50_lower_2std=3
bb50_touch_upper_1std=3
bb50_touch_upper_2std=3
bb50_lower_1std=2
ma9_ma20_cross=1

parameters:
[boosting: gbdt]
[objective: binary]
[metric: binary_logloss,auc]
[tree_learner: serial]
[device_type: cpu]
[data_sample_strategy: bagging]
[data: ]
[valid: ]
[num_iterations: 1000]
[learning_rate: 0.01]
[num_leaves: 31]
[num_threads: 0]
[seed: 0]
[deterministic: 0]
[force_col_wise: 1]
[force_row_wise: 0]
[histogram_pool_size: -1]
[max_depth: -1]
[min_data_in_leaf: 20]
[min_sum_hessian_in_leaf: 0.001]
[bagging_fraction: 1]
[pos_bagging_fraction: 1]
[neg_bagging_fraction: 1]
[bagging_freq: 0]
[bagging_seed: 3]
[feature_fraction: 1]
[feature_fraction_bynode: 1]
[feature_fraction_seed: 2]
[extra_trees: 0]
[extra_seed: 6]
[early_stopping_round: 0]
[early_stopping_min_delta: 0]
[first_metric_only: 0]
[max_delta_step: 0]
[lambda_l1: 0]
[lambda_l2: 0]
[linear_lambda: 0]
[min_gain_to_split: 0]
[drop_rate: 0.1]
[max_drop: 50]
[skip_drop: 0.5]
[xgboost_dart_mode: 0]
[uniform_drop: 0]
[drop_seed: 4]
[top_rate: 0.2]
[other_rate: 0.1]
[min_data_per_group: 100]
[max_cat_threshold: 32]
[cat_l2: 10]
[cat_smooth: 10]
[max_cat_to_onehot: 4]
[top_k: 20]
[monotone_constraints: ]
[monotone_constraints_method: basic]
[monotone_penalty: 0]
[feature_contri: ]
[forcedsplits_filename: ]
[refit_decay_rate: 0.9]
[cegb_tradeoff: 1]
[cegb_penalty_split: 0]
[cegb_penalty_feature_lazy: ]
[cegb_penalty_feature_coupled: ]
[path_smooth: 0]
[interaction_constraints: ]
[verbosity: -1]
[saved_feature_importance_type: 0]
[use_quantized_grad: 0]
[num_grad_quant_bins: 4]
[quant_train_renew_leaf: 0]
[stochastic_rounding: 1]
[linear_tree: 0]
[max_bin: 255]
[max_bin_by_feature: ]
[min_data_in_bin: 3]
[bin_construct_sample_cnt: 200000]
[data_random_seed: 1]
[is_enable_sparse: 1]
[enable_bundle: 1]
[use_missing: 1]
[zero_as_missing: 0]
[feature_pre_filter: 0]
[pre_partition: 0]
[two_round: 0]
[header: 0]
[label_column: ]
[weight_column: ]
[group_column: ]
[ignore_column: ]
[categorical_feature: ]
[forcedbins_filename: ]
[precise_float_parser: 0]
[parser_config_file: ]
[objective_seed: 5]
[num_class: 1]
[is_unbalance: 0]
[scale_pos_weight: 1]
[sigmoid: 1]
[boost_from_average: 1]
[reg_sqrt: 0]
[alpha: 0.9]
[fair_c: 1]
[poisson_max_delta_step: 0.7]
[tweedie_variance_power: 1.5]
[lambdarank_truncation_level: 30]
[lambdarank_norm: 1]
[label_gain: ]
[lambdarank_position_bias_regularization: 0]
[eval_at: ]
[multi_error_top_k: 1]
[auc_mu_weights: ]
[num_machines: 1]
[local_listen_port: 12400]
[time_out: 120]
[machine_list_filename: ]
[machines: ]
[gpu_platform_id: -1]
[gpu_device_id: -1]
[gpu_use_dp: 0]
[num_gpu: 1]

end of parameters

pandas_categorical:[]
