tree
version=v4
num_class=1
num_tree_per_iteration=1
label_index=0
max_feature_idx=18
objective=binary sigmoid:1
feature_names=ret logret vol20 buy_ratio sell_ratio ofi_norm interarrival_mean_s hod_sin hod_cos open high low close volume trades dollar buy_volume sell_volume signed_volume
feature_infos=[-45.27105712890625:1737.841552734375] [-45.951614379882812:1067.0924072265625] [-7.6917648315429688:1294.9654541015625] [-4.8338513374328613:2.1354913711547852] [-2.1354913711547852:4.8338513374328613] [-4.8338513374328613:2.1354913711547852] [-1.9595961111005116:40424.702451176636] [-2.2239618301391602:28.244125366210938] [-27.719282150268555:9.642848014831543] [-16.451389312744141:1479.2550048828125] [-17.109369277954102:1362.8646240234375] [-16.855819702148438:1495.665771484375] [-16.451389312744141:1323.084228515625] [-1.4068526029586792:785.485595703125] [0:0.070888116955757141] [-1.4079879522323608:787.55133056640625] [-1.7660024166107178:16.391185760498047] [-1.1766692399978638:30.887224197387695] [-19.344631195068359:10.931396484375]
tree_sizes=6708 6773 6792 6780 6808 6756 6775 6789 6782 6788 6800 6780

Tree=0
num_leaves=63
num_cat=0
split_feature=12 14 12 6 10 12 13 12 7 10 10 0 7 2 8 9 0 4 12 12 0 1 6 13 8 11 0 18 18 2 6 7 8 7 8 7 9 0 7 7 7 7 10 16 7 3 7 3 6 6 8 3 12 0 17 11 12 17 10 15 12 3
split_gain=221.948 134.667 65.8071 40.5528 29.0195 36.1642 26.7708 24.5684 26.1689 23.6816 23.0843 31.8204 17.7171 16.6259 16.6118 19.1145 20.8861 17.6986 16.0827 15.9613 55.0329 66.3191 20.4805 24.4911 16.5928 15.7191 28.8051 20.3646 20.1996 18.2484 15.3202 14.9582 14.9352 13.9803 13.812 13.5133 21.9576 12.9442 17.3565 21.7417 12.4933 20.5264 13.6623 12.4733 12.093 16.5487 12.3078 12.0872 11.7341 11.5584 12.4212 11.6301 11.223 11.2219 11.1972 11.0136 16.3319 11.5344 10.6835 10.6695 10.3931 16.0196
threshold=1.3575276136398318 1.0000000180025095e-35 -2.1569017171859737 0.068163276803931819 1.0092722773551943 0.81313526630401622 -0.19145254045724866 1.059038043022156 2.579545378684998 1.2452793717384341 0.27212184667587286 0.50599032640457164 2.1258609294891362 -0.79184904694557179 -1.6318054199218748 1.2663316726684573 -0.026156895793974396 -0.91197848320007313 -2.9610078334808345 -1.0000000180025095e-35 -0.00011960490155615842 0.23766551166772845 -0.094709078302802382 -0.36542846262454981 1.7686570882797243 -0.29374434053897852 -0.38390871882438654 0.18287464231252673 -0.80573228001594532 -0.46859504282474512 1.2121941990101492 1.8768629431724551 1.8622027635574343 -1.2539720535278318 -2.8108031749725337 2.0253866910934453 0.024719537235796455 -1.3025248646736143 0.65341317653656017 1.0481012463569643 -1.0935751795768736 -1.5940178632736204 -2.3212774991989131 1.4153316617012026 2.2681384086608891 -1.3184846043586729 1.9232931137084963 -0.84483629465103138 -0.65140213767338484 -0.1482538021475823 1.7266166806221011 1.3839121460914614 2.8988833427429204 -1.3422878384590147 -0.53515407443046559 0.90431252121925365 0.69789871573448192 -0.40131106972694391 0.10591581836342813 -0.62382376194000233 1.2987464070320132 0.47196769714355474
decision_type=2 2 2 2 2 2 2 2 2 2 2 2 2 2 2 2 2 2 2 2 2 2 2 2 2 2 2 2 2 2 2 2 2 2 2 2 2 2 2 2 2 2 2 2 2 2 2 2 2 2 2 2 2 2 2 2 2 2 2 2 2 2
left_child=1 2 12 14 5 10 59 -6 -9 -8 11 35 18 32 34 16 17 -16 -1 20 31 33 23 -21 44 28 -27 29 -19 -28 -15 -18 -12 47 -4 53 -37 -20 40 -40 41 -39 -43 49 45 -25 55 48 -22 50 -23 -52 -11 -5 -45 56 57 -47 -55 -2 61 -17
right_child=6 -3 3 4 7 -7 9 8 -10 52 13 -13 -14 30 15 60 19 25 37 22 21 43 -24 24 -26 26 27 -29 -30 -31 -32 -33 -34 -35 -36 36 -38 38 39 -41 -42 42 -44 54 -46 46 -48 -49 -50 -51 51 -53 -54 58 -56 -57 -58 -59 -60 -61 -62 -63
leaf_value=-0.8537713072268035 -0.81757086400119927 -0.86987800476893207 -0.76876985396212205 -0.83916306004568841 -0.69782434162023388 -0.83302542130448154 -0.73898371876562108 -0.74555686249881503 -0.86541440646892287 -0.82214868882715719 -0.85641746614546699 -0.75047998339642952 -0.86387438965679986 -0.74681837493245828 -0.8318803561724053 -0.76740518422191362 -0.74228961204236854 -0.77830449589530692 -0.84303177444471544 -0.82516493660083057 -0.77779203114483031 -0.71707199756432205 -0.82521379216649682 -0.8572952164209261 -0.73795775188663049 -0.76570713841368188 -0.77499515621819082 -0.74598443393990976 -0.82911246630666102 -0.83476381316358994 -0.67791817012810118 -0.6697309544337563 -0.74681837493245828 -0.8123920924589304 -0.85201470811483959 -0.74426011985757268 -0.83747653914871767 -0.86104446402610146 -0.67647865967634835 -0.7872645130710606 -0.85827890207445789 -0.79643786398909411 -0.69134316977597121 -0.75188158810150285 -0.71534544187367799 -0.7220910548045667 -0.84517129074114705 -0.80274785681710559 -0.70085746571409979 -0.7685070641789622 -0.7950454803676068 -0.69897101048498811 -0.86772790540924016 -0.7971993237820949 -0.82762725711040797 -0.72051631494379054 -0.85314585148239208 -0.79030511815063353 -0.72185453261203913 -0.85390720872188541 -0.79411029733824978 -0.68833826282999477
leaf_weight=21.802283138036728 22.871022507548332 55.146951466798782 6.6261840909719494 15.603594794869421 21.802283138036728 27.787223607301712 8.122419208288191 25.222249120473865 5.5574447214603415 138.72237016260624 5.5574447214603406 64.5518579185009 23.726014003157616 32.917172580957413 47.02453225851059 20.092300146818165 23.084770381450653 27.573475733399391 17.527325659990311 32.489676833152771 19.664804399013523 35.909642815589905 53.864464223384857 8.7636628299951536 23.084770381450653 72.674277126789093 17.099829912185669 10.901141569018362 67.330580279231071 50.444498240947723 10.687393695116041 10.2598979473114 7.0536798387765884 148.34102448821068 20.092300146818161 28.428467229008675 8.122419208288191 7.4811755865812293 5.5574447214603451 21.802283138036728 12.397376686334608 8.3361670821905118 4.9162010997533825 8.977410703897478 5.3436968475580207 9.1911585777997917 6.8399319648742667 36.978382185101509 6.6261840909719458 42.963322654366493 11.96988093852997 4.2749574780464163 14.962351173162459 109.43891143798828 10.687393695116041 8.122419208288191 7.0536798387765876 19.023560777306564 4.9162010997533789 173.1357778608799 14.321107551455496 9.4049064517021161
leaf_count=102 107 258 31 73 102 130 38 118 26 649 26 302 111 154 220 94 108 129 82 152 92 168 252 41 108 340 80 51 315 236 50 48 33 694 94 133 38 35 26 102 58 39 23 42 25 43 32 173 31 201 56 20 70 512 50 38 33 89 23 810 67 44
internal_value=-0.80199 -0.793251 -0.790207 -0.786805 -0.772819 -0.778558 -0.837241 -0.738433 -0.767198 -0.822189 -0.773289 -0.780281 -0.825037 -0.744554 -0.792536 -0.791344 -0.79305 -0.803775 -0.815806 -0.78716 -0.781149 -0.7874 -0.799603 -0.788098 -0.774323 -0.798402 -0.788387 -0.809398 -0.814351 -0.819633 -0.729931 -0.719964 -0.795116 -0.803999 -0.83137 -0.791834 -0.764975 -0.805197 -0.794234 -0.764761 -0.818572 -0.79483 -0.757451 -0.756798 -0.787371 -0.793895 -0.782834 -0.78432 -0.758402 -0.749303 -0.733484 -0.769763 -0.826586 -0.799388 -0.793048 -0.773007 -0.785096 -0.768084 -0.79396 -0.849667 -0.759163 -0.742195
internal_weight=0 1443.44 1388.29 1264.75 367.646 315.064 357.814 52.582 30.7797 161.807 287.277 231.061 123.546 56.2157 897.1 870.381 826.563 293.048 99.8203 533.515 359.738 326.393 173.777 119.913 87.4229 246.024 151.12 78.4455 94.9041 67.5443 43.6046 33.3447 12.6111 211.61 26.7185 166.51 36.5509 78.018 60.4906 27.3597 33.1309 20.7335 13.2524 114.783 64.3381 58.9944 50.2308 63.2694 26.291 95.1178 52.1545 16.2448 153.685 129.959 19.6648 43.3908 35.2684 28.2147 114.355 196.007 43.8183 29.4972
internal_count=8427 6753 6495 5917 1720 1474 1674 246 144 757 1344 1081 578 263 4197 4072 3867 1371 467 2496 1683 1527 813 561 409 1151 707 367 444 316 204 156 59 990 125 779 171 365 283 128 155 97 62 537 301 276 235 296 123 445 244 76 719 608 92 203 165 132 535 917 205 138
is_linear=0
shrinkage=1


Tree=1
num_leaves=63
num_cat=0
split_feature=12 14 12 6 13 10 12 10 0 10 2 7 12 7 13 9 7 12 7 17 7 12 5 0 10 12 2 8 8 6 0 10 8 7 9 0 7 7 13 7 7 10 12 17 3 4 6 13 6 12 8 11 12 2 2 8 10 12 12 17 0 4
split_gain=202.374 123.944 59.3647 35.8471 25.1813 25.1607 36.7842 22.2835 27.3306 21.2247 18.0557 16.6241 16.2654 21.8124 15.3404 20.346 22.3845 21.4438 18.0646 18.8128 15.7572 14.906 14.4828 21.9938 19.3603 14.883 28.4131 14.2232 13.6839 13.6744 13.5721 13.0854 12.224 11.9578 19.3842 11.8416 15.509 18.3749 11.7881 11.5657 18.5927 11.6145 11.5517 11.5239 11.5043 11.1675 11.6245 11.1102 10.7253 10.6398 15.9471 20.632 13.2451 12.9382 12.7092 21.6924 11.7984 11.0904 10.5984 10.4562 11.4691 11.3659
threshold=1.3575276136398318 1.0000000180025095e-35 -2.1569017171859737 0.068163276803931819 -0.19145254045724866 1.0642024874687197 0.82425633072853099 0.27212184667587286 0.50599032640457164 1.2452793717384341 -0.79184904694557179 2.1258609294891362 1.059038043022156 2.579545378684998 -0.17373418807983396 1.2930717468261721 -0.90725311636924733 0.12047344073653223 -1.2394179701805113 -0.45575623214244837 -0.49855363368988032 -2.9610078334808345 -1.1578067541122434 1.1546895503997805 0.69072589278221141 0.47666192054748541 0.48346157371997839 1.9478021860122683 1.8622027635574343 0.82221000222286267 -0.024166222661733624 -0.27688917517662043 1.6811812520027163 2.0253866910934453 0.024719537235796455 -1.3025248646736143 0.65341317653656017 1.0481012463569643 -0.07306474074721335 -1.0935751795768736 -1.5940178632736204 -2.3212774991989131 1.2856070399284365 -0.26823955774307245 0.29571008682250982 1.0014567971229555 -0.071413541740513328 -0.59810337424278248 -0.02506805975860503 -0.85878238081932057 1.0000000180025095e-35 -0.077749747782945619 -0.78167337179183949 -0.14804246276617047 -0.56918016076087941 1.4086409211158755 -1.1977995634078977 -0.50606051087379444 2.8988833427429204 1.814023017883301 -1.3807002902030943 -1.4879722595214842
decision_type=2 2 2 2 2 2 2 2 2 2 2 2 2 2 2 2 2 2 2 2 2 2 2 2 2 2 2 2 2 2 2 2 2 2 2 2 2 2 2 2 2 2 2 2 2 2 2 2 2 2 2 2 2 2 2 2 2 2 2 2 2 2
left_child=1 2 11 14 -2 6 7 8 33 -6 28 21 -7 30 15 16 17 18 -4 -20 47 -1 25 24 48 38 -27 -22 -9 -12 -14 -25 -8 59 -35 -23 39 -38 -16 40 -37 -42 44 -44 -17 46 -26 -18 49 54 51 -51 -52 -54 55 -24 -57 -55 -11 60 -5 -62
right_child=4 -3 3 5 9 12 32 10 -10 58 29 -13 13 -15 22 42 20 -19 19 -21 27 35 23 31 45 26 -28 -29 -30 -31 -32 -33 -34 34 -36 36 37 -39 -40 -41 41 -43 43 -45 -46 -47 -48 -49 -50 50 52 -53 53 57 -56 56 -58 -59 -60 -61 61 -63
leaf_value=-0.050227245714993367 -0.046170485988718209 -0.066293522089463 0.022466990672936161 -0.046622016261839511 0.058450211327785384 0.095382734509311035 0.03677380040179852 -0.054363166830031374 0.047603467704225404 -0.019304351937660558 0.042028732734395759 -0.060279307646976012 0.038391336439044799 -0.060615882258642055 0.08108531080358361 0.035994001096129102 0.094007914324059361 -0.0346156151285575 0.028011936176805832 -0.052116137575749025 -0.00012866321016074926 -0.039634911512773492 0.095218160102605254 0.054188415547470448 0.063792061714522841 -0.021205866998213488 0.09310396721780928 0.049434358061322181 0.047821062638089315 0.095384929254163142 0.13356128168850126 0.0059298006139723927 -0.049283548819393216 0.053658391425936314 -0.034192721367491456 -0.057455015147058121 0.11392123857609573 0.013909168503829004 0.033253550644289975 -0.054701488484562522 0.0052627080283981602 0.10093608683201954 -0.030700807876649052 0.071493234364675973 0.12731982737999345 -0.037715293473957287 -0.0087126511601285424 0.024987052012794667 -0.047034731840333049 0.094858594290122056 0.090765662496325797 -0.029763712138616179 -0.01425757691433417 -0.024542135247611011 -0.021115929337004673 0.022600186231193652 -0.044668544946365539 0.03763786010017478 -0.064136081922845298 0.079313145082355901 0.082552591125624242 0.0015452870170024934
leaf_weight=21.36441895365715 192.38388389348984 53.687114238739014 47.257382422685623 12.008845388889311 8.3125419020652753 19.968745708465576 5.0686383247375515 5.8730925321578962 66.004161238670349 137.64960171282291 24.201011195778847 23.154618144035339 20.514679789543159 4.794795647263526 16.564320951700211 7.787468150258066 6.8898122161626807 74.492597639560699 10.931223064661024 22.206159561872482 215.46861134469509 17.249344497919083 6.8538468629121772 40.362711310386658 25.539619609713554 25.399870306253433 6.9164331406354895 15.517523556947706 7.4099152535200119 23.834822043776512 4.583066761493682 21.544664695858955 22.198946729302406 29.03949673473835 8.0112490653991681 7.3094061762094489 5.8096102476120022 21.923859894275665 57.92836306989193 12.126311331987379 8.3537542819976789 5.1141819804906872 7.1076904386281967 4.5083331763744336 6.1888313144445419 4.290301874279975 7.0553354918956748 37.918618872761726 11.921333849430082 11.349200293421747 4.2847520112991324 4.6950938552618018 57.305976346135139 9.3997814953327161 75.010458469390869 16.282288774847984 10.869912832975389 30.245183274149895 14.57908660173416 4.2807765007019034 4.5087358951568595 109.28108656406403
leaf_count=102 917 258 220 57 38 90 24 28 303 649 111 111 94 23 77 36 32 350 51 104 1007 82 32 186 118 119 32 72 34 108 21 100 105 133 38 35 26 102 269 58 39 23 33 21 28 20 33 177 56 53 20 22 267 44 351 76 51 140 70 20 21 510
internal_value=0 0.00825564 0.0111266 0.0143277 -0.03397 0.0273932 0.0222711 0.027416 0.0203618 -0.0193496 0.054236 -0.02213 0.0604425 0.0371017 0.00893394 0.00249618 -7.76052e-05 -0.0152883 0.00262003 -0.0256838 0.00846481 -0.01323 0.0155524 0.0104675 0.00440826 0.0315963 0.00325907 0.00320095 0.00264022 0.0685035 0.0557702 0.0373937 -0.0332868 0.00960335 0.0346629 -0.00308161 0.00731664 0.0348597 0.0438895 -0.0158986 0.00674806 0.0415928 0.0458093 0.00896206 0.0764339 0.0381167 0.0480981 0.0355998 -0.000811102 0.00162397 0.0120768 0.05839 0.00473684 0.000934791 -0.00962116 0.015734 -0.00432968 0.022895 -0.0235979 0.0024656 -0.00014943 0.00475507
internal_weight=0 1447.77 1394.08 1271.68 352.925 371.582 321.721 294.453 233.134 160.541 61.3188 122.406 49.8613 29.8925 900.094 456.274 430.682 154.887 80.3948 33.1374 275.795 99.2509 443.819 337.01 275.103 106.809 32.3163 230.986 13.283 48.0358 25.0977 61.9074 27.2676 167.13 37.0507 77.8865 60.6371 27.7335 74.4927 32.9037 20.7773 13.4679 25.5923 11.616 13.9763 36.8853 32.595 44.8084 238.218 226.296 117.28 16.0443 101.236 96.9509 109.017 34.006 27.1522 39.645 152.229 130.079 125.799 113.79
internal_count=8427 6753 6495 5917 1674 1720 1492 1363 1082 757 281 578 228 138 4197 2131 2013 725 375 155 1288 467 2066 1569 1283 497 151 1079 62 219 115 286 129 779 171 365 283 128 346 155 97 62 118 54 64 171 151 209 1112 1056 546 75 471 451 510 159 127 184 719 608 588 531
is_linear=0
shrinkage=0.05


Tree=2
num_leaves=63
num_cat=0
split_feature=12 14 12 6 7 10 12 12 2 0 12 7 13 7 7 17 8 9 0 4 11 0 13 18 2 12 17 12 0 1 0 0 6 0 7 6 13 7 16 18 7 0 7 6 2 18 8 11 13 17 11 3 2 17 17 11 1 8 10 7 7 0
split_gain=184.603 114.242 53.6044 31.7871 24.9001 21.9523 29.1413 18.0817 21.4675 21.2017 17.7357 21.0133 17.3423 17.0614 15.6099 15.1291 14.9334 15.3059 17.8129 15.7184 14.5734 24.6156 18.6888 17.8243 15.8869 13.8198 13.5299 13.3215 46.7456 55.3189 19.3663 47.3106 13.8643 13.5382 12.5009 12.4526 12.3978 11.4078 11.2372 11.1822 10.9107 11.9181 10.653 10.4468 10.0944 13.3692 10.0426 10.0029 9.98756 11.592 9.89369 9.88363 9.80838 9.76555 9.72892 9.64729 9.53565 15.7543 11.5587 9.5205 9.5043 9.43247
threshold=1.3575276136398318 1.0000000180025095e-35 -2.1569017171859737 0.068163276803931819 -1.6527969241142271 1.0092722773551943 0.81313526630401622 -0.26387751102447504 -0.79184904694557179 0.67660871148109447 1.059038043022156 2.579545378684998 -0.056144593283534043 2.0253866910934453 2.1258609294891362 0.49876138567924505 -1.6318054199218748 1.2663316726684573 -0.026156895793974396 -0.91197848320007313 -0.29374434053897852 -0.38390871882438654 -0.12933444976806638 0.236078716814518 -0.46859504282474512 -2.9610078334808345 1.6178226470947268 -1.0000000180025095e-35 1.0000000180025095e-35 0.23766551166772845 0.073393534868955626 0.0054824580438435086 -0.40064781742112182 0.032221408560872085 2.6920570135116582 0.35652853614588675 -0.38519236445426935 -0.82856082916259755 1.4153316617012026 0.8175359070301057 -1.5794528126716612 -1.3025248646736143 2.863937616348267 0.3011972848814411 0.15273130685091021 0.16912975907325747 1.6552174687385561 0.15018599480390551 -0.49837967753410334 -0.3420740514993667 0.94711962342262279 1.3218700885772707 0.09049545601010324 -0.53515407443046559 -0.41164013743400568 0.96183556318283092 0.05051743611693383 1.7002640366554262 -1.3540785908699033 2.0961443185806279 -1.2004513144493101 -1.3807002902030943
decision_type=2 2 2 2 2 2 2 2 2 2 2 2 2 2 2 2 2 2 2 2 2 2 2 2 2 2 2 2 2 2 2 2 2 2 2 2 2 2 2 2 2 2 2 2 2 2 2 2 2 2 2 2 2 2 2 2 2 2 2 2 2 2
left_child=1 2 14 16 -2 6 7 9 -9 13 -7 54 43 26 25 51 34 18 19 -18 22 47 -21 24 -23 -1 39 28 37 33 31 46 -33 -30 -4 -15 -32 -20 -31 61 -27 -42 -14 -6 45 -43 -29 60 -35 -50 -48 -10 -37 -40 -12 -49 57 58 -51 -8 -22 -5
right_child=4 -3 3 5 12 10 59 8 15 -11 11 -13 42 35 -16 -17 17 -19 27 20 21 23 -24 -25 -26 40 -28 30 29 38 36 32 -34 48 -36 52 -38 -39 53 -41 41 44 -44 -45 -46 -47 50 55 49 56 -52 -53 -54 -55 -56 -57 -58 -59 -60 -61 -62 -63
leaf_value=-0.048742633141879883 0.0084736253463281574 -0.064817236245965984 -0.048630854111321849 -0.050074496959760573 -0.048458818063465574 0.08810648622482524 0.0050766653098318773 0.0016912952045515439 0.068428274444123985 0.04542537135265224 -0.018588197370405037 -0.060374969826821417 -0.011517644858759684 0.094787930825367905 -0.058769928613511935 -0.022022339357210152 -0.028586482558160542 0.037975011131403447 0.022226872195060008 -0.0342973041719844 0.066767065165406689 0.024303735597933876 0.010111515027480127 0.055250339551197528 -0.030526159822780397 -0.048345142252470046 0.080517173483210011 -0.017430616430951004 -0.016386880211900181 0.047420288866083342 -0.050958632203096654 0.095044435564011168 0.019249836112526144 0.053410463013127255 0.030219090523035438 0.059428149924188968 -0.0049359306751997206 0.089169856283791787 0.043861613123735405 0.065299108920599383 -0.037238421549824971 -0.026530416517588529 -0.070662799856590672 -0.01811042142812045 0.042812133655340923 0.040184632755365948 0.00099210639599544583 0.058775795837844869 -0.013423457293356915 -0.048327087693334853 0.082928684841487355 0.0010119775713478072 -0.0096026008965150959 -0.026164733824766608 0.062640513830965569 0.0019010262040237012 0.0052972123601641398 0.12104678854617033 0.052180425481318307 -0.054683217695403991 -0.0059201661913308497 -0.0031064272161395153
leaf_weight=20.925632178783417 33.158174991607666 52.202145516872406 19.733487501740459 12.034528881311415 198.41726005077362 23.283231407403946 11.757536217570307 23.991489082574844 62.746585264801979 47.843577146530151 4.4370899647474351 5.2868980318307868 74.914409890770912 7.963358178734782 22.576568126678467 5.7236273288726798 46.400405555963516 44.981509387493134 8.317353352904318 47.727655217051506 5.6874901950359371 17.952013149857521 47.041462376713753 10.063964337110518 50.027202799916267 11.313689574599264 4.8423419892787924 48.433201923966408 94.599077835679054 97.792661219835281 19.223763361573219 19.504466995596889 8.7356210350990278 11.45631195604801 6.7447014749050131 9.308934614062311 61.279001221060753 27.098674610257149 9.2829393148422259 5.4120860546827307 13.454727977514265 20.407639056444168 8.4745721071958524 33.084540948271751 20.602205619215965 11.881138429045675 11.452284872531893 37.412820488214493 49.249429896473885 4.2371744513511667 5.4315097630023947 5.9523212462663642 11.50617542862892 10.737420529127119 21.784047901630402 9.3117342591285688 37.15258677303791 5.4053770750761023 8.8046993166208267 15.386390209197996 21.489075899124146 95.64865605533123
leaf_count=102 158 258 94 58 960 102 56 111 283 216 20 26 356 36 111 26 220 205 38 225 26 83 219 46 238 55 22 228 443 445 91 89 41 53 31 42 286 122 42 25 65 95 41 159 95 55 53 172 231 20 25 27 52 50 98 43 173 25 41 74 99 446
internal_value=0 0.00780719 0.0105174 0.0135315 -0.0327395 0.0257695 0.020764 0.0253559 0.0428211 0.0165215 0.0550141 0.0305601 -0.0370793 0.00709603 -0.021267 0.05608 0.00844922 0.00956706 0.00802993 -0.00188768 0.00313367 0.0127309 -0.0122537 -0.00685262 -0.0160466 -0.0126786 -0.00132657 0.0134313 0.01887 0.0129897 0.00205351 0.0175243 0.0715986 -0.0023405 -0.0285457 0.0416128 -0.015926 0.0734485 0.0404334 -0.00483083 -0.00296106 0.00477812 -0.0175284 -0.0441216 0.0154665 -0.00198162 -0.005855 0.0334121 0.00908435 0.00424108 0.0273511 0.0625871 0.0212693 0.00630473 0.0488951 0.0474412 0.019888 0.0492738 0.0195265 -0.0287979 0.00929176 -0.00835552
internal_weight=0 1451.04 1398.84 1277.68 348.049 374.909 320.118 292.974 98.414 194.56 54.7913 31.508 314.891 146.716 121.162 74.4225 902.767 876.289 831.307 293.114 246.713 151.944 94.7691 78.0432 67.9792 98.585 117.938 538.194 364.134 328.718 174.06 93.5571 28.2401 210.905 26.4782 28.7785 80.5028 35.416 117.813 113.095 77.6594 66.3457 83.389 231.502 52.891 32.2888 65.317 73.9011 116.306 104.849 16.8838 68.6989 20.8151 20.0204 26.2211 46.7246 55.5998 18.4473 13.0419 27.1439 27.1766 107.683
internal_count=8427 6753 6495 5917 1674 1720 1474 1344 447 897 246 144 1516 681 578 336 4197 4072 3867 1371 1151 707 444 367 321 467 551 2496 1683 1523 813 436 130 986 125 130 377 160 537 529 365 310 397 1119 245 150 306 340 543 490 78 310 94 92 118 215 259 86 61 130 125 504
is_linear=0
shrinkage=0.05


Tree=3
num_leaves=63
num_cat=0
split_feature=12 14 12 6 7 10 12 9 0 13 7 8 6 10 7 12 0 12 11 0 10 2 0 12 4 7 12 12 3 0 12 18 7 7 10 17 8 1 10 13 3 8 2 12 7 0 7 0 9 7 12 17 7 16 1 13 10 2 10 4 2 7
split_gain=168.424 105.436 48.4131 28.2553 23.079 19.2986 29.9387 18.528 18.5157 16.3472 14.6859 13.5515 13.982 20.3565 16.5333 19.8429 14.8336 13.2683 18.4694 16.991 20.9752 15.4196 15.2482 39.0217 12.9444 12.8954 12.8277 12.3508 12.1025 11.7883 26.716 17.97 11.6955 11.5389 11.5113 11.4295 11.0924 10.6572 17.6154 15.8942 12.3424 10.4869 10.9 17.3041 10.2326 10.6919 10.1406 11.2915 10.1124 10.0535 10.0369 9.87402 9.7269 9.38838 9.7724 9.33442 9.24827 9.2406 9.19018 9.10207 9.07289 8.95277
threshold=1.3575276136398318 1.0000000180025095e-35 -2.1569017171859737 0.068163276803931819 -1.6527969241142271 1.0642024874687197 0.82425633072853099 0.54814985394477855 0.43380856513977056 -0.056144593283534043 2.1258609294891362 -1.6318054199218748 -0.071519251638540268 1.0092722773551943 -1.1348185539245603 0.33146682381629949 -0.026156895793974396 0.79189601540565502 0.58997970819473278 1.1422846317291262 -0.29609428346157068 0.44228008389472967 -0.00011960490155615842 0.041842995211482055 1.2309123277664187 -1.4039856791496275 -2.9610078334808345 0.73561400175094616 1.062263607978821 -0.065761558711528764 -0.39412145316600794 -0.80573228001594532 1.8768629431724551 2.5392385721206669 0.87874868512153637 -0.48863020539283747 1.6811812520027163 0.032947462052106864 1.0000000180025095e-35 -0.46055872738361353 0.48173648118972784 1.2180090546607973 -0.16614906489849088 1.2639971971511843 0.5092064142227174 -0.026156895793974396 -1.6018245220184324 -1.3025248646736143 1.1465834975242617 2.863937616348267 1.059038043022156 1.9361158013343813 1.9232931137084963 -0.6781443953514098 0.035456983372569091 -0.32866106927394861 0.22848097234964374 -1.6092521548271177 -0.93202802538871754 -0.86700749397277821 1.2028462290763857 1.9102566838264468
decision_type=2 2 2 2 2 2 2 2 2 2 2 2 2 2 2 2 2 2 2 2 2 2 2 2 2 2 2 2 2 2 2 2 2 2 2 2 2 2 2 2 2 2 2 2 2 2 2 2 2 2 2 2 2 2 2 2 2 2 2 2 2 2
left_child=1 2 10 11 -2 6 7 8 51 48 26 33 13 16 15 24 29 18 19 22 35 34 23 32 -14 -15 -1 -7 -22 30 31 -13 59 -4 -19 -21 -8 38 40 -39 60 -27 52 -44 45 -29 -28 -48 -6 -11 -46 56 -43 -41 -55 -37 61 -31 -57 -18 -24 -5
right_child=4 -3 3 5 9 27 36 -9 -10 49 -12 12 14 25 -16 -17 17 21 -20 20 28 -23 37 -25 -26 41 46 44 -30 57 -32 -33 -34 -35 -36 55 -38 39 -40 53 -42 42 43 -45 50 -47 47 -49 -50 -51 -52 -53 -54 54 -56 58 -58 -59 -60 -61 -62 -63
leaf_value=-0.04732018981760145 0.0080221153182602669 -0.063445091592855038 -0.048803346791898884 -0.0024857366560310365 -0.0055192139990534288 0.12434277501938405 0.03504977779394728 0.05694912275602685 0.040316999188209302 -0.010993562111584072 -0.057344837313723265 0.022016516313872699 -0.0020215813566577447 0.11102285018608804 0.010557671878568707 -0.037124867133664731 -0.010387334101095241 -0.02015472683760941 0.068515102838205125 0.073541807847685783 -0.040191880505785794 -0.060383959314256885 -0.033511123493560675 -0.020112489027284391 0.08277044971509305 0.07336908094655506 -0.052636368026621007 0.048599430282917522 0.038414303091374905 -0.071413941756787835 0.032666063337816964 -0.025910966589603363 0.11010225372693368 0.024214829175198585 0.052485377117591152 -0.019927116209187107 -0.046844099575989499 0.063993053118706872 0.056443511726268561 0.040344618924195878 0.01096088378451824 0.014358159691184876 0.068105328498336865 -0.034940510111680451 0.060579578516624627 0.12752738598082006 -0.036955035089170328 0.01386800657477669 -0.045720791940556373 -0.069254232779324854 -0.0082645658906601079 0.082337400200930749 -0.062704828634919232 0.075172699268302348 -0.0012231621740106343 0.061393924077407618 0.039099333077021584 -0.01341619102037684 0.002648830442663108 0.064053247531453819 0.036184815492215416 0.024065441100203817
leaf_weight=20.488141894340515 33.270230188965797 50.702694565057755 18.516647666692737 114.20044842362404 16.899491965770721 5.385882005095481 5.1214070320129421 37.934912323951721 76.153386875987053 74.570434153079987 21.995560705661774 27.68733623623848 26.248131856322292 5.6131864935159674 103.50937087833881 55.204089373350143 5.3646970838308361 13.410469755530359 16.757789298892021 26.753550782799721 12.525422722101213 12.189111083745955 57.078422278165817 21.084508091211319 5.432606413960456 12.21574407815933 9.029963091015814 18.68032231926918 8.0397305041551572 9.0086459219455701 52.493887916207314 66.608164682984352 10.612797275185583 7.6441698074340811 9.1924385428428632 7.2993491590023032 21.465887561440468 13.698294341564177 9.5102500766515714 18.449007898569107 30.648588344454765 20.437018528580666 18.838931962847717 5.1982093304395667 8.8984137475490588 5.5702174901962307 13.650317221879957 54.815371826291084 210.30379182100296 8.2210186719894391 13.071282193064688 4.7316592633724204 5.1206714361906043 4.3586555719375601 105.68962374329567 21.193001627922058 22.585163652896881 28.899682804942131 9.707066163420679 17.507376328110695 5.0855428576469413 43.97432978451252
leaf_count=102 158 258 90 534 82 23 24 169 339 356 111 127 123 25 481 263 24 63 76 119 59 57 269 99 25 56 45 82 37 43 240 316 46 35 43 33 105 62 43 85 144 94 85 24 38 24 67 253 1037 41 61 21 24 20 490 95 101 136 44 78 24 199
internal_value=0 0.00738831 0.0099489 0.01279 -0.0315522 0.0242753 0.0197802 0.024293 0.0195583 -0.0357995 -0.0204236 0.00799486 0.00905069 0.012368 -0.00294142 -0.0190234 0.00953431 0.0145636 0.0171312 0.0148924 0.0345459 -0.0150564 0.00927281 0.0331708 0.0125185 0.0384612 -0.0121354 0.0526863 -0.00946162 -0.00234221 0.00407703 -0.0118384 0.0667218 -0.0274675 0.00938748 0.0484794 -0.0310692 0.00393948 -0.00836583 0.0127943 -0.0150067 0.0318717 0.0216505 0.0458209 0.0443365 0.0667288 -0.00283335 0.00373518 -0.0427306 -0.0167787 0.0196195 0.0110358 -0.00108198 0.0073363 0.00180263 0.0309266 0.00916937 -0.0271989 0.0429395 0.046593 -0.0278094 0.00489578
internal_weight=0 1453.29 1402.58 1282.61 343.265 377.773 326.167 299.58 261.645 309.995 119.979 904.832 878.671 688.277 190.394 86.8848 620.853 436.156 401.364 384.606 85.5181 34.792 299.088 54.5694 31.6807 67.4238 97.9838 51.6061 20.5652 184.698 146.789 94.2955 33.4849 26.1608 22.6029 64.953 26.5873 244.518 102.323 142.196 92.8126 61.8106 49.5948 24.0371 46.2202 24.2505 77.4957 68.4657 227.203 82.7915 21.9697 185.492 25.5577 128.497 110.048 38.1994 180.76 37.9083 30.9001 22.8721 62.164 158.175
internal_count=8427 6753 6495 5917 1674 1720 1492 1363 1194 1516 578 4197 4072 3180 892 411 2872 2010 1847 1771 387 163 1384 247 148 308 467 228 96 862 683 443 148 125 106 291 129 1137 480 657 437 283 227 109 205 106 365 320 1119 397 99 855 118 595 510 172 834 179 139 102 293 733
is_linear=0
shrinkage=0.05


Tree=4
num_leaves=63
num_cat=0
split_feature=12 14 12 6 13 10 10 12 9 0 12 7 8 7 7 7 12 0 10 10 8 7 6 11 2 2 12 4 12 11 9 12 3 12 4 7 18 0 0 12 9 12 12 8 12 6 15 10 8 3 12 18 6 17 3 7 12 5 8 8 7 2
split_gain=153.71 97.4264 43.7401 25.1737 21.5866 19.0142 17.0667 23.6551 14.3732 17.4663 13.8497 13.8323 12.3028 12.6668 30.903 17.0715 15.1383 24.6349 16.9851 16.2495 13.0098 18.1448 12.7398 19.2552 11.9262 19.9339 11.9142 11.6604 12.7097 14.0777 12.784 12.4973 16.2747 14.0854 12.2612 12.2297 11.5205 12.7427 21.719 11.8063 15.7815 11.0973 11.3472 10.6786 10.5768 12.1419 10.4543 10.3347 9.97419 9.94952 9.82756 9.60886 9.57595 9.57275 9.94835 9.37714 10.247 9.37457 9.19523 15.7758 12.1334 18.0698
threshold=1.3575276136398318 1.0000000180025095e-35 -2.1569017171859737 0.068163276803931819 -0.19145254045724866 1.2452793717384341 1.0092722773551943 0.81313526630401622 0.52799519896507274 0.43380856513977056 0.72239333391189586 2.1258609294891362 -1.6318054199218748 -0.98078256845474232 -1.4902456402778623 -0.26296266913413996 -0.50606051087379444 1.1546895503997805 -0.59502714872360218 -0.75662821531295765 1.7190494537353518 2.6604648828506474 -0.071519251638540268 0.38746118545532232 1.1684694290161135 0.45068171620368963 -2.9610078334808345 1.1817330121994021 0.99816006422042858 0.58997970819473278 -1.0000000180025095e-35 -0.29072439670562739 -0.59208568930625904 0.13954611122608188 1.2523583769798281 2.1597332954406743 -0.73369878530502308 -0.026156895793974396 1.0000000180025095e-35 -0.85878238081932057 -0.78394076228141774 0.33146682381629949 0.99816006422042858 -2.8108031749725337 0.24332056194543841 -0.049369431133786924 -0.62382376194000233 0.60181778669357311 2.1193645000457768 -1.2469612360000608 2.8988833427429204 0.10344138368964197 -0.071388326668880633 2.1884346008300786 0.8639739751815797 2.4207611083984379 1.0739865899086001 1.4086443185806277 -0.59024178981780995 -0.34636546671390528 -0.71576622128486622 -0.30618476867675776
decision_type=2 2 2 2 2 2 2 2 2 2 2 2 2 2 2 2 2 2 2 2 2 2 2 2 2 2 2 2 2 2 2 2 2 2 2 2 2 2 2 2 2 2 2 2 2 2 2 2 2 2 2 2 2 2 2 2 2 2 2 2 2 2
left_child=1 2 11 12 46 -6 7 8 9 -5 -8 26 43 14 22 24 17 18 36 -18 27 57 23 -14 25 58 -1 28 29 30 31 -21 -33 -34 -29 -36 -17 -38 -39 -40 -41 49 -43 -4 45 -24 -2 -32 -23 -16 -7 -51 -44 54 -28 -12 -57 -22 -15 -60 -61 -62
right_child=4 -3 3 6 5 50 10 -9 -10 -11 55 -13 13 15 41 16 19 -19 -20 20 21 48 44 -25 -26 -27 53 34 -30 -31 47 32 33 -35 35 -37 37 38 39 40 -42 42 52 -45 -46 -47 -48 -49 -50 51 -52 -53 -54 -55 -56 56 -58 -59 59 60 61 -63
leaf_value=-0.045953262824641454 -0.009494094374137528 -0.062164640888728299 0.026956243814233467 0.010084829428650664 0.056396316480081692 -0.016828121339596408 0.11704442674496983 -0.026779164274429491 0.052008431143039116 0.038478045784152655 0.051185250139067398 -0.055993810933611846 0.016021099855559055 0.090560761880211837 0.033869189934606102 0.027203909538367033 0.088898372329383524 0.040522135717951407 -0.047924047515160204 -0.018262962949091948 0.067671381083156359 -0.026381107192883991 0.074253490081875914 0.073992954212528245 -0.027404745344306036 0.097782723566528867 -0.017613897966485777 0.096691877415377381 -0.033421718643538094 0.042121307037017552 -0.024634677464798346 -0.032615456045182026 0.074307027626012032 0.0016883732058204028 9.7034542240768582e-05 0.07590274436352408 -0.038932790649937182 0.072122821557485797 -0.021853901033489664 0.078565836695140834 -0.012130060605207413 -0.047379667703593982 0.033847134355350091 -0.04578630023716948 -0.024243855072497572 -0.022556663192788932 -0.046526280947562358 0.049175943833532874 0.04112483792111829 -0.029087692904640212 -0.061190629966541787 0.0051197194872838912 -0.042712603130888094 0.059778906150254718 0.027203481321384476 0.055869281668387893 -0.040261143161020162 -0.0089889875308799775 -0.030898444129155551 0.01626160018814846 0.080289551834072589 -6.7184977412996933e-05
leaf_weight=20.053847998380661 21.62924000620842 49.197957426309586 6.87354348599911 184.57849802076817 8.3964925408363325 134.42985984683037 6.483273282647132 26.509851336479187 36.264636427164078 76.65944904088974 38.406969368457794 21.414778232574463 103.85316036641598 5.3926713913679114 13.935385376214979 25.714116841554642 7.5122827142477027 28.558618709445 24.80405655503273 17.132552355527878 30.400044128298759 13.818354681134226 7.0495718419551849 16.615257829427719 8.5441084504127485 11.011663198471068 55.736213862895966 6.4050137251615515 21.735421523451805 24.411675080657005 48.018538385629654 7.4861140251159659 19.80758993327618 10.073375716805456 20.370467945933346 7.2013853788375846 28.218546405434608 9.2654279321432096 51.76018925011158 7.8641110509634045 12.295480012893675 40.36996029317379 9.6886975616216677 18.96714586019516 29.692850291728973 5.9915156811475736 160.30650395154953 5.2621084600687018 9.0590937286615354 40.676634669303894 13.762024670839308 41.447314262390137 7.060901314020156 5.6795856207609168 15.918655246496199 4.7345423549413663 6.6880548000335693 4.5900847017765036 11.729591399431227 53.366917431354516 22.255189716815948 10.203500643372541
leaf_count=102 107 258 31 848 38 649 27 130 159 337 166 111 476 24 64 118 33 126 117 79 137 64 32 74 39 50 264 29 102 111 225 35 90 47 94 32 136 40 244 36 57 195 44 94 142 28 810 24 41 192 70 192 34 27 74 20 33 21 54 246 101 47
internal_value=0 0.00699687 0.00941759 0.0120976 -0.0304102 -0.0168006 0.0228942 0.0184786 0.0225115 0.0184167 0.0483007 -0.0196106 0.00756775 0.00856554 0.000557273 0.0130557 0.00847597 -0.00225363 -0.00989246 0.0164604 0.0142462 0.0349758 0.0156964 0.0240167 0.0295709 0.0338427 -0.0116103 0.00786228 0.00201044 0.0078363 7.09267e-05 0.0170973 0.0333097 0.0498261 0.0343732 0.0198964 -0.00291087 -0.009989 7.13467e-05 -0.00921105 0.0232498 -0.0155725 -0.0330249 -0.026437 -0.00775876 0.0297756 -0.0421237 -0.017345 0.000350138 -0.00519482 -0.0209479 -0.0118235 0.00157288 -0.00270474 -0.00765739 0.0393565 -0.000416127 0.0576149 0.0270034 0.0234901 0.0309232 0.0550291
internal_weight=0 1454.82 1405.62 1286.82 338.524 156.588 380.325 324.012 297.503 261.238 56.3128 118.803 906.49 880.65 316.381 564.268 441.765 188.481 159.922 253.284 245.772 57.8676 163.202 120.468 122.504 113.96 97.3883 187.904 153.927 132.192 107.78 54.4996 37.3671 29.881 33.9769 27.5719 135.118 109.404 81.1852 71.9198 20.1596 153.179 57.1196 25.8407 42.7339 13.0411 181.936 53.2806 22.8774 96.0593 148.192 82.1239 16.7496 77.3345 71.6549 49.8296 11.4226 34.9901 102.948 97.5552 85.8256 32.4587
internal_count=8427 6753 6495 5917 1674 757 1720 1474 1344 1185 246 578 4197 4072 1473 2599 2038 874 748 1164 1131 263 752 550 561 522 467 868 713 611 500 251 172 137 155 126 631 513 377 337 93 721 273 125 202 60 917 249 105 448 719 384 78 365 338 219 53 158 472 448 394 148
is_linear=0
shrinkage=0.05


Tree=5
num_leaves=63
num_cat=0
split_feature=12 14 12 6 6 6 10 12 10 0 2 8 8 11 16 7 13 7 9 6 8 9 13 7 12 7 17 15 11 3 7 8 7 8 7 10 11 8 12 12 9 10 12 7 0 8 6 0 12 0 9 13 7 0 18 3 13 7 13 10 17 8
split_gain=140.309 90.1191 39.5259 22.466 21.4413 15.845 15.1751 24.5298 14.6051 18.8987 15.5097 13.3612 24.8049 13.254 12.6527 11.9504 11.6989 11.1953 14.2777 11.7827 10.9408 11.9888 13.8153 20.3657 18.4623 15.8769 17.3719 13.2353 13.6128 11.1812 10.5272 10.3568 10.2148 10.2296 9.91396 9.56352 11.6222 11.1689 9.46736 15.5019 9.78419 9.50755 9.3672 15.1469 9.7179 9.28692 10.5799 13.9329 9.22347 14.6062 13.2918 9.1916 14.375 11.696 9.08629 8.85637 8.84873 8.73365 8.72593 9.9752 9.29258 8.65308
threshold=1.3575276136398318 1.0000000180025095e-35 -2.1569017171859737 0.068163276803931819 0.019190043896686496 -0.53738833282214393 1.0642024874687197 0.82425633072853099 0.089119944721460356 0.50599032640457164 -0.79184904694557179 -1.2193136215209959 -0.88570374250411976 -2.579336285591125 -0.06815642490983008 -1.5940178632736204 -0.37775813043117518 2.0253866910934453 -0.57235962152481068 0.53641937734891931 -1.6318054199218748 1.2663316726684573 -0.17373418807983396 -0.90725311636924733 0.12047344073653223 -1.2394179701805113 -0.45575623214244837 -0.05885383486747741 0.83484175801277172 -1.0015927553176878 -1.2004513144493101 1.6811812520027163 -0.49855363368988032 1.6896635890007021 2.5392385721206669 1.2600742578506472 1.8104816675186159 2.2056834697723393 -0.52658072113990773 0.56453895568847667 -0.73868009448051442 0.75122526288032543 1.059038043022156 2.579545378684998 -0.024166222661733624 1.4128426909446719 -0.78213069770955435 0.036391936242580421 -1.1665940880775449 0.031194348819553856 -1.4624687433242796 0.2905022948980332 -1.2277607917785642 -0.022480916231870648 0.10715343803167345 0.51709654927253734 -0.26774767041206354 2.2190164327621464 -0.22571970522403714 -1.7903090119361875 -0.55916661024093617 1.5548145174980166
decision_type=2 2 2 2 2 2 2 2 2 2 2 2 2 2 2 2 2 2 2 2 2 2 2 2 2 2 2 2 2 2 2 2 2 2 2 2 2 2 2 2 2 2 2 2 2 2 2 2 2 2 2 2 2 2 2 2 2 2 2 2 2 2
left_child=1 2 11 13 5 51 7 8 9 17 16 -1 -13 -4 -14 -12 -10 -5 19 -19 34 22 23 24 25 48 -27 28 29 -24 -17 -9 -25 -34 -15 -6 -37 -38 40 -40 57 -41 55 44 54 -16 -47 -48 49 -22 -51 -2 -53 -54 -44 -8 -50 -35 61 -60 -61 -11
right_child=4 -3 3 6 35 -7 42 31 10 58 15 12 14 20 45 30 -18 18 -20 -21 21 -23 27 32 -26 26 -28 -29 -30 -31 -32 -33 33 38 -36 36 37 -39 39 41 -42 -43 43 -45 -46 46 47 -49 56 50 -52 52 53 -55 -56 -57 -58 -59 59 60 -62 -63
leaf_value=-0.06822429262463614 -0.02659409337390306 -0.06096514410668942 0.11391624403069617 -0.0012586946823083518 0.06404018997727233 -0.043701440193415132 0.051306204653478474 0.034526727095442966 0.046773690198264183 -0.0054009677123225451 0.088411160076114964 0.080150706182965561 -0.03051973172567168 -0.046045004440253515 -0.034895350696453296 -0.033534457356511664 -0.035755579884060855 0.11065522522141712 -0.0053636123615313155 0.029295852937397334 -0.041598501531659671 0.032551334834336226 0.046140312346769324 0.029701797541844311 -0.033979045983197634 0.024972068295452968 -0.052097866334115089 0.006233159310414774 0.079266919931064411 0.012607997535146916 0.046555310213658004 -0.044748039420556031 -0.001800794805117877 -0.028120790979312062 0.021715727474854465 -0.02533853600803648 0.0021569911900755109 0.091309351178091691 0.081278588353334236 -0.040771266584519669 -0.07094451971372942 0.042957527169721017 0.050684305390987873 -0.05652306055844647 0.10577303372102496 -0.021232657079936566 0.0084813054770502168 0.11518197798775925 0.065155843629201154 0.057072470834780648 -0.041898181148158672 0.090012296406901587 0.04496316428490138 -0.047687143376265187 -0.019011329748992872 0.12168323596613702 -0.016060685935965352 0.055682895396380327 0.07130244011075379 0.068431894274951097 -0.0084805322114307139 0.067245240185493368
leaf_weight=12.259722232818602 58.591379404067993 47.695826858282089 2.8983423858880988 124.24828809499741 4.7277440279722205 186.7475633919239 15.451656252145769 5.1375549137592342 7.3569681644439724 4.8271263539791098 16.333718463778496 6.6829173713922492 71.194038882851601 17.76241168379784 8.2845226526260394 4.5540244281291953 10.314276009798048 7.1468055397272137 14.952173128724096 11.793527990579603 11.610180005431177 46.20057238638401 32.592407807707787 45.807151600718498 68.506949171423912 11.124547764658926 21.332882419228554 274.42858693003654 10.640438333153723 104.78468202054501 41.42618453502655 20.801440328359604 171.88382132351398 5.6998918354511279 7.7545917481183997 41.794782623648643 18.717265442013744 4.3247671723365775 13.561655417084696 6.0783594697713834 4.1547145247459403 7.667122408747673 14.741621360182771 4.4486026018857947 5.0254870206117621 6.8957475423812893 6.8636902421712858 5.5200061500072479 14.695929422974588 12.785542100667955 4.6176233738660803 4.6340156793594387 5.6061582565307626 8.6807824224233592 6.8491936326026908 6.2900157868862143 4.3454352170228949 6.8393263667821884 7.3659887313842765 4.7996225506067303 21.605509623885155 27.177328854799271
leaf_count=63 293 258 13 578 22 948 64 24 33 21 70 30 354 90 40 20 47 31 67 52 55 205 148 207 334 51 103 1260 48 481 179 105 801 27 35 207 92 21 60 28 20 35 64 23 21 33 33 25 67 57 21 22 27 42 30 26 20 31 32 21 94 118
internal_value=0 0.00662833 0.00891785 0.0114478 -0.0293121 -0.0358136 0.0216093 0.0176252 0.0216088 0.0150576 0.0399486 -0.0188196 -0.0130753 0.00716452 -0.0193839 0.0516734 -0.00139664 0.00568952 0.0311613 0.0599954 0.0068226 0.00775915 0.00638436 -0.00014551 -0.0149001 0.00133404 -0.0256827 0.0127328 0.0247834 0.0205635 0.038623 -0.0290466 0.00825639 0.00370603 -0.0254526 -0.00461425 -0.00962037 0.01889 0.0252177 0.0433517 -0.0044451 0.005932 0.0464947 0.0288772 0.0431509 0.00937862 0.0284035 0.0560429 0.0195819 0.00183593 0.0308124 -0.0168097 0.0134891 -0.0113314 0.028575 0.0716668 0.0466214 0.0175887 0.037581 0.0198523 0.00549973 0.0562883
internal_weight=0 1455.82 1408.12 1290.42 333.824 264.26 382.647 329.841 303.902 223.916 79.9852 117.701 105.441 907.773 98.758 62.3139 17.6712 158.141 33.8925 18.9403 904.875 879.358 833.157 410.711 149.019 80.5121 32.4574 422.446 148.018 137.377 45.9802 25.939 261.692 215.885 25.517 69.5646 64.8368 23.042 44.0011 27.3071 16.6939 13.7455 52.8066 31.0649 26.6163 27.564 19.2794 12.3837 48.0547 29.0133 17.4032 77.5123 18.921 14.2869 21.5908 21.7417 19.0414 12.5392 65.7756 33.7711 26.4051 32.0045
internal_count=8427 6753 6495 5917 1674 1332 1720 1492 1363 1014 349 578 515 4197 485 269 80 728 150 83 4184 4059 3854 1917 708 374 154 1937 677 629 199 129 1209 1002 125 342 320 113 201 123 78 63 228 138 115 131 91 58 220 133 78 384 91 69 94 90 87 58 286 147 115 139
is_linear=0
shrinkage=0.05


Tree=6
num_leaves=63
num_cat=0
split_feature=12 14 12 7 6 11 11 13 12 12 10 2 1 13 9 7 18 7 10 2 7 12 7 13 9 2 11 17 3 2 0 13 11 4 12 11 0 0 7 0 5 10 15 12 6 2 7 7 3 18 0 12 8 18 0 12 10 12 2 17 8 6
split_gain=128.106 83.4447 35.7559 20.5471 20.1684 16.3385 15.5499 14.7962 13.6215 17.3048 20.985 19.1335 16.0911 12.8907 14.3111 12.6894 12.2237 14.3984 11.0961 20.7381 12.1581 10.9103 10.7569 13.2213 11.3141 10.4767 15.4576 11.7974 11.5643 9.88921 9.81765 10.1631 9.63024 9.59057 18.5363 13.5173 11.6597 9.28451 9.18304 9.53461 9.09532 9.49029 9.03477 8.89048 8.80367 8.77475 10.9194 11.2388 8.9684 8.7327 8.71607 8.58181 10.1404 12.426 12.4402 9.22125 14.7898 14.2705 11.6799 11.2317 11.1423 8.3865
threshold=1.3575276136398318 1.0000000180025095e-35 -2.1569017171859737 -1.6527969241142271 0.46723584555935244 -2.579336285591125 2.7578392028808598 -0.056144593283534043 -0.39412145316600794 0.75165703892707836 1.0642024874687197 -0.90312504768371571 0.034322705119848258 -0.1715414226055145 1.3660550713539126 2.1258609294891362 0.55324119329452526 -0.90725311636924733 0.99459218978881847 0.48346157371997839 1.9767329096794131 -2.9610078334808345 -0.26296266913413996 -0.59810337424278248 0.86253494024276745 0.81851759552955639 -1.2880759835243223 -0.52583804726600636 -0.096122745424509035 0.55877894163131725 1.0111984014511111 -0.34904833137989039 1.1144636869430544 1.104464113712311 0.45948062837123876 0.91924378275871288 1.1546895503997805 0.60041537880897533 -1.5794528126716612 -1.3025248646736143 1.4789891839027407 2.7339673042297368 -0.84592798352241505 0.81313526630401622 1.796872345212555 0.15273130685091021 -1.4139836430549619 0.54893332719802868 0.56847822666168224 -0.60945892333984364 -0.53544881939887989 1.1245697140693667 1.6304748058319094 0.035605970770120628 0.88739824295043956 -1.1665940880775449 -0.89685913920402516 -0.68137395381927479 -0.28633280098438257 0.29781869053840643 1.5548145174980166 -1.0397479657528745
decision_type=2 2 2 2 2 2 2 2 2 2 2 2 2 2 2 2 2 2 2 2 2 2 2 2 2 2 2 2 2 2 2 2 2 2 2 2 2 2 2 2 2 2 2 2 2 2 2 2 2 2 2 2 2 2 2 2 2 2 2 2 2 2
left_child=1 2 15 -2 5 -4 7 40 12 11 29 -10 44 14 16 21 17 -7 33 20 32 -1 23 -19 37 26 28 -28 -14 -11 31 -18 -20 35 -35 36 -15 -25 -23 -40 41 42 -5 -38 49 46 -41 -48 -49 -6 -44 52 55 54 61 60 58 -58 -57 -59 -24 -54
right_child=3 -3 4 6 8 13 -8 -9 9 10 -12 -13 25 18 -16 -17 30 22 19 -21 -22 38 51 24 -26 -27 27 -29 -30 -31 -32 -33 -34 34 -36 -37 43 -39 39 45 -42 -43 50 -45 -46 -47 47 48 -50 -51 -52 -53 53 -55 -56 56 57 59 -60 -61 -62 -63
leaf_value=-0.043973879168922397 0.009216579614118061 -0.059837272101725736 0.11316393181007095 0.030513324906713629 0.045655430458551027 -0.012867016232676942 -0.05748269242521245 -0.0069782630437363134 0.0015202650679474947 -0.05017815226370103 0.03802444481771447 0.061355534682848947 0.10734072594798137 -0.00036423025412051597 0.046180194699715925 -0.053852852993492156 0.066528081931741104 0.083768276285667909 0.06109666225705207 0.079275140598398991 -0.062229898951004593 -0.044922226863033404 -0.047829262388494678 -0.0051925904799656961 0.082665297614714195 -0.007702346074342812 0.063269720148615968 -0.013506112219649381 0.040373743429761945 0.019033051874030874 0.074762627816610597 -0.011491719833286691 0.0029380027759034291 0.032872434593756682 -0.024813852597531282 0.05809994893742948 0.028853482083384716 0.066763586274404721 -0.033663550638108719 0.048449548563407163 0.019668191727342334 0.03037127876918613 -0.0013593672130013806 -0.032773060606554015 0.032824568945559823 0.039519222030833384 -0.069747575048415694 -0.018917867871394132 0.062620167693565099 -0.0247242757006709 -0.04438584020229043 -0.034467278791399568 -0.017344737170182527 -0.005990615463109244 -0.025927737885110644 0.086128899722543339 -0.061821526873980737 -0.0030830184788472373 -0.0010634333092627371 0.064543106151729521 0.031309843272239922 0.055663101189940181
leaf_weight=19.393607065081596 32.93185168504715 46.203057646751404 3.6585821807384482 4.5414489060640326 4.9224403202533713 176.69783800840378 51.178545564413071 66.165967509150505 16.875829800963402 14.131712839007379 32.727080702781677 64.137599095702171 9.8234778940677625 257.37067355215549 17.6554986089468 20.437481984496117 5.9882851243019131 8.305971145629881 11.220180884003641 17.508528560400009 4.6906077563762656 10.719539999961851 20.631378293037418 31.804214790463448 5.3614425957202902 15.980394452810286 7.083807140588763 17.038332805037502 18.754498586058617 8.1306508630514127 9.1610820889472944 13.77747391164303 19.467788264155388 88.12386329472065 16.539393022656441 12.200156584382055 61.197334542870522 5.2185127288103095 12.857805311679838 8.0322004258632607 7.388545334339141 5.0743165314197531 12.77841894328594 6.4711874574422827 10.731131553649901 20.936383560299873 7.4849581569433274 12.005339607596399 4.689739763736724 42.133422046899796 149.20244561135769 16.088744610548019 4.468697950243949 30.519439786672592 6.9525698572397223 8.6597969084978086 9.9036499112844449 109.61208513379097 6.9019907414913169 6.5041823834180823 5.6700265854597083 32.84494112432003
leaf_count=102 158 258 16 23 22 839 269 322 76 69 141 275 44 1194 77 111 27 36 50 75 22 55 98 145 24 71 31 77 83 39 40 64 87 394 77 54 269 23 65 36 38 26 66 31 49 95 37 56 21 195 772 77 21 140 31 39 47 513 32 30 26 147
internal_value=0 0.00628284 0.00844916 -0.0282509 0.010839 0.00768926 -0.0324147 -0.0271814 0.0232134 0.0341973 0.0125493 0.0488913 0.0114013 0.00731371 0.00191646 -0.018075 0.000399204 -0.0014797 0.0131248 0.0347685 0.0127426 -0.0104677 0.00502257 0.0260848 0.0147807 0.0277609 0.0385145 0.0090402 0.0633932 -0.0249009 0.0319761 0.0121454 0.0242021 0.0105345 0.0237566 0.00643093 0.00449156 0.00494994 -0.00199854 0.00497233 -0.03465 -0.0369888 -0.0390414 0.0229601 -0.00804225 0.0143192 -0.0020596 -0.0188379 0.00398662 -0.017362 -0.0409915 0.00089652 0.00324111 0.018555 0.035478 -0.00358066 0.00146999 -0.00420882 0.0474572 0.000705018 -0.0307685 0.0469197
internal_weight=0 1456.41 1410.2 329.262 1293.65 1031.18 296.33 245.151 262.47 136.003 54.9894 81.0134 126.468 1027.52 532.728 116.557 515.072 486.145 494.79 52.8871 35.3786 96.1196 309.448 50.6901 42.3842 68.6805 52.7001 24.1221 28.578 22.2624 28.9268 19.7658 30.688 441.903 104.663 337.239 325.039 37.0227 76.726 66.0064 178.985 171.597 166.522 67.6685 57.787 53.1486 32.2122 24.18 16.6951 47.0559 161.981 258.758 242.669 74.7856 44.2662 167.883 141.582 126.02 15.5618 116.116 26.3014 37.3136
internal_count=8427 6753 6495 1674 5917 4745 1516 1247 1172 600 249 351 572 4729 2476 578 2399 2268 2253 234 159 467 1429 228 192 306 235 108 127 108 131 91 137 2019 471 1548 1494 168 365 310 925 887 861 300 266 245 150 114 77 217 838 1201 1124 339 199 785 661 590 71 543 124 168
is_linear=0
shrinkage=0.05


Tree=7
num_leaves=63
num_cat=0
split_feature=12 14 12 11 6 2 6 8 13 0 12 10 2 12 10 7 8 6 11 12 7 8 12 7 10 12 9 18 8 2 8 0 7 8 12 2 11 11 9 7 0 2 2 8 7 17 2 16 10 11 0 10 18 12 6 16 2 10 12 12 13 6
split_gain=116.969 77.3318 32.5221 21.2975 19.6456 19.2445 18.0114 15.5545 14.826 14.098 12.8785 14.2651 13.1653 12.6834 14.8013 13.98 24.1469 19.459 17.0671 14.4236 14.1515 13.6555 16.558 15.3328 12.6408 20.1653 12.9174 12.068 11.9857 11.056 14.207 14.7255 11.0055 14.0555 10.774 10.441 10.3755 10.2489 10.2427 10.2357 9.87583 11.6592 9.82038 8.92799 16.0669 12.4797 8.82822 14.7701 8.69212 10.4563 10.4543 8.65676 8.6473 8.42785 8.40037 8.32148 11.195 10.9066 8.29711 17.0827 8.71026 15.295
threshold=1.3575276136398318 1.0000000180025095e-35 -1.7525388002395628 -1.5777139067649839 0.019190043896686496 -2.58976137638092 0.068163276803931819 -1.8141562938690183 -0.056144593283534043 1.0373204350471499 -1.1463297605514524 -1.0732648372650144 -2.58976137638092 -0.92144197225570668 -0.75662821531295765 -1.0121420621871946 1.7115300297737124 -0.071519251638540268 0.31184946000576025 0.33146682381629949 -0.46222715079784388 1.7190494537353518 -0.68137395381927479 2.7804154157638554 1.0642024874687197 0.82425633072853099 0.54814985394477855 0.9728357493877412 -0.75942924618720997 -0.73605269193649281 1.8526734709739687 0.071636550128459944 -1.5564684271812437 2.1572751998901372 0.99816006422042858 -0.79184904694557179 1.1902422308921816 -1.8666229248046873 2.1716899871826176 2.0961443185806279 -0.068097922950983034 -0.41414026916027064 0.15273130685091021 -0.59024178981780995 -0.82856082916259755 0.76171192526817333 -1.0523371696472166 -0.31711187958717341 1.2600742578506472 1.8104816675186159 -0.033589653670787804 0.82804787158966076 1.1125715374946596 0.73561400175094616 -0.78213069770955435 -0.57896307110786427 -0.51180484890937794 0.20401135087013247 -0.29072439670562739 -0.24073231965303418 -0.11902916058897971 -0.078082902276195562
decision_type=2 2 2 2 2 2 2 2 2 2 2 2 2 2 2 2 2 2 2 2 2 2 2 2 2 2 2 2 2 2 2 2 2 2 2 2 2 2 2 2 2 2 2 2 2 2 2 2 2 2 2 2 2 2 2 2 2 2 2 2 2 2
left_child=1 2 5 -4 8 -1 10 -7 -2 28 -5 27 -13 -14 52 16 -16 18 -18 32 43 22 -22 -23 25 26 46 35 42 30 31 -30 33 -19 55 -12 -36 -32 -10 51 41 -21 -9 -17 -45 -46 47 -8 -6 -50 -51 -27 -15 -26 -11 56 57 -24 60 -60 -57 -62
right_child=4 -3 3 6 48 7 24 9 38 54 11 12 13 14 15 20 17 19 -20 40 21 23 34 -25 53 39 -28 -29 29 -31 37 -33 -34 -35 36 -37 -38 -39 -40 -41 -42 -43 -44 44 45 -47 -48 -49 49 50 -52 -53 -54 -55 -56 58 -58 -59 59 -61 61 -63
leaf_value=0.12239117486298892 -0.041313409837766435 -0.058772856385989253 0.037307194950662294 -0.01132736196903621 0.061510411460904024 -0.06595710689987358 0.024928132740960167 0.0025457647174846739 -0.00034325017037728712 -0.031218783126788496 0.10241798902991867 -0.068368843878749225 -0.024323462367887596 0.045117659629113301 -0.027585795348246501 0.089354229981833178 0.0086818421602357209 -0.062362702737105119 0.067228702543579474 0.048184470826332343 -0.065291314064147579 0.04337283637596101 -0.055644336299917711 -0.0081849376676882881 0.099038552358166929 0.063537550460437742 0.045581499509470547 -0.016136285476959365 -0.029592574315624467 -0.021586752126892927 0.010102057128570855 0.054960552491554397 0.099486590190613872 0.062566195285224988 -0.048551196684960149 0.03499595357279759 0.0048554554930364049 0.11271401665165903 -0.038547624662140866 -0.054201978977947908 -0.055032323998594417 -0.028158187990012226 0.092917479983283868 -0.003625375920584479 0.065012327758492666 -0.0028288519263507911 0.018437516665263588 -0.04891008934521579 -0.023539942205829403 0.051310205092662958 -0.01601842073044905 -0.028190357004185953 -0.021650946344176705 0.034814726995409571 0.045493464753259945 -0.03316927501085036 0.053659980672252278 0.046184968722961295 0.093869756972188315 0.0065046984881822999 -0.023276833835487436 0.08691890579253797
leaf_weight=2.7495449036359778 181.45538823306561 44.725405007600784 74.182145327329636 99.352951288223267 4.7835476100444785 12.056861877441404 13.487698033452036 8.6359583586454374 46.278099849820137 4.4646950811147716 7.5719343125820187 5.874384492635726 31.065309703350067 37.847058862447739 72.25980806350708 6.2340665310621253 31.735698208212852 4.3363474160432798 20.481301054358482 7.1661347895860663 8.893225356936453 45.894962385296822 5.794157415628435 21.026867181062698 5.7187711149454108 4.4257703721523303 39.725675031542778 8.4197506010532361 21.38219611346722 143.8970580548048 4.9215966314077377 6.7827627211809149 4.3289977610111228 4.6827251613140106 17.492470949888229 23.762449204921722 18.941431671380997 4.8133472353219968 28.255912780761719 14.794885531067846 16.993066176772118 16.554531738162044 4.6112255156040183 25.729475378990173 27.132647544145584 9.0365439802408201 182.63832588493824 13.603473946452139 40.921880513429642 11.848803564906122 11.229665160179136 6.1412324607372284 5.561897560954093 47.841099217534065 17.782464429736137 25.365785077214241 20.850102081894875 4.8145384043455124 5.8629420399665824 122.56149010360241 8.759787440299986 4.9161218404769889
leaf_count=12 963 258 331 464 22 66 61 41 225 20 34 30 146 169 345 27 144 20 89 35 43 203 27 96 23 21 169 38 103 700 24 30 20 21 84 106 87 22 144 77 84 81 20 119 120 41 812 62 207 57 56 31 25 205 78 119 94 21 26 567 40 22
internal_value=0 0.00595634 0.00800672 0.0113724 -0.027227 -0.00910243 0.00963235 -0.0106788 -0.0336015 -0.00761162 0.00548452 0.00794829 0.0061381 0.00683029 0.00843993 0.00625154 -0.00528555 0.00987657 0.0316459 -0.0111499 0.011682 0.00716291 0.00168031 0.0271734 0.0194507 0.0151199 0.0194385 0.0370082 -0.0119129 -0.0152587 0.00876731 -0.00923026 0.0339548 0.0025007 0.00421089 0.0512884 -0.0207859 0.0608375 -0.0148266 -0.0273573 -0.0259376 -0.00509468 0.0340033 0.0323215 0.0265775 0.0480628 0.0144866 -0.0121488 -0.0035034 -0.0083627 0.018549 0.010228 0.0365627 0.0416721 0.0300984 0.00878915 0.0323841 -0.0094312 0.00435681 0.0104932 -0.0158282 0.0163356
internal_weight=0 1456.68 1411.96 1179.86 324.773 232.098 1105.68 229.348 255.989 217.291 777.301 677.948 638.194 632.319 601.254 557.845 178.539 106.279 52.217 54.0618 379.307 311.174 244.252 66.9218 328.377 274.817 249.455 39.7541 195.044 181.797 37.8999 28.165 13.3481 9.01907 235.359 31.3344 36.4339 9.73494 74.534 25.3619 40.7137 23.7207 13.2472 68.1327 61.8987 36.1692 209.729 27.0912 68.7839 64.0003 23.0785 10.567 43.409 53.5599 22.2472 198.925 31.4588 10.6087 167.466 128.424 39.0417 13.6759
internal_count=8427 6753 6495 5379 1674 1116 5048 1104 1332 1038 3587 3123 2945 2915 2769 2575 839 494 233 261 1736 1429 1130 299 1461 1233 1104 178 940 879 179 133 61 41 1087 140 171 46 369 129 200 116 61 307 280 161 935 123 342 320 113 52 194 228 98 916 142 48 774 593 181 62
is_linear=0
shrinkage=0.05


Tree=8
num_leaves=63
num_cat=0
split_feature=12 14 12 11 8 6 7 10 14 8 8 10 12 16 13 7 12 2 17 0 7 12 7 17 11 2 18 6 7 4 16 8 9 13 7 12 7 5 18 12 12 2 10 17 11 3 12 0 9 2 11 6 2 0 7 0 0 3 0 10 10 12
split_gain=106.79 71.7237 29.7073 19.4129 19.216 16.4169 16.0269 13.8279 12.6295 11.7502 19.8197 11.0399 16.0056 10.7628 10.372 14.7069 10.2974 14.3063 12.3614 11.7766 11.9382 10.1119 14.095 10.0187 9.84565 17.8365 9.73273 9.63639 9.72264 10.0815 11.4741 9.08716 9.80297 10.3931 17.2191 14.8194 11.3921 10.8146 15.3995 14.9303 12.3618 12.5045 11.7671 10.6381 10.4191 9.89571 9.82738 9.68235 10.7563 9.55139 9.53464 8.99824 8.9335 8.92826 8.74185 8.48467 8.2593 8.20846 8.19554 10.0792 8.89213 8.43589
threshold=1.3575276136398318 1.0000000180025095e-35 -2.1569017171859737 2.8441172838211064 2.2187173366546635 0.068163276803931819 -1.2277607917785642 2.1918628215789799 1.0000000180025095e-35 -1.2193136215209959 -0.88570374250411976 1.0092722773551943 0.81313526630401622 -0.06815642490983008 0.83981880545616161 -0.38056273758411402 -0.26387751102447504 -0.79184904694557179 0.49876138567924505 0.67660871148109447 2.0253866910934453 1.059038043022156 2.579545378684998 1.6178226470947268 -2.2204794883728023 0.58911791443824779 0.8175359070301057 0.3011972848814411 -1.0539980530738828 -1.147669196128845 -0.79652151465415943 -1.6318054199218748 1.2663316726684573 -0.17373418807983396 -0.90725311636924733 0.12047344073653223 -1.2004513144493101 -1.0636602640151975 -0.68021020293235768 -1.7258424758911131 0.47666192054748541 0.48346157371997839 0.87874868512153637 -0.45575623214244837 -1.5777139067649839 -1.53401643037796 -1.1665940880775449 0.031194348819553856 -1.4624687433242796 -0.73605269193649281 0.94711962342262279 0.35652853614588675 0.83864772319793712 -1.0000000180025095e-35 2.5392385721206669 -1.3807002902030943 -0.072259079664945589 1.3218700885772707 1.3596839904785158 1.3878359198570254 1.5886476635932925 1.6357161998748782
decision_type=2 2 2 2 2 2 2 2 2 2 2 2 2 2 2 2 2 2 2 2 2 2 2 2 2 2 2 2 2 2 2 2 2 2 2 2 2 2 2 2 2 2 2 2 2 2 2 2 2 2 2 2 2 2 2 2 2 2 2 2 2 2
left_child=1 2 9 4 8 24 7 -6 14 -1 -11 12 16 -12 27 53 19 -18 57 20 23 -13 -23 26 25 -4 55 28 -2 -30 -31 54 33 34 35 36 46 38 40 49 -35 -42 44 -38 -41 -40 47 -33 -49 -39 -46 -22 -53 -16 -26 -7 -32 -19 59 -29 -61 -62
right_child=3 -3 5 -5 6 11 -8 -9 -10 10 13 21 -14 -15 15 -17 17 18 -20 -21 51 22 -24 -25 31 -27 -28 58 29 30 56 32 -34 37 -36 -37 43 39 45 42 41 -43 -44 -45 50 -47 -48 48 -50 -51 -52 52 -54 -55 -56 -57 -58 -59 -60 60 61 -63
leaf_value=-0.065408078323948488 -0.043879507691336292 -0.05776474590933002 0.0052553119670758243 -0.056111007493117093 0.012128035982785236 -0.049145201528922426 -0.033916499365164034 0.11574020639017202 -0.065869426922768856 0.070227357528652432 -0.027985646777411024 0.062343598505826575 -0.023346366646646192 0.0090505610146875814 0.074338172689063606 -0.038027463616731733 -0.0025054052760136313 0.05185075207877337 -0.028060488592741236 0.032135220045684178 0.075824227512879927 0.034033163600012316 -0.057339548677970087 0.065392602637889791 -0.044315467554586013 0.12491228594610676 0.058416763174534973 0.076108003914479638 0.021319605248523731 0.056649136143162263 -0.0029301260088529751 -0.040079091362323994 0.028500474914837867 0.023835609677138516 0.0069920155364073325 -0.031835889949478287 0.016800859406916974 0.0248808601772951 -0.0070395774432813005 0.042666006346138298 -0.036925198661287711 0.05310847382220505 0.047472858748090166 -0.047543572272879302 0.001834588286254166 0.07110250289231633 0.039924245350622958 0.04561801995885878 -0.042406034534332601 -0.041012720906051639 0.066790455758571704 0.035483891118379358 -0.03596095130491489 -0.010002376460636654 0.01938874982537862 -0.0043262304410994377 -0.039882744218505461 -0.0079515391838412674 -0.043278390673046029 -0.052698860078338551 0.073488216956041422 -0.0040321674783592573
leaf_weight=11.230522722005842 75.877847373485565 43.267720699310303 8.6260080337524396 46.491091281175613 7.1317682117223757 11.857594951987265 7.23813173174858 5.8710612803697586 17.518411129713058 6.9123617708683005 68.798990651965141 25.139852821826935 25.356380760669708 27.439675644040108 8.5740389972925168 9.3715092539787275 24.651134014129639 67.083162516355515 5.9737886041402808 50.893107682466507 8.5500739216804522 27.931494161486626 4.9718577712774268 5.1489470303058615 17.133367314934734 4.8742009103298178 5.5912756174802771 4.7460282891988781 12.828810334205626 3.9714984595775595 20.31510554254055 11.523137569427492 47.000226616859436 72.578905120491982 260.68924105167389 66.636207014322281 9.8658556193113345 7.0264976769685736 4.9773086011409786 18.32651199400425 18.389705285429958 4.8799149245023719 18.75643952190876 18.410947859287262 222.66516047716141 21.78189654648304 21.698909550905228 11.715619355440142 4.9314515441656104 25.305242538452148 5.7965368479490271 15.402826249599459 6.1114921122789374 4.94909839332104 7.8538319319486609 96.472593814134598 59.147517994046211 6.2747960537672034 9.8609920144081098 6.7204999178648022 4.5645078569650677 15.182950779795645
leaf_count=63 397 258 39 256 34 58 37 28 96 30 354 102 130 131 41 46 111 283 26 216 36 118 26 22 89 21 25 23 66 20 108 56 205 322 1198 334 45 32 22 81 87 21 83 92 1023 96 98 51 23 119 25 67 27 24 35 446 315 27 50 35 23 75
internal_value=0 0.00564719 0.00758862 -0.0262378 -0.0211666 0.00973987 0.0257162 0.0589112 -0.0249081 -0.0168399 -0.011552 0.018362 0.0148188 -0.0174258 -0.021869 0.0101116 0.018002 0.030765 0.0411032 0.0113672 0.00428002 0.0384683 0.0202263 -0.0028284 0.00607502 0.048457 -0.00591181 -0.025303 -0.0304953 -0.0199454 -0.0262903 0.00543782 0.00628881 0.00502488 -0.000686735 -0.0145128 0.000258854 0.0105326 0.0230311 0.00538808 0.0136683 -0.0180441 0.00929408 -0.0250936 0.00639241 0.0565678 0.0146342 -0.00484614 0.0195422 -0.0266924 0.00348265 0.032433 0.0151888 0.0434718 -0.0242923 -0.00923202 -0.0304356 0.0467355 -0.00354236 0.00901088 -0.00302046 0.0138862
internal_weight=0 1456.5 1413.24 320.361 273.87 1298.85 20.241 13.0028 253.629 114.382 103.151 387.41 329.367 96.2387 236.11 22.8946 304.011 103.983 79.3317 200.028 149.135 58.0432 32.9034 119.07 911.443 13.5002 113.921 213.216 172.141 96.2629 83.4341 897.943 872.956 825.955 405.471 144.782 78.1459 420.484 122.608 297.876 95.8485 23.2696 265.545 28.2768 246.788 26.7592 49.8691 28.1702 16.6471 32.3317 228.462 30.0644 21.5143 13.5231 24.9872 108.33 79.4626 73.358 41.075 31.214 26.468 19.7475
internal_count=8427 6753 6495 1674 1418 5917 99 62 1319 578 515 1720 1474 485 1223 111 1344 447 336 897 681 246 144 551 4197 60 529 1112 906 509 443 4137 4013 3808 1897 699 365 1911 548 1363 430 108 1212 137 1129 118 228 130 74 151 1048 130 94 65 124 504 423 310 206 156 133 98
is_linear=0
shrinkage=0.05


Tree=9
num_leaves=63
num_cat=0
split_feature=14 12 12 11 6 8 7 8 12 1 12 10 10 0 12 10 12 8 2 17 12 10 2 2 12 6 13 7 16 6 7 8 12 13 6 7 5 16 0 4 2 2 7 3 0 7 3 17 2 11 3 17 2 11 4 17 7 12 2 6 7 4
split_gain=98.7655 81.8713 27.9788 16.336 15.4395 15.3472 14.1815 12.6818 12.4863 15.5877 14.3168 13.7072 11.8404 11.6166 38.0309 11.6066 11.0213 13.6734 10.8369 9.87346 11.1982 11.3841 11.6952 10.1304 9.63532 9.96614 9.52697 13.198 9.41217 9.06948 12.334 12.1923 14.4392 9.05017 8.9457 9.18553 9.32843 10.5652 9.63884 11.6219 8.93817 9.46962 10.2148 12.4909 8.83973 8.74038 11.7703 10.1367 9.04344 8.96033 12.8375 10.1989 8.68642 12.3173 10.4124 10.1925 8.61185 8.50826 8.41455 8.30214 8.00165 9.73491
threshold=1.0000000180025095e-35 1.3575276136398318 -2.8515776395797725 2.8441172838211064 0.46723584555935244 2.2187173366546635 -1.2277607917785642 -1.6318054199218748 -0.39412145316600794 0.034322705119848258 0.69789871573448192 0.9349995255470277 1.1023688912391665 0.50599032640457164 0.33146682381629949 2.1918628215789799 1.0179008245468142 1.1953111290931704 -0.90312504768371571 2.3112425804138188 -1.1463297605514524 -1.0549802184104917 -1.6631038784980772 1.3519693017005923 -0.92144197225570668 -0.071519251638540268 0.83981880545616161 -0.38056273758411402 0.54111286997795116 -0.073890612273320652 -0.85212188959121693 1.7190494537353518 -0.44246155023574824 -0.12605315446853635 0.3011972848814411 -1.0539980530738828 1.1494939327239992 -0.79652151465415943 -0.072259079664945589 -0.7375635802745818 1.583685636520386 -0.46859504282474512 1.7353894710540774 -0.2953383326530456 0.033651949837803848 2.6604648828506474 1.4470996260643008 0.82756742835044872 0.1267083287239075 0.50131350755691539 -0.70659160614013661 -0.52583804726600636 0.81851759552955639 -1.2880759835243223 0.10238479077816011 -0.52583804726600636 2.7804154157638554 0.81313526630401622 -0.52263358235359181 -0.066453577227473457 0.17855282127857211 -0.20610180497169492
decision_type=2 2 2 2 2 2 2 2 2 2 2 2 2 2 2 2 2 2 2 2 2 2 2 2 2 2 2 2 2 2 2 2 2 2 2 2 2 2 2 2 2 2 2 2 2 2 2 2 2 2 2 2 2 2 2 2 2 2 2 2 2 2
left_child=1 2 -1 5 7 26 15 56 9 -6 18 57 13 19 -15 -7 -14 -18 -10 20 -9 28 -23 -21 33 29 34 -28 -22 31 -31 32 -26 -24 35 -3 37 -37 39 -39 41 42 43 -27 -34 46 47 49 -47 50 -33 -52 53 54 -11 -55 -4 -12 59 -45 -43 -62
right_child=-2 3 4 -5 8 6 -8 12 10 52 11 -13 16 14 -16 -17 17 -19 -20 23 21 22 24 -25 25 40 27 -29 -30 30 -32 45 44 -35 -36 36 -38 38 -40 -41 -42 60 -44 58 -46 48 -48 -49 -50 -51 51 -53 -54 55 -56 -57 -58 -59 -60 -61 61 -63
leaf_value=-0.039628018662101173 -0.059767378642280544 -0.04261350335836589 -0.043390501012076012 -0.052905772750161756 -0.0094859358937037716 0.011465850898010005 -0.032750730398753584 -0.0083906697211134328 0.0073243876339366661 0.032778255016159018 0.012524273221359048 0.028837383759634266 0.052328769438606232 0.026915711361719042 -0.021920649185866635 0.1051827523677567 0.059264240826824556 0.0019365685618813176 0.054206145352130211 0.016529328992502399 0.049323839726230084 -0.030780422836926474 -0.048860253995788326 0.094015832746277728 -0.029388917160957401 0.067334185670389721 0.040577909838475236 -0.036746157929259581 -0.016730644277125197 -0.017092985923312095 0.054200896939674698 0.0810417849611033 0.0060913331535701037 0.0097252835957757997 -0.0033978599301430429 0.052471185586322994 0.016589390627595891 0.079092137051485045 -0.040640561526196314 -0.018794353316023072 0.062735406364533577 -0.023287781168041324 -0.036705004161040673 -0.047632164722045428 0.076666796636351911 -0.040696528569482276 -0.026372738564632677 -0.011469618946879387 0.038031672112916699 0.085951753619845889 0.071479994635599176 -0.006916267200075734 -0.0070267384753240694 0.056571098437902791 0.092712048686263968 -0.014105629428198957 0.022240579474446548 -0.049982006700589721 0.066007661604535625 0.023143337728043258 -0.024828658216499475 0.026002880850632876
leaf_weight=31.195637807250023 66.7597726136446 74.266881212592125 21.083375290036205 37.117990389466286 65.502662688493729 7.1655699610710162 7.1239362061023703 235.28530356287956 15.599301561713217 20.142704188823704 10.441322714090349 41.743055626749992 24.597484916448593 164.68323040008545 52.596906095743179 6.1301041841506958 12.925298675894735 53.264192804694176 58.751521989703178 41.669530630111694 23.770193085074428 24.390124037861824 15.604692563414575 4.6931250095367423 31.317966222763062 12.207814767956732 13.751562535762789 9.2173474878072721 6.9755279272794715 7.974217176437377 25.357896700501442 10.878957599401469 108.18809050321579 11.413419127464293 40.972038701176643 4.0706492960453025 15.317066103219984 3.7639988362789181 56.534865751862526 15.598843798041342 4.9631204009056082 69.890619471669197 7.7227082550525656 8.3479538261890429 4.6265521347522727 8.9138538688421232 7.0891837775707236 7.5253251045942298 6.1742039322853079 13.152423620223997 5.6753515303134909 15.421346321702012 17.13343933224678 7.2708115428686169 11.31912340223789 17.094353958964348 6.5513772815465918 11.375434845685957 4.2977384924888637 8.2268089801073057 16.042978093028069 22.812496811151505
leaf_count=170 400 397 112 210 305 34 37 1120 70 88 44 180 104 720 247 28 56 241 246 188 106 118 75 21 148 55 65 46 32 37 114 47 499 53 206 20 79 20 307 83 22 340 35 40 21 41 32 33 28 56 25 70 76 31 49 77 29 60 20 38 74 102
internal_value=0 0.00222752 0.00719857 -0.0219227 0.00825505 -0.0173935 0.0241741 0.00561426 0.018826 0.00821957 0.029475 0.0120511 0.0064711 0.00488305 0.0150939 0.054675 0.0237514 0.0131314 0.04437 0.00200401 0.000572057 0.00488487 0.00290863 0.024373 0.00480266 0.006723 -0.0210287 0.00954802 0.0343375 0.0128474 0.0371449 0.0091487 0.0006474 -0.0241116 -0.0243647 -0.0294314 -0.019157 -0.0260038 -0.0302127 0.000234084 -0.00327728 -0.00546806 0.0150722 0.0271597 0.00898565 0.0255232 0.0341108 0.0422542 -0.00848006 0.0512129 0.0369239 0.0141736 0.0241153 0.0336728 0.0543408 0.00698502 -0.0278313 -0.020067 0.00366264 -0.0125031 -0.013175 0.00501512
internal_weight=0 1704.91 1413.88 291.031 1382.69 253.913 20.4196 1106.31 276.374 138.463 137.911 63.5598 1078.68 987.89 217.28 13.2957 90.787 66.1895 74.3508 770.61 724.247 488.962 458.216 46.3627 433.826 406.808 233.493 22.9689 30.7457 252.295 33.3321 218.963 144.133 27.0181 210.524 169.552 95.2854 79.9684 75.8977 19.3628 154.512 149.549 40.803 33.0803 112.815 74.8306 59.7426 52.6534 15.0881 45.1281 31.9757 21.0967 72.9604 55.827 31.4618 24.3652 27.6348 21.8168 20.8725 16.5748 108.746 38.8555
internal_count=8427 8027 6495 1532 6325 1322 99 5099 1226 626 600 284 4958 4557 967 62 401 297 316 3590 3381 2261 2123 209 2005 1877 1223 111 138 1151 151 1000 668 128 1112 906 509 430 410 103 726 704 188 153 520 332 263 231 69 198 142 95 321 245 137 108 141 104 98 78 516 176
is_linear=0
shrinkage=0.05


Tree=10
num_leaves=63
num_cat=0
split_feature=14 12 12 6 11 17 6 9 18 12 9 6 0 4 17 12 1 12 4 1 18 12 3 10 0 8 2 2 2 5 5 12 8 12 16 16 7 8 4 11 11 12 4 18 13 1 6 6 10 11 8 12 8 2 12 12 17 7 9 10 2 0
split_gain=92.3342 74.8266 25.2661 14.853 14.0758 10.786 13.536 12.9852 11.7052 12.0105 13.6861 20.1146 11.3082 13.6564 16.302 11.1577 10.9135 18.9998 12.8502 10.5514 10.1494 10.0786 10.7424 11.0887 9.96766 9.84614 14.6053 9.64541 9.3207 12.8263 9.452 9.7724 9.2196 12.5966 12.0363 8.74315 9.70971 8.74032 13.9087 15.3729 8.44993 9.68544 11.2669 13.0216 7.98317 11.26 8.0047 7.88826 7.48274 13.9488 8.25164 7.36169 7.34482 7.31956 7.25803 13.3654 9.48405 7.18745 17.1897 10.757 9.24495 9.14688
threshold=1.0000000180025095e-35 1.4359334707260134 -2.8515776395797725 0.068163276803931819 2.9637221097946171 -0.51874148845672596 -0.072708838046249086 1.2663316726684573 -0.43810911476612086 1.3398701548576357 1.0573374629020693 -0.07167473609920727 -0.019805924035608765 -0.92237639427185047 -0.45794780552387232 -0.39412145316600794 0.63847970962524425 0.69789871573448192 -1.4596862792968748 -0.01675876788794994 0.49033604562282568 -1.7525388002395628 -0.096122745424509035 -2.1398586034774776 -0.52237284183502186 1.715604364871979 0.72258418798446666 -1.1858174800872801 -0.16614906489849088 -0.65024399757385243 -1.1578067541122434 -1.7258424758911131 1.6304748058319094 -2.1569017171859737 -0.44821965694427485 -0.29714265465736384 -1.1221061944961546 2.2187173366546635 -1.3251551985740659 1.8710315227508547 -1.5974111557006834 -0.92144197225570668 -1.1225147247314451 -0.64528870582580555 0.83981880545616161 -0.021733431145548817 0.3011972848814411 -0.75215211763962231 -1.2601391077041624 -1.4161202311515806 1.7081684470176699 0.24332056194543841 1.6552174687385561 -0.65245428681373585 -0.32282356917858118 0.82425633072853099 -0.69335260987281788 1.7353894710540774 -0.68614676594734181 0.10591581836342813 2.1393455266952519 -0.0002574860409367829
decision_type=2 2 2 2 2 2 2 2 2 2 2 2 2 2 2 2 2 2 2 2 2 2 2 2 2 2 2 2 2 2 2 2 2 2 2 2 2 2 2 2 2 2 2 2 2 2 2 2 2 2 2 2 2 2 2 2 2 2 2 2 2 2
left_child=1 2 -1 5 37 6 7 16 28 10 12 25 13 -10 -15 -16 18 -18 52 -14 24 22 32 -24 -17 26 -12 35 29 -7 -30 -32 -5 -34 -35 36 -23 44 -39 -40 -29 42 -42 -44 46 -46 -3 -33 49 -45 -50 -2 -4 -8 -20 56 -56 59 -59 61 -61 -43
right_child=51 4 3 21 -6 8 53 -9 9 -11 11 -13 19 14 15 20 17 -19 54 -21 -22 27 23 -25 -26 -27 -28 40 30 -31 31 47 33 34 -36 -37 -38 38 39 -41 41 57 43 48 45 -47 -48 -49 50 -51 -52 -53 -54 -55 55 -57 -58 58 -60 60 -62 -63
leaf_value=-0.038433477734342358 0.014069726302715036 -0.029928591902332054 0.0161600810182209 0.077087191358316626 -0.05437856765643391 -0.0017084573837941417 0.056694027939469829 0.10646948469473011 -0.048884112263898383 -0.042027423849042844 0.046335768563500544 -0.024227872866868509 0.086673801674126361 0.047567230962820367 -0.029491938648034694 0.017860874624519778 0.053459993392045817 -0.040244529613088414 0.009167625440622159 0.00094550142842931184 0.067035199402591727 0.060600910875193682 0.016308897423766594 -0.051682127821020753 -0.021133551755541265 0.089682101453372687 -0.042232191804882933 0.050132011332321258 0.031855324221736168 0.075767905837692384 -0.033606175364299995 0.057872637248912707 -0.059017485026239935 -0.016132709202537284 0.088468049766325871 -0.036498416901978144 -0.012993259156467644 -0.066737749531481344 -0.031307687152987276 0.075886700627506909 0.051047311389168015 -0.029630112953114619 0.066034449502442347 -0.027240506190705616 0.047951583485849103 -0.023594238133058235 -0.0039187073628599552 0.0025811308453589916 0.025203295840541158 0.044658423980507497 -0.042767242005016415 -0.062766749373554684 -0.038833884411875727 -0.012455079920363682 0.015373215404865368 -0.0051052851382144757 0.10108723446561958 0.072307159176036515 0.0071965783330631139 0.046795492725128202 -0.019868236028947512 0.024064307097061803
leaf_weight=30.572989299893379 3.2846884131431571 148.61742144823074 9.4685624390840548 5.3162049204111126 30.89093242585659 127.51145841181278 4.1630687713623038 4.5246648639440528 24.16746798157692 18.427528098225594 23.646733760833744 15.953211471438406 3.6307419240474692 11.984675720334051 59.116611257195473 27.428524926304817 38.699449837207794 6.288715571165084 38.111840322613716 313.87869548797607 5.1995203644037238 7.2416413426399222 9.2808124423027056 16.94688580930233 40.714010745286942 8.6121010333299619 5.7956135720014563 22.991934582591057 73.721590906381607 5.5755499750375739 13.075329363346098 8.8430916965007729 5.6795590519905135 5.9028638601303136 5.1492885202169347 14.50144302845001 11.760432526469232 4.116493001580241 5.2198742628097525 9.3102807700633985 10.353486105799673 10.184494629502295 5.8048495650291434 14.440187409520151 9.5562000721693057 12.953937008976935 36.931485548615456 23.843421831727031 5.4904682636261049 12.65984065830707 23.911240264773369 61.182003051042557 16.92245377600193 47.397845134139061 4.7662584930658332 8.5653491616249067 9.9945232719182986 11.332276940345762 96.0982606112957 77.456852182745934 5.5750761032104483 35.853586107492447
leaf_count=170 21 809 44 25 181 589 19 20 121 96 104 74 16 56 288 125 165 30 176 1455 23 32 43 81 198 36 26 99 328 25 63 39 30 27 23 67 53 22 26 43 45 47 25 65 45 64 187 109 25 56 110 379 82 226 21 39 44 48 430 330 24 158
internal_value=0 0.00210975 0.00653673 0.00750909 -0.0227156 0.00421211 0.0149723 0.0231731 0.00170618 -0.00233281 -0.000978554 0.0228998 -0.00363143 -0.0140962 -0.00827569 -0.0133283 0.0203354 0.0403614 0.0100776 0.00192581 -0.000299737 0.0154743 -0.00599795 -0.0276231 -0.00543763 0.0426568 0.0289015 0.0183092 0.0106383 0.00153734 0.0207755 0.00292611 0.0197269 0.00150164 0.0326016 -0.00726001 0.0150533 -0.0184012 0.0143929 0.0373777 0.0208883 0.0187135 0.00274715 -0.00527889 -0.0213403 0.00677902 -0.0247516 0.0175398 -0.0126054 0.00634724 -0.0300744 -0.0588518 -0.0191032 -0.00687193 0.0226124 0.0445793 0.0734102 0.0236189 0.0140647 0.0315711 0.0423194 0.0121861
internal_weight=0 1702.13 1444.53 1413.96 257.597 1000.03 188.903 137.342 811.126 558.555 540.128 54.0077 486.12 168.611 144.443 132.459 132.817 44.9882 87.829 317.509 73.3421 413.932 48.2756 26.2277 68.1425 38.0544 29.4423 365.656 252.57 133.087 119.483 45.7618 22.0479 16.7317 11.0522 33.5035 19.0021 226.706 18.6466 14.5302 332.153 309.161 72.6601 62.3066 208.059 22.5101 185.549 32.6865 56.5017 27.1 29.4017 64.4667 26.391 51.5609 61.438 23.3261 14.7608 236.501 107.431 129.07 83.0319 46.0381
internal_count=8427 8027 6650 6480 1377 4637 866 621 3771 2618 2522 240 2282 811 690 634 601 195 406 1471 346 1843 229 124 323 166 130 1614 1153 614 539 211 105 80 50 152 85 1196 91 69 1462 1363 326 281 1105 109 996 148 256 121 135 400 126 245 280 104 65 1037 478 559 354 205
is_linear=0
shrinkage=0.05


Tree=11
num_leaves=63
num_cat=0
split_feature=14 12 12 6 11 13 12 12 1 13 2 18 7 7 9 2 13 5 7 13 9 11 0 0 10 2 7 12 2 17 6 7 6 10 0 18 8 9 12 2 17 4 9 3 18 3 10 15 4 15 8 6 3 11 0 3 12 16 4 8 8 6
split_gain=86.3854 68.1637 23.1306 13.5344 13.4407 10.9257 10.0473 13.8335 13.0477 12.1268 9.80442 9.77771 11.9729 9.63331 13.0166 8.94195 8.89199 8.85694 8.77625 9.8321 10.3986 8.36336 8.30078 7.96534 7.63623 20.1678 9.34046 8.70869 8.80544 10.6933 7.95863 7.56585 14.4339 15.1067 9.99143 9.0659 9.44621 7.5091 11.1402 9.6546 7.90244 7.30242 15.4562 9.95004 10.5847 8.54585 8.54777 8.49116 9.63989 8.14551 11.1398 14.2721 10.1434 7.61128 7.63739 7.86348 7.63677 7.64879 7.59567 7.36735 8.71979 7.26099
threshold=1.0000000180025095e-35 1.4359334707260134 -2.8515776395797725 0.46723584555935244 2.8441172838211064 -0.1715414226055145 -0.35926374793052668 0.69789871573448192 0.044301226735115058 -0.25953955948352808 -0.90312504768371571 0.55324119329452526 -0.90725311636924733 -0.49855363368988032 0.83463925123214733 0.81851759552955639 -0.34904833137989039 1.1100357770919802 -1.6597771048545835 -0.056144593283534043 0.94010397791862499 -2.6641584634780879 1.0111984014511111 0.67660871148109447 0.99459218978881847 0.48346157371997839 1.9767329096794131 0.92375144362449657 -0.95127749443054188 0.3802459985017777 -0.071388326668880633 -1.4842606186866758 -0.52381420187141747 -0.78760549426078785 0.031194348819553856 0.12952432036399844 -0.63469862937927235 0.34211923182010656 0.020808893255889419 0.1267083287239075 -0.39904513955116266 1.1604465842247011 0.94010397791862499 0.52870047092437755 0.21902125328779223 -1.1866154074668882 -1.8775775432586668 -0.014642298221588133 -0.14639365673065183 0.99912548065185558 1.9898231625556948 -0.5007941123474976 -0.94106066226959217 0.91924378275871288 1.1546895503997805 1.4796290397644045 0.38852924108505255 3.2377643585205083 -1.68761271238327 1.4903168678283694 1.367407560348511 1.796872345212555
decision_type=2 2 2 2 2 2 2 2 2 2 2 2 2 2 2 2 2 2 2 2 2 2 2 2 2 2 2 2 2 2 2 2 2 2 2 2 2 2 2 2 2 2 2 2 2 2 2 2 2 2 2 2 2 2 2 2 2 2 2 2 2 2
left_child=1 2 -1 5 18 11 8 10 61 -9 -8 12 31 14 17 -10 -13 -14 23 20 -20 -15 -18 -3 41 26 27 -26 -29 30 -30 32 33 34 -4 36 -33 38 40 -40 -12 43 45 47 -45 -43 -47 48 -7 -49 51 52 -51 54 55 59 57 -56 -57 60 -46 -5
right_child=-2 4 3 6 -6 24 7 9 15 -11 37 16 13 21 -16 -17 22 -19 19 -21 -22 -23 -24 -25 25 -27 -28 28 29 -31 -32 35 -34 -35 -36 -37 -38 -39 39 -41 -42 42 -44 44 53 46 -48 49 -50 50 -52 -53 -54 -55 56 58 -58 -59 -60 -61 -62 -63
leaf_value=-0.037272088341552705 -0.057985308785769157 0.034658852886858035 -0.033354631925062071 -0.014720101906325517 -0.050694724208536962 -0.025168902859817634 0.0066570945232329003 -0.013640104094233893 0.03353023386015274 0.02890022318295914 0.11458813177839047 0.058865283036981346 0.0048331897969943844 0.059440916202869426 0.084963824808002478 -0.0085570230667899958 -0.012947272243056952 0.074464144328243817 0.03344862803794503 -0.0042975665300131411 -0.031639485430048526 -0.00073773722710327588 0.062107016649243285 -0.022647553421002227 0.06581135239484126 0.064863665660721534 -0.061451420243253688 0.050197811974516462 0.057186927252315348 -0.048374410030478751 -0.023363483474266224 0.043205500618205987 -0.013789453839484831 0.091661493517854631 0.04680873692903622 0.0022685308557400946 -0.031475306603192157 0.071058514547909485 -0.034076945499800289 0.0392956950720149 0.031540331041930346 0.017597455140230672 -0.065004632583207919 0.084301008711898523 0.0081598010578407473 0.10795119487703922 0.028009220390117565 -0.022548491928528341 0.015324890224443728 -0.05523698936253011 -0.040777211956604484 0.071299054061839881 0.031454174122458795 0.054013749100829782 0.044455686560946381 0.025017424208597695 -0.019081108432146051 -0.0077685993583247711 -0.03434377388927231 -0.0020441914679304846 0.06119206342908956 0.025353367958246567
leaf_weight=29.965012848377228 62.220312789082527 14.477227404713632 7.9966340512037295 59.445982545614243 34.891757786273956 18.236116513609886 15.646067827939985 29.833840191364288 51.687922149896622 38.207364663481712 5.7726939618587494 12.826643496751784 36.884325250983238 5.8904219567775717 7.4970979243516913 16.697187691926956 15.00961507856846 5.212232530117034 6.4484494924545279 61.333094567060471 126.7925767749548 290.7568284869194 4.8821609020233145 10.433861196041105 6.6513094007968894 21.882403060793877 4.6155617833137503 7.4019334912300101 6.5612042248249063 10.946213424205778 5.7572595328092619 4.4596752822399131 51.002350240945816 7.587477207183837 7.5634603798389435 35.341136023402214 83.780224904417992 26.090854167938232 7.3148228079080608 11.582521945238112 5.6858644634485263 88.766282543540001 5.203925982117652 5.0154793560504904 21.314034894108772 5.5346250832080832 8.4474825710058195 72.381135880947113 75.735492512583733 6.1435290575027448 8.6637461781501752 9.8815539628267306 7.4855639934539795 9.5906200408935529 32.95965202152729 7.0115606486797359 8.3275098353624326 8.9054839015007001 23.285703346133232 57.59889380633831 12.180892840027807 13.957838982343672
leaf_count=170 400 69 39 278 209 84 70 137 223 167 24 55 166 27 32 74 71 23 34 307 707 1351 21 51 28 92 22 33 29 50 27 20 244 33 33 166 423 106 31 48 24 395 24 23 99 24 37 339 348 30 44 45 34 41 140 32 39 38 110 267 56 64
internal_value=0 0.00199825 0.0061996 0.00712012 -0.0218688 0.00468112 0.0169236 0.0264182 0.00753978 0.0102477 0.04168 -0.000141714 -0.00173842 0.00386727 0.0242647 0.023254 0.0264049 0.0134546 -0.0172863 -0.0208637 -0.0284894 0.00045721 0.00547376 0.0106564 0.00967906 0.0259531 0.0056482 0.0139472 0.00269837 -0.0124141 0.0195402 -0.0115544 0.0010721 0.0338174 0.00561123 -0.0191304 -0.0277009 0.0513877 0.0344807 0.0108945 0.0733789 0.00757107 0.0190627 0.0043465 0.0126497 0.0233204 0.0596532 -0.00344067 0.00746667 -0.0132439 0.00768823 0.0255479 -0.00762324 0.0106661 0.00824323 0.00146009 0.0246483 0.0333466 -0.0206061 0.00879916 0.0274457 -0.00710008
internal_weight=0 1699.44 1445.06 1415.1 254.377 1133.18 281.923 140.134 141.789 68.0412 72.0928 576.69 543.972 346.241 49.5937 68.3851 32.7184 42.0966 219.485 194.574 133.241 296.647 19.8918 24.9111 556.485 63.8159 41.9335 37.3179 30.6666 23.2647 12.3185 197.731 74.1499 23.1476 15.5601 123.581 88.2399 56.4468 30.3559 18.8973 11.4586 492.669 107.952 384.717 186.19 102.748 13.9821 198.527 93.9716 104.556 32.1744 23.5106 13.6291 181.174 171.584 121.391 50.1926 41.8651 30.2973 91.0938 33.4949 73.4038
internal_count=8427 8027 6650 6480 1377 5234 1246 607 639 304 303 2704 2557 1599 221 297 147 189 1168 1048 741 1378 92 120 2530 281 189 167 139 106 56 958 349 105 72 609 443 233 127 79 48 2249 480 1769 845 456 61 924 432 492 153 109 64 822 781 564 217 178 142 422 155 342
is_linear=0
shrinkage=0.05


end of trees

feature_importances:
close=122
hod_sin=97
ret=62
hod_cos=56
high=56
vol20=55
interarrival_mean_s=50
low=37
volume=34
sell_volume=30
open=27
buy_ratio=25
signed_volume=22
sell_ratio=20
trades=13
buy_volume=13
logret=11
ofi_norm=8
dollar=6

parameters:
[boosting: gbdt]
[objective: binary]
[metric: binary_logloss,auc]
[tree_learner: serial]
[device_type: cpu]
[data_sample_strategy: bagging]
[data: ]
[valid: ]
[num_iterations: 500]
[learning_rate: 0.05]
[num_leaves: 63]
[num_threads: 0]
[seed: 0]
[deterministic: 0]
[force_col_wise: 0]
[force_row_wise: 0]
[histogram_pool_size: -1]
[max_depth: -1]
[min_data_in_leaf: 20]
[min_sum_hessian_in_leaf: 0.001]
[bagging_fraction: 1]
[pos_bagging_fraction: 1]
[neg_bagging_fraction: 1]
[bagging_freq: 0]
[bagging_seed: 3]
[feature_fraction: 1]
[feature_fraction_bynode: 1]
[feature_fraction_seed: 2]
[extra_trees: 0]
[extra_seed: 6]
[early_stopping_round: 0]
[early_stopping_min_delta: 0]
[first_metric_only: 0]
[max_delta_step: 0]
[lambda_l1: 0]
[lambda_l2: 0]
[linear_lambda: 0]
[min_gain_to_split: 0]
[drop_rate: 0.1]
[max_drop: 50]
[skip_drop: 0.5]
[xgboost_dart_mode: 0]
[uniform_drop: 0]
[drop_seed: 4]
[top_rate: 0.2]
[other_rate: 0.1]
[min_data_per_group: 100]
[max_cat_threshold: 32]
[cat_l2: 10]
[cat_smooth: 10]
[max_cat_to_onehot: 4]
[top_k: 20]
[monotone_constraints: ]
[monotone_constraints_method: basic]
[monotone_penalty: 0]
[feature_contri: ]
[forcedsplits_filename: ]
[refit_decay_rate: 0.9]
[cegb_tradeoff: 1]
[cegb_penalty_split: 0]
[cegb_penalty_feature_lazy: ]
[cegb_penalty_feature_coupled: ]
[path_smooth: 0]
[interaction_constraints: ]
[verbosity: -1]
[saved_feature_importance_type: 0]
[use_quantized_grad: 0]
[num_grad_quant_bins: 4]
[quant_train_renew_leaf: 0]
[stochastic_rounding: 1]
[linear_tree: 0]
[max_bin: 255]
[max_bin_by_feature: ]
[min_data_in_bin: 3]
[bin_construct_sample_cnt: 200000]
[data_random_seed: 1]
[is_enable_sparse: 1]
[enable_bundle: 1]
[use_missing: 1]
[zero_as_missing: 0]
[feature_pre_filter: 0]
[pre_partition: 0]
[two_round: 0]
[header: 0]
[label_column: ]
[weight_column: ]
[group_column: ]
[ignore_column: ]
[categorical_feature: ]
[forcedbins_filename: ]
[precise_float_parser: 0]
[parser_config_file: ]
[objective_seed: 5]
[num_class: 1]
[is_unbalance: 0]
[scale_pos_weight: 1]
[sigmoid: 1]
[boost_from_average: 1]
[reg_sqrt: 0]
[alpha: 0.9]
[fair_c: 1]
[poisson_max_delta_step: 0.7]
[tweedie_variance_power: 1.5]
[lambdarank_truncation_level: 30]
[lambdarank_norm: 1]
[label_gain: ]
[lambdarank_position_bias_regularization: 0]
[eval_at: ]
[multi_error_top_k: 1]
[auc_mu_weights: ]
[num_machines: 1]
[local_listen_port: 12400]
[time_out: 120]
[machine_list_filename: ]
[machines: ]
[gpu_platform_id: -1]
[gpu_device_id: -1]
[gpu_use_dp: 0]
[num_gpu: 1]

end of parameters

pandas_categorical:[]
