tree
version=v4
num_class=1
num_tree_per_iteration=1
label_index=0
max_feature_idx=18
objective=binary sigmoid:1
feature_names=ret logret vol20 buy_ratio sell_ratio ofi_norm interarrival_mean_s hod_sin hod_cos open high low close volume trades dollar buy_volume sell_volume signed_volume
feature_infos=[-24.620981216430664:936.76849365234375] [-24.906713485717773:573.5533447265625] [-0.76928937435150146:453.53524780273438] [-3.1093764305114746:2.225987434387207] [-2.3844461441040039:3.1093764305114746] [-3.1093764305114746:2.225987434387207] [0.0026144823059439659:6076.47705078125] [-1.5905284881591797:12.17448616027832] [-3.6491570472717285:2.0600686073303223] [11.960000038146973:57.569999694824219] [11.989999771118164:57.610000610351562] [11.899999618530273:57.520000457763672] [11.960000038146973:57.549999237060547] [20200:8523800] [79:200] [252698:264707990] [0:834800] [0:728900] [-714800:603300]
tree_sizes=3430

Tree=0
num_leaves=32
num_cat=0
split_feature=7 9 2 2 8 9 9 6 8 8 9 6 7 11 7 8 11 15 3 17 12 8 13 15 8 7 6 8 4 2 0
split_gain=37.0204 34.3036 26.5098 24.5439 23.777 21.3611 19.83 17.8476 15.9578 33.8262 14.1334 9.14627 9.09363 9.02549 9.4808 8.60899 21.7474 8.12789 8.88895 7.2387 6.80877 7.09977 6.1141 5.61825 5.02521 4.8133 2.27702 2.07206 1.4956 0.137809 7.10543e-15
threshold=-0.66136011481285084 55.585000991821296 -0.58903431892395008 0.87076640129089367 1.2721118927001955 12.339999675750734 12.545000076293947 2.1807755231857304 0.54309785366058361 0.83959835767745983 30.964999198913578 0.5795826017856599 1.0000000180025095e-35 31.375000000000004 0.82991597056388866 -1.0000000180025095e-35 31.005000114440922 1645830.0000000002 -0.010133895091712473 36100.000000000007 31.005000114440922 0.48019893467426306 100650.00000000001 4800908.5000000009 1.4392807483673098 -0.71409428119659413 0.76152342557907116 1.1722943782806399 0.42206032574176794 -0.54954868555068959 -0.027054526843130585
decision_type=2 2 2 2 2 2 2 2 2 2 2 2 2 2 2 2 2 2 2 2 2 2 2 2 2 2 2 2 2 2 2
left_child=1 2 20 4 7 -6 -5 13 25 -10 -8 24 -12 15 23 16 17 -2 -19 -13 21 -1 -9 -15 -7 26 -4 29 -18 -17 -28
right_child=3 -3 8 6 5 11 10 22 9 -11 12 19 -14 14 -16 27 28 18 -20 -21 -22 -23 -24 -25 -26 -27 30 -29 -30 -31 -32
leaf_value=-0.22550062714788544 -0.24724433513841793 -0.28607238512151179 -0.11690801600597876 -0.084166525209424026 -0.27597709212590738 -0.11220900575276951 -0.25722869084835637 -0.13683761909953379 -0.25126102996425526 -0.10252160338325013 -0.11169914247016319 -0.15146847851345321 -0.20531004115667664 -0.19828722863799531 -0.15439465039623712 -0.27597709212590732 -0.2561604058752765 -0.13986469346103439 -0.21666724577673158 -0.22550062714788541 -0.25095832252810518 -0.14185391375573475 -0.2067522258703344 -0.26851535382480846 -0.17502416216986347 -0.15146847851345324 -0.084166525209423942 -0.25001776728006753 -0.28607238512151179 -0.28607238512151173 -0.084166525209423984
leaf_weight=4.9528032541275007 6.4386442303657558 5.2004434168338767 9.1626860201358813 6.1910040676593807 4.9528032541275016 8.9150458574295062 5.2004434168338767 5.695723742246626 7.1815647184848777 8.1721253693103773 5.4480835795402509 5.9433639049530012 4.9528032541275024 5.6957237422466296 5.6957237422466269 4.9528032541275033 6.686284393072131 7.1815647184848777 7.924485206604003 7.4292048811912537 5.6957237422466269 5.2004434168338776 6.9339245557785034 5.6957237422466278 4.9528032541275016 5.2004434168338802 6.9339245557785016 6.9339245557785025 11.143807321786879 10.64852699637413 5.6957237422466278
leaf_count=20 26 21 37 25 20 36 21 23 29 33 22 24 20 23 23 20 27 29 32 30 23 21 28 23 20 21 28 28 45 43 23
internal_value=-0.194928 -0.163036 -0.152041 -0.208812 -0.217424 -0.18046 -0.159881 -0.230412 -0.131396 -0.172093 -0.189927 -0.163093 -0.156276 -0.239235 -0.207066 -0.248114 -0.234009 -0.200204 -0.180155 -0.192597 -0.207203 -0.182657 -0.175222 -0.233401 -0.134643 -0.108247 -0.0979328 -0.27276 -0.274855 -0.282868 -0.0841665
internal_weight=0 63.3959 58.1954 145.612 123.82 32.1932 21.7923 91.6269 42.3465 15.3537 15.6013 27.2404 10.4009 78.9972 17.0872 61.91 39.3748 21.5447 15.106 13.3726 15.849 10.1532 12.6296 11.3914 13.8678 26.9928 21.7923 22.5353 17.8301 15.6013 12.6296
internal_count=844 256 235 588 500 130 88 370 171 62 63 110 42 319 69 250 159 87 61 54 64 41 51 46 56 109 88 91 72 63 51
is_linear=0
shrinkage=1


end of trees

feature_importances:
hod_cos=7
hod_sin=4
open=4
vol20=3
interarrival_mean_s=3
low=2
dollar=2
ret=1
buy_ratio=1
sell_ratio=1
close=1
volume=1
sell_volume=1

parameters:
[boosting: gbdt]
[objective: binary]
[metric: binary_logloss,auc]
[tree_learner: serial]
[device_type: cpu]
[data_sample_strategy: bagging]
[data: ]
[valid: ]
[num_iterations: 500]
[learning_rate: 0.05]
[num_leaves: 63]
[num_threads: 0]
[seed: 0]
[deterministic: 0]
[force_col_wise: 0]
[force_row_wise: 0]
[histogram_pool_size: -1]
[max_depth: -1]
[min_data_in_leaf: 20]
[min_sum_hessian_in_leaf: 0.001]
[bagging_fraction: 1]
[pos_bagging_fraction: 1]
[neg_bagging_fraction: 1]
[bagging_freq: 0]
[bagging_seed: 3]
[feature_fraction: 1]
[feature_fraction_bynode: 1]
[feature_fraction_seed: 2]
[extra_trees: 0]
[extra_seed: 6]
[early_stopping_round: 0]
[early_stopping_min_delta: 0]
[first_metric_only: 0]
[max_delta_step: 0]
[lambda_l1: 0]
[lambda_l2: 0]
[linear_lambda: 0]
[min_gain_to_split: 0]
[drop_rate: 0.1]
[max_drop: 50]
[skip_drop: 0.5]
[xgboost_dart_mode: 0]
[uniform_drop: 0]
[drop_seed: 4]
[top_rate: 0.2]
[other_rate: 0.1]
[min_data_per_group: 100]
[max_cat_threshold: 32]
[cat_l2: 10]
[cat_smooth: 10]
[max_cat_to_onehot: 4]
[top_k: 20]
[monotone_constraints: ]
[monotone_constraints_method: basic]
[monotone_penalty: 0]
[feature_contri: ]
[forcedsplits_filename: ]
[refit_decay_rate: 0.9]
[cegb_tradeoff: 1]
[cegb_penalty_split: 0]
[cegb_penalty_feature_lazy: ]
[cegb_penalty_feature_coupled: ]
[path_smooth: 0]
[interaction_constraints: ]
[verbosity: -1]
[saved_feature_importance_type: 0]
[use_quantized_grad: 0]
[num_grad_quant_bins: 4]
[quant_train_renew_leaf: 0]
[stochastic_rounding: 1]
[linear_tree: 0]
[max_bin: 255]
[max_bin_by_feature: ]
[min_data_in_bin: 3]
[bin_construct_sample_cnt: 200000]
[data_random_seed: 1]
[is_enable_sparse: 1]
[enable_bundle: 1]
[use_missing: 1]
[zero_as_missing: 0]
[feature_pre_filter: 0]
[pre_partition: 0]
[two_round: 0]
[header: 0]
[label_column: ]
[weight_column: ]
[group_column: ]
[ignore_column: ]
[categorical_feature: ]
[forcedbins_filename: ]
[precise_float_parser: 0]
[parser_config_file: ]
[objective_seed: 5]
[num_class: 1]
[is_unbalance: 0]
[scale_pos_weight: 1]
[sigmoid: 1]
[boost_from_average: 1]
[reg_sqrt: 0]
[alpha: 0.9]
[fair_c: 1]
[poisson_max_delta_step: 0.7]
[tweedie_variance_power: 1.5]
[lambdarank_truncation_level: 30]
[lambdarank_norm: 1]
[label_gain: ]
[lambdarank_position_bias_regularization: 0]
[eval_at: ]
[multi_error_top_k: 1]
[auc_mu_weights: ]
[num_machines: 1]
[local_listen_port: 12400]
[time_out: 120]
[machine_list_filename: ]
[machines: ]
[gpu_platform_id: -1]
[gpu_device_id: -1]
[gpu_use_dp: 0]
[num_gpu: 1]

end of parameters

pandas_categorical:[]
