tree
version=v4
num_class=1
num_tree_per_iteration=1
label_index=0
max_feature_idx=55
objective=binary sigmoid:1
feature_names=ret logret vol20 buy_ratio sell_ratio ofi_norm interarrival_mean_s hod_sin hod_cos open high low close volume trades dollar buy_volume sell_volume signed_volume ma_9 ma_20 ma_50 price_ma9_ratio price_ma20_ratio price_ma50_ratio ma9_ma20_cross ma20_ma50_cross ma9_ma50_cross bb20_middle bb20_upper_1std bb20_upper_2std bb20_upper_3std bb20_lower_1std bb20_lower_2std bb20_lower_3std bb20_position bb20_touch_upper_1std bb20_touch_upper_2std bb20_touch_upper_3std bb20_touch_lower_1std bb20_touch_lower_2std bb20_touch_lower_3std bb50_middle bb50_upper_1std bb50_upper_2std bb50_upper_3std bb50_lower_1std bb50_lower_2std bb50_lower_3std bb50_position bb50_touch_upper_1std bb50_touch_upper_2std bb50_touch_upper_3std bb50_touch_lower_1std bb50_touch_lower_2std bb50_touch_lower_3std
feature_infos=[-24.620981216430664:990.9483642578125] [-24.906713485717773:746.15216064453125] [-1.3105654716491699:426.95101928710938] [-3.1093764305114746:2.1769485473632812] [-2.5021991729736328:3.1093764305114746] [-3.1093764305114746:2.1769485473632812] [0.0026144823059439659:6076.47705078125] [-1.5905284881591797:12.133391380310059] [-2.8252677917480469:2.2173066139221191] [11.960000038146973:57.599998474121094] [11.989999771118164:57.639999389648438] [11.899999618530273:57.560001373291016] [11.960000038146973:57.599998474121094] [20200:8523800] [106:200] [252698:264707990] [0:834800] [0:728900] [-714800:603300] [12.031110763549805:57.560001373291016] [12.093999862670898:57.534500122070312] [12.216799736022949:57.112998962402344] [-18.716148376464844:656.07757568359375] [-15.568602561950684:570.2742919921875] [-15.686398506164551:525.03045654296875] [-1.9395630359649658:5.7445626258850098] [-3.1797974109649658:6.4807405471801758] [-3.6449573040008545:5.9160799980163574] [12.093999862670898:57.534500122070312] [0:61.001224517822266] [0:70.925956726074219] [0:82.101547241210938] [0:57.503494262695312] [0:57.472991943359375] [-8.3321952819824219:57.449146270751953] [-2.9026143550872803:3.7696146965026855] [-0.91370803117752075:5.385164737701416] [-0.37796446681022644:7] [-0.175863116979599:14.106736183166504] [-0.75815773010253906:2.8444523811340332] [-0.34444749355316162:14.106736183166504] [-0.17960530519485474:7.8740077018737793] [12.216799736022949:57.112998962402344] [0:60.725276947021484] [0:70.502044677734375] [0:81.464088439941406] [0:56.336997985839844] [0:55.560993194580078] [-7.9722027778625488:55.327110290527344] [-5.5030498504638672:5.59344482421875] [-1.0726311206817627:5.5677642822265625] [-0.50780075788497925:14.106736183166504] [-0.28474739193916321:14.106736183166504] [-0.86855393648147583:7] [-0.33601075410842896:14.106736183166504] [-0.21821789443492889:14.106736183166504]
tree_sizes=3283 3397 3413 3420 3412

Tree=0
num_leaves=31
num_cat=0
split_feature=27 24 50 50 47 27 45 44 45 26 44 7 46 8 46 32 45 9 31 25 36 25 25 43 48 7 26 26 22 0
split_gain=82.2036 51.9609 64.7202 62.5581 50.9877 54.9999 53.8458 45.9889 43.7243 42.3716 26.8401 25.2003 23.6239 22.0999 19.2389 21.4067 22.3118 16.3099 15.4588 11.2338 7.56694 7.35901 23.1126 7.26129 6.64111 5.39455 4.49103 1.34243 2.96148 1.04791
threshold=1.0102609992027285 -0.70173874497413624 -0.6476469337940215 -0.45656791329383845 29.644730567932132 0.72977623343467724 12.582498073577883 32.522548675537116 31.665033340454105 0.56580168008804332 32.603828430175788 -0.99315780401229847 12.388909339904787 1.5851961374282839 30.961517333984379 12.48215961456299 43.476972579956062 31.025000572204593 12.335530757904055 -0.75705018639564503 -0.59393402934074391 -0.8999839425086974 -0.97531643509864796 57.863922119140632 32.47328186035157 -0.7803489863872527 -1.6762315630912779 0.8466114103794099 -0.16146326065063474 -0.068016763776540742
decision_type=2 2 2 2 2 2 2 2 2 2 2 2 2 2 2 2 2 2 2 2 2 2 2 2 2 2 2 2 2 2
left_child=1 21 8 14 6 7 18 29 17 10 -10 -9 -8 -2 15 -4 19 -3 -5 -17 -11 22 -1 26 -13 -7 -12 28 -27 -6
right_child=13 2 3 4 5 25 12 11 9 20 23 24 -14 -15 -16 16 -18 -19 -20 -21 -22 -23 -24 -25 -26 27 -28 -29 -30 -31
leaf_value=0.44993680013473114 0.40951937783197062 0.42705748923171089 0.4499881681430451 0.42566027940557227 0.40889376149190854 0.43805292308088889 0.43057460362164612 0.41727702044874043 0.43883397205202229 0.44983525872294783 0.42086984571595404 0.44871424153685985 0.40889376149190854 0.43404353836240411 0.45049956520359258 0.43805292308088889 0.45081005627606785 0.40889376149190854 0.44834439187699965 0.41992436538247679 0.43484194397734049 0.45034943765206609 0.42566027940557227 0.42775609414478022 0.43509144573200809 0.45081005627606779 0.40889376149190854 0.45081005627606785 0.44033098258002801 0.41518120570953243
leaf_weight=11.451393842697145 15.984237238764765 7.1571211516857174 12.167105957865717 4.7714141011238089 5.9642676264047623 5.4871262162923804 6.9185504466295269 4.7714141011238125 8.349974676966669 10.258540317416189 5.0099848061800012 9.5428282022476179 18.369944289326668 4.7714141011238089 32.207045182585716 5.487126216292384 5.2485555112361899 15.984237238764761 8.1114039719104749 9.0656867921352369 5.0099848061799994 21.709934160113335 5.9642676264047614 4.7714141011238089 5.7256969213485709 6.2028383314609528 8.3499746769666672 15.745666533708571 4.7714141011238116 4.7714141011238116
leaf_count=48 67 30 51 20 25 23 29 20 35 43 21 40 77 20 135 23 22 67 34 38 21 91 25 20 24 26 35 66 20 20
internal_value=0.434333 0.435811 0.434 0.437322 0.432422 0.437949 0.423302 0.42839 0.425537 0.431648 0.423999 0.437337 0.414825 0.415157 0.445045 0.439549 0.433135 0.414511 0.439943 0.42676 0.444916 0.446465 0.441623 0.417167 0.443606 0.447084 0.413385 0.448939 0.446254 0.411688
internal_weight=0 269.346 230.221 165.329 101.154 62.9827 38.1713 30.7756 64.8912 41.7499 26.4813 20.0399 25.2885 20.7557 64.1755 31.9685 19.8014 23.1414 12.8828 14.5528 15.2685 39.1256 17.4157 18.1314 15.2685 32.207 13.36 26.7199 10.9743 10.7357
internal_count=1216 1129 965 693 424 264 160 129 272 175 111 84 106 87 269 134 83 97 54 61 64 164 73 76 64 135 56 112 46 45
is_linear=0
shrinkage=1


Tree=1
num_leaves=31
num_cat=0
split_feature=27 24 50 50 47 27 45 44 45 26 44 7 46 53 46 32 36 9 31 25 36 25 54 12 7 48 7 26 49 23
split_gain=80.2705 51.0739 63.3528 61.4706 49.8766 54.0278 52.4991 44.8325 42.5733 41.5085 26.1788 24.6746 22.9197 21.6389 18.9877 21.0706 21.9371 15.8113 15.1876 12.8994 7.45964 7.26827 22.7233 7.22756 17.754 6.54378 5.32336 1.3282 2.9403 1.03451
threshold=1.0102609992027285 -0.70173874497413624 -0.6476469337940215 -0.45656791329383845 29.644730567932132 0.72977623343467724 12.582498073577883 32.522548675537116 31.665033340454105 0.56580168008804332 32.603828430175788 -0.99315780401229847 12.388909339904787 -0.52863553166389454 30.961517333984379 12.48215961456299 -0.62457638978958119 31.025000572204593 12.335530757904055 -0.75705018639564503 -0.59393402934074391 -0.8999839425086974 -0.15149264782667157 55.524999618530281 -0.93060213327407826 32.47328186035157 -0.7803489863872527 0.8466114103794099 0.86788341403007518 -0.24412004649639127
decision_type=2 2 2 2 2 2 2 2 2 2 2 2 2 2 2 2 2 2 2 2 2 2 2 2 2 2 2 2 2 2
left_child=1 21 8 14 6 7 18 29 17 10 -10 -9 -8 -2 15 -4 -17 -3 -5 -18 -11 22 -1 24 -12 -13 -7 28 -28 -6
right_child=13 2 3 4 5 26 12 11 9 20 23 25 -14 -15 -16 16 19 -19 -20 -21 -22 -23 -24 -25 -26 -27 27 -29 -30 -31
leaf_value=-0.0085702508105389118 -0.024466078747629991 -0.0071916844632289858 0.015551665727029002 -0.008570250810538917 -0.025081869666808393 0.003685590515111668 -0.0037179117447431031 -0.016824906491865039 0.0044602055871667077 0.015399242709977865 -0.025059383476118656 0.014282111553515267 -0.025051517420800608 -0.00022488486799606075 0.016061511278919811 0.0163802599387954 0.0042127431987082483 -0.025051517420800608 0.013913668746060622 -0.015053467694200238 0.00050381919048036084 0.015911826729790312 0.015500459588018862 -0.02518602691399701 -0.00018192083393201266 0.000750892809676597 0.016381463636047821 0.016371118402449314 0.0059274066527167449 -0.018849349618478561
leaf_weight=5.9752304106950787 16.060807675123218 7.1681731939315823 12.125738337635996 4.7801843285560599 5.9934208542108536 5.4827454835176459 6.9240891039371517 4.7885137796402004 8.3419022709131259 10.224007740616797 5.515613704919816 9.51306104660034 18.467279627919197 4.7778046876192084 32.093909606337547 5.2313373088836697 5.7204617857933071 16.068931624293327 8.086761534214018 8.8539135605096764 5.009439378976821 21.634392440319061 11.412589788436888 6.7031325846910468 5.977761149406434 5.7247678041458121 6.1828102767467517 15.689275950193403 4.7630717158317566 4.7930222749710101
leaf_count=25 67 30 51 20 25 23 29 20 35 43 23 40 77 20 135 22 24 67 34 37 21 91 48 28 25 24 26 66 20 20
internal_value=0 0.00146375 -0.000329362 0.00296121 -0.00189078 0.00358333 -0.0108951 -0.00587654 -0.00869204 -0.00265629 -0.0102088 0.00297603 -0.019234 -0.0189081 0.0106295 0.00516991 -0.00118615 -0.0195421 0.00556069 -0.00749145 0.010501 0.0120427 0.00722869 -0.0169335 -0.0121205 0.00919851 0.0126588 0.0145059 0.0118324 -0.0223124
internal_weight=0 269.246 230.223 165.214 101.189 62.9307 38.2583 30.8128 65.009 41.7719 26.5384 20.0263 25.3914 20.8386 64.0254 31.9315 19.8057 23.2371 12.8669 14.5744 15.2334 39.0222 17.3878 18.1965 11.4934 15.2378 32.1179 26.6352 10.9459 10.7864
internal_count=1216 1129 965 693 424 264 160 129 272 175 111 84 106 87 269 134 83 97 54 61 64 164 73 76 48 64 135 112 46 45
is_linear=0
shrinkage=0.01


Tree=2
num_leaves=31
num_cat=0
split_feature=27 24 53 36 44 20 36 41 33 39 7 54 27 36 53 37 49 11 26 26 47 38 25 54 7 7 35 7 36 49
split_gain=78.403 50.2061 62.1512 49.7661 47.3062 57.886 41.5749 39.7341 34.9882 33.555 23.4803 22.1702 30.1079 30.0727 21.0259 19.2431 29.4319 29.2133 12.374 11.3154 20.7572 8.07898 7.17967 22.3428 6.66459 4.99979 4.12858 3.96053 5.96685 0.674786
threshold=1.0102609992027285 -0.70173874497413624 -0.57618388533592213 -0.61627578735351551 32.522548675537116 32.540250778198249 1.2706083655357363 -0.12194278463721274 12.24602270126343 -0.44048169255256647 -0.94745868444442738 -0.15149264782667157 0.68205985426902782 1.8428140282630923 -0.52863553166389454 -0.27954950928688044 0.70986655354499828 55.48500061035157 -1.0000000180025095e-35 0.68994149565696727 30.921772003173832 -0.10088689997792243 -0.8999839425086974 -0.15149264782667157 0.34513370692729956 -0.066708482801914201 -0.72767022252082814 -0.71428987383842457 -0.57558465003967274 -0.83392247557640065
decision_type=2 2 2 2 2 2 2 2 2 2 2 2 2 2 2 2 2 2 2 2 2 2 2 2 2 2 2 2 2 2
left_child=1 22 8 4 19 -6 7 -5 -3 -7 -10 13 -13 -8 -2 -9 17 18 29 -4 -21 -20 23 -1 -14 -23 -11 28 -12 -17
right_child=14 2 3 6 5 9 11 15 10 26 27 12 24 -15 -16 16 -18 -19 21 20 -22 25 -24 -25 -26 -27 -28 -29 -30 -31
leaf_value=-0.0084693886136870018 -0.02410439542870289 -0.015789377596926807 -0.02424586162539593 -0.021345241446926188 0.014744792294253899 0.01006506365785822 -0.023994295208991739 0.015782327828618624 -0.0077509821442893236 -0.013626750964054935 0.015075884940562473 -0.019675726193219261 0.0020049740807355563 0.0024437210430001449 -0.00022262489609524907 0.012600587984508665 -0.019013831852067994 -0.015605525799687259 -0.007252878588290078 -0.023398386596099736 0.0031360973105528057 0.013545718704425795 0.015809546736727024 0.015399319067381624 0.016305811662185529 0.001405034967157781 -0.024787294766427666 0.015663324849546627 0.0019469647118128056 0.016319974050814392
leaf_weight=5.9858724474906948 16.138382747769359 5.2588250935077658 18.531303137540821 5.2699937373399726 12.581742241978647 4.7541055381298092 12.99997238814831 18.741204813122749 5.7484998106956473 5.2799425423145321 7.838681623339653 5.5103908777236965 7.6232611984014493 6.4307539463043204 4.7780310362577429 8.0670372396707517 5.0418971478939048 5.2733113914728156 5.0295622497797039 6.7297079563140851 5.2465411871671677 6.9085624814033517 21.556999772787094 11.372868776321409 5.6918744742870331 6.6641304194927224 8.9046801477670616 31.532093599438667 6.1994506418704969 12.338158205151556
leaf_count=25 67 22 77 22 53 20 54 79 24 22 33 23 32 27 20 34 21 22 21 28 22 29 91 48 24 28 37 133 26 52
internal_value=0 0.00145011 -0.000325817 -0.00329202 -0.0104731 -0.0018815 0.000699611 0.00510822 0.00877649 -0.012927 0.0112939 -0.00775131 -1.73099e-05 -0.0152444 -0.018649 0.00715644 0.00387885 0.00648546 0.00947188 -0.0193499 -0.0117742 0.00357301 0.0119552 0.00716859 0.00811821 0.0075847 -0.020633 0.0136963 0.00927796 0.0148495
internal_weight=0 269.111 230.196 173.618 62.028 31.5205 111.59 73.3339 56.5776 18.9387 51.3187 38.2563 18.8255 19.4307 20.9164 68.0639 49.3227 44.2808 39.0075 30.5076 11.9762 18.6023 38.9157 17.3587 13.3151 13.5727 14.1846 45.5702 14.0381 20.4052
internal_count=1216 1129 965 727 259 132 468 308 238 79 216 160 79 81 87 286 207 186 164 127 50 78 164 73 56 57 59 192 59 86
is_linear=0
shrinkage=0.01


Tree=3
num_leaves=31
num_cat=0
split_feature=27 24 53 36 44 20 36 41 33 39 7 54 27 36 8 37 49 11 26 26 47 38 25 54 7 7 35 7 36 49
split_gain=76.5988 49.3573 60.9946 48.6606 46.0805 56.7507 40.7409 38.8775 34.3298 32.7397 23.1041 21.6343 29.4426 29.2704 20.6084 18.9749 28.8009 28.6392 12.2059 10.9756 20.2191 7.92531 7.09312 21.9707 6.57225 4.92478 4.00315 3.91734 5.88341 0.668121
threshold=1.0102609992027285 -0.70173874497413624 -0.57618388533592213 -0.61627578735351551 32.522548675537116 32.540250778198249 1.2706083655357363 -0.12194278463721274 12.24602270126343 -0.44048169255256647 -0.94745868444442738 -0.15149264782667157 0.68205985426902782 1.8428140282630923 1.5851961374282839 -0.27954950928688044 0.70986655354499828 55.48500061035157 -1.0000000180025095e-35 0.68994149565696727 30.921772003173832 -0.10088689997792243 -0.8999839425086974 -0.15149264782667157 0.34513370692729956 -0.066708482801914201 -0.72767022252082814 -0.71428987383842457 -0.57558465003967274 -0.83392247557640065
decision_type=2 2 2 2 2 2 2 2 2 2 2 2 2 2 2 2 2 2 2 2 2 2 2 2 2 2 2 2 2 2
left_child=1 22 8 4 19 -6 7 -5 -3 -7 -10 13 -13 -8 -2 -9 17 18 29 -4 -21 -20 23 -1 -14 -23 -11 28 -12 -17
right_child=14 2 3 6 5 9 11 15 10 26 27 12 24 -15 -16 16 -18 -19 21 20 -22 25 -24 -25 -26 -27 -28 -29 -30 -31
leaf_value=-0.0083701791142566633 -0.023782147940696514 -0.015580560692612112 -0.023894190230629903 -0.021041618246936542 0.014646736062010907 0.0099870006614033602 -0.023647746161136407 0.01568150587081265 -0.0076613611683871777 -0.013454286885203143 0.014976488151411886 -0.019402516597938874 0.0019857943580881619 0.0024205759161730739 -0.00016083955074760046 0.012510741024103022 -0.018754002303227293 -0.01540135860066982 -0.0071697446939861841 -0.023060861574518834 0.0031068381569662445 0.013450456115021981 0.015709436650810683 0.015300223116628524 0.016203827483799154 0.0013914152510781574 -0.02442529780817743 0.015563161168217201 0.0019283072400515797 0.016217678002114006
leaf_weight=5.9962000697851208 16.205043271183971 5.2759256958961478 18.615572154521946 5.2924626916646949 12.539525657892229 4.7434070259332684 13.058278977870943 18.673420935869217 5.7575412988662711 5.2940757721662548 7.8119327276945114 5.5319934189319637 7.6199385076761228 6.427338480949401 4.7838160395622245 8.043837830424307 5.0605379343032828 5.2897012233734122 5.036964118480685 6.7597699463367444 5.2430098950862885 6.8880203068256387 21.477826669812202 11.332266569137571 5.6705280393362045 6.6620789319276819 8.9460740238428063 31.418251842260361 6.1968527734279615 12.292054399847983
leaf_count=25 67 22 77 22 53 20 54 79 24 22 33 23 32 27 20 34 21 22 21 28 22 29 91 48 24 28 37 133 26 52
internal_value=0 0.00143672 -0.000322342 -0.00325748 -0.010349 -0.00186222 0.000693139 0.00506393 0.00870696 -0.0127672 0.0112104 -0.00766313 -1.69322e-05 -0.0150491 -0.0183983 0.00709733 0.00384412 0.00643068 0.00939769 -0.0190866 -0.0116304 0.00354026 0.0118692 0.00710951 0.00805208 0.00752148 -0.0203466 0.0136023 0.00920456 0.0147514
internal_weight=0 268.955 230.149 173.689 62.1414 31.5231 111.547 73.2391 56.4605 18.9836 51.1846 38.3081 18.8225 19.4856 20.9889 67.9466 49.2732 44.2127 38.923 30.6184 12.0028 18.5871 38.8063 17.3285 13.2905 13.5501 14.2401 45.427 14.0088 20.3359
internal_count=1216 1129 965 727 259 132 468 308 238 79 216 160 79 81 87 286 207 186 164 127 50 78 164 73 56 57 59 192 59 86
is_linear=0
shrinkage=0.01


Tree=4
num_leaves=31
num_cat=0
split_feature=27 24 53 36 44 20 36 41 33 39 7 54 27 36 53 37 49 11 26 26 47 38 25 54 7 7 35 7 36 49
split_gain=74.854 48.5268 59.8656 47.5908 44.903 55.6464 39.9288 38.0472 33.6874 31.9539 22.7359 21.1175 28.7973 28.5039 20.0489 18.7122 28.188 28.0792 12.0416 10.654 19.7034 7.77485 7.00857 21.6069 6.48227 4.85145 3.8857 3.87558 5.80203 0.661805
threshold=1.0102609992027285 -0.70173874497413624 -0.57618388533592213 -0.61627578735351551 32.522548675537116 32.540250778198249 1.2706083655357363 -0.12194278463721274 12.24602270126343 -0.44048169255256647 -0.94745868444442738 -0.15149264782667157 0.68205985426902782 1.8428140282630923 -0.52863553166389454 -0.27954950928688044 0.70986655354499828 55.48500061035157 -1.0000000180025095e-35 0.68994149565696727 30.921772003173832 -0.10088689997792243 -0.8999839425086974 -0.15149264782667157 0.34513370692729956 -0.066708482801914201 -0.72767022252082814 -0.71428987383842457 -0.57558465003967274 -0.83392247557640065
decision_type=2 2 2 2 2 2 2 2 2 2 2 2 2 2 2 2 2 2 2 2 2 2 2 2 2 2 2 2 2 2
left_child=1 22 8 4 19 -6 7 -5 -3 -7 -10 13 -13 -8 -2 -9 17 18 29 -4 -21 -20 23 -1 -14 -23 -11 28 -12 -17
right_child=14 2 3 6 5 9 11 15 10 26 27 12 24 -15 -16 16 -18 -19 21 20 -22 25 -24 -25 -26 -27 -28 -29 -30 -31
leaf_value=-0.0082725819564656959 -0.02344634859057582 -0.015376980751537778 -0.023555760382654667 -0.020748049048939104 0.014550493814392204 0.0099098420345957051 -0.023314097351329787 0.015582792708766245 -0.0075731300347210845 -0.013285626054008738 0.014879002811194371 -0.019137650017231 0.0019667932642668732 0.0023976444677641482 -0.00015916920463459103 0.012422206369976077 -0.018501834314818767 -0.015202235459484948 -0.0070878604846531515 -0.022735582061405687 0.003077846172551863 0.013356739166078839 0.015611428564742985 0.015203107587754812 0.016104115136108599 0.0013779242091797694 -0.024077256051377595 0.015465063050400126 0.0019098241175467088 0.016117663152360399
leaf_weight=6.0062214732170132 16.272426977753643 5.2922345995903006 18.693794786930088 5.3135658204555503 12.496457800269129 4.7325906455516842 13.112427309155466 18.604142785072327 5.7663289308547965 5.3076021820306805 7.7846213579177856 5.5523668229579952 7.6166347712278348 6.4239390045404425 4.7839809954166403 8.0202739238738996 5.0781249105930319 5.3053174763917914 5.0441668629646328 6.7877742201089841 5.2394897937774658 6.8670910447835931 21.396942287683487 11.290816783905028 5.6486912816762924 6.6600419282913217 8.9844406247138924 31.301951020956039 6.1942698806524259 12.244882881641386
leaf_count=25 67 22 77 22 53 20 54 79 24 22 33 23 32 27 20 34 21 22 21 28 22 29 91 48 24 28 37 133 26 52
internal_value=0 0.00142362 -0.000318952 -0.00322377 -0.0102286 -0.00184342 0.000686798 0.00502048 0.00863865 -0.0126119 0.0111284 -0.00757713 -1.65659e-05 -0.0148596 -0.0181555 0.00703928 0.00381 0.00637678 0.00932462 -0.0188322 -0.0114904 0.00350792 0.0117849 0.00705141 0.0079868 0.00745901 -0.0200696 0.01351 0.00913215 0.0146551
internal_weight=0 268.767 230.073 173.734 62.2422 31.5211 111.492 73.1376 56.3394 19.0246 51.0472 38.3541 18.8177 19.5364 21.0564 67.824 49.2199 44.1418 38.8365 30.7211 12.0273 18.5713 38.694 17.297 13.2653 13.5271 14.292 45.2808 13.9789 20.2652
internal_count=1216 1129 965 727 259 132 468 308 238 79 216 160 79 81 87 286 207 186 164 127 50 78 164 73 56 57 59 192 59 86
is_linear=0
shrinkage=0.01


end of trees

feature_importances:
hod_sin=17
bb20_touch_upper_1std=15
ma20_ma50_cross=11
ma9_ma50_cross=10
ma9_ma20_cross=8
bb50_upper_2std=7
bb50_position=7
bb50_touch_lower_2std=7
bb50_touch_lower_1std=6
price_ma50_ratio=5
bb50_upper_3std=5
bb50_lower_2std=5
bb50_lower_1std=4
bb50_touch_upper_1std=4
low=3
ma_20=3
bb20_lower_2std=3
bb20_position=3
bb20_touch_upper_2std=3
bb20_touch_upper_3std=3
bb20_touch_lower_1std=3
bb20_touch_lower_3std=3
hod_cos=2
open=2
bb20_upper_3std=2
bb20_lower_1std=2
bb50_lower_3std=2
ret=1
close=1
price_ma9_ratio=1
price_ma20_ratio=1
bb50_upper_1std=1

parameters:
[boosting: gbdt]
[objective: binary]
[metric: binary_logloss,auc]
[tree_learner: serial]
[device_type: cpu]
[data_sample_strategy: bagging]
[data: ]
[valid: ]
[num_iterations: 1000]
[learning_rate: 0.01]
[num_leaves: 31]
[num_threads: 0]
[seed: 0]
[deterministic: 0]
[force_col_wise: 1]
[force_row_wise: 0]
[histogram_pool_size: -1]
[max_depth: -1]
[min_data_in_leaf: 20]
[min_sum_hessian_in_leaf: 0.001]
[bagging_fraction: 1]
[pos_bagging_fraction: 1]
[neg_bagging_fraction: 1]
[bagging_freq: 0]
[bagging_seed: 3]
[feature_fraction: 1]
[feature_fraction_bynode: 1]
[feature_fraction_seed: 2]
[extra_trees: 0]
[extra_seed: 6]
[early_stopping_round: 0]
[early_stopping_min_delta: 0]
[first_metric_only: 0]
[max_delta_step: 0]
[lambda_l1: 0]
[lambda_l2: 0]
[linear_lambda: 0]
[min_gain_to_split: 0]
[drop_rate: 0.1]
[max_drop: 50]
[skip_drop: 0.5]
[xgboost_dart_mode: 0]
[uniform_drop: 0]
[drop_seed: 4]
[top_rate: 0.2]
[other_rate: 0.1]
[min_data_per_group: 100]
[max_cat_threshold: 32]
[cat_l2: 10]
[cat_smooth: 10]
[max_cat_to_onehot: 4]
[top_k: 20]
[monotone_constraints: ]
[monotone_constraints_method: basic]
[monotone_penalty: 0]
[feature_contri: ]
[forcedsplits_filename: ]
[refit_decay_rate: 0.9]
[cegb_tradeoff: 1]
[cegb_penalty_split: 0]
[cegb_penalty_feature_lazy: ]
[cegb_penalty_feature_coupled: ]
[path_smooth: 0]
[interaction_constraints: ]
[verbosity: -1]
[saved_feature_importance_type: 0]
[use_quantized_grad: 0]
[num_grad_quant_bins: 4]
[quant_train_renew_leaf: 0]
[stochastic_rounding: 1]
[linear_tree: 0]
[max_bin: 255]
[max_bin_by_feature: ]
[min_data_in_bin: 3]
[bin_construct_sample_cnt: 200000]
[data_random_seed: 1]
[is_enable_sparse: 1]
[enable_bundle: 1]
[use_missing: 1]
[zero_as_missing: 0]
[feature_pre_filter: 0]
[pre_partition: 0]
[two_round: 0]
[header: 0]
[label_column: ]
[weight_column: ]
[group_column: ]
[ignore_column: ]
[categorical_feature: ]
[forcedbins_filename: ]
[precise_float_parser: 0]
[parser_config_file: ]
[objective_seed: 5]
[num_class: 1]
[is_unbalance: 0]
[scale_pos_weight: 1]
[sigmoid: 1]
[boost_from_average: 1]
[reg_sqrt: 0]
[alpha: 0.9]
[fair_c: 1]
[poisson_max_delta_step: 0.7]
[tweedie_variance_power: 1.5]
[lambdarank_truncation_level: 30]
[lambdarank_norm: 1]
[label_gain: ]
[lambdarank_position_bias_regularization: 0]
[eval_at: ]
[multi_error_top_k: 1]
[auc_mu_weights: ]
[num_machines: 1]
[local_listen_port: 12400]
[time_out: 120]
[machine_list_filename: ]
[machines: ]
[gpu_platform_id: -1]
[gpu_device_id: -1]
[gpu_use_dp: 0]
[num_gpu: 1]

end of parameters

pandas_categorical:[]
