tree
version=v4
num_class=1
num_tree_per_iteration=1
label_index=0
max_feature_idx=55
objective=binary sigmoid:1
feature_names=ret logret vol20 buy_ratio sell_ratio ofi_norm interarrival_mean_s hod_sin hod_cos open high low close volume trades dollar buy_volume sell_volume signed_volume ma_9 ma_20 ma_50 price_ma9_ratio price_ma20_ratio price_ma50_ratio ma9_ma20_cross ma20_ma50_cross ma9_ma50_cross bb20_middle bb20_upper_1std bb20_upper_2std bb20_upper_3std bb20_lower_1std bb20_lower_2std bb20_lower_3std bb20_position bb20_touch_upper_1std bb20_touch_upper_2std bb20_touch_upper_3std bb20_touch_lower_1std bb20_touch_lower_2std bb20_touch_lower_3std bb50_middle bb50_upper_1std bb50_upper_2std bb50_upper_3std bb50_lower_1std bb50_lower_2std bb50_lower_3std bb50_position bb50_touch_upper_1std bb50_touch_upper_2std bb50_touch_upper_3std bb50_touch_lower_1std bb50_touch_lower_2std bb50_touch_lower_3std
feature_infos=[-795.56341552734375:563.86956787109375] [-1269.202392578125:425.67251586914062] [-2.3252480030059814:691.2105712890625] [-3.1036503314971924:2.8527600765228271] [-2.8903892040252686:3.1036503314971924] [-3.1036503314971924:2.8957281112670898] [0.0013786565978080034:12213.6796875] [-2.3123087882995605:14.621358871459961] [-4.0858416557312012:3.430485725402832] [7.7800002098083496:31.450000762939453] [7.7899999618530273:31.450000762939453] [7.7699999809265137:31.430000305175781] [7.7800002098083496:31.450000762939453] [5500:7513700] [12:100] [109670:166361490] [0:696400] [0:622200] [-615600:563900] [7.7988886833190918:31.434444427490234] [7.8229999542236328:31.428499221801758] [7.8712000846862793:31.40519905090332] [-499.70797729492188:370.1851806640625] [-343.38235473632812:288.80746459960938] [-207.89595031738281:175.9141845703125] [-1.6236883401870728:3.8078866004943848] [-2.4282815456390381:14.106736183166504] [-2.5312857627868652:14.106736183166504] [7.8229999542236328:31.428499221801758] [0:33.112503051757812] [0:37.270565032958984] [0:41.957939147949219] [0:31.420372009277344] [-0.97634339332580566:31.41224479675293] [-7.5415191650390625:31.404117584228516] [-3.1332526206970215:4.0514988899230957] [-0.84225988388061523:5.6862406730651855] [-0.3333333432674408:14.106736183166504] [-0.1601281464099884:14.106736183166504] [-1.083472728729248:2.7741038799285889] [-0.34251779317855835:8.1034975051879883] [-0.10050377994775772:14.106736183166504] [7.8712000846862793:31.40519905090332] [0:33.047946929931641] [0:37.133472442626953] [0:41.732616424560547] [0:31.380519866943359] [-0.72147560119628906:31.363431930541992] [-7.1429247856140137:31.356147766113281] [-4.7143797874450684:6.8849477767944336] [-1:14.106736183166504] [-0.41181385517120361:14.106736183166504] [-0.21707238256931305:14.106736183166504] [-1.8042503595352173:4.898979663848877] [-0.56195145845413208:14.106736183166504] [-0.22941572964191437:14.106736183166504]
tree_sizes=3362 3440

Tree=0
num_leaves=31
num_cat=0
split_feature=33 51 20 8 45 43 49 54 30 34 21 37 26 39 19 27 23 29 54 49 45 48 37 40 54 35 43 34 12 26
split_gain=44.7701 39.5118 37.8767 35.1126 31.1697 31.2222 38.6168 30.97 32.4628 34.5076 31.6735 42.2811 30.6601 32.3805 26.6195 33.8677 22.7062 22.4586 30.679 22.2424 22.0953 22.0236 21.0917 20.1696 30.3908 22.9651 23.6512 19.8576 19.5358 23.2936
threshold=7.8357865810394296 -0.22651126235723493 12.265500068664553 -1.9512619376182554 12.532415866851808 12.516547203063967 0.92951175570487987 -0.5580991506576537 23.092406272888187 30.962518692016605 22.556099891662601 -0.12735497578978536 1.9846380949020388 -0.60804119706153859 22.524443626403812 0.97531643509864818 -0.2490500211715698 31.418342590332035 -0.13313033059239385 1.0287606716156008 31.081653594970707 5.5428345203399667 -0.17631990462541577 -0.26334474980831141 -0.35297474265098566 0.044891892001032836 21.373342514038089 21.218931198120121 11.114999771118166 1.2261413931846621
decision_type=2 2 2 2 2 2 2 2 2 2 2 2 2 2 2 2 2 2 2 2 2 2 2 2 2 2 2 2 2 2
left_child=19 3 -3 -2 -4 6 -6 -7 10 20 11 -9 13 -5 23 17 -17 18 22 -1 -10 -21 -16 24 -15 26 -26 -28 29 -25
right_child=1 2 4 12 5 7 -8 8 9 -11 -12 -13 -14 14 15 16 -18 -19 -20 21 -22 -23 -24 28 25 -27 27 -29 -30 -31
leaf_value=-0.39962793945768899 -0.4123605007496266 -0.4067503568604281 -0.43243477767337479 -0.42870959712872769 -0.40048580994391786 -0.39820345597714119 -0.4233498546792811 -0.41848286631276621 -0.40328767962510437 -0.42850014299564676 -0.43598149062231267 -0.42814026787268383 -0.40373907993753089 -0.40101039625169893 -0.4254001763419808 -0.42161453230962276 -0.40214689953847604 -0.43723658512547048 -0.40998587780949852 -0.4032201151912444 -0.4192675572386973 -0.42850014299564676 -0.40978663660157455 -0.42657893465691238 -0.42645085410099676 -0.43524002647138454 -0.40093181449709203 -0.42183456122252205 -0.43084917862414107 -0.40666590131810315
leaf_weight=12.916962325572969 24.63790962100029 21.528270542621613 20.332255512475967 151.6547058224678 17.701022446155552 5.9800751507282248 12.677759319543837 133.475277364254 23.681097596883774 12.199353307485579 16.983413428068161 68.651262730360031 6.9368871748447409 6.6976841688156119 73.435322850942612 9.5681202411651629 16.026601403951645 9.0897142291069013 20.810661524534225 5.9800751507282248 13.634571343660353 8.1329022049903852 9.8073232471942884 22.96348857879639 24.398706614971161 12.916962325572966 9.0897142291069049 9.0897142291069013 80.133007019758224 7.893699198961257
leaf_count=54 103 90 85 634 74 25 53 558 99 51 71 287 29 28 307 40 67 38 87 25 57 34 41 96 102 54 38 38 335 33
internal_value=-0.421778 -0.422185 -0.419596 -0.423998 -0.420446 -0.419647 -0.410027 -0.420711 -0.421212 -0.4139 -0.422865 -0.421763 -0.424607 -0.424919 -0.423076 -0.419813 -0.409425 -0.422163 -0.420846 -0.40911 -0.409126 -0.417788 -0.423561 -0.425691 -0.421132 -0.423561 -0.420017 -0.411383 -0.428246 -0.421485
internal_weight=0 841.995 346.844 495.15 325.316 304.984 30.3788 274.605 268.625 49.515 219.11 202.127 470.512 463.575 311.921 138.738 25.5947 113.143 104.053 27.0299 37.3157 14.113 83.2426 173.183 62.1928 55.4951 42.5781 18.1794 110.99 30.8572
internal_count=3633 3520 1450 2070 1360 1275 127 1148 1123 207 916 845 1967 1938 1304 580 107 473 435 113 156 59 348 724 260 232 178 76 464 129
is_linear=0
shrinkage=1


Tree=1
num_leaves=31
num_cat=0
split_feature=12 23 7 53 46 8 8 37 8 41 24 39 33 37 23 7 37 7 21 55 2 2 27 48 21 36 22 53 40 54
split_gain=43.8612 41.9218 41.2813 28.8166 48.4612 26.3701 25.1743 22.8804 20.744 41.1207 32.1239 23.6373 21.4885 20.3013 20.2442 21.416 19.9032 31.4466 25.8934 25.601 24.7318 24.2681 18.2328 16.7986 15.6863 15.0023 14.6605 13.7217 20.2587 25.7475
threshold=7.8650000095367441 1.2682456970214846 -0.90498042106628407 -0.94993653893470753 20.099097251892093 -1.4468834400177 -1.8293402791023252 -0.32866387069225306 -1.9512619376182554 -0.094795431941747652 -0.24537475407123563 1.1339116692543032 7.8196382522583017 -0.2503924667835235 0.89296498894691478 -1.4887927174568174 -0.24218051880598065 -0.65381145477294911 23.613100051879886 -0.11195364594459532 -0.32183857262134546 0.71511167287826549 -0.76624345779418934 31.332588195800785 21.97869968414307 -0.36487561464309687 0.19185750186443332 -0.70280238986015309 -0.24221267551183698 -0.36949571967124933
decision_type=2 2 2 2 2 2 2 2 2 2 2 2 2 2 2 2 2 2 2 2 2 2 2 2 2 2 2 2 2 2
left_child=-1 2 14 4 -4 -6 -3 -5 9 -9 -11 12 -10 -8 15 -2 20 18 -18 -19 -13 -21 24 26 -17 -7 -14 28 29 -28
right_child=1 6 3 7 5 25 13 8 11 10 -12 16 23 -15 -16 22 17 19 -20 21 -22 -23 -24 -25 -26 -27 27 -29 -30 -31
leaf_value=0.02025445298077775 -0.008744154354575014 0.020769308193179872 0.020440015430447551 0.017832443886596782 0.016435241427668563 0.0024959396579321831 0.014670332664805628 -0.015367761576609414 0.014607315164534038 0.017171328079657374 -0.005081700383444362 0.0013658824289052884 -0.0063498001926184993 0.00069963168265844815 -0.010736372464740523 0.0055195527346433597 -0.011780608469140195 0.0097447432329396521 0.010331810614792644 -0.0016309053103531986 -0.012606947741943654 0.021219615786116114 0.0078962322698276858 0.012477722391451453 -0.013920169667574919 -0.015583865991971516 0.011952316591006326 -0.0043391481675657999 0.01574546870913392 -0.010465135834764709
leaf_weight=10.561470299959181 10.275899171829222 11.756313756108282 15.104800418019293 5.513475000858306 5.7498080283403423 7.8854815661907223 14.380172520875929 8.1423556804656965 5.757697105407714 20.12728551030159 9.5722549259662646 25.11177995800972 266.21746911108494 37.591727465391159 8.6074668765068036 9.0768287181854266 25.323386549949646 46.696744844317436 6.6958507150411597 61.686150848865509 25.561811521649361 5.0264741480350486 101.72825756669044 5.5056972205638877 7.6486425399780265 10.980549573898314 8.3932727575302142 69.592893168330193 9.5820105373859388 13.15134270489216
leaf_count=44 43 49 63 23 24 33 60 34 24 84 40 105 1114 157 36 38 106 195 28 258 107 21 425 23 32 46 35 291 40 55
internal_value=0 -0.000249297 -0.000875081 -0.00191681 0.00633938 -0.00231307 0.00755447 -0.00244776 -0.00263042 0.00454098 0.00999911 -0.00310295 -0.00456382 0.0045652 0.00411129 0.00510407 -0.000285555 0.001595 -0.00715647 0.00406583 -0.00568258 9.07711e-05 0.00630541 -0.00486019 -0.00337033 -0.00802701 -0.00512033 -0.00187066 0.00364838 -0.00173183
internal_weight=0 858.444 794.716 657.379 39.7206 24.6158 63.7282 617.658 612.144 37.8419 29.6995 574.303 378.2 51.9719 137.337 128.73 196.102 145.429 32.0192 113.409 50.6736 66.7126 118.454 372.443 16.7255 18.866 366.937 100.72 31.1266 21.5446
internal_count=3633 3589 3323 2749 166 103 266 2583 2560 158 124 2402 1582 217 574 538 820 608 134 474 212 279 495 1558 70 79 1535 421 130 90
is_linear=0
shrinkage=0.01


end of trees

feature_importances:
bb20_touch_upper_2std=5
hod_cos=4
bb50_touch_lower_2std=4
hod_sin=3
ma_50=3
price_ma20_ratio=3
vol20=2
close=2
ma20_ma50_cross=2
ma9_ma50_cross=2
bb20_lower_2std=2
bb20_lower_3std=2
bb20_touch_lower_1std=2
bb20_touch_lower_2std=2
bb50_upper_1std=2
bb50_upper_3std=2
bb50_lower_3std=2
bb50_position=2
bb50_touch_lower_1std=2
ma_9=1
ma_20=1
price_ma9_ratio=1
price_ma50_ratio=1
bb20_upper_1std=1
bb20_upper_2std=1
bb20_position=1
bb20_touch_upper_1std=1
bb20_touch_lower_3std=1
bb50_lower_1std=1
bb50_touch_upper_2std=1
bb50_touch_lower_3std=1

parameters:
[boosting: gbdt]
[objective: binary]
[metric: binary_logloss,auc]
[tree_learner: serial]
[device_type: cpu]
[data_sample_strategy: bagging]
[data: ]
[valid: ]
[num_iterations: 1000]
[learning_rate: 0.01]
[num_leaves: 31]
[num_threads: 0]
[seed: 0]
[deterministic: 0]
[force_col_wise: 1]
[force_row_wise: 0]
[histogram_pool_size: -1]
[max_depth: -1]
[min_data_in_leaf: 20]
[min_sum_hessian_in_leaf: 0.001]
[bagging_fraction: 1]
[pos_bagging_fraction: 1]
[neg_bagging_fraction: 1]
[bagging_freq: 0]
[bagging_seed: 3]
[feature_fraction: 1]
[feature_fraction_bynode: 1]
[feature_fraction_seed: 2]
[extra_trees: 0]
[extra_seed: 6]
[early_stopping_round: 0]
[early_stopping_min_delta: 0]
[first_metric_only: 0]
[max_delta_step: 0]
[lambda_l1: 0]
[lambda_l2: 0]
[linear_lambda: 0]
[min_gain_to_split: 0]
[drop_rate: 0.1]
[max_drop: 50]
[skip_drop: 0.5]
[xgboost_dart_mode: 0]
[uniform_drop: 0]
[drop_seed: 4]
[top_rate: 0.2]
[other_rate: 0.1]
[min_data_per_group: 100]
[max_cat_threshold: 32]
[cat_l2: 10]
[cat_smooth: 10]
[max_cat_to_onehot: 4]
[top_k: 20]
[monotone_constraints: ]
[monotone_constraints_method: basic]
[monotone_penalty: 0]
[feature_contri: ]
[forcedsplits_filename: ]
[refit_decay_rate: 0.9]
[cegb_tradeoff: 1]
[cegb_penalty_split: 0]
[cegb_penalty_feature_lazy: ]
[cegb_penalty_feature_coupled: ]
[path_smooth: 0]
[interaction_constraints: ]
[verbosity: -1]
[saved_feature_importance_type: 0]
[use_quantized_grad: 0]
[num_grad_quant_bins: 4]
[quant_train_renew_leaf: 0]
[stochastic_rounding: 1]
[linear_tree: 0]
[max_bin: 255]
[max_bin_by_feature: ]
[min_data_in_bin: 3]
[bin_construct_sample_cnt: 200000]
[data_random_seed: 1]
[is_enable_sparse: 1]
[enable_bundle: 1]
[use_missing: 1]
[zero_as_missing: 0]
[feature_pre_filter: 0]
[pre_partition: 0]
[two_round: 0]
[header: 0]
[label_column: ]
[weight_column: ]
[group_column: ]
[ignore_column: ]
[categorical_feature: ]
[forcedbins_filename: ]
[precise_float_parser: 0]
[parser_config_file: ]
[objective_seed: 5]
[num_class: 1]
[is_unbalance: 0]
[scale_pos_weight: 1]
[sigmoid: 1]
[boost_from_average: 1]
[reg_sqrt: 0]
[alpha: 0.9]
[fair_c: 1]
[poisson_max_delta_step: 0.7]
[tweedie_variance_power: 1.5]
[lambdarank_truncation_level: 30]
[lambdarank_norm: 1]
[label_gain: ]
[lambdarank_position_bias_regularization: 0]
[eval_at: ]
[multi_error_top_k: 1]
[auc_mu_weights: ]
[num_machines: 1]
[local_listen_port: 12400]
[time_out: 120]
[machine_list_filename: ]
[machines: ]
[gpu_platform_id: -1]
[gpu_device_id: -1]
[gpu_use_dp: 0]
[num_gpu: 1]

end of parameters

pandas_categorical:[]
