tree
version=v4
num_class=1
num_tree_per_iteration=1
label_index=0
max_feature_idx=18
objective=binary sigmoid:1
feature_names=ret logret vol20 buy_ratio sell_ratio ofi_norm interarrival_mean_s hod_sin hod_cos open high low close volume trades dollar buy_volume sell_volume signed_volume
feature_infos=[-390.90142822265625:643.64532470703125] [-547.61749267578125:518.72344970703125] [-2.3252480030059814:558.1114501953125] [-3.1036503314971924:2.8527600765228271] [-2.8903892040252686:3.1036503314971924] [-3.1036503314971924:2.8957281112670898] [-1.7923156023025513:6819.64404296875] [-2.3123087882995605:14.621358871459961] [-4.0858416557312012:3.430485725402832] [-118.13411712646484:140.63145446777344] [-117.71328735351562:140.62631225585938] [-119.11515045166016:143.05941772460938] [-120.40398406982422:141.2080078125] [-1.8699334859848022:177.79200744628906] [-28.284360885620117:0.095298141241073608] [-1.8721287250518799:175.99308776855469] [-2.7583608627319336:36.369800567626953] [-1.4360358715057373:15.33509635925293] [-12.593194007873535:11.660571098327637]
tree_sizes=6567

Tree=0
num_leaves=63
num_cat=0
split_feature=12 10 2 6 14 8 10 8 12 9 8 8 0 8 7 8 8 12 2 2 2 7 17 8 2 11 12 8 9 7 12 10 10 2 7 2 8 9 6 6 2 2 11 11 8 2 6 0 8 0 8 2 6 10 7 6 7 6 2 7 2 0
split_gain=159.133 89.1036 88.7765 79.9024 72.5807 54.5354 49.7178 42.7629 39.0742 37.9276 33.2394 53.7632 36.4663 41.0416 31.1431 50.85 28.9499 27.6535 26.3463 26.0733 25.0508 24.0337 25.8774 23.2811 24.3994 27.2567 22.5071 21.592 23.8891 39.28 20.6039 19.8494 19.1686 40.8911 18.1374 16.4708 16.2649 16.0717 15.6275 22.0483 15.2683 15.2383 14.6424 14.6287 14.5375 14.5267 14.4287 14.0558 13.736 12.2917 12.0999 10.5943 10.5142 10.4795 10.4155 9.48304 13.0972 8.65527 8.51369 8.29606 7.60472 7.2871
threshold=0.67868959903717052 -2.3318462371826167 0.11174203827977182 -0.099065057933330522 1.0000000180025095e-35 1.5705688595771792 0.35869699716567999 0.78697079420089733 0.64075067639350902 -1.925585865974426 -0.27369542419910425 -0.4763245284557342 -0.41079516708850855 -1.2120688557624815 -0.41133256256580347 1.9800674319267275 1.2510005235671999 0.17212568223476413 -0.52583578228950489 -0.28440463542938227 0.57495319843292247 1.3114232420921328 -0.48821477591991419 1.8216645717620852 -1.2902150750160215 -0.75770339369773854 -0.068906504660844789 0.48510350286960607 1.6510517597198489 -0.88160467147827137 -2.1520289182662959 1.3407513499259951 1.1672805547714236 -0.31732875108718867 -0.60846751928329457 -0.59841373562812794 -1.0000000180025095e-35 -0.046354399994015687 -0.075798626989126192 -0.073947038501501069 -0.92098474502563465 -0.4854940921068191 -0.93232196569442738 -0.96331119537353505 1.1003471016883852 -0.29057885706424708 -0.068160101771354661 -0.081216964870691286 1.0540055036544802 -0.54207083582878102 1.5441595911979678 2.3364250659942631 -0.070523675531148897 1.0289357304573061 -0.069828517735004411 -0.075694717466831193 -0.5270920693874358 -0.039520712569355958 1.0984149575233462 0.88050717115402233 -0.42061761021614069 0.66269740462303173
decision_type=2 2 2 2 2 2 2 2 2 2 2 2 2 2 2 2 2 2 2 2 2 2 2 2 2 2 2 2 2 2 2 2 2 2 2 2 2 2 2 2 2 2 2 2 2 2 2 2 2 2 2 2 2 2 2 2 2 2 2 2 2 2
left_child=1 -1 4 9 6 18 7 10 47 -4 11 12 13 -3 15 23 43 49 27 -13 31 22 36 24 26 50 -9 28 29 -2 -24 -7 33 -20 35 -8 -5 -27 -14 59 -29 -17 -41 48 -45 -35 -23 -6 -16 -12 -26 52 58 55 -18 56 -47 -34 -32 -40 -61 -51
right_child=5 2 3 21 8 20 34 14 -10 -11 17 19 38 -15 16 41 54 -19 32 -21 -22 46 30 -25 25 37 -28 40 -30 -31 51 -33 57 45 -36 -37 -38 -39 39 42 -42 -43 -44 44 -46 53 -48 -49 -50 61 -52 -53 -54 -55 -56 -57 -58 -59 -60 60 -62 -63
leaf_value=-1.2783951300327043 -1.229470725292898 -1.2542687340311314 -1.1964067136419203 -1.2661166715393986 -1.1994731340772933 -1.1527309414948517 -1.2542687340311314 -1.0205475016732821 -1.1350783049344615 -1.0264187949186581 -1.1835608983045471 -1.0334483705049584 -1.2685204631910356 -1.0549774199031341 -1.2772068921139972 -1.25257796070807 -1.2852662449539232 -1.1099894104632284 -1.2760089937244063 -1.1964067136419203 -1.0775829217712189 -1.2714533190339423 -1.248689182065029 -1.0426942339453533 -1.1631360519181237 -1.0704534942589767 -1.1488771968936398 -1.1674757034473147 -1.2772068921139972 -1.0062886466487981 -1.1810746114650557 -1.2822664858323627 -1.2899932319896534 -1.1099894104632284 -1.271910745962046 -1.1061006318201871 -1.1426776947090813 -1.1788958390504485 -1.2099865755700003 -1.2721970241324216 -1.2761336449616167 -1.1531980620525744 -1.1817822469501418 -1.0419357842100083 -1.1708138969313078 -1.1647203691430665 -1.1556671278576798 -1.2842591056098613 -1.1560066244058818 -1.2652151353779248 -1.2822664858323627 -1.1964067136419203 -1.0633240667467347 -1.2809036323055303 -1.2154185203412324 -1.1386923004475795 -1.2812808506924214 -1.2136901742776587 -1.0918417767957029 -1.1828268517138401 -1.087767818217279 -1.2142302824225255
leaf_weight=42.079113721847534 4.0325817316770554 4.0325817316770554 4.2079113721847561 7.8898338228464127 5.4352188557386389 6.48719669878483 4.0325817316770554 7.0131856203079224 5.4352188557386389 14.903019443154333 6.4871966987848273 7.3638449013233185 15.253678724169729 7.1885152608156186 3.506592810153963 11.571756273508074 8.0651634633541125 3.8572520911693564 64.696637347340584 3.6819224506616575 4.9092299342155448 9.9937895089387876 3.5065928101539603 8.240493103861807 3.5065928101539594 7.0131856203079188 6.6625263392925209 4.032581731677058 3.5065928101539612 3.8572520911693591 5.4352188557386416 5.4352188557386398 101.86652113497257 3.85725209116936 30.68268708884716 3.5065928101539603 4.0325817316770536 6.6625263392925351 4.9092299342155377 12.974393397569651 16.305656567215919 5.7858781367540351 6.8378559798002376 4.2079113721847516 4.5585706532001495 4.7339002937078503 3.6819224506616584 48.566310420632362 7.0131856203079224 41.903784081339836 5.4352188557386398 3.6819224506616584 8.7664820253849083 4.7339002937078467 15.779667645692824 4.9092299342155448 4.9092299342155448 3.8572520911693564 5.2598892152309418 3.6819224506616584 4.9092299342155448 8.4158227443695051
leaf_count=240 23 23 24 45 31 37 23 40 31 85 37 42 87 41 20 66 46 22 369 21 28 57 20 47 20 40 38 23 20 22 31 31 581 22 175 20 23 38 28 74 93 33 39 24 26 27 21 277 40 239 31 21 50 27 90 28 28 22 30 21 28 48
internal_value=-1.2268 -1.20914 -1.20195 -1.15133 -1.21277 -1.25946 -1.20193 -1.19338 -1.26286 -1.06385 -1.21238 -1.18911 -1.20784 -1.1266 -1.16959 -1.14686 -1.2022 -1.23954 -1.26594 -1.08777 -1.17264 -1.18333 -1.16314 -1.11856 -1.13579 -1.16767 -1.08307 -1.22372 -1.16862 -1.12036 -1.13574 -1.21178 -1.27287 -1.25561 -1.25484 -1.18535 -1.22437 -1.12328 -1.22661 -1.20741 -1.25459 -1.21945 -1.24099 -1.15665 -1.10895 -1.19857 -1.24028 -1.27573 -1.19641 -1.24834 -1.23555 -1.11863 -1.10392 -1.21628 -1.23904 -1.19526 -1.22406 -1.28721 -1.13719 -1.15814 -1.12851 -1.25669
internal_weight=0 447.617 405.537 71.3592 334.178 242.13 274.742 236.52 59.4367 19.1109 131.497 70.8332 59.7874 11.2211 105.022 61.8914 43.1311 60.6641 225.299 11.0458 16.8316 52.2482 38.5725 44.5337 36.2932 22.6175 13.6757 31.7347 11.3964 7.88983 26.6501 11.9224 193.564 87.8401 38.2219 7.53917 11.9224 13.6757 48.5663 33.3126 20.3382 17.3576 19.8122 19.2863 8.76648 23.1435 13.6757 54.0015 10.5198 56.8068 8.94181 23.1435 19.4616 19.2863 23.8448 14.5524 9.64313 105.724 10.6951 13.5004 8.59115 50.3196
internal_count=3934 2553 2313 407 1906 1381 1567 1349 339 109 750 404 341 64 599 353 246 346 1285 63 96 298 220 254 207 129 78 181 65 45 152 68 1104 501 218 43 68 78 277 190 116 99 113 110 50 132 78 308 60 324 51 132 111 110 136 83 55 603 61 77 49 287
is_linear=0
shrinkage=1


end of trees

feature_importances:
vol20=13
hod_cos=13
interarrival_mean_s=7
hod_sin=7
high=5
close=5
ret=4
open=3
low=3
trades=1
sell_volume=1

parameters:
[boosting: gbdt]
[objective: binary]
[metric: binary_logloss,auc]
[tree_learner: serial]
[device_type: cpu]
[data_sample_strategy: bagging]
[data: ]
[valid: ]
[num_iterations: 500]
[learning_rate: 0.05]
[num_leaves: 63]
[num_threads: 0]
[seed: 0]
[deterministic: 0]
[force_col_wise: 0]
[force_row_wise: 0]
[histogram_pool_size: -1]
[max_depth: -1]
[min_data_in_leaf: 20]
[min_sum_hessian_in_leaf: 0.001]
[bagging_fraction: 1]
[pos_bagging_fraction: 1]
[neg_bagging_fraction: 1]
[bagging_freq: 0]
[bagging_seed: 3]
[feature_fraction: 1]
[feature_fraction_bynode: 1]
[feature_fraction_seed: 2]
[extra_trees: 0]
[extra_seed: 6]
[early_stopping_round: 0]
[early_stopping_min_delta: 0]
[first_metric_only: 0]
[max_delta_step: 0]
[lambda_l1: 0]
[lambda_l2: 0]
[linear_lambda: 0]
[min_gain_to_split: 0]
[drop_rate: 0.1]
[max_drop: 50]
[skip_drop: 0.5]
[xgboost_dart_mode: 0]
[uniform_drop: 0]
[drop_seed: 4]
[top_rate: 0.2]
[other_rate: 0.1]
[min_data_per_group: 100]
[max_cat_threshold: 32]
[cat_l2: 10]
[cat_smooth: 10]
[max_cat_to_onehot: 4]
[top_k: 20]
[monotone_constraints: ]
[monotone_constraints_method: basic]
[monotone_penalty: 0]
[feature_contri: ]
[forcedsplits_filename: ]
[refit_decay_rate: 0.9]
[cegb_tradeoff: 1]
[cegb_penalty_split: 0]
[cegb_penalty_feature_lazy: ]
[cegb_penalty_feature_coupled: ]
[path_smooth: 0]
[interaction_constraints: ]
[verbosity: -1]
[saved_feature_importance_type: 0]
[use_quantized_grad: 0]
[num_grad_quant_bins: 4]
[quant_train_renew_leaf: 0]
[stochastic_rounding: 1]
[linear_tree: 0]
[max_bin: 255]
[max_bin_by_feature: ]
[min_data_in_bin: 3]
[bin_construct_sample_cnt: 200000]
[data_random_seed: 1]
[is_enable_sparse: 1]
[enable_bundle: 1]
[use_missing: 1]
[zero_as_missing: 0]
[feature_pre_filter: 0]
[pre_partition: 0]
[two_round: 0]
[header: 0]
[label_column: ]
[weight_column: ]
[group_column: ]
[ignore_column: ]
[categorical_feature: ]
[forcedbins_filename: ]
[precise_float_parser: 0]
[parser_config_file: ]
[objective_seed: 5]
[num_class: 1]
[is_unbalance: 0]
[scale_pos_weight: 1]
[sigmoid: 1]
[boost_from_average: 1]
[reg_sqrt: 0]
[alpha: 0.9]
[fair_c: 1]
[poisson_max_delta_step: 0.7]
[tweedie_variance_power: 1.5]
[lambdarank_truncation_level: 30]
[lambdarank_norm: 1]
[label_gain: ]
[lambdarank_position_bias_regularization: 0]
[eval_at: ]
[multi_error_top_k: 1]
[auc_mu_weights: ]
[num_machines: 1]
[local_listen_port: 12400]
[time_out: 120]
[machine_list_filename: ]
[machines: ]
[gpu_platform_id: -1]
[gpu_device_id: -1]
[gpu_use_dp: 0]
[num_gpu: 1]

end of parameters

pandas_categorical:[]
