tree
version=v4
num_class=1
num_tree_per_iteration=1
label_index=0
max_feature_idx=18
objective=binary sigmoid:1
feature_names=ret logret vol20 buy_ratio sell_ratio ofi_norm interarrival_mean_s hod_sin hod_cos open high low close volume trades dollar buy_volume sell_volume signed_volume
feature_infos=[-16.715951919555664:1664.3934326171875] [-16.805391311645508:1015.6967163085938] [-6.2202377319335938:1793.7998046875] [-5.380155086517334:2.4420766830444336] [-2.4019539356231689:5.380155086517334] [-5.380155086517334:2.4019539356231689] [-2.1047284603118896:1540.142578125] [-2.7683122158050537:93.365280151367188] [-44.965610504150391:8.4580059051513672] [-8.8879356384277344:1602.950927734375] [-9.1428852081298828:1428.9761962890625] [-8.1911306381225586:1835.571533203125] [-8.833134651184082:1502.167236328125] [-1.8869154453277588:1767.7164306640625] [0:0.070888116955757141] [-1.8867489099502563:1768.858154296875] [-0.92455559968948364:60.654830932617188] [-1.7732868194580078:23.940277099609375] [-20.740348815917969:37.661136627197266]
tree_sizes=6744 6830 6816

Tree=0
num_leaves=63
num_cat=0
split_feature=12 12 14 8 8 12 12 9 12 0 0 0 2 12 11 8 2 2 10 8 0 6 12 1 8 12 0 12 11 15 1 12 7 9 12 10 7 0 7 0 7 8 2 6 4 3 5 9 0 7 11 0 0 2 16 13 13 6 16 7 2 17
split_gain=239.88 168.652 163.163 50.2538 39.1111 47.5016 89.7252 46.1659 63.0274 35.5064 86.9849 40.2921 35.0739 34.8476 40.0641 33.9699 33.8794 33.4365 30.9949 30.518 29.4814 27.9241 27.7854 26.6569 25.8843 24.8871 24.4323 23.8174 23.7876 23.6823 23.0558 21.803 20.7738 20.4088 18.4274 21.4588 19.7444 18.1513 18.0931 17.832 17.6827 16.979 16.0961 15.6138 15.4895 15.4747 33.3099 15.3768 21.1475 23.603 24.8772 17.6348 17.2671 15.9207 15.2622 15.1063 14.9319 14.544 16.2347 14.538 16.973 14.1813
threshold=1.3186146020889284 -1.5966137051582334 1.0000000180025095e-35 1.3680554628372195 1.596987307071686 1.0000000180025095e-35 -0.97152915596961964 0.82419893145561229 1.0084546208381655 -0.00023140953271649775 -0.51755118370056141 0.24535904079675677 0.69762304425239574 0.38430714607238775 0.13915134966373446 1.9247822761535647 -0.43261013925075525 -0.63410013914108265 0.76021149754524242 2.2848514318466191 -1.3124404549598692 -0.37759162485599512 -0.17392254620790479 3.8953825516781234e-15 1.4560320377349856 0.22747600823640826 0.061677377671003349 2.7196573019027714 1.012126684188843 -0.07294954732060431 0.052181266248226173 0.36821937561035162 -2.3110040426254268 1.6294652223587038 -2.0230897665023799 -1.9378321170806883 -1.0385894775390623 -0.86047488451004017 -1.1927312612533567 -1.52178019285202 -1.7382622957229612 -0.59882244467735279 -1.8069695234298704 -1.6933027505874632 0.98611181974411022 -0.92256981134414662 -0.88693636655807484 0.05961964093148709 0.0076561009045690307 -1.7499257326126096 -0.62399622797965992 -0.014846861828118561 0.40405108034610754 0.29129721224308019 -0.15702964365482328 -0.1236688271164894 -0.35195101797580713 0.24689040333032611 -0.42233662307262415 2.378708124160767 -0.36242601275444025 -0.31829774379730219
decision_type=2 2 2 2 2 2 2 2 2 2 2 2 2 2 2 2 2 2 2 2 2 2 2 2 2 2 2 2 2 2 2 2 2 2 2 2 2 2 2 2 2 2 2 2 2 2 2 2 2 2 2 2 2 2 2 2 2 2 2 2 2 2
left_child=1 17 4 -2 5 6 26 12 18 10 -8 41 13 14 20 59 24 34 -9 -15 -6 31 30 -12 42 -24 45 37 39 -23 -14 61 -22 -17 -1 36 -36 -5 -26 -27 -41 -11 -7 -39 54 -3 -47 48 51 50 53 -34 -51 -50 57 -52 -46 -45 -59 60 -10 -18
right_child=3 2 -4 27 7 16 9 8 15 11 23 -13 22 19 -16 33 21 -19 -20 -21 32 29 25 -25 38 28 -28 -29 -30 -31 -32 -33 47 -35 35 -37 -38 43 -40 40 -42 -43 -44 44 56 46 -48 -49 49 52 55 -53 -54 -55 -56 -57 -58 58 -60 -61 -62 -63
leaf_value=-0.70263846509695116 -0.74025397347463506 -0.72439130947660402 -0.74891845380969413 -0.66412684137504552 -0.69405057833805506 -0.66741521021837003 -0.67157971345017409 -0.57014965709011933 -0.60213788128312151 -0.58872699129395467 -0.57094534422469867 -0.61241956360814942 -0.71143771534672395 -0.68592122670972555 -0.60934582940783888 -0.7252922315697985 -0.71563949485700062 -0.71321475583743232 -0.62757533527115239 -0.59500173647305643 -0.74529270203871556 -0.66893863533222653 -0.62023701358216754 -0.66585169496993823 -0.62683431709926085 -0.59562380172788121 -0.64927692995651576 -0.73684550711724039 -0.56389847373181912 -0.61454257530351464 -0.6605435905558682 -0.71675292681270941 -0.65044330230931213 -0.61988434666604642 -0.58629282290550999 -0.68614391587067824 -0.67213782807132516 -0.60868717207920098 -0.69461331619129763 -0.65128791677168196 -0.7089852678464762 -0.68244247424907434 -0.73292249011420063 -0.73035572670896842 -0.59921263973648553 -0.56084469884449761 -0.69593182406837184 -0.68645103595298085 -0.59371263739076907 -0.67690652695481246 -0.62251897598059824 -0.60812515173314308 -0.64412641441842466 -0.66467304501342828 -0.69334147565295901 -0.71394061319554825 -0.68643656744983206 -0.64227869583973729 -0.71141971924484859 -0.58629282290550999 -0.67198548555993953 -0.625758274318162
leaf_weight=57.157276153564453 110.74222254753113 43.537768945097923 56.264193713665009 36.616380035877228 41.528333455324173 10.940259888768194 47.779910534620285 36.393109425902367 11.833342328667639 5.1352240294218054 57.827087983489037 33.490591496229172 75.912007391452789 113.42146986722946 56.934005543589592 25.899390757083896 6.4748476892709759 242.4718824326992 66.31137116253376 10.04717744886875 5.5817652493715277 112.52838742733002 28.355367466807365 8.4842831790447217 12.949695378541945 5.3584946393966666 28.578638076782227 43.091227725148201 4.465412199497222 24.336496487259865 31.481156006455421 48.003181144595146 42.86795711517334 5.5817652493715277 13.39623659849167 43.314498335123062 13.396236598491667 4.465412199497222 41.081792235374451 19.42454306781292 41.974874675273895 82.163584470748901 65.641559332609177 89.978055819869041 5.8050358593463889 4.9119534194469443 64.30193567276001 24.336496487259865 37.06292125582695 98.908880218863487 7.5912007391452816 57.827087983489037 67.650994822382927 10.04717744886875 109.1793282777071 11.163530498743055 31.704426616430283 10.716989278793333 40.85852162539959 9.8239068388938886 32.820779666304588 13.619507208466528
leaf_count=256 496 195 252 164 186 49 214 163 53 23 259 150 340 508 255 116 29 1086 297 45 25 504 127 38 58 24 128 193 20 109 141 215 192 25 60 194 60 20 184 87 188 368 294 403 26 22 288 109 166 443 34 259 303 45 489 50 142 48 183 44 147 61
internal_value=-0.678891 -0.671641 -0.665153 -0.710683 -0.662369 -0.67129 -0.659091 -0.655893 -0.633665 -0.64015 -0.620147 -0.659043 -0.661188 -0.654929 -0.648617 -0.665255 -0.684967 -0.702322 -0.607227 -0.678523 -0.654143 -0.672284 -0.678878 -0.583088 -0.704868 -0.659853 -0.69057 -0.70189 -0.675625 -0.659266 -0.696519 -0.698448 -0.649578 -0.706603 -0.681567 -0.664388 -0.629215 -0.697316 -0.678369 -0.683098 -0.690732 -0.67693 -0.723564 -0.701467 -0.702905 -0.701036 -0.686345 -0.648084 -0.645281 -0.653573 -0.628235 -0.626141 -0.663592 -0.608846 -0.707388 -0.676937 -0.672938 -0.718222 -0.697053 -0.641361 -0.653476 -0.65472
internal_weight=0 2118.39 1748.66 483.158 1692.39 711.787 376.211 980.605 188.664 234.881 114.091 120.789 791.941 584.969 461.5 85.9592 335.576 369.736 102.704 123.469 404.566 204.962 206.972 66.3114 130.613 99.5787 141.33 372.415 71.2233 136.865 107.393 68.0975 363.038 31.4812 127.264 70.107 26.7925 329.324 54.0315 66.7579 61.3994 87.2988 76.5818 292.708 288.242 112.752 69.2139 357.456 333.12 232.425 65.8648 100.695 166.56 47.1101 250.733 18.7547 37.5095 141.554 51.5755 54.478 44.6541 20.0944
internal_count=11652 9488 7832 2164 7580 3188 1685 4392 845 1052 511 541 3547 2620 2067 385 1503 1656 460 553 1812 918 927 297 585 446 633 1668 319 613 481 305 1626 141 570 314 120 1475 242 299 275 391 343 1311 1291 505 310 1601 1492 1041 295 451 746 211 1123 84 168 634 231 244 200 90
is_linear=0
shrinkage=1


Tree=1
num_leaves=63
num_cat=0
split_feature=12 12 14 8 8 12 12 9 12 8 2 12 11 2 1 8 9 10 8 0 10 0 12 18 0 12 12 11 0 11 12 7 9 9 0 16 12 0 2 6 2 2 3 5 9 6 4 16 10 18 13 16 7 6 6 16 9 1 7 7 13 2
split_gain=218.314 152.307 149.412 47.2296 34.7699 43.4153 58.861 40.5118 54.5652 32.1027 31.2336 30.8869 34.7388 30.7883 30.6001 30.4395 29.8424 27.2824 26.8616 26.2662 26.0344 25.155 25.0546 24.7561 23.0996 22.2528 21.8844 21.249 21.1151 19.0754 24.4561 18.8114 18.521 17.1689 16.9724 16.9319 18.9624 16.5359 16.3878 15.5061 18.9368 19.4373 15.2961 29.4726 14.5909 13.986 14.2002 14.183 13.9159 13.8956 13.8609 13.6606 14.9492 14.3023 13.6285 14.7235 13.6198 18.8229 22.8413 19.7016 19.9844 22.7771
threshold=1.3186146020889284 -1.5966137051582334 1.0000000180025095e-35 1.3680554628372195 1.596987307071686 0.40809707343578344 -0.98345276713371266 0.82419893145561229 1.0084546208381655 -1.0711543560028074 0.69762304425239574 0.38430714607238775 0.13915134966373446 -0.63410013914108265 6.668263700885928e-15 1.9247822761535647 -1.0000000180025095e-35 0.38733968138694769 2.2848514318466191 -1.3124404549598692 0.76021149754524242 -0.51755118370056141 -0.17392254620790479 -0.11927444487810133 0.061677377671003349 2.7196573019027714 0.22747600823640826 0.98486453294754039 0.045028390362858779 -0.75771424174308766 -0.73552504181861866 -2.3110040426254268 1.6294652223587038 0.18280080705881122 -0.022507970221340653 -0.50951388478279103 -2.0812925100326534 -0.86047488451004017 2.2512699365615849 -0.32089905440807337 -0.43261013925075525 -1.1367642879486082 -0.92256981134414662 -0.88693636655807484 -0.73468551039695729 -1.6933027505874632 0.98611181974411022 -0.15702964365482328 0.84686723351478588 0.038005670532584197 0.30115661025047308 -0.12101831287145613 -1.2368836402893064 -0.68434879183769215 0.24689040333032611 -0.42233662307262415 0.05961964093148709 0.0071021791081875571 -1.2283592820167539 -1.7112441062927244 -0.1236688271164894 -0.61850038170814503
decision_type=2 2 2 2 2 2 2 2 2 2 2 2 2 2 2 2 2 2 2 2 2 2 2 2 2 2 2 2 2 2 2 2 2 2 2 2 2 2 2 2 2 2 2 2 2 2 2 2 2 2 2 2 2 2 2 2 2 2 2 2 2 2
left_child=1 13 4 -2 5 6 24 10 20 -8 11 12 19 35 16 -10 21 -7 -13 -6 -9 -11 28 -23 42 37 50 -28 -12 30 -16 -21 -17 -18 -35 36 -1 -5 39 48 41 -41 -3 -44 -25 -39 47 54 -19 -22 -24 52 -37 -53 -47 -56 57 58 -33 60 -59 -62
right_child=3 2 -4 25 7 17 9 8 15 14 22 18 -14 -15 29 32 33 38 -20 31 49 23 26 44 -26 -27 27 -29 -30 -31 -32 56 -34 34 -36 51 -38 45 -40 40 -42 -43 43 -45 -46 46 -48 -49 -50 -51 -52 53 -54 -55 55 -57 -58 59 -60 -61 61 -63
leaf_value=-0.01027312878422653 -0.059557574156776476 -0.046261410819957098 -0.068182474116226049 0.013957787238832396 -0.014475325675823001 -0.050158981211961787 -0.051062500465672046 0.099872840087493364 0.035217107091067977 0.018086461282332832 -0.032012492801761785 -0.0066940916013673293 0.064615493344584524 -0.032993608772937104 0.011308257238045995 -0.044794170523265786 -0.011202492836050102 0.0086701821027730473 0.077607543303117907 -0.064566462274076142 0.030533648058650109 0.11011994136604518 0.039261224955386378 -0.0027515036057885797 0.028582107278057198 -0.056179941893162638 -0.0056601509802623783 0.088315612444796909 0.015763192576542472 0.0037235381482564282 0.095575585181144521 0.031456693084125457 0.055001258566738181 0.019546309017024519 0.082050689696798421 -0.00087060893800957749 0.051896628251504498 0.065214409580119495 0.091467389555206474 0.027538746680883842 0.017505618222734175 -0.055204053692060821 0.108133415481187 -0.017019511080221244 0.068120856244551053 -0.049772373244750971 0.0056380323876966789 -0.013794860378710742 -0.037364759110196037 0.077548951215878001 0.13249894345442467 -0.024628368672066039 -0.053887509533635219 0.052720132171311385 0.034367875059443567 -0.031248435090254535 -0.0071998950927481646 0.070985865360119402 0.083843610626811921 0.015016111885499159 0.079394311641243734 -0.0041379684892279721
leaf_weight=24.809775114059448 108.45178866386414 41.116122111678123 54.930809140205383 36.791790425777435 41.320880770683289 36.211593642830849 12.62770828604698 37.609837219119072 55.118977621197701 23.497508361935616 72.882183641195297 113.15981251001358 58.18020187318325 239.70299676060677 21.167163640260696 25.497209131717685 26.527762457728386 23.943713948130608 10.310233086347578 5.4565452039241782 42.432991102337837 32.428320601582527 24.106327533721927 9.4940922260284371 28.174858540296555 42.250848188996315 64.640959113836288 6.6323225647211066 33.876758426427841 114.66339549422264 14.5138733536005 54.608211413025856 5.6860573589801779 36.263739928603172 15.504239752888678 23.459285721182823 24.257243767380714 4.5640411972999564 4.4850437194108954 10.698650360107424 90.517179265618324 21.087472662329674 5.0892014801502219 62.164385914802551 30.892174720764164 88.424572914838791 37.575656980276108 108.65962855517864 52.21873827278614 24.960583001375198 4.7757818698883048 11.826924934983255 30.691799104213715 12.081525608897207 10.842802762985228 40.416731804609299 24.276106119155884 38.49827466905117 33.615786135196686 170.53300185501575 11.541819423437117 27.85788905620575
leaf_count=112 496 187 252 164 186 163 57 163 244 105 330 508 255 1086 94 116 119 108 45 25 187 141 106 42 125 193 290 29 151 512 64 241 25 162 69 105 108 20 20 48 403 96 22 280 135 403 168 489 236 110 21 53 138 54 48 183 109 169 148 759 51 124
internal_value=0 0.0068575 0.0129794 -0.0305456 0.0156006 0.0071888 0.0159499 0.0216761 0.0423367 0.0271543 0.0167124 0.0225799 0.0284725 -0.0224446 0.0301938 0.012882 0.0444313 -0.0101796 0.000345426 0.0233149 0.0665455 0.0630686 -2.14925e-07 0.0775845 -0.0117507 -0.0220309 0.017963 0.00308475 -0.0168523 0.0136586 0.0455854 0.0275769 -0.0265972 0.0215054 0.038266 -0.00255392 0.0204617 -0.0176223 -0.00304624 -0.00518211 0.00584672 -0.0273543 -0.0222367 -0.00754896 0.05146 -0.0216221 -0.0230083 -0.0273426 -0.0228924 0.0479467 0.0546785 -0.0170212 -0.0309196 0.0144577 -0.0378813 -0.0173688 0.0289699 0.0315781 0.0514176 0.0245326 0.0453659 0.0203321
internal_weight=0 2122.63 1755.8 477.978 1700.87 713.287 474.125 987.579 191.306 337.58 796.273 589.359 465.889 366.83 324.952 86.3022 174.608 239.162 123.47 407.709 105.003 96.3121 206.914 72.8146 136.545 369.526 100.155 71.2733 106.759 150.344 35.681 366.388 31.1833 78.2957 51.768 127.127 49.067 327.275 202.951 198.466 122.303 31.7861 108.37 67.2536 40.3863 290.483 285.919 248.344 76.1625 67.3936 28.8821 78.0595 54.1511 23.9085 139.684 51.2595 360.931 336.655 88.224 248.431 77.898 39.3997
internal_count=11652 9488 7832 2164 7580 3188 2114 4392 845 1500 3547 2620 2067 1656 1443 385 773 1074 553 1812 460 423 927 318 614 1668 446 319 481 670 158 1626 141 350 231 570 220 1475 911 891 547 144 489 302 177 1311 1291 1123 344 297 127 350 243 107 634 231 1601 1492 389 1103 344 175
is_linear=0
shrinkage=0.05


Tree=2
num_leaves=63
num_cat=0
split_feature=12 12 14 8 2 9 8 12 12 7 11 6 7 8 10 12 11 8 10 10 12 12 7 2 12 12 16 11 10 8 8 9 8 12 9 8 12 13 13 10 12 7 10 7 7 7 10 9 10 17 12 10 7 7 10 12 18 10 18 4 0 7
split_gain=199.883 146.951 131.27 55.344 28.3392 26.4004 55.5186 46.0929 46.5302 42.6989 39.8243 32.1411 30.1734 32.5362 29.0658 26.2565 27.3475 25.4055 21.9027 21.2002 24.7049 21.4832 23.8847 20.8532 22.6365 23.328 20.5377 20.0611 19.3222 21.7638 18.6246 18.5746 18.5536 29.5912 25.7083 19.5741 22.585 34.1445 20.1723 19.9617 18.1951 19.0318 19.2705 18.127 17.6297 17.4165 17.2849 16.4223 17.2155 16.0109 15.8354 18.3873 16.1803 15.7284 15.715 15.4698 15.8307 15.3674 15.1397 14.9083 14.3699 14.2743
threshold=1.2013194561004641 -1.5966137051582334 1.0000000180025095e-35 1.3838000297546389 -0.63410013914108265 0.82419893145561229 1.5740567445755007 0.40809707343578344 -0.73552504181861866 1.1819898486137392 -0.88148200511932362 -0.26660272479057306 -1.7244333028793333 -1.0711543560028074 0.76021149754524242 1.9659146070480349 2.279058694839478 -1.1553434729576109 -1.129186689853668 -1.2070185542106626 -0.89462694525718678 -1.3601512312889097 -1.1703832149505613 -1.2431541085243223 0.7714061737060548 0.026430699042975906 -0.19774790853261945 0.21770115196704867 0.15102389454841617 -0.29721949994564051 1.7379606962203982 1.6807267665863039 -0.29721949994564051 -0.30053776502609247 -0.13434870541095731 1.6684489250183108 -1.0000000180025095e-35 -0.30019865930080408 0.097389299422502532 0.082350350916385665 0.31720580160617834 1.5551176667213442 -0.031436646357178681 -1.7628915309906004 -0.99740859866142262 -1.5178977847099302 -0.85445788502693165 -0.97849825024604786 -0.44645643234252924 -0.27946783602237696 -2.0230897665023799 -1.9378321170806883 -1.0385894775390623 1.6393216252326968 -0.63333326578140248 -0.19862783700227735 -0.0060833699535578481 -1.426097512245178 0.23312528431415561 0.22411781549453738 1.3568234443664553 3.2613477706909184
decision_type=2 2 2 2 2 2 2 2 2 2 2 2 2 2 2 2 2 2 2 2 2 2 2 2 2 2 2 2 2 2 2 2 2 2 2 2 2 2 2 2 2 2 2 2 2 2 2 2 2 2 2 2 2 2 2 2 2 2 2 2 2 2
left_child=1 4 5 -2 50 7 17 8 9 19 18 -9 55 -14 27 16 26 -7 -10 21 44 22 43 -19 25 -25 59 -8 -13 -30 -28 49 34 46 -15 36 37 -35 -37 -39 41 42 -38 -3 45 -21 -34 48 57 53 -1 52 -52 -16 -20 56 -12 -11 -23 -5 -29 -55
right_child=3 2 -4 15 -6 6 14 11 10 47 12 28 13 32 31 -17 -18 23 54 20 -22 58 -24 24 -26 -27 30 60 29 -31 -32 -33 33 35 -36 38 40 39 -40 -41 -42 -43 -44 -45 -46 -47 -48 -49 -50 -51 51 -53 -54 61 -56 -57 -58 -59 -60 -61 -62 -63
leaf_value=-0.022180688072744356 -0.055425151771878726 0.04338561162306722 -0.066103777047286705 -0.037820521509600448 -0.031716947690282347 0.074887851739710368 -0.016015225020610705 -0.025436142059569324 -0.011278577399377923 0.011895492195440085 -0.047228306491902523 -0.030690765874544064 -0.055364093956394647 0.10543717363832741 0.020047571359193422 -0.035326860393833197 0.0853927428133507 0.057548630050848287 0.099986678496171238 0.0010570045778212813 0.029715565393414856 0.063742151223851476 0.092451866188238543 -0.058240527378614904 -0.027214785214314488 0.058928362684211491 -0.017569536173425462 0.10167512601557743 -0.04394607002752287 0.024216585401441563 0.022754330372148013 0.091698174549621203 0.054783705426176735 0.09936275668372016 -0.015893319331032173 0.043028085754698658 -0.061668769498563106 0.047819206019489781 0.093982058171270366 -0.031376898027763216 0.050027025562628773 0.025658004211612968 0.012650960377927532 -0.015262183264244056 0.052932859964594181 -0.044701512581375363 0.0027587036269998456 -0.028103696494712206 0.062388016395678751 0.0068482908361916107 0.083291022994162911 -0.0069463635857267506 0.0063187726276005595 0.098317052520008968 0.018927063126495614 0.020619119768514285 0.0097578839396805419 -0.027428573579641992 0.022527871250754818 -0.0082586678476890118 0.014304918348065996 -0.00076920157074390825
leaf_weight=56.439829438924789 126.76800516247749 18.132498845458031 50.152610778808594 83.946833536028862 236.95497053861618 11.260828733444212 4.8137742131948462 114.45031724870205 6.8326803147792807 57.296447589993477 27.040023490786552 24.997326195240021 11.074015110731123 17.361982822418216 24.153700605034828 144.97613273561001 7.4285628348588935 12.039628490805624 33.387473002076149 49.133022293448448 61.119741559028625 54.029774010181427 7.9561874866485587 5.6228966563940075 66.978938564658165 17.374407574534416 52.330357789993286 39.846032693982124 13.02519868314266 116.0365356951952 63.240916445851326 12.662959992885588 18.510878667235374 22.787726059556007 5.8325762748718253 80.999764174222946 18.653167515993118 23.434073001146317 25.551308691501617 12.046962156891821 23.301071316003799 33.837568417191505 16.382648587226868 48.193441063165665 9.669366389513014 36.054438859224319 116.1073332875967 84.237643659114838 10.404093533754347 47.723123505711555 13.892318814992906 43.204093232750893 13.425391018390654 17.886487469077114 7.2836044877767554 38.982174307107925 22.187008380889893 43.863811016082764 37.92143526673317 86.691978111863136 5.3364247232675543 4.5616561174392691
leaf_count=256 590 79 236 383 1086 50 21 517 30 257 122 113 51 75 106 663 33 54 145 218 270 238 35 25 302 77 236 170 59 518 284 55 81 99 26 355 84 102 111 53 103 150 73 216 43 162 514 377 46 210 60 194 60 78 32 172 99 197 168 390 23 20
internal_value=0 0.00728444 0.0135633 -0.0263266 -0.0215037 0.0160321 0.030295 0.0131728 0.0177836 0.00697553 0.0277528 -0.00536577 0.0237054 0.0292183 0.0495454 -0.0179166 -0.00932079 0.0036169 0.0715543 0.018166 0.00492562 0.0305894 0.0105909 -0.00425021 -0.0125194 0.0302803 -0.0117791 0.081018 0.00954449 0.0173375 0.00449579 0.0348381 0.0314763 0.0289028 0.074927 0.0388503 0.0272374 0.0516032 0.055247 0.0209296 0.0118344 -0.00108688 -0.0269171 0.000771228 -0.0110475 -0.0183097 0.00991248 -0.0114394 0.00114318 0.0272047 -0.00244206 0.0133551 0.0454627 0.0480509 0.0854701 -0.00291101 -0.0215442 -0.0051557 0.046745 -0.0228018 0.091356 0.0781819
internal_weight=0 2032.45 1668.53 565.383 363.917 1618.38 270.261 1348.12 1079.61 518.012 561.594 268.509 514.09 425.881 156.984 438.615 293.639 113.277 47.5038 322.21 155.977 166.233 74.2821 102.016 89.9762 22.9973 286.21 49.9962 154.059 129.062 115.571 106.988 414.807 391.613 23.1946 256.994 150.443 58.2688 106.551 35.481 92.1745 68.8734 35.0358 66.3259 94.8568 85.1875 134.618 195.802 111.564 94.325 126.962 70.5218 27.3177 46.6018 40.6711 88.2092 49.227 101.16 91.9512 170.639 45.1825 22.4481
internal_count=11652 9073 7417 2579 1656 7181 1191 5990 4783 2306 2477 1207 2270 1877 683 1989 1326 508 207 1429 693 736 330 458 404 102 1293 214 690 577 520 469 1826 1725 101 1130 664 254 466 155 410 307 157 295 423 380 595 877 500 414 570 314 120 204 177 393 221 454 406 773 193 98
is_linear=0
shrinkage=0.05


end of trees

feature_importances:
close=36
hod_sin=20
hod_cos=19
ret=17
high=16
vol20=14
open=13
low=9
interarrival_mean_s=8
buy_volume=7
volume=6
logret=4
signed_volume=4
sell_ratio=3
trades=3
buy_ratio=2
ofi_norm=2
sell_volume=2
dollar=1

parameters:
[boosting: gbdt]
[objective: binary]
[metric: binary_logloss,auc]
[tree_learner: serial]
[device_type: cpu]
[data_sample_strategy: bagging]
[data: ]
[valid: ]
[num_iterations: 500]
[learning_rate: 0.05]
[num_leaves: 63]
[num_threads: 0]
[seed: 0]
[deterministic: 0]
[force_col_wise: 0]
[force_row_wise: 0]
[histogram_pool_size: -1]
[max_depth: -1]
[min_data_in_leaf: 20]
[min_sum_hessian_in_leaf: 0.001]
[bagging_fraction: 1]
[pos_bagging_fraction: 1]
[neg_bagging_fraction: 1]
[bagging_freq: 0]
[bagging_seed: 3]
[feature_fraction: 1]
[feature_fraction_bynode: 1]
[feature_fraction_seed: 2]
[extra_trees: 0]
[extra_seed: 6]
[early_stopping_round: 0]
[early_stopping_min_delta: 0]
[first_metric_only: 0]
[max_delta_step: 0]
[lambda_l1: 0]
[lambda_l2: 0]
[linear_lambda: 0]
[min_gain_to_split: 0]
[drop_rate: 0.1]
[max_drop: 50]
[skip_drop: 0.5]
[xgboost_dart_mode: 0]
[uniform_drop: 0]
[drop_seed: 4]
[top_rate: 0.2]
[other_rate: 0.1]
[min_data_per_group: 100]
[max_cat_threshold: 32]
[cat_l2: 10]
[cat_smooth: 10]
[max_cat_to_onehot: 4]
[top_k: 20]
[monotone_constraints: ]
[monotone_constraints_method: basic]
[monotone_penalty: 0]
[feature_contri: ]
[forcedsplits_filename: ]
[refit_decay_rate: 0.9]
[cegb_tradeoff: 1]
[cegb_penalty_split: 0]
[cegb_penalty_feature_lazy: ]
[cegb_penalty_feature_coupled: ]
[path_smooth: 0]
[interaction_constraints: ]
[verbosity: -1]
[saved_feature_importance_type: 0]
[use_quantized_grad: 0]
[num_grad_quant_bins: 4]
[quant_train_renew_leaf: 0]
[stochastic_rounding: 1]
[linear_tree: 0]
[max_bin: 255]
[max_bin_by_feature: ]
[min_data_in_bin: 3]
[bin_construct_sample_cnt: 200000]
[data_random_seed: 1]
[is_enable_sparse: 1]
[enable_bundle: 1]
[use_missing: 1]
[zero_as_missing: 0]
[feature_pre_filter: 0]
[pre_partition: 0]
[two_round: 0]
[header: 0]
[label_column: ]
[weight_column: ]
[group_column: ]
[ignore_column: ]
[categorical_feature: ]
[forcedbins_filename: ]
[precise_float_parser: 0]
[parser_config_file: ]
[objective_seed: 5]
[num_class: 1]
[is_unbalance: 0]
[scale_pos_weight: 1]
[sigmoid: 1]
[boost_from_average: 1]
[reg_sqrt: 0]
[alpha: 0.9]
[fair_c: 1]
[poisson_max_delta_step: 0.7]
[tweedie_variance_power: 1.5]
[lambdarank_truncation_level: 30]
[lambdarank_norm: 1]
[label_gain: ]
[lambdarank_position_bias_regularization: 0]
[eval_at: ]
[multi_error_top_k: 1]
[auc_mu_weights: ]
[num_machines: 1]
[local_listen_port: 12400]
[time_out: 120]
[machine_list_filename: ]
[machines: ]
[gpu_platform_id: -1]
[gpu_device_id: -1]
[gpu_use_dp: 0]
[num_gpu: 1]

end of parameters

pandas_categorical:[]
