tree
version=v4
num_class=1
num_tree_per_iteration=1
label_index=0
max_feature_idx=18
objective=binary sigmoid:1
feature_names=ret logret vol20 buy_ratio sell_ratio ofi_norm interarrival_mean_s hod_sin hod_cos open high low close volume trades dollar buy_volume sell_volume signed_volume
feature_infos=[-24.620981216430664:936.76849365234375] [-24.906713485717773:573.5533447265625] [-0.76928937435150146:453.53524780273438] [-3.1093764305114746:2.225987434387207] [-2.3844461441040039:3.1093764305114746] [-3.1093764305114746:2.225987434387207] [-1.8369294404983521:4709.4013671875] [-1.5905284881591797:12.17448616027832] [-3.6491570472717285:2.0600686073303223] [-15.869993209838867:376.49014282226562] [-15.04379940032959:382.05313110351562] [-19.060787200927734:371.6348876953125] [-15.680721282958984:375.64712524414062] [-2.459864616394043:26.531120300292969] [0:0.070888116955757141] [-2.4613840579986572:26.450546264648438] [-2.8368308544158936:10.587915420532227] [-1.6069694757461548:8.0821208953857422] [-6.8556303977966309:4.953028678894043]
tree_sizes=2705 2957 2866 2976 3405 3532 3639 3426 3532 3429 3548 3324 3759 3960 3653 3856 3845 3861 3871 3755 3736

Tree=0
num_leaves=25
num_cat=0
split_feature=14 12 11 10 7 9 6 11 6 4 8 8 8 8 3 18 6 16 0 16 2 6 0 1
split_gain=139.094 23.9262 24.5338 22.8182 34.2439 19.4532 14.9017 22.7507 28.1778 12.6055 9.28865 10.7403 8.5823 10.9937 7.87968 7.37005 5.47815 4.14457 4.07566 3.61877 0.595445 0.244691 1.42109e-14 3.55271e-15
threshold=1.0000000180025095e-35 1.6382975578308108 -1.0037517249584196 -0.0081683662720024568 -0.77799865603446949 0.056178467348217971 -0.096072927117347703 0.7188156545162202 -0.099354427307844148 -0.22060688585042951 -1.6651827692985532 -2.2368575334548946 0.62697321176528942 0.95169827342033397 0.85358962416648876 0.052443848922848708 -0.073343262076377855 -0.15523052215576169 -0.025988078676164147 -0.030738955363631245 -0.32602082192897791 -0.097793694585561738 -0.074820563197135911 -0.080923013389110551
decision_type=2 2 2 2 2 2 2 2 2 2 2 2 2 2 2 2 2 2 2 2 2 2 2 2
left_child=1 2 16 9 -5 -6 7 8 18 -4 11 -2 20 -14 15 -8 19 -11 -7 -1 -9 22 23 -12
right_child=10 -3 3 4 5 6 14 12 -10 17 21 -13 13 -15 -16 -17 -18 -19 -20 -21 -22 -23 -24 -25
leaf_value=-1.0767366531857951 -1.1405838526725924 -1.1323535496137473 -1.0216426987899299 -0.93123870820145926 -1.1405838526725924 -0.92598632106419065 -0.97851019243687654 -1.1405838526725924 -1.0893730780842239 -0.9562250641544654 -1.1405838526725924 -1.0308464785546596 -1.0031735755162245 -1.1166411528650435 -0.94042288228148307 -1.0687557532499454 -1.0375261448053164 -0.8897555689744604 -0.9917227190865272 -1.1318048627431578 -1.1142468828842884 -1.1274153677784404 -1.1405838526725924 -1.1405838526725924
leaf_weight=6.2649576365947732 4.3664856255054474 6.075110435485839 5.8852632343769082 7.4040408432483664 4.936027228832244 5.1258744299411783 4.9360272288322502 4.9360272288322387 6.8344992399215618 5.695416033267974 9.872054457664488 4.5563328266143781 4.3664856255054456 4.1766384243965149 4.7461800277233115 4.1766384243965149 4.3664856255054465 3.9867912232875797 4.3664856255054483 5.6954160332679757 3.7969440221786579 3.796944022178649 36.070968210697174 3.796944022178649
leaf_count=33 23 32 31 39 26 27 26 26 36 30 52 24 23 22 25 22 23 21 23 30 20 20 190 20
internal_value=-1.07349 -1.03626 -1.02989 -1.01785 -1.03189 -1.04611 -1.03629 -1.05428 -1.01196 -0.963933 -1.13178 -1.08455 -1.09428 -1.05865 -0.992664 -1.01987 -1.08546 -0.928855 -0.956225 -1.10296 -1.12913 -1.13965 -1.14058 -1.14058
internal_weight=0 97.7713 91.6962 75.3693 59.8019 52.3978 47.4618 33.603 16.3269 15.5675 62.4597 8.92282 17.2761 8.54312 13.8588 9.11267 16.3269 9.68221 9.49236 11.9604 8.73297 53.5369 49.74 13.669
internal_count=844 515 483 397 315 276 250 177 86 82 329 47 91 45 73 48 86 51 50 63 46 282 262 72
is_linear=0
shrinkage=1


Tree=1
num_leaves=27
num_cat=0
split_feature=14 12 11 6 12 6 6 10 7 2 6 8 8 9 8 11 7 3 8 2 6 8 16 6 6 6
split_gain=126.848 21.5561 22.4317 20.2902 18.9726 42.99 13.058 11.0848 21.4026 13.9361 9.1202 8.97688 9.88019 7.9511 7.93052 5.70415 5.6358 3.41656 3.31614 2.17401 1.98327 1.86513 0.253187 0.149636 5.52999e-05 1.42109e-14
threshold=1.0000000180025095e-35 1.5824131965637209 -1.0349113941192625 -1.0000000180025095e-35 0.72660481929779064 -0.098208814859390245 -0.10034354776144026 -0.0081683662720024568 -0.21526787430047986 -0.63383460044860829 -0.098456978797912584 -1.6651827692985532 -2.2368575334548946 0.94038921594619762 0.62697321176528942 -1.9750053882598875 -0.70956420898437489 -0.71926790475845326 -0.17956145107746121 -0.40765412151813502 -0.092609688639640794 1.1143794655799868 0.86029672622680675 -0.10311708599328993 -0.098139856010675416 -0.10112669691443442
decision_type=2 2 2 2 2 2 2 2 2 2 2 2 2 2 2 2 2 2 2 2 2 2 2 2 2 2
left_child=1 2 15 4 6 14 17 9 10 -8 -9 12 -2 -7 23 -1 -15 -4 -17 -11 -3 -16 24 -6 25 -13
right_child=11 20 3 -5 5 13 7 8 -10 19 -12 22 -14 16 21 18 -18 -19 -20 -21 -22 -23 -24 -25 -26 -27
leaf_value=0.023505425623678709 -0.065981613567815886 -0.066357115153691498 0.10541288780104352 -0.029911271408384111 -0.066333955610360693 0.033728877990806032 0.042981662774491565 0.042023818936632727 -0.029375799593448184 0.11616446454126786 0.14594500653724665 -0.065981613567815914 0.039667731725037278 0.085340140852558144 0.035016664262675433 -0.0061249987069674485 0.16051540139425025 0.16921439650329539 -0.066929373009595214 0.16516272905021004 -0.017350096924404184 -0.014292866952919772 -0.052376323482254551 -0.05272673745870822 -0.066182939733358523 -0.065981613567815831
leaf_weight=6.0703524500131598 4.2215571254491806 4.2672792226076126 4.0076489299535751 6.7689544558525077 4.4501351863145819 3.9189139157533637 6.716451048851007 4.5234350264072409 6.6312317997217312 5.1397112756967474 3.9590529054403296 38.544652014970772 4.6510341167449933 5.8202804476022711 3.8843989372253409 4.1271028667688361 4.3613129109144202 4.404242977499953 4.9101553410291663 4.0458152443170619 3.999239504337309 3.7877394556999207 3.6721637248992911 3.700441628694537 3.694564461708068 5.8734707832336488
leaf_count=32 23 23 20 36 24 20 34 23 35 26 20 210 24 29 20 22 22 22 26 20 21 20 20 20 20 32
internal_value=0 0.0346659 0.0416716 0.0527172 0.0607821 0.0307626 0.0835651 0.0685799 0.0379191 0.0977208 0.0905272 -0.0570693 -0.0106 0.0942478 -0.0258127 -0.0139814 0.117542 0.138818 -0.0391614 0.137746 -0.0426481 0.0106725 -0.0650312 -0.0601561 -0.0659971 -0.0659816
internal_weight=0 99.4939 91.2274 76.1198 69.3508 29.9232 39.4276 31.0157 15.1137 15.902 8.48249 60.6574 8.87259 14.1005 15.8227 15.1076 10.1816 8.41189 9.03726 9.18553 8.26652 7.67214 51.7849 8.15058 48.1127 44.4181
internal_count=844 515 471 391 355 155 200 158 78 80 43 329 47 71 84 80 51 42 48 46 44 40 282 44 262 242
is_linear=0
shrinkage=0.05


Tree=2
num_leaves=26
num_cat=0
split_feature=14 12 11 6 12 6 15 6 8 10 7 2 8 8 8 6 6 3 16 2 17 13 6 16 0
split_gain=116.001 19.3904 18.6651 16.9055 18.1634 34.2767 10.891 10.4024 10.1632 9.14683 18.4678 11.1601 8.68307 9.10827 7.86464 7.27966 5.53478 2.59029 1.93641 1.67571 0.261163 0.163805 3.85041e-05 3.97902e-05 1.42109e-14
threshold=1.0000000180025095e-35 1.6382975578308108 -1.0349113941192625 -1.0000000180025095e-35 0.72660481929779064 -0.096307691186666475 -0.20105601847171781 -0.10034354776144026 0.60983735322952282 -0.0081683662720024568 -0.21526787430047986 -0.63383460044860829 -1.6651827692985532 -2.2368575334548946 0.95169827342033397 -0.098456978797912584 -0.073343262076377855 -0.71926790475845326 -0.030738955363631245 -0.40765412151813502 1.07834929227829 -0.25056993961334223 -0.098139856010675416 0.78391954302787792 -0.062452467158436768
decision_type=2 2 2 2 2 2 2 2 2 2 2 2 2 2 2 2 2 2 2 2 2 2 2 2 2
left_child=1 2 16 4 7 8 -7 17 21 11 15 -9 13 -2 -10 -11 18 -4 -1 -13 22 -6 23 24 -14
right_child=12 -3 3 -5 5 6 -8 9 14 10 -12 19 20 -15 -16 -17 -18 -19 -20 -21 -22 -23 -24 -25 -26
leaf_value=-0.012973472304706272 -0.06496116023097491 -0.056706794870388912 0.09566030709509675 -0.028856938016427459 -0.051514425975167102 0.041826449227117785 0.1269627944731036 0.040033463542164277 0.068507970269277421 0.03915196118229336 -0.028327945948554773 0.10479688639391216 -0.064961160230974938 0.036975293508192168 -0.026019407130876322 0.13007924030837278 0.033382298502618535 0.14966954529901152 -0.055890617020270622 0.14655859620566228 -0.050919788710111352 -0.06547626538521012 -0.065146579157860027 -0.065135550913316465 -0.064961160230974799
leaf_weight=5.6001563966274253 4.0771396309137344 5.7572029381990424 4.1903365105390549 6.6680665612220755 3.5992584526538831 8.0136515051126462 7.0710076987743369 6.8470044732093802 3.9969967454671842 4.6101404130458823 6.5351828783750596 5.4049453586339924 35.630655035376542 4.7378886938095075 4.8954057693481445 4.2126362770795813 4.4480616301298133 4.7212966531515068 4.9527791887521735 4.3234610259532973 3.5504939109086981 5.0460250377655065 3.5688577592372885 3.5674348771572104 3.7226057499647203
leaf_count=30 23 32 20 36 20 39 34 34 20 23 35 26 201 24 26 20 23 22 27 20 20 28 20 20 21
internal_value=0 0.0323975 0.0377897 0.0473718 0.0542905 0.026472 0.0817345 0.0765087 -0.0210608 0.0631789 0.0353787 0.0889372 -0.0559299 -0.0101725 0.0164692 0.0825673 -0.0133978 0.124274 -0.0331157 0.123356 -0.0639905 -0.0596636 -0.0649888 -0.0649757 -0.0649612
internal_weight=0 100.894 95.1364 80.1354 73.4673 32.6223 15.0847 40.845 17.5377 31.9334 15.358 16.5754 58.8551 8.81503 8.8924 8.82278 15.001 8.91163 10.5529 9.72841 50.04 8.64528 46.4896 42.9207 39.3533
internal_count=844 515 483 403 367 167 73 200 94 158 78 80 329 47 46 43 80 42 57 46 282 48 262 242 222
is_linear=0
shrinkage=0.05


Tree=3
num_leaves=27
num_cat=0
split_feature=14 12 11 6 12 6 15 8 8 6 10 7 9 8 6 2 2 3 16 11 13 6 17 6 16 0
split_gain=106.37 17.4717 16.4582 15.0309 16.328 30.0135 9.92851 8.40588 8.41284 7.97996 9.58785 15.3456 8.05917 7.1848 6.69659 5.02112 13.449 4.33212 1.80325 1.38407 0.266415 0.159776 3.5793e-05 1.96948e-05 1.61677e-05 7.10543e-15
threshold=1.0000000180025095e-35 1.6382975578308108 -1.0037517249584196 -1.0000000180025095e-35 0.72660481929779064 -0.098208814859390245 -0.20105601847171781 -1.6651827692985532 -2.2368575334548946 -0.10027182474732398 -0.0081683662720024568 -0.21526787430047986 -0.85382273793220509 0.62697321176528942 -0.098456978797912584 0.87076640129089367 -0.43745316565036768 0.72203451395034801 -0.70920482277870167 0.89465180039405834 0.04854406230151654 -0.10311708599328993 0.84950497746467601 -0.098456978797912584 0.42646782100200659 -0.062772918492555604
decision_type=2 2 2 2 2 2 2 2 2 2 2 2 2 2 2 2 2 2 2 2 2 2 2 2 2 2
left_child=1 2 15 4 9 13 17 8 -2 18 12 14 -11 21 -12 16 -1 -7 -4 -15 22 -6 23 24 25 -9
right_child=7 -3 3 -5 5 6 -8 20 -10 10 11 -13 -14 19 -16 -17 -18 -19 -20 -21 -22 -23 -24 -25 -26 -27
leaf_value=-0.037305183059933793 -0.064020163471548333 -0.055588695162405936 0.088269484845678162 -0.027833622023767685 -0.064418104624668043 -0.0009018760989845453 0.11228054663624426 -0.064020163471548361 0.034529902408295385 0.050246717048591398 0.028696074678710184 -0.027311436942245217 0.12136323524489445 -0.012653419791347762 0.11765313047069169 -0.055632647372712264 0.072677152720007659 0.067379981760935639 0.13096210761247531 0.029647918980675439 -0.04961309595941709 -0.050166337390768367 -0.064208529624030605 -0.064155402656394356 -0.06413388595254492 -0.064020163471548347
leaf_weight=6.9598252624273309 3.9338455945253372 5.583770051598548 4.6112706363201141 6.5700968205928794 4.5120127201080305 4.3117451816797274 7.8027839958667746 30.786617696285241 4.8176128864288312 7.7871849983930579 4.0588048100471452 6.4419122636318304 8.1562492698430997 3.7170432358980179 4.4188818335533133 4.4959485530853263 4.6278731673955926 5.035952165722847 5.3348906934261269 4.030443474650383 3.4387180358171454 3.4859714508056641 3.4462845772504798 3.4391215443611207 3.4361720830202094 3.7628088295459738
leaf_count=38 23 32 21 36 26 21 36 180 24 37 20 35 37 20 20 24 24 24 24 20 20 20 20 20 20 22
internal_value=0 0.0304 0.0353829 0.0446324 0.051092 0.0248803 0.0706414 -0.0548578 -0.00976908 0.072221 0.0596694 0.0308607 0.0866281 -0.0249642 0.0750638 -0.0107823 0.00661935 0.0358841 0.111169 0.00935283 -0.0630258 -0.0582064 -0.0640537 -0.0640408 -0.0640305 -0.0640202
internal_weight=0 101.943 96.3589 80.2752 73.7051 32.896 17.1505 57.0612 8.75146 40.8092 30.863 14.9196 15.9434 15.7455 8.47769 16.0836 11.5877 9.3477 9.94616 7.74749 48.3097 7.99798 44.871 41.4247 37.9856 34.5494
internal_count=844 515 483 397 361 167 81 329 47 194 149 75 74 86 40 86 62 45 45 40 282 46 262 242 222 202
is_linear=0
shrinkage=0.05


Tree=4
num_leaves=31
num_cat=0
split_feature=14 12 11 6 2 12 6 8 8 6 10 7 2 8 11 13 2 8 17 16 6 11 6 16 13 13 13 6 6 0
split_gain=97.7452 15.9977 15.3113 13.7098 12.2248 17.1468 17.7072 8.14408 7.78421 7.46565 9.02011 13.1142 8.604 6.5549 4.92789 4.77771 3.90865 3.30869 1.87746 1.66576 1.6587 1.23467 0.271362 0.159501 9.05827e-05 8.7786e-06 1.05009e-06 4.02352e-10 6.43752e-12 7.10543e-15
threshold=1.0000000180025095e-35 1.5824131965637209 -1.0349113941192625 -1.0000000180025095e-35 0.33662144839763647 0.72660481929779064 -0.098208814859390245 -1.6651827692985532 -2.2368575334548946 -0.10027182474732398 -0.0081683662720024568 -0.72061103582382191 -0.64613756537437428 0.62697321176528942 -1.9750053882598875 -0.18918951600790021 -0.38637383282184595 -0.17956145107746121 -0.61932414770126332 -0.70920482277870167 -0.09728319942951201 0.89465180039405834 -0.097793694585561738 -0.42895647883415217 -0.068723767995834337 -0.13202545046806333 -0.16923823207616803 -0.10102920234203337 -0.10276005789637564 -0.071786399930715547
decision_type=2 2 2 2 2 2 2 2 2 2 2 2 2 2 2 2 2 2 2 2 2 2 2 2 2 2 2 2 2 2
left_child=1 2 14 4 5 9 13 8 -2 19 12 -12 -11 23 -1 -8 -13 -16 -3 -4 -14 -15 24 -7 25 26 27 28 29 -9
right_child=7 18 3 -5 -6 6 15 22 -10 10 11 16 20 21 17 -17 -18 -19 -20 -21 -22 -23 -24 -25 -26 -27 -28 -29 -30 -31
leaf_value=0.021820158470934811 -0.063150714533024108 -0.066400102557898841 0.07857704977424225 -0.026840070490898135 0.1247905982866116 -0.063596109696556283 0.03134165861423454 -0.063150714533024094 0.032299222966366496 0.027394514230569496 0.092111760725060915 -0.040267499864224579 0.11718787677095542 -0.012100219937088874 -0.0034128713975950069 0.096043599616703737 0.023829462253235248 -0.06539909927149555 -0.01729146451845387 0.11947980177220092 0.078786341581251071 0.027797955364878547 -0.048379058541050311 -0.04885909343249438 -0.063396163970274991 -0.063227503063614549 -0.063176280328859039 -0.063150118850974254 -0.063150639757782706 -0.063150714533024108
leaf_weight=6.1403404772281638 3.7921952754259109 3.6349930614233017 4.5138509273529053 6.4751009345054618 4.96763752400875 4.032995343208313 6.7614492475986481 9.068293049931528 4.8908518552780134 6.0661183893680546 4.5240991860628119 5.2366539537906638 6.6555271297693217 3.693252295255661 4.0044607371091834 4.9360215961933118 4.357639774680151 4.6557549685239783 4.1891995370388022 5.5491809695959002 4.8692438304424321 4.0823495388031006 3.3315906673669806 3.3704909533262271 4.6662826687097541 4.6321372836828294 4.621751442551612 3.2974739372730246 3.2975501716136923 13.684878602623938
leaf_count=32 23 20 20 36 22 24 32 55 24 29 21 27 29 20 22 22 23 26 24 24 22 20 20 20 28 28 28 20 20 83
internal_value=0 0.028612 0.0342781 0.042912 0.0490472 0.0435662 0.012413 -0.0538454 -0.00938716 0.0636103 0.0517026 0.0219356 0.0755934 -0.0232142 -0.0124432 0.0586442 -0.0111553 -0.0367368 -0.0401065 0.101133 0.100963 0.00884714 -0.0621293 -0.056887 -0.0631881 -0.0631629 -0.0631541 -0.0631506 -0.0631507 -0.0631507
internal_weight=0 102.716 94.8922 80.0916 73.6165 68.6489 26.8766 55.283 8.68305 41.7723 31.7093 14.1184 17.5909 15.1791 14.8006 11.6975 9.59429 8.66022 7.82419 10.063 11.5248 7.7756 46.6 7.40349 43.2684 38.6021 33.9699 29.3482 26.0507 22.7532
internal_count=844 515 471 391 355 333 138 329 47 195 151 71 80 84 80 54 50 48 44 44 51 40 282 44 262 234 206 178 158 138
is_linear=0
shrinkage=0.05


Tree=5
num_leaves=32
num_cat=0
split_feature=14 12 11 6 12 6 8 8 15 8 6 10 7 2 6 2 2 3 3 8 2 17 3 6 13 18 13 13 6 6 6
split_gain=89.9787 14.6143 13.0151 11.7915 12.0603 23.564 7.89651 7.21421 7.18804 6.37868 5.70958 6.62212 12.9493 6.38783 5.10124 4.85797 11.4912 3.6765 1.84124 1.11254 0.841399 0.281726 0.168256 0.000139808 4.53088e-05 2.81276e-06 2.75579e-09 4.47997e-11 2.61906e-11 7.10543e-15 7.10543e-15
threshold=1.0000000180025095e-35 1.6382975578308108 -1.0037517249584196 -1.0000000180025095e-35 0.72660481929779064 -0.098208814859390245 -1.6651827692985532 -2.2368575334548946 -0.20105601847171781 0.62697321176528942 -0.10034354776144026 -0.0081683662720024568 -0.21526787430047986 -0.63383460044860829 -0.098456978797912584 0.87076640129089367 -0.43745316565036768 0.72203451395034801 -0.71926790475845326 1.1143794655799868 -0.40765412151813502 1.07834929227829 -0.34930460155010218 -0.098139856010675416 -0.073744706809520708 0.60358181595802318 -0.14674260467290876 -0.17760329693555829 -0.10112669691443442 -0.10287775099277495 -0.10536272823810576
decision_type=2 2 2 2 2 2 2 2 2 2 2 2 2 2 2 2 2 2 2 2 2 2 2 2 2 2 2 2 2 2 2
left_child=1 2 15 4 10 9 7 -2 17 22 18 13 14 -12 -13 16 -1 -7 -4 -11 -15 23 -6 24 25 26 27 28 29 30 -8
right_child=6 -3 3 -5 5 8 21 -9 -10 19 11 12 -14 20 -16 -17 -18 -19 -20 -21 -22 -23 -24 -25 -26 -27 -28 -29 -30 -31 -32
leaf_value=-0.035224214984971941 -0.062345913182461202 -0.053853753956402184 0.072760562064464282 -0.025875188532952433 -0.062819559407231787 -0.0021992475501004844 -0.062345913182461188 0.030256555771573202 0.095235983018158943 0.026187157160131022 0.035335995278762321 0.030378612897386172 -0.026144603533972594 0.08541036839106643 0.10362815306618481 -0.054712378235640007 0.066129074782103378 0.060013617285945522 0.11599251948488974 -0.011641984972325716 0.11403934762873708 -0.047028714286607314 -0.047711313442483916 -0.062709391839475728 -0.062542208655538847 -0.06239500305274788 -0.062344320609358621 -0.062345695583405816 -0.062345760309346437 -0.062345916980351163 -0.06234591318246116
leaf_weight=6.7034627497196189 3.6526259928941727 5.3030321747064582 4.6226870566606522 6.3831127434968939 4.2215080559253675 4.3571718037128466 15.722172752022749 4.9581863880157453 8.3219385594129545 4.1271834820508957 6.4587427377700832 4.8695654720067898 6.3329160213470592 5.5093792676925668 4.643315613269805 4.4006353020668021 4.7984569966793051 5.2193785756826401 5.2713012695312482 3.6735371202230453 4.8045268952846429 3.2132901549339286 3.2704871594905853 3.2317512333393088 3.3666673451662126 3.1837327480316153 3.1759480386972418 3.1761620938777915 3.1761713922023764 3.3350063413381568 3.3350063413381603
leaf_count=38 23 32 20 36 26 21 99 24 36 20 30 23 35 24 20 24 24 24 22 20 20 20 20 20 21 20 20 20 20 21 21
internal_value=0 0.0269909 0.0313661 0.0393866 0.0448893 0.0223035 -0.0528857 -0.00902454 0.0612454 -0.0232739 0.0625231 0.0524313 0.029253 0.0743287 0.0661323 -0.0100346 0.00705911 0.0317078 0.0957936 0.00837255 0.0987466 -0.0612943 -0.0562243 -0.0623935 -0.062367 -0.0623502 -0.0623457 -0.0623459 -0.0623459 -0.0623459 -0.0623459
internal_weight=0 103.292 97.9893 82.0868 75.7036 33.1912 53.5267 8.61081 17.8985 15.2927 42.5124 32.6184 15.8458 16.7726 9.51288 15.9026 11.5019 9.57655 9.89399 7.80072 10.3139 44.9159 7.492 41.7026 38.4709 35.1042 31.9205 28.7445 25.5684 22.3922 19.0572
internal_count=844 515 483 397 361 167 329 47 81 86 194 152 78 74 43 86 62 45 42 40 44 282 46 262 242 221 201 181 161 141 120
is_linear=0
shrinkage=0.05


Tree=6
num_leaves=33
num_cat=0
split_feature=14 12 11 6 6 12 9 6 8 8 8 0 13 17 6 6 11 8 4 17 2 11 16 13 6 17 15 16 13 6 3 0
split_gain=82.9813 13.3098 12.213 10.9133 11.7959 21.9983 10.7405 9.2993 7.66201 6.69596 5.81186 4.95055 4.48185 7.6438 9.55741 4.79016 4.36014 3.22251 2.13058 1.88661 1.47201 0.995942 0.291161 0.167507 0.000107592 0.000104286 4.4714e-06 1.58661e-09 1.23208e-10 2.00515e-11 1.36779e-11 7.10543e-15
threshold=1.0000000180025095e-35 1.5824131965637209 -1.0349113941192625 -0.075203042477369295 -0.098281864076852785 0.72660481929779064 0.65627089142799389 -0.099354427307844148 -1.6651827692985532 -2.2368575334548946 0.62697321176528942 0.40391421318054205 -0.13364177942275998 -0.78620481491088856 -0.085893232375383363 -0.09728319942951201 -1.9750053882598875 -0.17956145107746121 -0.93237879872322071 -0.61932414770126332 -0.28756356239318842 0.89465180039405834 0.86029672622680675 -0.16153451800346372 -0.098139856010675416 0.84950497746467601 0.028895121067762378 0.15360248088836673 -0.17760329693555829 -0.10112669691443442 0.79777351021766674 -0.068125728517770753
decision_type=2 2 2 2 2 2 2 2 2 2 2 2 2 2 2 2 2 2 2 2 2 2 2 2 2 2 2 2 2 2 2 2
left_child=1 2 16 4 5 7 -5 18 9 -2 23 12 13 -6 15 -15 -1 -18 -4 -3 -20 -12 24 -7 25 26 27 28 29 30 31 -10
right_child=8 19 3 6 11 10 -8 -9 22 -11 21 -13 -14 14 -16 -17 17 -19 20 -21 -22 -23 -24 -25 -26 -27 -28 -29 -30 -31 -32 -33
leaf_value=0.020217219404062292 -0.061599707061782284 -0.065487544226746006 0.048618801807290959 -0.057162872002542248 0.090350178531890701 -0.046487320293659568 0.042606043188804621 0.0034424598963731113 -0.061599706929447995 0.028379637248204137 -0.011139449467966939 0.10702258643755463 0.089167353064582053 0.031129530291527454 0.081555745622594822 -0.042681232699828313 -0.0021811899787214039 -0.064267588712527371 0.10687435258632863 -0.015301783399407454 0.070998672022883805 0.024619383440228442 -0.045753714258963692 -0.062097903262719016 -0.06193688715879217 -0.06190804752607601 -0.061661445122601126 -0.061598436128997895 -0.061599337163505144 -0.061599553889596981 -0.061599592734615939 -0.061599706936131531
leaf_weight=6.2040203362703314 3.5155030936002731 3.4756281226873398 4.7241592258214942 5.5542512089014036 6.2636713683605221 3.1642996072769165 5.2448757141828537 5.8806898146867743 14.367708459496503 5.0201404094696027 3.6520098596811295 6.179638445377349 7.9687841385603049 4.2409380078315753 4.6387765705585435 4.563338428735733 3.9458189010620108 4.4436177015304557 5.5920179486274693 4.0604466199874869 5.8507814407348642 4.1711893230676651 3.1012825220823279 3.7608769088983518 3.1115024089813224 3.1067532598972312 3.2203340232372275 3.0567508637905112 3.0568988770246568 3.0569348335266104 3.0569405257701865 4.1268949806690243
leaf_count=32 23 20 21 31 28 20 26 29 94 24 20 27 35 20 20 21 22 26 24 24 25 20 20 24 20 20 21 20 20 20 20 27
internal_value=0 0.0255379 0.0305585 0.0381056 0.045261 0.0256641 -0.00870751 0.0572836 -0.0519728 -0.00867939 -0.0216045 0.0665603 0.0575255 0.0447305 0.0234745 -0.00712728 -0.011564 -0.0350664 0.0768681 -0.0384474 0.0885309 0.00792652 -0.0605146 -0.054965 -0.0616545 -0.0616308 -0.0616054 -0.0615995 -0.0615996 -0.0615997 -0.0615997 -0.0615997
internal_weight=0 103.58 96.0438 81.4503 70.6512 36.796 10.7991 22.0476 51.7976 8.53564 14.7484 33.8551 27.6755 19.7067 13.4431 8.80428 14.5935 8.38944 16.167 7.53607 11.4428 7.8232 43.262 6.92518 40.1607 37.0492 33.9425 30.7221 27.6654 24.6085 21.5515 18.4946
internal_count=844 515 471 391 334 183 57 99 329 47 84 151 124 89 61 41 80 48 70 44 49 40 282 44 262 242 222 201 181 161 141 121
is_linear=0
shrinkage=0.05


Tree=7
num_leaves=31
num_cat=0
split_feature=14 12 11 6 12 6 8 8 8 8 15 2 7 7 18 2 2 2 15 13 16 6 17 16 13 16 15 6 4 0
split_gain=76.577 12.353 10.5113 9.4903 9.01891 18.9864 7.5788 7.4396 6.22577 5.73536 5.42102 4.91186 7.94634 7.08907 5.03094 4.66897 9.89773 2.40645 0.297741 0.197944 9.18782e-05 4.55127e-05 3.9494e-05 1.03912e-09 1.17694e-10 2.94804e-11 1.27187e-12 1.35003e-13 7.10543e-15 3.55271e-15
threshold=1.0000000180025095e-35 1.6382975578308108 -1.0037517249584196 -1.0000000180025095e-35 0.72660481929779064 -0.096307691186666475 0.60983735322952282 -1.6651827692985532 -2.0892581939697261 0.95169827342033397 -0.20105601847171781 -0.38637383282184595 -0.17803198844194409 0.5644022822380067 0.3112961351871491 0.87076640129089367 -0.43745316565036768 -0.62940502166748036 0.37164834141731268 -0.25056993961334223 0.78391954302787792 -0.098456978797912584 0.61379802227020275 0.15360248088836673 -0.17760329693555829 -0.17322728782892224 -0.11125241965055464 -0.1014871411025524 -0.45940996706485743 -0.073786307126283632
decision_type=2 2 2 2 2 2 2 2 2 2 2 2 2 2 2 2 2 2 2 2 2 2 2 2 2 2 2 2 2 2
left_child=1 2 15 4 11 6 19 8 -2 -8 -7 12 14 -13 17 16 -1 -4 20 -6 21 22 23 24 25 26 27 28 -9 -30
right_child=7 -3 3 -5 5 10 9 18 -10 -11 -12 13 -14 -15 -16 -17 -18 -19 -20 -21 -22 -23 -24 -25 -26 -27 -28 -29 29 -31
leaf_value=-0.033414225605173188 -0.051265467424197998 -0.052252680636545271 0.048184294190365823 -0.024264825010564473 -0.045579851895417946 0.030049621556659509 0.054737421266247512 -0.060906727921539554 0.034528107125209866 -0.024723562770848907 0.08701939381320993 0.1072059174336939 -0.015022939012234823 0.042500152779136248 0.025386337594934368 -0.053815343953464892 0.060547503438585483 0.092162351913481461 -0.044615990398300498 -0.062159187073085292 -0.06122936014239691 -0.061128145980626672 -0.061097720944310846 -0.060905695911755348 -0.06090636666424333 -0.060906553921628803 -0.06090669260509729 -0.060906737856184646 -0.060906726113408888 -0.060906725575106541
leaf_weight=6.4697358310222617 4.2273274511098862 5.0330131500959387 5.2034176290035239 6.2202232182025901 3.0847045183181772 8.5449022203683871 4.3069055229425413 2.9401126801967683 4.2309895157814008 4.8036701083183289 8.1665811389684659 8.7583296000957542 5.0407686680555335 8.1923688352107984 8.7496991604566556 4.3051830530166617 4.9447354376316062 7.7339476197958019 3.0017545521259299 4.323792904615404 2.9947966933250418 2.9778349399566713 2.9725226759910575 3.086930885910987 2.9400495290756217 2.9400824606418601 2.940106898546218 2.9401138275861767 5.1451971381902748 6.7622590959072042
leaf_count=38 27 32 23 36 20 39 20 20 20 26 34 36 25 38 39 24 24 33 20 28 20 20 20 21 20 20 20 20 35 46
internal_value=0 0.0241588 0.0280494 0.0351396 0.0399441 0.0203139 -0.0176995 -0.0511013 -0.00835011 0.0128406 0.0578897 0.0548787 0.0415259 0.0759333 0.0546697 -0.00944517 0.00728988 0.0744743 -0.059785 -0.055256 -0.0609634 -0.060941 -0.060924 -0.0609066 -0.0609067 -0.0609067 -0.0609067 -0.0609067 -0.0609067 -0.0609067
internal_weight=0 103.882 98.849 83.1293 76.9091 33.2306 16.5191 50.1001 8.45832 9.11058 16.7115 43.6785 26.7278 16.9507 21.6871 15.7197 11.4145 12.9374 41.6418 7.4085 38.64 35.6452 32.6674 29.6949 26.6079 23.6679 20.7278 17.7877 14.8476 11.9075
internal_count=844 515 483 397 361 167 94 329 47 46 73 194 120 74 95 86 62 56 282 48 262 242 222 202 181 161 141 121 101 81
is_linear=0
shrinkage=0.05


Tree=8
num_leaves=32
num_cat=0
split_feature=14 12 11 16 16 8 2 6 8 8 2 12 2 2 7 6 7 12 13 8 16 4 0 6 13 13 13 6 16 17 0
split_gain=70.7638 11.2653 9.40001 9.07947 13.2743 10.1438 7.52972 10.1695 7.23641 5.7221 5.66066 5.56482 4.34426 9.56799 4.11307 3.68063 3.23754 4.28046 4.92814 2.48589 1.80639 1.18709 0.834319 0.308138 0.000217468 2.06328e-05 2.49522e-06 1.24666e-09 1.23038e-10 1.60512e-11 3.55271e-15
threshold=1.0000000180025095e-35 1.6382975578308108 -1.0037517249584196 0.039669692516326911 -0.061171304434537881 -1.0891376733779905 -0.36548846960067743 -0.098281864076852785 -1.6651827692985532 -2.0892581939697261 -0.61352819204330433 1.1198412775993349 0.87076640129089367 -1.0000000180025095e-35 0.88502249121665966 -0.10017795488238333 0.09872643277049066 0.73786357045173656 -0.28037238121032709 -0.029402325861155983 0.47239054739475256 -0.082311578094959245 -0.25498209893703455 -0.097793694585561738 -0.068723767995834337 -0.13202545046806333 -0.16923823207616803 -0.10102920234203337 -0.061171304434537881 -0.031672398559749119 -0.067561384290456758
decision_type=2 2 2 2 2 2 2 2 2 2 2 2 2 2 2 2 2 2 2 2 2 2 2 2 2 2 2 2 2 2 2
left_child=1 2 12 4 5 -4 7 -5 9 -2 15 14 13 19 -8 -7 17 21 -19 -1 -9 -12 -23 24 25 26 27 28 29 30 -10
right_child=8 -3 3 6 -6 10 11 20 23 -11 16 -13 -14 -15 -16 -17 -18 18 -20 -21 -22 22 -24 -25 -26 -27 -28 -29 -30 -31 -32
leaf_value=0.0051730338115017274 -0.050262906831373702 -0.051307585147452733 -0.028057562277172449 -0.01775252949890992 -0.045569536224677278 -0.025855624391730642 0.12306941920999906 0.085997625889366353 -0.060262261649909513 0.032357280463938071 0.055570421902478122 0.036603646700814764 -0.052667650023329154 0.071356744443905759 0.060192193880585457 0.034303744817380424 0.013937448647071284 0.068366036034410313 -0.0057217504627792223 -0.052215615630750278 0.041326875816115168 0.071499649278865665 0.10104937718523249 -0.043390762804003093 -0.060670308874880112 -0.060389157042192033 -0.060304741886382435 -0.060261083591845323 -0.060261889965798079 -0.060262132791195591 -0.060262261766377549
leaf_weight=3.5179951190948477 4.0993310213088989 4.8735014349222174 6.4396253228187552 6.6223510503768912 6.6762000918388358 4.4959745854139328 6.6378188282251376 4.5501029491424543 13.846764370799072 4.2875850200653058 4.6749333739280674 5.4596801251173011 4.1821869611740103 3.8271223902702323 4.2765422612428665 5.851481929421416 4.7718355953693381 4.5895765125751495 4.3929407447576505 4.0701508969068527 4.502571627497673 4.7634318917989686 4.7915296703577228 2.8956650644540778 4.0579272806644431 3.9877581000328091 3.9667194187641135 2.8256557434797314 2.825803115963935 2.8258469700813285 2.8258703351020822
leaf_count=20 27 32 38 35 37 24 28 20 98 20 20 24 24 18 20 26 22 22 21 24 20 20 20 20 28 28 28 20 20 20 20
internal_value=0 0.0229081 0.0265581 0.0332139 0.0202005 0.030008 0.054104 0.029334 -0.0502585 -0.00802556 0.0397628 0.0778165 -0.0090721 0.0068999 0.0984324 0.00816447 0.0514467 0.0591575 0.0321331 -0.0256092 0.0637795 0.0762165 0.086318 -0.0591007 -0.0603248 -0.0602825 -0.0602679 -0.0602621 -0.0602622 -0.0602622 -0.0602623
internal_weight=0 103.968 99.0941 83.4966 51.4475 44.7713 32.0491 15.675 48.4449 8.38692 38.3317 16.374 15.5975 11.4153 10.9144 10.3475 27.9842 23.2124 8.98252 7.58815 9.05267 14.2299 9.55496 40.058 37.1623 33.1044 29.1167 25.1499 22.3243 19.4985 16.6726
internal_count=844 515 483 397 250 213 147 75 329 47 175 72 86 62 48 50 125 103 43 44 40 60 40 282 262 234 206 178 158 138 118
is_linear=0
shrinkage=0.05


Tree=9
num_leaves=31
num_cat=0
split_feature=14 12 11 6 17 12 6 8 8 15 6 10 7 9 2 6 2 2 8 3 8 10 6 13 18 13 13 9 6 15
split_gain=65.4301 10.2799 8.49144 7.66525 7.12481 6.776 15.74 6.90838 5.04147 4.71547 4.50047 5.02706 9.17436 6.50424 9.33251 4.24148 3.82088 12.3761 2.16773 1.58055 1.21551 0.201413 0.000196958 0.000100444 7.1093e-06 8.61876e-09 2.19366e-10 7.28253e-11 2.18527e-11 2.13163e-14
threshold=1.0000000180025095e-35 1.6382975578308108 -1.0349113941192625 -1.0000000180025095e-35 0.92550462484359752 0.72660481929779064 -0.096307691186666475 0.60983735322952282 0.95169827342033397 -0.20105601847171781 -0.10027182474732398 -0.0081683662720024568 -0.21526787430047986 -0.85382273793220509 -0.64613756537437428 -0.098456978797912584 0.87076640129089367 0.35514059662818914 -1.0000000180025095e-35 -0.71926790475845326 -1.6651827692985532 0.82312238216400158 -0.098139856010675416 -0.073744706809520708 0.60358181595802318 -0.14812359213829038 -0.19652398675680158 1.4587085843086245 -0.10158626362681387 -0.1095711551606655
decision_type=2 2 2 2 2 2 2 2 2 2 2 2 2 2 2 2 2 2 2 2 2 2 2 2 2 2 2 2 2 2
left_child=1 2 16 5 20 10 7 21 -9 -8 19 13 15 14 -12 -13 17 18 -1 -4 -2 -7 23 24 25 26 28 -28 29 -22
right_child=4 -3 3 -5 -6 6 9 8 -10 -11 11 12 -14 -15 -16 -17 -18 -19 -20 -21 22 -23 -24 -25 -26 -27 27 -29 -30 -31
leaf_value=-0.0065393333220692771 -0.036241336010430558 -0.050391333764307156 0.054324382354007134 -0.022942481131047947 0.007891460804067104 -0.044204901437097308 0.025996260914075326 0.050111801763946001 -0.024105711027869802 0.078604218648474042 -0.027045234297039984 0.014353051196837587 -0.027698293255037768 0.087008278785113996 0.071374910553627921 0.081786718752503637 -0.051563425194640113 0.081615470572374491 -0.063492631874705593 0.092360021975883499 -0.059662098651768941 -0.061298489557942759 -0.060133737689992375 -0.059977174843837293 -0.059746360964458095 -0.059659022267279295 -0.059661909311248609 -0.059661551464015167 -0.059661949027475118 -0.059662103470621258
leaf_weight=3.4430541992187491 6.5200333744287482 4.7179734259843817 4.8951579034328461 6.0844002813100806 4.85571265220642 2.9613704085350063 8.7150301933288592 4.4088614881038648 4.7569552809000015 8.3317147940397245 4.2950742095708776 4.4369833320379248 6.4565378874540391 9.0247961133718473 5.4839996695518511 4.9149019867181769 4.0612472742795935 3.5231676250696182 3.2457202672958365 6.1787257492542249 13.029137492179876 4.1219929307699203 2.8018856346607199 2.9117746949195888 2.7300224900245658 2.713818937540057 2.714367762207984 2.9857296794652939 2.8500939905643454 2.7144038230180731
leaf_count=20 38 32 20 36 31 20 39 20 26 34 20 20 35 37 23 20 24 16 20 25 96 28 20 21 20 20 20 22 21 20
internal_value=0 0.0217213 0.0251461 0.0311341 -0.0494486 0.0352999 0.018145 -0.0170663 0.0115938 0.0517088 0.0478024 0.0389259 0.0181437 0.0563975 0.0281477 0.0497929 -0.0105415 0.00577269 -0.0341759 0.0755465 -0.0560824 -0.0541521 -0.0597314 -0.0596969 -0.0596695 -0.0596617 -0.059662 -0.0596617 -0.0596621 -0.0596621
internal_weight=0 104.058 99.3397 85.0665 46.827 78.9821 33.2959 16.2492 9.16582 17.0467 45.6862 34.6123 15.8084 18.8039 9.77907 9.35189 14.2732 10.2119 6.68877 11.0739 41.9713 7.08336 35.4512 32.6493 29.7376 27.0076 24.2937 5.7001 18.5936 15.7435
internal_count=844 515 483 403 329 367 167 94 46 73 200 155 75 80 43 40 80 56 40 45 298 48 260 240 219 199 179 42 137 116
is_linear=0
shrinkage=0.05


Tree=10
num_leaves=32
num_cat=0
split_feature=14 12 7 17 0 8 12 7 7 13 0 9 0 6 8 10 6 17 8 6 16 17 6 15 13 16 17 6 7 13 18
split_gain=60.5438 9.45692 8.9626 15.0715 9.9596 7.1016 6.95542 15.2863 8.7975 7.84938 6.54722 7.68517 5.69179 6.95255 6.43207 5.29401 2.95556 2.35759 2.30287 2.11751 0.328464 0.000731536 0.000182418 1.0675e-05 4.35868e-09 4.35129e-10 9.80265e-11 1.78915e-11 7.99361e-13 7.10543e-15 1.77636e-15
threshold=1.0000000180025095e-35 1.5824131965637209 -0.52381578087806691 2.1299035549163823 -0.22664586454629895 -1.6651827692985532 -0.91255250573158253 -0.71683105826377858 -0.77799865603446949 -0.16702236235141751 -0.42934317886829371 0.69676661491394054 -0.024548633024096485 -0.076511066406965242 -0.88329923152923573 0.91371747851371776 -0.096307691186666475 -0.51484721899032582 0.54309785366058361 -0.090422619134187684 0.86029672622680675 0.84950497746467601 -0.098139856010675416 0.028895121067762378 -0.15603497624397275 -0.061171304434537881 0.034569076262414462 -0.10158626362681387 0.13343610614538196 -0.23129272460937497 0.15129573643207553
decision_type=2 2 2 2 2 2 2 2 2 2 2 2 2 2 2 2 2 2 2 2 2 2 2 2 2 2 2 2 2 2 2
left_child=1 2 6 4 10 15 7 -1 18 16 11 -4 -6 14 -14 -2 -10 -15 -8 -3 21 22 23 24 25 26 27 28 29 30 -7
right_child=5 19 3 -5 12 20 8 -9 9 -11 -12 -13 13 17 -16 -17 -18 -19 -20 -21 -22 -23 -24 -25 -26 -27 -28 -29 -30 -31 -32
leaf_value=-0.037593713388949193 0.022858823603175947 -0.061486044168604183 -0.041426475101881514 0.081554010636211816 -0.065936801650985338 -0.059102497007438505 0.067145365706385032 0.076586012878978815 0.032472028144402885 -0.012610298155693249 0.064917539040662497 0.051230109467832047 -0.03255675734890702 -0.010274494429622319 0.040503650181666254 -0.061497147988480952 0.07597107005453875 -0.063894863409088551 0.11089760866683812 -0.0062840971954318528 -0.041112031628541879 -0.059995176323311188 -0.059542365557806988 -0.059205571135675254 -0.059100195792455602 -0.05910174150266978 -0.059102168338460249 -0.059102350739517466 -0.059102467319161169 -0.059102499704346716 -0.059102497729312281
leaf_weight=7.3370518833398819 5.3473450243473035 3.696936696767807 4.8314400315284747 6.4134323745965949 5.2484538704156902 7.426663503050813 7.0180532187223381 4.8816904574632627 8.5261377096176112 6.5890257209539476 7.4256848394870749 4.1689284443855286 4.6446852087974557 3.3675451129674911 8.5725930780172348 2.8518471121788025 7.2048027962446222 5.2394708842039091 5.2628933936357498 3.2772167772054663 2.7018713802099219 2.7756508588790885 2.6910344362258938 2.7570815235376349 2.6053911000490215 2.6056969910860053 3.1269384026527396 2.6058179140090951 2.6058409363031396 2.6058471351861945 2.6058470457792282
leaf_count=38 27 25 25 28 30 57 29 23 39 35 35 20 28 18 38 20 31 32 22 19 20 20 20 21 20 20 24 20 20 20 20
internal_value=0 0.0206856 0.0247398 0.0099993 -0.000550673 -0.0485952 0.040454 0.00802392 0.0519061 0.0332047 0.0301644 0.00149162 -0.0191867 -0.00794388 0.0148295 -0.00648191 0.0523947 -0.0429156 0.085895 -0.0355462 -0.0578989 -0.0592169 -0.0591486 -0.059112 -0.0591021 -0.0591024 -0.0591024 -0.0591025 -0.0591025 -0.0591025 -0.0591025
internal_weight=0 103.706 96.7319 49.9122 43.4988 45.3129 46.8197 12.2187 34.6009 22.32 16.4261 9.00037 27.0727 21.8243 13.2173 8.19919 15.7309 8.60702 12.2809 6.97415 37.1137 34.4118 31.6362 28.9451 26.188 23.5827 20.977 17.85 15.2442 12.6384 10.0325
internal_count=844 515 471 254 226 329 217 61 156 105 80 45 146 116 66 47 70 50 51 44 282 262 242 222 201 181 161 137 117 97 77
is_linear=0
shrinkage=0.05


Tree=11
num_leaves=30
num_cat=0
split_feature=14 12 11 17 6 12 6 10 9 15 2 2 13 2 7 8 2 3 8 7 13 6 18 15 13 7 3 6 13
split_gain=56.0579 8.70904 7.21973 6.96745 6.1145 5.6823 12.988 5.04378 5.33994 4.65903 4.09886 6.33908 8.0286 5.05312 4.66972 3.49657 7.49858 2.72861 1.19848 0.534558 0.000169304 6.54927e-05 2.51751e-05 1.20367e-08 3.27837e-10 1.43139e-11 2.91678e-12 1.52767e-13 7.10543e-15
threshold=1.0000000180025095e-35 1.6382975578308108 -1.0349113941192625 0.92550462484359752 -1.0000000180025095e-35 0.72660481929779064 -0.098208814859390245 0.9778161644935609 0.84691387414932262 -0.20105601847171781 -0.38637383282184595 -0.42997644841670984 0.043213138356804855 -0.64613756537437428 0.5644022822380067 -0.28214135766029352 0.46684752404689794 0.72203451395034801 -1.6651827692985532 -0.72701892256736744 -0.056680466979742043 -0.098456978797912584 0.65117353200912487 -0.0035106347640976305 -0.17132381349802014 -0.72892841696739186 0.63406875729560863 -0.10158626362681387 -0.22265595942735669
decision_type=2 2 2 2 2 2 2 2 2 2 2 2 2 2 2 2 2 2 2 2 2 2 2 2 2 2 2 2 2
left_child=1 2 15 18 5 10 7 8 -7 17 11 12 13 -4 -12 -1 -17 -8 -2 -15 21 22 23 24 25 -20 27 28 -27
right_child=3 -3 4 -5 -6 6 9 -9 -10 -11 14 -13 -14 19 -16 16 -18 -19 20 -21 -22 -23 -24 -25 -26 26 -28 -29 -30
leaf_value=-0.044847346678271019 -0.034896617428941429 -0.048806568212542728 0.026292598353551973 0.0092681178689108228 -0.020954413476552622 -0.034561015188860934 -0.0086096138501313806 -0.065204614169680639 0.038820511836905248 0.069723946376209073 0.087576375213187924 -0.01350545596983021 -0.015693015467235706 0.067897989965850711 0.035485311588870028 -0.033272621259292416 0.057168817582427756 0.043564849938849869 -0.058579975349267337 0.090223944888346216 -0.059029495185101491 -0.058859546499091711 -0.058745108405614754 -0.058576360976032305 -0.058579479732246267 -0.05858010891397282 -0.05858005334937736 -0.058580122960959984 -0.058580111337767964
leaf_weight=4.8413199931383124 6.3391895294189444 4.4459116011857978 7.1804125308990505 4.762425795197486 5.8841020911931983 5.3249913156032544 4.5604445338249224 4.2969351112842551 4.6388540863990784 8.8513020277023298 8.9533364921808296 6.10581050813198 4.5172682255506507 4.8089403957128551 8.2821608483791334 5.0718095749616605 4.1812580078840256 5.5623495280742645 2.500274062156687 6.0593749582767478 2.7201630026102093 2.5566365569829932 2.5331218689680091 2.4995290488004676 2.5001719966530827 9.6261601895094007 2.500290408730506 2.5003046840429208 2.7503325045108804
leaf_count=28 38 32 32 31 36 34 21 27 25 36 36 29 20 20 38 32 20 24 20 25 21 20 20 20 20 77 20 20 22
internal_value=0 0.019655 0.0227258 -0.0478259 0.0282199 0.0318759 0.0161298 -0.0199242 -0.000396876 0.0432277 0.0432753 0.0316917 0.043921 0.0588413 0.0625451 -0.010418 0.00759588 0.0200596 -0.0547931 0.0803453 -0.0586518 -0.0586175 -0.0585949 -0.0585797 -0.05858 -0.0585801 -0.0585801 -0.0585801 -0.0585801
internal_weight=0 103.567 99.1207 43.7886 85.0263 79.1422 33.2349 14.2608 9.96385 18.9741 45.9073 28.6718 22.566 18.0487 17.2355 14.0944 9.25307 10.1228 39.0262 10.8683 32.687 29.9668 27.4102 24.8771 22.3775 19.8774 17.3771 14.8768 12.3765
internal_count=844 515 483 329 403 367 167 86 59 81 200 126 97 77 74 80 52 45 298 45 260 239 219 199 179 159 139 119 99
is_linear=0
shrinkage=0.05


Tree=12
num_leaves=34
num_cat=0
split_feature=14 12 7 17 0 8 12 7 7 6 0 16 0 9 0 6 8 8 0 6 17 6 17 16 15 13 6 18 17 17 16 7 6
split_gain=51.9124 8.01395 7.53245 13.0837 8.77883 6.98061 6.05016 13.2207 7.37365 6.78702 7.31696 5.7996 5.44888 6.82922 5.2866 6.1589 5.35029 5.05546 2.46181 2.39127 2.22938 0.356533 0.0021883 0.000122634 7.87075e-06 3.781e-09 2.27199e-09 7.67393e-10 2.38103e-11 4.76064e-13 3.37508e-14 1.42109e-14 5.32907e-15
threshold=1.0000000180025095e-35 1.5824131965637209 -0.52381578087806691 2.1299035549163823 -0.22664586454629895 -1.6651827692985532 -0.91255250573158253 -0.71683105826377858 -0.77220499515533436 -0.096072927117347703 -0.031912794336676591 -0.56773748993873585 -0.42934317886829371 0.69676661491394054 -0.024548633024096485 -0.076511066406965242 -0.88329923152923573 -2.0892581939697261 0.32029417157173162 -0.088887471705675111 -0.51484721899032582 -0.097793694585561738 1.0021950006484988 0.78391954302787792 0.028895121067762378 -0.15749685466289517 -0.10083080083131789 0.42030845582485205 0.034569076262414462 -0.33169312775135035 -0.3105293065309524 0.029673368670046333 -0.11086603999137877
decision_type=2 2 2 2 2 2 2 2 2 2 2 2 2 2 2 2 2 2 2 2 2 2 2 2 2 2 2 2 2 2 2 2 2
left_child=1 2 6 4 12 17 7 -1 18 10 -10 -12 13 -4 -6 16 -16 -2 -8 -3 -17 22 23 24 25 26 27 28 29 30 31 32 -7
right_child=5 19 3 -5 14 21 8 -9 9 -11 11 -13 -14 -15 15 20 -18 -19 -20 -21 -22 -23 -24 -25 -26 -27 -28 -29 -30 -31 -32 -33 -34
leaf_value=-0.036914627140388179 -0.047596410239187717 -0.061256539512131794 -0.04006064347350357 0.075102900911935611 -0.064989000524222199 -0.058091917785075012 0.092883105689449172 0.068841364204211011 -0.04062361671039131 0.068629681059256917 0.071537040542196284 -0.0066077202830693745 0.058734740304443638 0.0474324285624039 -0.030958686936012159 -0.010178275325156375 0.036305431467423543 0.031936719973315444 0.047698266033715422 -0.0012197655620243386 -0.062887012790607655 -0.038668517967939249 -0.059587072854751878 -0.058467947363215915 -0.058186021178832183 -0.058089501390421884 -0.058090142194161913 -0.058090937079398011 -0.058091746959375745 -0.058091898356483207 -0.05809192676881067 -0.058091923480021936 -0.058091920369744449
leaf_weight=7.2100020498037338 3.7350592911243439 3.6761132925748825 4.7456546276807803 6.4623366743326178 5.0597983375191715 3.9564358219504481 8.4903411418199486 5.0077232569456083 4.8389684259891483 7.3087591230869355 5.0598823428153956 4.4734471440315282 7.5463387966155997 4.2078637629747391 4.502896487712861 3.3505748361349106 8.607351079583168 4.2963401675224286 4.6739071160554877 3.0220342129468909 4.9995983690023404 2.5047209113836315 2.8343573659658423 2.4762254878878585 2.4175139218568793 2.3973220065236118 2.3974589630961409 2.3976294323801985 2.3978023305535308 2.7575104907155064 2.397840939462184 2.3978401646018028 2.9973001033067703
leaf_count=38 27 26 25 28 30 33 35 23 26 31 22 22 35 20 28 18 38 20 20 18 32 20 21 20 20 20 20 20 20 23 20 20 25
internal_value=0 0.0187177 0.0223869 0.00876662 -0.0011982 -0.0470143 0.0367074 0.00643196 0.0473228 0.0294004 0.00945105 0.0348682 0.0274371 0.00105827 -0.019014 -0.00817426 0.0132026 -0.00505073 0.0768404 -0.0341695 -0.0417372 -0.0568316 -0.0582611 -0.0581314 -0.0581 -0.0580914 -0.0580916 -0.0580918 -0.0580919 -0.0580919 -0.0580919 -0.0580919 -0.0580919
internal_weight=0 103.244 96.5454 49.4824 43.0201 42.3614 47.063 12.2177 34.8453 21.6811 14.3723 9.53333 16.4999 8.95352 26.5202 21.4604 13.1102 8.0314 13.1642 6.69815 8.35017 34.33 31.8252 28.9909 26.5147 24.0971 21.6998 19.3024 16.9047 14.5069 11.7494 9.35158 6.95374
internal_count=844 515 471 254 226 329 217 61 156 101 70 44 80 45 146 116 66 47 55 44 50 282 262 241 221 201 181 161 141 121 98 78 58
is_linear=0
shrinkage=0.05


Tree=13
num_leaves=36
num_cat=0
split_feature=14 12 7 11 16 16 7 2 13 4 12 12 11 7 8 2 2 2 2 7 18 8 4 0 7 17 15 6 3 16 13 6 17 16 0
split_gain=48.1479 7.41998 6.86866 6.17362 5.54556 9.65696 6.97198 6.17132 8.03023 5.16453 4.78794 4.74403 4.64274 6.78067 4.42208 3.1499 9.11378 3.1061 2.98791 2.78494 2.02514 1.96875 0.815847 0.308019 0.00222259 0.000569507 9.06229e-05 4.50407e-05 4.38134e-06 1.06078e-09 2.63434e-11 1.35003e-13 1.06581e-14 7.10543e-15 1.77636e-15
threshold=1.0000000180025095e-35 1.6382975578308108 1.2512440085411074 -1.0349113941192625 0.039669692516326911 -0.01192172337323427 0.09872643277049066 -0.36548846960067743 0.26094709336757665 -1.0978114604949949 1.1198412775993349 0.69480431079864513 0.89465180039405834 -0.70956420898437489 -2.0892581939697261 0.87076640129089367 0.35514059662818914 -0.20347538590431211 -0.62940502166748036 0.88502249121665966 0.19674896448850634 -1.0000000180025095e-35 1.1067935824394228 -0.058622896671295159 0.84598541259765636 0.54726073145866405 0.096119210124015822 -0.098931420594453798 0.9999118745326997 -0.066262848675250993 -0.19470269978046414 -0.10224479436874388 -0.32314693927764887 -0.33361670374870295 -0.070923391729593263
decision_type=2 2 2 2 2 2 2 2 2 2 2 2 2 2 2 2 2 2 2 2 2 2 2 2 2 2 2 2 2 2 2 2 2 2 2
left_child=1 3 23 15 5 6 11 8 9 -6 19 18 -13 -14 -4 16 21 -8 -5 -9 22 -1 -20 24 25 26 27 28 29 30 31 32 33 34 -2
right_child=2 -3 14 4 7 -7 17 10 -10 -11 -12 12 13 -15 -16 -17 -18 -19 20 -21 -22 -23 -24 -25 -26 -27 -28 -29 -30 -31 -32 -33 -34 -35 -36
leaf_value=-0.0060783465536848515 -0.057635237694423351 -0.0473215149245928 -0.046681690342863236 0.018584750737040492 0.0044534476212877904 -0.048419631887633804 -0.037953189692313337 0.10237899633608812 -0.044663626238951086 0.068550790141570769 0.025221819427300687 -0.034521605357019307 -0.022647637318046379 0.062115848808720613 0.027250353206674533 -0.049195797483542372 0.066239104396711143 0.015383027270681505 0.084546319379421975 0.050897682179474338 0.032837178085911904 -0.061696589775760084 0.056828510293330553 -0.038986569554925986 -0.059358824306782257 -0.058492375281999499 -0.057991572068309322 -0.057869304497932164 -0.057708073109863138 -0.057634066623379138 -0.05763506268238662 -0.057635252880288951 -0.057635242512072152 -0.05763524101748338 -0.057635238706440522
leaf_weight=3.4136765897274008 3.5626909062266474 4.1914528235793105 3.620754063129425 6.1181070506572679 5.8414118885993966 5.3074784874916068 5.6436018273234367 6.7229808419942874 3.7168364077806464 6.8020198419690141 5.5187441408634177 4.0252850949764243 3.8617055937647811 6.064650520682334 4.5821628645062429 3.7824455946683875 3.7426974028348923 5.2867394909262639 5.8382413834333473 4.3117881268262863 4.7927291840314856 2.9800943881273261 4.8687253147363663 2.3188006952405003 2.3809184059500685 2.4710937887430182 2.3753364831209174 2.4655591547489193 2.3139775469899169 2.2982506528496733 2.4133946001529702 2.2985134199261674 2.2985105887055388 2.2985106483101845 3.2179144471883774
leaf_count=20 31 32 27 27 27 32 31 28 20 31 24 21 21 28 24 24 16 29 24 20 20 20 20 18 19 20 20 21 20 20 21 20 20 20 28
internal_value=0 0.0178342 -0.0462938 0.0206029 0.025673 0.0154767 0.0227699 0.0417222 0.0199441 0.0389371 0.0632461 0.0335024 0.0107724 0.0291398 -0.00538313 -0.0102579 0.00427188 -0.0121558 0.0481718 0.0822629 0.0598505 -0.0320016 0.0719423 -0.0565521 -0.0578922 -0.0577676 -0.0576974 -0.0576673 -0.0576432 -0.0576351 -0.0576352 -0.0576352 -0.0576352 -0.0576352 -0.0576352
internal_weight=0 102.831 40.9164 98.64 84.721 51.8073 46.4998 32.9138 16.3603 12.6434 16.5535 35.5694 13.9516 9.92636 8.20292 13.9189 10.1365 10.9303 21.6178 11.0348 15.4997 6.39377 10.707 32.7135 30.3947 28.0138 25.5427 23.1673 20.7018 18.3878 16.0895 13.6761 11.3776 9.07912 6.78061
internal_count=844 515 329 483 403 253 221 150 78 58 72 161 70 49 51 80 56 60 91 48 64 40 44 278 260 241 221 201 180 160 140 119 99 79 59
is_linear=0
shrinkage=0.05


Tree=14
num_leaves=33
num_cat=0
split_feature=14 17 12 7 17 0 0 9 18 4 12 7 7 6 0 16 3 6 8 0 8 6 6 13 16 1 7 17 18 6 16 13
split_gain=44.665 6.82282 6.81132 6.34963 11.174 7.99553 9.12856 6.09875 5.92013 5.80781 5.25966 11.4116 6.52132 5.87594 6.47556 4.99777 3.60466 2.49687 2.31995 2.16801 1.17697 0.146651 0.000256737 0.000103949 1.2196e-05 3.45718e-06 2.73013e-08 5.87793e-09 3.91893e-10 3.52184e-10 9.05942e-12 1.24345e-14
threshold=1.0000000180025095e-35 0.92550462484359752 1.5824131965637209 -0.52381578087806691 2.1299035549163823 -0.32384987175464625 -0.42934317886829371 0.69676661491394054 0.072496324777603163 -0.54000833630561818 -0.91255250573158253 -0.71683105826377858 -0.77220499515533436 -0.096072927117347703 -0.031912794336676591 -0.56773748993873585 1.1720011234283449 -0.087552793323993669 1.1815518736839297 0.32029417157173162 -1.6651827692985532 -0.09885030239820479 -0.098139856010675416 -0.073744706809520708 0.26638156175613409 -0.060581183061003678 0.4982402920722962 0.17498805373907092 0.28494569659233099 -0.10180917009711264 -0.33361670374870295 -0.24018009752035138
decision_type=2 2 2 2 2 2 2 2 2 2 2 2 2 2 2 2 2 2 2 2 2 2 2 2 2 2 2 2 2 2 2 2
left_child=2 20 3 10 5 6 7 -5 18 16 11 -1 19 14 -14 -16 -10 -4 21 -12 -2 -7 23 24 25 26 27 28 29 30 31 -22
right_child=1 -3 17 4 -6 8 -8 -9 9 -11 12 -13 13 -15 15 -17 -18 -19 -20 -21 22 -23 -24 -25 -26 -27 -28 -29 -30 -31 -32 -33
leaf_value=-0.036004392213285316 -0.033062654105770077 0.011754928688472195 -0.060423418363024485 -0.039109609675474395 0.068786772015915154 -0.048350305979345004 0.087072898483330316 0.043690263109666533 -0.046187064747737837 0.040581260671168184 0.086126984521992217 0.062067970901069386 -0.039735544635759915 0.062793780288316225 0.06522201378116381 -0.0070707043798268719 0.014869849606927494 0.0022786760446285234 -0.012452186596994161 0.04375467304797663 -0.057207621013269871 -0.062499234666218199 -0.057802798864831556 -0.057569776385108365 -0.057335916672611988 -0.057270821170653352 -0.057201112495906176 -0.057204608619204692 -0.057206756156864075 -0.057206918003035657 -0.057207508247139105 -0.057207625041779564
leaf_weight=7.0689955800771713 6.0596521869301787 4.5881198942661277 3.6009494513273239 4.6504621207714063 6.4942727088928214 2.7387845516204825 4.622901812195777 4.2621871829032898 5.7618686407804471 6.3768277466297176 8.4920219033956474 5.1105057001113874 4.7707760855555508 7.3683026283979478 5.1293791383504832 4.4776680320501363 4.1644778549671173 2.8398379236459723 4.2776978164911261 4.6838886290788642 6.2766667082905867 5.5275747179985073 2.3326900601387051 2.3965642154216757 2.2306698560714713 2.3269256055355099 2.2008500024676314 2.2016495168209067 2.2021411061286917 2.3122874274849901 2.2023131772875795 2.2023400813341132
leaf_count=38 38 31 27 25 28 18 20 20 33 32 35 23 26 31 22 22 21 17 21 20 57 36 20 21 20 21 20 20 20 21 20 20
internal_value=0 -0.0455704 0.016998 0.0203382 0.00771348 -0.00164473 0.0300592 0.00048676 -0.0165207 0.00334788 0.0334388 0.00514667 0.0433061 0.0264876 0.0078815 0.0315277 -0.0205714 -0.0327771 -0.0423433 0.0710641 -0.053097 -0.0578115 -0.0572999 -0.0572557 -0.0572245 -0.0572132 -0.0572064 -0.057207 -0.0572074 -0.0572075 -0.0572076 -0.0572076
internal_weight=0 39.5329 102.419 95.9786 48.8771 42.3828 13.5356 8.91265 28.8472 16.3032 47.1015 12.1795 34.922 21.7461 14.3778 9.60705 9.92635 6.44079 12.5441 13.1759 34.9447 8.26636 28.8851 26.5524 24.1558 21.9252 19.5982 17.3974 15.1957 12.9936 10.6813 8.47901
internal_count=844 329 515 471 254 226 65 45 161 86 217 61 156 101 70 44 54 44 75 55 298 54 260 240 219 199 178 158 138 118 97 77
is_linear=0
shrinkage=0.05


Tree=15
num_leaves=35
num_cat=0
split_feature=14 8 12 9 8 2 8 17 7 5 13 8 16 12 2 18 11 2 2 7 7 13 13 17 6 16 1 7 17 18 6 16 9 15
split_gain=41.4144 6.75292 6.33603 5.25011 6.45677 5.51486 4.34442 4.20048 9.25832 5.62593 6.12175 5.12766 5.38509 7.24029 3.35724 3.43741 3.79171 3.5113 3.27668 3.0521 2.34352 1.15051 0.396667 0.00268158 9.45663e-05 3.74102e-05 1.51548e-06 2.9455e-08 3.59888e-09 8.79286e-10 6.85318e-11 7.72005e-12 3.32179e-13 1.5099e-14
threshold=1.0000000180025095e-35 -1.6651827692985532 1.6382975578308108 -1.1508190631866453 -0.28214135766029352 0.33662144839763647 -2.0892581939697261 0.59914991259574901 -0.14163292199373242 -1.1592116355895994 0.14209768921136859 1.4617267251014712 -0.75975093245506276 -0.96813485026359547 -0.40900816023349756 0.21742419153451922 0.79271116852760326 -0.61785486340522755 -0.42442406713962549 1.0000000180025095e-35 -0.6453377604484557 -0.26751439273357386 0.069781426340341582 0.84950497746467601 -0.098795291036367403 0.50844413042068493 -0.059845119714736932 0.4982402920722962 0.17498805373907092 0.34756813943386083 -0.10180917009711264 -0.34890073537826533 2.5864487886428837 -0.21040222048759458
decision_type=2 2 2 2 2 2 2 2 2 2 2 2 2 2 2 2 2 2 2 2 2 2 2 2 2 2 2 2 2 2 2 2 2 2
left_child=2 6 3 4 -1 7 -2 8 11 10 -9 12 -5 -14 15 16 -15 -17 -11 -10 -6 -21 23 24 25 26 27 28 29 30 31 32 33 -3
right_child=1 22 -4 5 20 -7 -8 9 19 18 -12 -13 13 14 -16 17 -18 -19 -20 21 -22 -23 -24 -25 -26 -27 -28 -29 -30 -31 -32 -33 -34 -35
leaf_value=-0.063274062804081696 -0.045205411965521608 -0.056806861939851599 -0.045877837231499116 0.066070046642030936 -0.017728188020556847 0.066469245286357392 0.030017429378297725 -0.018671150601438057 -0.055711729802083582 0.028759770867562529 0.055897039037104412 0.074891716309715334 -0.047854493761135868 0.036695102412836869 -0.011516113960826494 0.016966172734023802 -0.027120525570399973 0.07155994927840513 0.083546818879767726 -0.028758560209934288 0.038826855515653819 0.0057149590658817561 -0.034916563645465797 -0.058578021138096931 -0.057159355833785043 -0.057028525392366136 -0.05685022527293674 -0.056800084460900284 -0.056804418276093463 -0.056805679701655357 -0.056806521372996632 -0.056806759118009011 -0.056806840674770834 -0.056806867197951243
leaf_weight=4.1042984277009964 3.4402765706181526 3.7968018129468097 3.9487471356987944 5.0564907938241879 3.1898617297410965 6.7178328186273566 4.3418984264135352 6.5984701812267321 4.5668230950832358 4.4809232875704765 4.7220657989382744 4.446633353829383 4.5537276193499485 5.0072596669197029 6.4221964627504589 5.2664968669414467 4.3496387526392937 6.6822203248739278 6.9805964082479459 3.789180099964141 4.3023011684417707 6.6992391571402541 2.1883746162056914 2.4941396787762633 2.4085638523101833 2.1602638438343993 2.1194007694721213 2.107734963297843 2.1087575852870932 2.1090553328394881 2.1092540025711104 2.6366371661424646 2.1093292608857155 2.1093351617455474
leaf_count=26 27 36 32 22 20 29 20 33 30 23 21 20 25 21 28 25 23 28 31 24 21 33 19 20 22 20 20 20 20 20 20 25 20 20
internal_value=0 -0.0448041 0.0162184 0.0187221 -0.0128661 0.0229648 -0.00323643 0.0192943 0.0120236 0.0374341 0.012433 0.0241364 0.0180919 0.0105768 0.0201729 0.029725 0.00702983 0.0474973 0.0621276 -0.0215945 0.014748 -0.00673938 -0.0554249 -0.0570125 -0.0568611 -0.0568303 -0.0568101 -0.0568057 -0.0568064 -0.0568066 -0.0568068 -0.0568068 -0.0568069 -0.0568069
internal_weight=0 38.2398 101.885 97.9363 11.5965 86.3398 7.78217 79.622 56.8399 22.7821 11.3205 41.7847 37.338 32.2815 27.7278 21.3056 9.3569 11.9487 11.4615 15.0552 7.49216 10.4884 30.4576 28.2693 25.7751 23.3666 21.2063 19.0869 16.9792 14.8704 12.7614 10.6521 8.01547 5.90614
internal_count=844 329 515 483 67 416 47 387 279 108 54 192 172 150 125 97 44 53 54 87 41 57 282 263 243 221 201 181 161 141 121 101 76 56
is_linear=0
shrinkage=0.05


Tree=16
num_leaves=35
num_cat=0
split_feature=14 7 12 9 8 2 8 17 7 5 13 8 16 11 2 2 7 11 11 7 8 2 0 7 17 15 6 3 16 0 15 7 6 13
split_gain=38.4551 6.63159 5.82087 4.74575 6.05421 4.98067 3.80841 3.77279 8.37932 5.0171 5.52369 4.56859 4.87142 6.68581 3.19389 2.97922 2.88927 2.80166 4.50054 2.09126 1.34246 1.10045 0.333349 0.00248923 0.000860293 9.1027e-05 2.65605e-05 2.62604e-06 1.3272e-09 3.32747e-11 9.25304e-12 6.27054e-13 1.61648e-13 6.21725e-15
threshold=1.0000000180025095e-35 1.2512440085411074 1.6382975578308108 -1.1508190631866453 -0.28214135766029352 0.33662144839763647 -2.0892581939697261 0.59914991259574901 -0.14163292199373242 -1.1592116355895994 0.14209768921136859 1.4578723907470705 -0.75975093245506276 -0.87139907479286183 -0.40900816023349756 -0.42442406713962549 1.0000000180025095e-35 0.80076652765274059 0.94706466794013988 -0.6453377604484557 0.23890404403209689 -0.33798389136791224 -0.058622896671295159 0.84598541259765636 0.54726073145866405 0.096119210124015822 -0.098931420594453798 0.9999118745326997 -0.066262848675250993 -0.067648362368345247 -0.11846088990569113 0.065939445048570647 -0.10296146199107169 -0.24085498601198194
decision_type=2 2 2 2 2 2 2 2 2 2 2 2 2 2 2 2 2 2 2 2 2 2 2 2 2 2 2 2 2 2 2 2 2 2
left_child=2 22 3 4 -1 7 -3 8 11 10 -9 12 -5 -14 17 -11 -10 20 -19 -6 -15 -18 23 24 25 26 27 28 29 30 31 32 33 -2
right_child=1 6 -4 5 19 -7 -8 9 16 15 -12 -13 13 14 -16 -17 21 18 -20 -21 -22 -23 -24 -25 -26 -27 -28 -29 -30 -31 -32 -33 -34 -35
leaf_value=-0.062484544141444887 -0.056430965093356149 -0.044332063118161832 -0.045074281601794462 0.062298328638460271 -0.017015626797340588 0.063217608060793601 0.025826680449589558 -0.017845173800626304 -0.054633732976568219 0.027103082197327311 0.053057432650138028 0.06833871799649624 -0.042121603361225612 0.028342531447363397 -0.01096103042532132 0.079198648394768936 -0.029537568538902898 -0.027473923337784409 0.041526103462403985 0.036424872788969311 0.063884684257748778 0.0049692586602857244 -0.036127808679443971 -0.05835554445797117 -0.057514871344785591 -0.056802443717814448 -0.056622663633445119 -0.05649104241803117 -0.056429553257846113 -0.056430735751167027 -0.056430869805241625 -0.056431002159115 -0.056430982817127467 -0.056430968685721172
leaf_weight=3.952203780412674 3.5341032072901868 3.3353297039866447 3.8214345276355735 5.0934730023145596 3.1580982953310013 6.7103430926799765 4.6047653034329405 6.5597022250294703 4.4276369214057913 4.5161423310637474 4.7259220853447914 4.8885415494441977 5.2171293869614557 5.0204124301672 6.4103648215532472 6.9951883256435377 3.450981765985488 4.3712305724620801 5.1445224955677986 4.3552891314029676 5.6430227607488632 6.9910339042544356 2.119314685463908 2.1531568467617026 2.2509941160678855 2.1069345623254767 2.1673080250620833 2.0334712862968436 2.0191451385617283 2.0194319337606421 2.5243307501077661 2.0194966867566109 2.0194917544722557 2.0194883719086647
leaf_count=26 35 27 32 22 20 29 24 33 30 23 21 22 28 21 28 31 20 22 25 21 24 37 18 19 20 20 21 20 20 20 25 20 20 20
internal_value=0 -0.0441293 0.0154616 0.0178311 -0.0123891 0.0218523 -0.00364432 0.0183589 0.0114478 0.0355353 0.0118457 0.0229178 0.0169004 0.00963046 0.0197847 0.0587604 -0.0207867 0.0295518 0.00982971 0.0139623 0.0471512 -0.0064349 -0.0552191 -0.056725 -0.056583 -0.0564896 -0.0564572 -0.0564375 -0.0564308 -0.0564309 -0.056431 -0.056431 -0.056431 -0.056431
internal_weight=0 36.9268 101.453 97.6312 11.4656 86.1656 7.9401 79.4553 56.6583 22.797 11.2856 41.7887 36.9002 31.8067 26.5896 11.5113 14.8697 20.1792 9.51575 7.51339 10.6634 10.442 28.9867 26.8674 24.7142 22.4632 20.3563 18.189 16.1555 14.1363 12.1169 9.59258 7.57308 5.55359
internal_count=844 329 515 483 67 416 51 387 279 108 54 192 170 148 120 54 87 92 47 41 45 57 278 260 241 221 201 180 160 140 120 95 75 55
is_linear=0
shrinkage=0.05


Tree=17
num_leaves=35
num_cat=0
split_feature=14 17 12 7 17 0 0 18 9 4 13 12 7 12 7 8 8 3 6 0 0 8 10 13 6 16 0 7 17 18 6 16 13 0
split_gain=35.7073 6.65966 5.40464 5.02857 8.69443 6.89379 7.45482 5.23498 5.09634 4.87928 3.97603 3.48026 8.73929 5.1593 4.16653 3.99712 3.37764 3.18892 3.0005 1.58029 1.57331 1.16057 0.150832 0.00034075 0.000100187 1.62312e-05 2.62789e-06 5.84713e-08 1.63205e-08 3.93037e-10 1.59018e-10 1.62714e-12 7.10543e-15 8.88178e-16
threshold=1.0000000180025095e-35 0.92550462484359752 1.5824131965637209 -0.52381578087806691 2.1299035549163823 -0.32384987175464625 -0.42934317886829371 0.072496324777603163 0.69676661491394054 -0.54000833630561818 0.26094709336757665 -0.91255250573158253 -0.71683105826377858 0.34777253866195684 -0.77220499515533436 0.60983735322952282 1.1865254640579226 1.1720011234283449 -0.084635369479656206 -0.02597404737025499 -0.030297059565782544 -1.6651827692985532 0.14892037957906726 -0.050729461014270776 -0.098795291036367403 0.26638156175613409 -0.064601752907037721 0.41836810111999517 0.17498805373907092 0.28494569659233099 -0.10266741737723349 -0.34147715568542475 -0.24134186655282971 -0.071166288107633577
decision_type=2 2 2 2 2 2 2 2 2 2 2 2 2 2 2 2 2 2 2 2 2 2 2 2 2 2 2 2 2 2 2 2 2 2
left_child=2 21 3 10 5 6 8 16 -5 17 11 12 -1 -13 -15 19 22 -9 -4 -16 -17 -2 -7 24 25 26 27 28 29 30 31 32 33 -23
right_child=1 -3 18 4 -6 7 -8 9 -10 -11 -12 13 -14 14 15 20 -18 -19 -20 -21 -22 23 -24 -25 -26 -27 -28 -29 -30 -31 -32 -33 -34 -35
leaf_value=-0.029225584541210672 -0.031405984005589409 0.013907707317955785 -0.060637180977423683 -0.036856072378266429 0.060292765097603673 -0.051032145325609568 0.078753415032810595 -0.044859706015677542 0.039092454580961424 0.036076191780678515 -0.013276782030607739 0.081997536721628128 0.06226137443781702 0.06425581677343567 -0.030226788923251549 0.020645281903597872 0.0012252445015991575 0.013131797115179309 0.01055068062731411 0.013540843489427815 0.061971203075764592 -0.056078108802535553 -0.064307839850914691 -0.056797133391339155 -0.056450929728562464 -0.05622162920592029 -0.056137508765872493 -0.05606818554765558 -0.056072956090206509 -0.05607722821347122 -0.056077624348961713 -0.056078057787525309 -0.056078112276625562 -0.056078108822103123
leaf_weight=6.1454980596899986 5.8026160672307041 4.4324086382985106 3.5467143729329109 4.5028624236583692 6.4507177323102942 4.0963006988167781 4.6237608045339575 5.5458307862281782 4.3355685472488403 6.4432222098112133 4.9082187563180915 6.5895251929760006 4.537815183401106 7.1972011178731945 3.7226308360695866 4.5024164021015167 3.3522776812314978 4.1404068097472191 2.5404518842697135 4.6243654340505591 4.7147859632968885 2.8025267273187731 4.4789052382111549 2.0964944139122954 2.2233978733420363 2.3607709929347029 1.9470832124352444 2.0268148183822623 1.9314900636672963 1.9325576424598683 2.2225549072027269 1.9327644035220135 1.9327778443694112 2.0294159501791005
leaf_count=34 38 31 28 25 28 31 20 33 20 32 26 27 20 30 19 20 16 21 16 21 20 29 28 20 22 24 20 21 20 20 23 20 20 21
internal_value=0 -0.0434466 0.0147445 0.0176736 0.0062887 -0.00210177 0.0273111 -0.0162146 0.000399414 0.00235802 0.0293077 0.0342802 0.00963417 0.0426787 0.0322151 0.0190859 -0.0413301 -0.0200711 -0.0309272 -0.00597884 0.0417843 -0.0515839 -0.0579662 -0.0561865 -0.0561317 -0.0560981 -0.0560825 -0.0560761 -0.0560772 -0.0560779 -0.056078 -0.0560781 -0.0560781 -0.0560781
internal_weight=0 35.6737 100.999 94.9123 47.9699 41.5191 13.4622 28.0569 8.83843 16.1295 46.9425 42.0342 10.6833 31.3509 24.7614 17.5642 11.9275 9.68624 6.08717 8.347 9.2172 31.2413 8.57521 25.4386 23.3422 21.1188 18.758 16.8109 14.7841 12.8526 10.92 8.69748 6.76472 4.83194
internal_count=844 329 515 471 254 226 65 161 45 86 217 191 54 137 110 80 75 54 44 40 40 298 59 260 240 218 194 174 153 133 113 90 70 50
is_linear=0
shrinkage=0.05


Tree=18
num_leaves=35
num_cat=0
split_feature=14 8 10 7 17 0 0 13 8 6 0 6 12 7 12 6 0 9 8 7 0 17 6 17 13 0 4 7 13 6 13 0 7 15
split_gain=33.1365 6.51532 5.05033 5.40969 8.19152 6.23647 4.44388 4.3218 3.7199 3.69957 3.73162 3.74732 3.5771 7.86355 4.20076 3.80096 3.21845 3.76728 2.5801 5.09069 2.13545 1.85784 0.449625 0.0039331 0.000119215 1.92252e-05 4.18683e-06 6.68469e-08 1.40302e-08 2.58925e-09 4.34159e-10 5.80869e-12 2.4869e-14 4.44089e-15
threshold=1.0000000180025095e-35 -1.6651827692985532 1.5378082394599917 -0.52381578087806691 2.1299035549163823 -0.22664586454629895 -0.024548633024096485 0.26094709336757665 -2.0892581939697261 -0.078720197081565843 0.19885785132646563 -0.098817534744739519 -0.91255250573158253 -0.71683105826377858 0.34777253866195684 -0.085893232375383363 -0.42934317886829371 0.67710986733436596 0.60983735322952282 -0.74689713120460499 0.047851881012320525 -0.31131264567375178 -0.097424969077110277 1.0021950006484988 -0.073744706809520708 -0.062051486223936074 -0.93237879872322071 0.45204384624958044 -0.16644181311130521 -0.10158626362681387 -0.20025775581598279 -0.068125728517770753 -0.24607171863317487 -0.26650956273078913
decision_type=2 2 2 2 2 2 2 2 2 2 2 2 2 2 2 2 2 2 2 2 2 2 2 2 2 2 2 2 2 2 2 2 2 2
left_child=2 8 3 7 5 16 -7 12 -2 10 -8 -12 13 -1 -14 18 17 -5 19 -16 -11 -4 23 24 25 26 -3 28 29 30 31 32 33 -28
right_child=1 22 21 4 -6 6 9 -9 -10 20 11 -13 14 -15 15 -17 -18 -19 -20 -21 -22 -23 -24 -25 -26 -27 27 -29 -30 -31 -32 -33 -34 -35
leaf_value=-0.028150471150777342 -0.042920315750996356 -0.05581865663043193 -0.055858598223800751 -0.032932606609832257 0.057437756597450151 -0.062963485608642719 0.041919603725604625 -0.014507489832298274 0.028177665732526953 -0.06058664625777143 -0.054228480981268423 0.016647098082515053 0.078343459701393225 0.058695328660818537 0.034430633402895781 0.070991257852191667 0.046068935744406757 0.034466288303405215 0.043793143422044177 -0.035402998622803543 -0.0094088480423344702 -0.00028258931210142687 -0.031081176657142714 -0.05790573902171875 -0.056168539778198523 -0.055920330382565026 -0.055746640076218656 -0.055735694868021261 -0.055741509972913578 -0.055744493350405745 -0.055745780880850596 -0.055746544242253164 -0.055746648353694063 -0.05574664306481867
leaf_weight=6.0633243545889854 3.1707938089966774 2.1468296647071972 3.2569000944495201 4.1876287907361966 6.4332090914249411 4.606615185737609 4.9875359684228897 5.1022494509816161 4.3825885206460944 4.0647058263421094 3.2627537772059432 4.3531684949994096 6.5528979301452663 4.5719009488821012 6.6605391129851368 5.2669702917337409 7.2345029711723319 4.1063774228096008 8.4907518029212934 4.2909168973565128 4.0885368958115578 2.7935645431280127 1.9493883028626466 2.4719372391700736 2.0477236434817305 1.8907107561826695 1.9416276514530268 1.9386856853961933 1.8478556871414067 1.9410501495003707 1.8489491343498237 1.849144473671912 2.1265466287732133 2.9586716964840889
leaf_count=34 27 23 23 24 28 30 24 28 20 31 21 21 27 20 29 22 34 19 37 22 22 19 19 21 21 20 21 21 20 21 20 20 23 32
internal_value=0 -0.0427105 0.0140842 0.0169248 0.00499191 -0.00325901 -0.0185376 0.0289403 -0.00166817 -0.00867799 0.00830002 -0.0137169 0.0342314 0.00918305 0.0427527 0.033314 0.0216961 0.000436708 0.023107 0.00706895 -0.034923 -0.0301986 -0.0542097 -0.0560124 -0.0558048 -0.0557684 -0.055753 -0.0557444 -0.0557456 -0.0557462 -0.0557465 -0.0557466 -0.0557466 -0.0557466
internal_weight=0 34.5125 100.375 94.3246 47.325 40.8918 25.3633 46.9996 7.55338 20.7567 12.6035 7.61592 41.8973 10.6352 31.2621 24.7092 15.5285 8.29401 19.4422 10.9515 8.15324 6.05046 26.9591 25.0097 22.5378 20.4901 18.5994 16.4525 14.5138 12.666 10.7249 8.87599 7.02685 4.9003
internal_count=844 329 515 473 254 226 149 219 47 119 66 42 191 54 137 110 77 43 88 51 53 42 282 263 242 221 201 178 157 137 116 96 76 53
is_linear=0
shrinkage=0.05


Tree=19
num_leaves=34
num_cat=0
split_feature=14 17 12 8 2 15 13 7 9 11 10 11 0 8 0 13 7 13 12 6 8 2 6 13 0 18 7 17 6 18 0 16 11
split_gain=30.8044 6.46782 4.70472 4.01755 3.23715 8.6718 7.54296 6.10739 5.93695 6.06698 5.69522 5.30129 3.63698 5.17757 4.99011 3.46094 3.01109 2.82853 2.29811 2.09628 1.16053 0.921157 0.000305476 0.000101494 1.65901e-05 2.4331e-06 5.99014e-08 1.01556e-08 3.82524e-10 2.01922e-10 5.34506e-12 1.36069e-12 4.44089e-15
threshold=1.0000000180025095e-35 0.92550462484359752 1.6382975578308108 -1.6651827692985532 -0.38637383282184595 0.2896858304738999 0.425558552145958 -0.061605073511600487 1.4844323992729189 0.38325840234756475 -0.0081683662720024568 -1.0349113941192625 -0.34681196510791773 0.85443541407585155 -0.030851921066641804 -0.2945664227008819 -0.52381578087806691 -0.56308254599571217 -1.4492697715759275 -0.085893232375383363 -1.6651827692985532 -0.12488859891891478 -0.098139856010675416 -0.073744706809520708 -0.062051486223936074 0.55269786715507518 0.45204384624958044 0.21118227392435077 -0.10180917009711264 0.26666520535945898 -0.068287704139947877 -0.41813611984252924 1.9685984849929812
decision_type=2 2 2 2 2 2 2 2 2 2 2 2 2 2 2 2 2 2 2 2 2 2 2 2 2 2 2 2 2 2 2 2 2
left_child=2 20 3 -1 5 7 8 11 9 10 18 -5 -13 15 -15 17 -16 -14 -6 21 -2 -11 23 24 25 26 27 28 29 30 31 32 -22
right_child=1 -3 -4 4 6 -7 -8 -9 -10 19 -12 12 13 14 16 -17 -18 -19 -20 -21 22 -23 -24 -25 -26 -27 -28 -29 -30 -31 -32 -33 -34
leaf_value=-0.032672538940037472 -0.030277790382107535 0.014658022992107243 -0.043239024905122131 -0.02896364563144679 0.00485110656514922 -0.042641586350528442 0.074426652054189829 -0.046913545906557559 -0.035710096573571985 0.017807965488425739 -0.036359323048913636 0.067889399190757857 0.051238207648738966 -0.043665649446336156 0.045695407870825974 0.070183189628221815 -0.0072362598019402348 -0.0017782527154757092 0.055496879749959128 0.074382149066325176 -0.055435053677198434 0.050145736859247086 -0.056144003451705199 -0.055831832820250983 -0.055598454507366016 -0.055494796860789335 -0.055424515617301141 -0.05543074200516418 -0.055434134178141151 -0.055434453597423744 -0.055434941011477223 -0.055435001072885785 -0.055435050529179054
leaf_weight=4.1356934383511534 5.6454555839300182 4.3669097051024428 3.5295481383800498 4.4214591309428206 4.8542084917426083 6.9281671643257132 7.2697726637125006 3.4028342068195334 4.4270303398370734 4.2016404420137397 5.4954681098461178 5.1635171771049455 4.809581816196439 4.3596695661544791 5.4818947315216056 6.5508969351649382 5.2694423347711554 5.2751940637826928 4.1589449569582948 5.3663158267736426 2.5645007044076964 4.6276495084166518 1.9408045783638943 1.9593043774366368 1.8086480274796475 1.7836181223392475 1.7658587470650662 1.7674908414483059 1.8567998036742253 1.9453107640147216 1.7685922309756277 1.7686074376106269 2.3876380175352097
leaf_count=28 38 31 32 30 26 39 32 20 21 20 36 23 20 21 24 30 26 24 19 23 29 21 20 21 20 20 20 20 21 22 20 20 27
internal_value=0 -0.0420659 0.013457 0.0155372 0.0177029 0.00941172 0.0283052 0.0174734 0.018185 0.0264972 0.00375951 0.0227744 0.028972 0.0226422 0.0014558 0.0418869 0.0197526 0.0235061 0.0282206 0.0497364 -0.0506186 0.034757 -0.0555434 -0.0554889 -0.0554542 -0.0554394 -0.0554332 -0.0554343 -0.0554348 -0.0554349 -0.055435 -0.055435 -0.0554351
internal_weight=0 33.3295 99.7289 96.1994 92.0637 51.6627 40.401 44.7345 33.1313 28.7042 14.5086 41.3317 36.9102 31.7467 15.111 16.6357 10.7513 10.0848 9.01315 14.1956 28.9626 8.82929 23.3172 21.3764 19.4171 17.6084 15.8248 14.0589 12.2914 10.4346 8.48934 6.72075 4.95214
internal_count=844 329 515 483 455 257 198 218 166 145 81 198 168 145 71 74 50 44 45 64 298 41 260 240 219 199 179 159 139 118 96 76 56
is_linear=0
shrinkage=0.05


Tree=20
num_leaves=34
num_cat=0
split_feature=14 7 17 12 8 8 8 8 8 6 10 7 13 9 2 16 8 13 6 7 7 7 6 17 17 15 0 3 13 6 11 0 7
split_gain=28.5989 6.42466 7.54888 4.33373 3.66184 3.0153 7.29705 7.69867 5.71391 3.96544 5.02543 3.13058 7.33772 3.89085 2.65589 3.54868 3.8975 7.37245 2.89821 2.43383 2.18779 0.595107 0.381283 0.00393396 0.00129146 2.71077e-05 4.45754e-06 9.96008e-07 2.99007e-08 2.92117e-09 1.8168e-10 8.72191e-13 1.33227e-14
threshold=1.0000000180025095e-35 1.2512440085411074 0.83406326174736034 1.6382975578308108 -1.6651827692985532 1.7274647951126101 1.4578723907470705 1.3562791943550112 1.3118212819099428 -0.11339201033115386 0.9778161644935609 -0.12851750850677487 0.04854406230151654 -0.11214040964841841 0.5998629927635194 -0.56773748993873585 0.23890404403209689 -0.22265595942735669 -0.097917340695857988 -0.72363612055778492 1.0918307900428774 -0.85673686861991871 -0.097424969077110277 1.0021950006484988 -0.77748388051986683 0.089059654623270049 -0.063767548650503145 0.86156803369522106 -0.19048395007848737 -0.10158626362681387 2.6247564554214482 -0.074820563197135911 -0.57440993189811695
decision_type=2 2 2 2 2 2 2 2 2 2 2 2 2 2 2 2 2 2 2 2 2 2 2 2 2 2 2 2 2 2 2 2 2
left_child=3 22 -3 4 -1 6 7 8 9 10 -6 14 13 -13 15 19 18 -18 -17 -11 -15 -19 23 24 -2 26 27 28 29 30 31 -26 -33
right_child=1 2 -4 -5 5 -7 -8 -9 -10 11 -12 12 -14 20 -16 16 17 21 -20 -21 -22 -23 -24 -25 25 -27 -28 -29 -30 -31 -32 32 -34
leaf_value=-0.031599620052869586 -0.056539628184521996 -0.035413583094771439 0.071322656847977672 -0.042462017792307162 0.013601552202760639 -0.021864825013128739 0.068487098240481423 -0.046922441152557545 0.065439773949529337 0.022732019728299267 -0.064672976830152648 0.022758234337066526 0.051051939256690985 -0.060050904610640776 0.054947642077868133 -0.045926992006621196 -0.014409198962750681 0.040253803889531502 0.011696247419015079 0.068256851266948138 -0.0074384228925875239 0.065592288797621287 -0.032059680324362468 -0.057495452933729596 -0.055142000709234529 -0.055360703703303385 -0.055226335515532056 -0.055180753421530795 -0.055135912889885119 -0.0551396143984281 -0.05514140117819713 -0.055141963592091406 -0.055141958106889037
leaf_weight=4.0641591623425475 1.9066740944981635 5.1608846858143798 2.4395759850740433 3.4172951877117148 5.2170137837529094 4.7552385181188574 6.8671667873859397 4.7550022825598708 6.0108884871006003 6.4458131119608879 3.3784756511449814 3.608152464032174 5.109513320028781 5.0442975312471532 6.7940678745508185 4.3038975447416306 6.9087933450937209 4.3462345749139715 4.4262148886919039 5.391488865017882 3.2483135312795639 4.9637369662523412 1.8746282979846025 2.2665279656648627 1.8602007776498855 1.7481239438056935 1.8840354979038192 1.7009697705507267 3.2099717184901246 1.7749737948179234 1.7754772678017614 1.7756353169679702 2.8748358860611862
leaf_count=28 21 37 14 32 28 24 30 27 26 29 22 18 24 39 30 24 31 19 20 23 19 22 18 20 22 20 22 20 38 21 21 21 34
internal_value=0 -0.0413438 -0.00115366 0.0128648 0.0148417 0.0169029 0.0190262 0.014778 0.0186795 0.014617 -0.0171644 0.0191256 0.00093407 -0.0205837 0.0262261 0.0209215 0.0102245 0.0247235 -0.0167117 0.043467 -0.039442 0.0537634 -0.0537348 -0.0555187 -0.0553003 -0.0551733 -0.0551539 -0.0551447 -0.0551401 -0.0551415 -0.0551418 -0.055142 -0.055142
internal_weight=0 32.2525 7.60046 99.0558 95.6385 91.5743 86.8191 79.9519 75.1969 69.186 8.59549 60.5905 17.0103 11.9008 43.5802 36.7862 24.9489 16.2188 8.73011 11.8373 8.29261 9.30997 24.6521 22.7774 20.5109 18.6042 16.8561 14.9721 13.2711 10.0611 8.28615 6.51067 4.65047
internal_count=844 329 51 515 483 455 431 401 374 348 50 298 100 76 198 168 116 72 44 52 58 41 278 260 240 219 199 177 157 119 98 77 55
is_linear=0
shrinkage=0.05


end of trees

feature_importances:
interarrival_mean_s=101
hod_cos=75
hod_sin=60
volume=52
vol20=46
ret=45
close=42
sell_volume=41
buy_volume=39
low=28
trades=21
dollar=20
open=17
buy_ratio=16
signed_volume=16
high=14
sell_ratio=9
logret=3
ofi_norm=2

parameters:
[boosting: gbdt]
[objective: binary]
[metric: binary_logloss,auc]
[tree_learner: serial]
[device_type: cpu]
[data_sample_strategy: bagging]
[data: ]
[valid: ]
[num_iterations: 500]
[learning_rate: 0.05]
[num_leaves: 63]
[num_threads: 0]
[seed: 0]
[deterministic: 0]
[force_col_wise: 0]
[force_row_wise: 0]
[histogram_pool_size: -1]
[max_depth: -1]
[min_data_in_leaf: 20]
[min_sum_hessian_in_leaf: 0.001]
[bagging_fraction: 1]
[pos_bagging_fraction: 1]
[neg_bagging_fraction: 1]
[bagging_freq: 0]
[bagging_seed: 3]
[feature_fraction: 1]
[feature_fraction_bynode: 1]
[feature_fraction_seed: 2]
[extra_trees: 0]
[extra_seed: 6]
[early_stopping_round: 0]
[early_stopping_min_delta: 0]
[first_metric_only: 0]
[max_delta_step: 0]
[lambda_l1: 0]
[lambda_l2: 0]
[linear_lambda: 0]
[min_gain_to_split: 0]
[drop_rate: 0.1]
[max_drop: 50]
[skip_drop: 0.5]
[xgboost_dart_mode: 0]
[uniform_drop: 0]
[drop_seed: 4]
[top_rate: 0.2]
[other_rate: 0.1]
[min_data_per_group: 100]
[max_cat_threshold: 32]
[cat_l2: 10]
[cat_smooth: 10]
[max_cat_to_onehot: 4]
[top_k: 20]
[monotone_constraints: ]
[monotone_constraints_method: basic]
[monotone_penalty: 0]
[feature_contri: ]
[forcedsplits_filename: ]
[refit_decay_rate: 0.9]
[cegb_tradeoff: 1]
[cegb_penalty_split: 0]
[cegb_penalty_feature_lazy: ]
[cegb_penalty_feature_coupled: ]
[path_smooth: 0]
[interaction_constraints: ]
[verbosity: -1]
[saved_feature_importance_type: 0]
[use_quantized_grad: 0]
[num_grad_quant_bins: 4]
[quant_train_renew_leaf: 0]
[stochastic_rounding: 1]
[linear_tree: 0]
[max_bin: 255]
[max_bin_by_feature: ]
[min_data_in_bin: 3]
[bin_construct_sample_cnt: 200000]
[data_random_seed: 1]
[is_enable_sparse: 1]
[enable_bundle: 1]
[use_missing: 1]
[zero_as_missing: 0]
[feature_pre_filter: 0]
[pre_partition: 0]
[two_round: 0]
[header: 0]
[label_column: ]
[weight_column: ]
[group_column: ]
[ignore_column: ]
[categorical_feature: ]
[forcedbins_filename: ]
[precise_float_parser: 0]
[parser_config_file: ]
[objective_seed: 5]
[num_class: 1]
[is_unbalance: 0]
[scale_pos_weight: 1]
[sigmoid: 1]
[boost_from_average: 1]
[reg_sqrt: 0]
[alpha: 0.9]
[fair_c: 1]
[poisson_max_delta_step: 0.7]
[tweedie_variance_power: 1.5]
[lambdarank_truncation_level: 30]
[lambdarank_norm: 1]
[label_gain: ]
[lambdarank_position_bias_regularization: 0]
[eval_at: ]
[multi_error_top_k: 1]
[auc_mu_weights: ]
[num_machines: 1]
[local_listen_port: 12400]
[time_out: 120]
[machine_list_filename: ]
[machines: ]
[gpu_platform_id: -1]
[gpu_device_id: -1]
[gpu_use_dp: 0]
[num_gpu: 1]

end of parameters

pandas_categorical:[]
